<?xml version="1.0"?>
<opencv_storage>
<opencv_ml_svm>
  <format>3</format>
  <svmType>C_SVC</svmType>
  <kernel>
    <type>LINEAR</type></kernel>
  <C>1.</C>
  <term_criteria><iterations>100</iterations></term_criteria>
  <var_count>2</var_count>
  <class_count>2</class_count>
  <class_labels type_id="opencv-matrix">
    <rows>2</rows>
    <cols>1</cols>
    <dt>i</dt>
    <data>
      -1082130432 1065353216</data></class_labels>
  <sv_total>1</sv_total>
  <support_vectors>
    <_>
      -2.26525981e-02 1.88888032e-02</_></support_vectors>
  <uncompressed_sv_total>12</uncompressed_sv_total>
  <uncompressed_support_vectors>
    <_>
      -8.68824539e+01 3.15792023e+02</_>
    <_>
      -4.38312912e+01 2.22557831e+02</_>
    <_>
      -7.81840134e+01 3.15748505e+02</_>
    <_>
      -8.19047470e+01 3.15950867e+02</_>
    <_>
      -4.53051567e+01 2.49307770e+02</_>
    <_>
      -7.03654938e+01 3.12933014e+02</_>
    <_>
      -8.36301422e+01 3.15939545e+02</_>
    <_>
      -8.75707855e+01 3.15740875e+02</_>
    <_>
      -8.26692657e+01 3.15914795e+02</_>
    <_>
      -7.16362457e+01 3.12812347e+02</_>
    <_>
      -7.29330139e+01 3.14871735e+02</_>
    <_>
      -8.75707855e+01 3.15740875e+02</_></uncompressed_support_vectors>
  <decision_functions>
    <_>
      <sv_count>1</sv_count>
      <rho>7.3880625703552072e+00</rho>
      <alpha>
        1.</alpha>
      <index>
        0</index></_></decision_functions></opencv_ml_svm>
</opencv_storage>
