<?xml version="1.0"?>
<opencv_storage>
<opencv_ml_svm>
  <format>3</format>
  <svmType>C_SVC</svmType>
  <kernel>
    <type>LINEAR</type></kernel>
  <C>1.</C>
  <term_criteria><iterations>100</iterations></term_criteria>
  <var_count>136</var_count>
  <class_count>3</class_count>
  <class_labels type_id="opencv-matrix">
    <rows>3</rows>
    <cols>1</cols>
    <dt>i</dt>
    <data>
      -1082130432 0 1065353216</data></class_labels>
  <sv_total>3</sv_total>
  <support_vectors>
    <_>
      0. 0. 9.00952320e-04 -1.94149662e-03 -2.34167022e-03
      -4.94191842e-03 -5.16125467e-03 -3.17393849e-03 -8.45418312e-03
      -2.13590241e-03 -8.22225679e-03 -7.90740270e-03 -4.08044783e-03
      -1.52428253e-02 -3.58237932e-03 -5.93878096e-03 -5.24095865e-03
      -2.00030045e-03 -1.22221680e-02 -1.21716168e-02 -8.48697871e-03
      -1.78586338e-02 -2.23099487e-03 -1.10149197e-02 4.09850059e-03
      -1.04147783e-02 -3.79240699e-03 -9.06283408e-03 -4.84915311e-03
      -1.25735123e-02 -2.89334054e-03 -4.73973621e-03 1.19263458e-03
      -5.22237446e-04 -4.03827144e-04 1.42264767e-02 -1.65234273e-03
      4.70543653e-03 -1.15755092e-05 -2.16048560e-03 3.12879751e-03
      -1.12992702e-02 1.75777159e-03 -5.37609542e-03 7.44845998e-03
      4.39961499e-04 7.48643233e-03 -2.89793964e-03 6.27423823e-03
      -7.37711496e-04 3.29535035e-03 7.04997499e-03 2.17777793e-03
      1.23118907e-02 2.39481847e-03 2.70568975e-03 2.57394905e-03
      6.85901102e-03 4.09733364e-03 1.20600658e-02 6.07753964e-03
      1.44097721e-02 4.38154861e-03 2.66450946e-03 2.54620099e-03
      2.21147598e-03 5.38832915e-04 5.79011627e-03 1.27123494e-03
      1.31912166e-04 6.50361995e-04 -3.64915584e-04 1.47745828e-03
      -4.98835603e-03 2.16799718e-03 -3.99056543e-03 -1.34984776e-03
      -4.43796208e-03 -6.15784805e-03 -7.38393748e-03 8.54540674e-04
      -7.21014896e-03 3.57776810e-03 -8.54938384e-03 1.08631738e-02
      -7.83001166e-03 1.08674010e-02 -2.32817279e-03 6.44380786e-03
      2.14760029e-03 3.24936444e-03 -1.16425590e-03 6.70485757e-03
      -6.60977140e-03 1.03851119e-02 -6.91903476e-03 1.16244824e-04
      2.61644879e-03 -4.63544950e-03 -2.45835795e-03 -4.63687815e-03
      -6.89829513e-03 -1.75092381e-03 -6.64636958e-03 2.57809251e-03
      -9.97626595e-03 1.08605425e-03 -5.50579093e-03 -1.23749133e-02
      1.80194015e-03 -1.29114650e-03 -3.95221217e-03 1.61083776e-03
      -1.21948391e-03 -1.72159635e-03 1.00404420e-03 -5.50721586e-03
      -6.45686814e-04 -4.87652887e-03 2.48934771e-03 -1.62145018e-03
      7.77039386e-04 -4.29443270e-03 -3.54283839e-03 -2.82781245e-03
      -5.47191873e-03 2.36460543e-03 -4.83276229e-03 -1.06251473e-02
      3.97303700e-03 1.04461459e-03 -8.09549761e-04 -2.90208613e-03
      -1.59869390e-03 -4.01836773e-03 -1.24603102e-03</_>
    <_>
      -1.06045548e-02 0. -3.90358716e-02 -1.08652823e-01 -7.87601471e-02
      -1.39847487e-01 -1.30373389e-01 -1.13374963e-01 -1.86914206e-01
      -1.32523552e-01 -1.52605593e-01 -9.63008553e-02 -1.51990518e-01
      -7.32766241e-02 -5.08230813e-02 9.52827260e-02 5.15139364e-02
      -3.84242535e-02 1.89377025e-01 -1.16072185e-01 1.55052260e-01
      -4.29338932e-01 1.46103621e-01 -4.57003325e-01 1.90932304e-01
      -3.84560376e-01 1.11035015e-02 -2.85441756e-01 -6.97557777e-02
      -1.87068656e-01 -5.56302145e-02 -3.96871381e-02 -3.09652407e-02
      9.46239531e-02 4.53159846e-02 3.88512909e-01 -2.08190545e-01
      7.58167580e-02 -2.92669088e-01 -4.50741172e-01 -2.79619336e-01
      -7.73885548e-01 -4.03283000e-01 -5.97138584e-01 2.98902601e-01
      -5.69434941e-01 1.28282994e-01 -7.30304956e-01 9.98792648e-02
      -4.02751267e-01 4.71646264e-02 1.10635033e-03 -1.99507475e-01
      2.35834658e-01 -5.19783869e-02 -1.30164064e-02 -6.64258376e-02
      1.91287711e-01 -9.29306522e-02 4.61506903e-01 -8.03437307e-02
      5.64552665e-01 1.81803659e-01 2.28184700e-01 5.69410063e-02
      2.28328705e-01 -3.86377685e-02 2.62511015e-01 -1.50819242e-01
      1.20417021e-01 -2.64425218e-01 9.00025219e-02 1.95160806e-01
      2.54303277e-01 1.02384187e-01 2.52577037e-01 1.86393678e-01
      2.99901813e-01 1.84953332e-01 2.29735091e-01 1.06919959e-01
      3.83514583e-01 7.38378614e-02 3.24989289e-01 -1.92637965e-01
      1.36692360e-01 -2.53073633e-01 2.23482236e-01 -2.19110519e-01
      1.24676555e-01 -2.67915189e-01 1.07912213e-01 -2.10943386e-01
      1.68415800e-01 -2.25845546e-01 2.30333835e-01 -4.91890222e-01
      1.83264837e-01 -3.74836415e-01 1.62111342e-01 -1.94373205e-01
      1.30924568e-01 8.62927176e-03 3.75857204e-02 1.44511268e-01
      -3.30727249e-02 2.94139177e-01 -1.74716085e-01 2.88155228e-01
      -3.72505069e-01 3.36138427e-01 -3.99130397e-02 2.61544913e-01
      2.42113531e-01 1.00992545e-01 3.77383202e-01 -1.00646049e-01
      4.56766844e-01 -3.41684848e-01 4.48728144e-01 -5.03450036e-01
      3.44185144e-01 -1.57483488e-01 2.32309803e-01 4.29843366e-02
      9.65435430e-02 1.89050794e-01 -1.06765656e-02 3.26722980e-01
      -1.38518065e-01 2.20581561e-01 2.17222556e-01 7.04608932e-02
      3.08553249e-01 -1.11937948e-01 4.21466410e-01</_>
    <_>
      0. 0. 1.13368861e-03 5.93980541e-03 5.21776592e-03 1.01595167e-02
      9.28780716e-03 9.87276156e-03 1.07865771e-02 1.20514277e-02
      1.13480482e-02 1.97583698e-02 8.32745712e-03 2.16260441e-02
      8.93757585e-03 1.07687134e-02 1.66046508e-02 -2.22044605e-16
      2.79405545e-02 1.13013750e-02 2.16775499e-02 1.71283893e-02
      1.06538599e-02 9.77418479e-03 2.11137603e-03 7.58287823e-03
      6.30888576e-03 7.29205040e-03 6.71101874e-03 9.57203750e-03
      1.53315137e-03 1.10491412e-03 -5.23934094e-03 -1.73494488e-03
      -1.41012075e-03 6.50730869e-03 -5.91134420e-03 4.80215531e-03
      -1.25999181e-02 -1.65025739e-03 -1.50942467e-02 -2.41958466e-03
      -1.77912489e-02 -5.49668074e-03 -1.55147375e-03 -1.36653464e-02
      -2.61335610e-03 -1.55069064e-02 -2.51896493e-03 -8.46275408e-03
      -3.02705774e-03 -5.25574945e-03 -6.96376758e-03 -1.57497020e-03
      -5.55637712e-03 -2.20890604e-02 -4.31004912e-03 -2.70296093e-02
      -5.74395526e-03 -3.06310263e-02 -6.52285665e-03 -3.38175856e-02
      -2.38331687e-03 -1.30543485e-02 -1.91762578e-03 -1.50113031e-02
      -5.63372101e-04 -1.95113569e-02 -2.13048491e-03 -1.38524584e-02
      -2.57106964e-03 -1.18007353e-02 -1.48186041e-03 8.68047774e-03
      -5.46059618e-03 6.51332084e-03 1.28959349e-04 2.41841259e-03
      6.93381205e-03 -2.10666959e-03 1.02310162e-03 8.83294456e-03
      -2.72179162e-03 1.47089195e-02 -1.43943438e-02 -2.95354705e-03
      -1.22258756e-02 -4.91350517e-03 -7.26876501e-03 -6.49889978e-03
      -4.16832836e-03 -4.21517948e-03 -8.50205775e-03 3.26482416e-03
      -1.22364704e-02 2.57719937e-03 -3.44476476e-03 2.69583110e-02
      -2.11527734e-03 1.78910308e-02 1.06402521e-03 9.42120049e-03
      3.42397310e-04 1.26262894e-02 1.46439916e-03 1.18836109e-02
      5.69484523e-03 1.99381113e-02 1.44113535e-02 2.48206127e-02
      8.36651213e-03 2.39946805e-02 4.45889076e-03 1.31326737e-02
      4.21992783e-03 1.06253978e-02 3.69842537e-03 1.30806798e-02
      3.49879207e-04 1.70035679e-02 -4.06113872e-03 2.80227661e-02
      1.40026188e-03 2.17820480e-02 3.16461083e-03 2.30202191e-02
      3.43729299e-03 2.00056434e-02 1.44472122e-02 2.37696152e-02
      4.00763284e-03 3.39098531e-03 4.11676755e-03 2.97961663e-03
      2.15914124e-03 3.85802472e-03</_></support_vectors>
  <uncompressed_sv_total>181</uncompressed_sv_total>
  <uncompressed_support_vectors>
    <_>
      0. 0. 1.62866444e-03 1.65577337e-01 2.11726390e-02 3.28976035e-01
      5.53745925e-02 4.92374718e-01 1.07491858e-01 6.44880176e-01
      1.92182407e-01 7.79956400e-01 2.98045605e-01 8.86710227e-01
      4.10423458e-01 9.78213489e-01 5.37459254e-01 1. 6.66123807e-01
      9.60784316e-01 7.67100990e-01 8.62745106e-01 8.63192201e-01
      7.53812611e-01 9.41368103e-01 6.12200439e-01 9.80456054e-01
      4.53159034e-01 9.96742666e-01 2.78867096e-01 1. 1.08932465e-01
      9.95114028e-01 -6.10021800e-02 9.44625437e-02 -6.10021800e-02
      1.67752445e-01 -1.37254909e-01 2.62214988e-01 -1.54684097e-01
      3.56677532e-01 -1.22004360e-01 4.46254075e-01 -7.40740746e-02
      5.58631897e-01 -8.49673226e-02 6.44951165e-01 -1.41612202e-01
      7.36156344e-01 -1.87363833e-01 8.32247555e-01 -1.87363833e-01
      9.05537486e-01 -1.22004360e-01 5.09772003e-01 0. 5.14657974e-01
      1.02396511e-01 5.19543946e-01 2.02614382e-01 5.24429977e-01
      3.09368193e-01 4.26710099e-01 3.79084975e-01 4.73941356e-01
      4.05228764e-01 5.26058614e-01 4.24836606e-01 5.74918568e-01
      4.00871456e-01 6.18892491e-01 3.70370358e-01 2.06840396e-01
      1.52505450e-02 2.63843656e-01 -1.30718956e-02 3.22475582e-01
      -1.52505450e-02 3.82736146e-01 1.74291935e-02 3.22475582e-01
      2.39651408e-02 2.63843656e-01 2.61437912e-02 6.36807799e-01
      2.17864919e-03 6.95439756e-01 -3.92156877e-02 7.52443016e-01
      -4.79302816e-02 8.11074913e-01 -2.61437912e-02 7.58957684e-01
      -6.53594779e-03 6.98697090e-01 -2.17864919e-03 3.59934866e-01
      5.83877981e-01 4.10423458e-01 5.09803951e-01 4.67426717e-01
      4.83660132e-01 5.22801280e-01 5.03268003e-01 5.78175902e-01
      4.81481493e-01 6.38436496e-01 5.05446613e-01 6.90553725e-01
      5.66448808e-01 6.41693830e-01 6.40522897e-01 5.84690571e-01
      6.75381243e-01 5.27687311e-01 6.86274529e-01 4.69055384e-01
      6.79738581e-01 4.13680792e-01 6.47058845e-01 3.92508149e-01
      5.75163424e-01 4.67426717e-01 5.57734191e-01 5.24429977e-01
      5.64270139e-01 5.79804540e-01 5.53376913e-01 6.59609139e-01
      5.66448808e-01 5.79804540e-01 5.72984755e-01 5.26058614e-01
      5.86056650e-01 4.69055384e-01 5.77342033e-01</_>
    <_>
      0. 0. 0. 1.68478265e-01 1.24740126e-02 3.26086968e-01
      3.32640335e-02 4.78260875e-01 6.65280670e-02 6.27717376e-01
      1.33056134e-01 7.66304374e-01 2.22453222e-01 8.85869563e-01
      3.34719330e-01 9.75543499e-01 4.63617474e-01 1. 5.94594598e-01
      9.83695626e-01 7.11018682e-01 9.13043499e-01 8.17047834e-01
      8.04347813e-01 8.96049917e-01 6.71195626e-01 9.35550928e-01
      5.13586938e-01 9.62577939e-01 3.47826093e-01 9.85446990e-01
      1.82065219e-01 1. 8.15217383e-03 3.95010412e-02 -1.84782609e-01
      1.08108111e-01 -2.55434781e-01 2.01663196e-01 -2.60869563e-01
      2.95218289e-01 -2.44565219e-01 3.88773382e-01 -2.11956516e-01
      5.44698536e-01 -2.14673907e-01 6.50727630e-01 -2.44565219e-01
      7.56756783e-01 -2.60869563e-01 8.60706866e-01 -2.39130437e-01
      9.37629938e-01 -1.68478265e-01 4.69854474e-01 -9.23913047e-02
      4.69854474e-01 4.07608710e-02 4.69854474e-01 1.73913047e-01
      4.69854474e-01 3.09782594e-01 3.67983371e-01 3.96739125e-01
      4.17879432e-01 4.15760875e-01 4.69854474e-01 4.34782594e-01
      5.28066516e-01 4.18478251e-01 5.80041587e-01 3.96739125e-01
      1.26819134e-01 -6.25000000e-02 1.89189196e-01 -1.14130437e-01
      2.61954248e-01 -1.11413047e-01 3.30561340e-01 -4.61956523e-02
      2.61954248e-01 -3.26086953e-02 1.89189196e-01 -2.98913047e-02
      6.15384638e-01 -4.61956523e-02 6.88149691e-01 -1.14130437e-01
      7.60914743e-01 -1.14130437e-01 8.21205795e-01 -6.25000000e-02
      7.65072763e-01 -2.98913047e-02 6.92307711e-01 -3.26086953e-02
      2.70270258e-01 6.11413062e-01 3.49272341e-01 5.62500000e-01
      4.17879432e-01 5.38043499e-01 4.71933484e-01 5.59782624e-01
      5.28066516e-01 5.40760875e-01 6.00831628e-01 5.67934811e-01
      6.88149691e-01 6.14130437e-01 6.00831628e-01 6.60326064e-01
      5.28066516e-01 6.79347813e-01 4.67775464e-01 6.82065189e-01
      4.09563422e-01 6.76630437e-01 3.43035340e-01 6.60326064e-01
      2.97297299e-01 6.05978251e-01 4.15800422e-01 5.84239125e-01
      4.71933484e-01 6.00543499e-01 5.28066516e-01 5.89673936e-01
      6.52806640e-01 6.11413062e-01 5.25987506e-01 5.89673936e-01
      4.67775464e-01 5.95108688e-01 4.11642402e-01 5.86956501e-01</_>
    <_>
      0. 0. 1.03734443e-02 1.78082198e-01 2.69709546e-02 3.42465758e-01
      5.60165979e-02 5.04109561e-01 1.05809130e-01 6.57534242e-01
      1.82572618e-01 7.89041102e-01 2.75933623e-01 9.04109597e-01
      3.90041500e-01 9.83561635e-01 5.16597509e-01 1. 6.39004171e-01
      9.78082180e-01 7.51037359e-01 8.98630142e-01 8.44398320e-01
      7.78082192e-01 9.17012453e-01 6.35616422e-01 9.54356849e-01
      4.71232891e-01 9.75103736e-01 2.98630148e-01 9.93775904e-01
      1.20547943e-01 1. -6.57534227e-02 4.77178432e-02 -1.67123288e-01
      1.09958507e-01 -2.52054781e-01 2.05394194e-01 -2.71232873e-01
      3.04979265e-01 -2.60273963e-01 4.00414944e-01 -2.32876718e-01
      5.41493773e-01 -2.46575341e-01 6.45228207e-01 -2.82191783e-01
      7.51037359e-01 -3.01369876e-01 8.52697074e-01 -2.76712328e-01
      9.25311208e-01 -1.94520548e-01 4.73029047e-01 -1.26027390e-01
      4.77178425e-01 5.47945220e-03 4.83402491e-01 1.34246573e-01
      4.89626557e-01 2.68493146e-01 3.85892123e-01 3.61643821e-01
      4.37759340e-01 3.80821913e-01 4.95850623e-01 3.97260278e-01
      5.53941905e-01 3.72602731e-01 6.05809152e-01 3.45205486e-01
      1.39004156e-01 -6.57534227e-02 2.01244816e-01 -1.09589040e-01
      2.67634869e-01 -1.15068495e-01 3.38174284e-01 -7.39726052e-02
      2.71784246e-01 -6.30136952e-02 2.05394194e-01 -5.20547964e-02
      6.20331943e-01 -8.76712352e-02 6.95020735e-01 -1.36986300e-01
      7.61410773e-01 -1.36986300e-01 8.23651433e-01 -9.86301377e-02
      7.63485491e-01 -7.94520527e-02 6.99170113e-01 -8.49315077e-02
      3.19502085e-01 6.00000024e-01 3.92116189e-01 5.56164384e-01
      4.58506227e-01 5.34246564e-01 5.06224096e-01 5.45205474e-01
      5.49792528e-01 5.28767109e-01 6.26556039e-01 5.39726019e-01
      7.13692963e-01 5.75342476e-01 6.34854794e-01 6.27397239e-01
      5.60166001e-01 6.52054787e-01 5.10373473e-01 6.57534242e-01
      4.62655604e-01 6.57534242e-01 3.92116189e-01 6.41095877e-01
      3.48547727e-01 5.89041114e-01 4.58506227e-01 5.72602749e-01
      5.06224096e-01 5.80821931e-01 5.53941905e-01 5.69863021e-01
      6.82572603e-01 5.67123294e-01 5.53941905e-01 5.67123294e-01
      5.06224096e-01 5.78082204e-01 4.58506227e-01 5.72602749e-01</_>
    <_>
      0. 0. 1.48423007e-02 1.78378373e-01 3.89610380e-02 3.54054064e-01
      7.42115006e-02 5.24324298e-01 1.20593689e-01 6.86486483e-01
      1.94805190e-01 8.21621597e-01 2.98701286e-01 9.27027047e-01
      4.15584415e-01 9.91891921e-01 5.39888680e-01 1. 6.60482347e-01
      9.75675702e-01 7.66233742e-01 8.94594610e-01 8.57142866e-01
      7.81081080e-01 9.18367326e-01 6.29729748e-01 9.49907243e-01
      4.59459454e-01 9.72170711e-01 2.91891903e-01 9.90723550e-01
      1.21621624e-01 1. -5.13513498e-02 1.11317255e-01 -6.21621609e-02
      1.91094622e-01 -1.35135129e-01 2.89424866e-01 -1.51351348e-01
      3.91465664e-01 -1.37837842e-01 4.97217059e-01 -1.16216213e-01
      5.82560301e-01 -1.16216213e-01 6.73469365e-01 -1.51351348e-01
      7.66233742e-01 -1.89189196e-01 8.58998120e-01 -1.94594592e-01
      9.29499090e-01 -1.24324322e-01 5.39888680e-01 -5.40540554e-03
      5.43599248e-01 8.10810775e-02 5.47309816e-01 1.64864868e-01
      5.52875698e-01 2.54054040e-01 4.52690154e-01 3.94594580e-01
      5.00927627e-01 3.97297293e-01 5.49165130e-01 4.00000006e-01
      5.95547318e-01 3.94594580e-01 6.38218939e-01 3.83783787e-01
      2.22634509e-01 1.35135138e-02 2.80148417e-01 -2.97297295e-02
      3.45083475e-01 -3.78378369e-02 4.00742114e-01 2.16216221e-02
      3.43228191e-01 4.86486480e-02 2.76437849e-01 5.13513498e-02
      6.58627093e-01 5.40540554e-03 7.14285731e-01 -6.21621609e-02
      7.79220760e-01 -6.75675645e-02 8.31168830e-01 -2.97297295e-02
      7.84786642e-01 1.62162166e-02 7.19851553e-01 2.16216221e-02
      3.72912794e-01 6.35135114e-01 4.47124302e-01 5.86486459e-01
      5.10204077e-01 5.62162161e-01 5.47309816e-01 5.75675666e-01
      5.78849733e-01 5.62162161e-01 6.40074193e-01 5.83783805e-01
      7.06864536e-01 6.27027035e-01 6.41929507e-01 6.72972977e-01
      5.82560301e-01 6.86486483e-01 5.47309816e-01 6.89189196e-01
      5.08348823e-01 6.89189196e-01 4.45269018e-01 6.78378403e-01
      4.00742114e-01 6.21621609e-01 5.10204077e-01 6.08108103e-01
      5.47309816e-01 6.18918896e-01 5.80704987e-01 6.08108103e-01
      6.80890560e-01 6.18918896e-01 5.80704987e-01 6.16216242e-01
      5.45454562e-01 6.24324322e-01 5.08348823e-01 6.16216242e-01</_>
    <_>
      0. 0. 1.76125243e-02 1.74731255e-01 5.08806258e-02 3.33333403e-01
      8.21917802e-02 4.91935521e-01 1.17416829e-01 6.47849500e-01
      1.76125243e-01 7.84946263e-01 2.68101752e-01 8.97849500e-01
      3.79647762e-01 9.73118305e-01 5.00978470e-01 1. 6.30136967e-01
      9.70430136e-01 7.41682947e-01 8.95161271e-01 8.39530349e-01
      7.87634432e-01 9.04109597e-01 6.47849500e-01 9.37377691e-01
      4.81182843e-01 9.64774966e-01 3.11828017e-01 9.92172182e-01
      1.39785022e-01 1. -3.76344062e-02 7.24070445e-02 -6.98924661e-02
      1.33072406e-01 -1.47849455e-01 2.23091975e-01 -1.74731165e-01
      3.17025453e-01 -1.63978487e-01 4.14872795e-01 -1.39784932e-01
      5.34246564e-01 -1.45161271e-01 6.34050906e-01 -1.85483858e-01
      7.33855188e-01 -2.12365568e-01 8.29745591e-01 -1.96236536e-01
      9.02152658e-01 -1.18279561e-01 4.81409013e-01 -5.10752648e-02
      4.83365953e-01 6.98924661e-02 4.85322893e-01 1.88172117e-01
      4.87279832e-01 3.11828017e-01 3.87475550e-01 3.87096822e-01
      4.38356161e-01 4.08602208e-01 4.93150681e-01 4.24731225e-01
      5.51859081e-01 4.03225869e-01 6.02739751e-01 3.73655975e-01
      1.74168304e-01 -2.68817181e-03 2.28962824e-01 -4.03225757e-02
      2.91585118e-01 -4.83870916e-02 3.52250487e-01 -5.37634362e-03
      2.91585118e-01 1.34408595e-02 2.30919763e-01 2.15053745e-02
      6.24266148e-01 -1.34408595e-02 6.84931517e-01 -6.18279502e-02
      7.47553825e-01 -6.45161271e-02 8.04305255e-01 -3.22580636e-02
      7.49510765e-01 0. 6.88845396e-01 0. 3.17025453e-01 6.34408653e-01
      3.79647762e-01 5.83333373e-01 4.40313101e-01 5.53763449e-01
      4.85322893e-01 5.67204356e-01 5.28375745e-01 5.51075280e-01
      6.00782752e-01 5.75268865e-01 6.79060638e-01 6.26344144e-01
      6.02739751e-01 6.61290348e-01 5.34246564e-01 6.61290348e-01
      4.89236802e-01 6.63978517e-01 4.44227010e-01 6.61290348e-01
      3.85518581e-01 6.58602178e-01 3.44422698e-01 6.23655915e-01
      4.42270070e-01 5.88709712e-01 4.87279832e-01 5.96774220e-01
      5.30332685e-01 5.88709712e-01 6.49706483e-01 6.18279576e-01
      5.30332685e-01 5.99462390e-01 4.87279832e-01 6.07526898e-01
      4.42270070e-01 6.02150559e-01</_>
    <_>
      0. 0. 1.77165363e-02 1.64864928e-01 5.11811040e-02 3.18918973e-01
      8.07086602e-02 4.81081128e-01 1.18110240e-01 6.37837887e-01
      1.83070868e-01 7.75675714e-01 2.79527545e-01 8.89189184e-01
      3.91732275e-01 9.78378356e-01 5.19685030e-01 1. 6.47637784e-01
      9.83783782e-01 7.57874012e-01 9.02702689e-01 8.52362216e-01
      7.81081080e-01 9.19291317e-01 6.35135174e-01 9.48818922e-01
      4.64864910e-01 9.70472455e-01 2.86486536e-01 9.92125988e-01
      1.10810883e-01 1. -6.48648590e-02 6.88976347e-02 -8.91891792e-02
      1.31889760e-01 -1.72972962e-01 2.26377949e-01 -2.18918905e-01
      3.28740150e-01 -2.16216192e-01 4.29133862e-01 -1.89189181e-01
      5.41338563e-01 -1.86486468e-01 6.41732275e-01 -2.32432410e-01
      7.44094491e-01 -2.48648629e-01 8.46456707e-01 -2.24324301e-01
      9.21259820e-01 -1.45945936e-01 4.88188982e-01 -7.29729682e-02
      4.90157485e-01 3.78378332e-02 4.90157485e-01 1.51351422e-01
      4.92125988e-01 2.72973031e-01 3.87795269e-01 3.37837905e-01
      4.40944880e-01 3.67567629e-01 5.00000000e-01 3.89189243e-01
      5.59055090e-01 3.64864916e-01 6.08267725e-01 3.35135192e-01
      1.73228353e-01 -4.05405387e-02 2.28346452e-01 -8.10810775e-02
      2.91338593e-01 -8.10810775e-02 3.52362216e-01 -4.05405387e-02
      2.93307096e-01 -2.97297277e-02 2.32283458e-01 -2.16216203e-02
      6.27952754e-01 -4.59459424e-02 6.83070838e-01 -9.72972885e-02
      7.48031497e-01 -1.05405398e-01 8.07086587e-01 -7.29729682e-02
      7.53937006e-01 -4.59459424e-02 6.90944910e-01 -4.32432406e-02
      3.26771647e-01 5.67567587e-01 3.85826766e-01 4.97297347e-01
      4.42913383e-01 4.75675732e-01 5.00000000e-01 4.97297347e-01
      5.55118084e-01 4.81081128e-01 6.22047246e-01 5.02702773e-01
      6.98818922e-01 5.64864874e-01 6.20078743e-01 6.02702737e-01
      5.57086587e-01 6.16216242e-01 5.00000000e-01 6.21621668e-01
      4.40944880e-01 6.10810816e-01 3.87795269e-01 5.89189231e-01
      3.56299222e-01 5.56756794e-01 4.40944880e-01 5.27027071e-01
      5.00000000e-01 5.40540576e-01 5.55118084e-01 5.32432497e-01
      6.65354311e-01 5.62162220e-01 5.55118084e-01 5.35135150e-01
      4.98031497e-01 5.40540576e-01 4.40944880e-01 5.24324358e-01</_>
    <_>
      0. 0. 7.85854645e-03 1.66204989e-01 1.96463652e-02 3.26869816e-01
      2.94695478e-02 4.84764546e-01 5.50098233e-02 6.45429373e-01
      1.10019647e-01 7.83933520e-01 2.06286833e-01 8.83656502e-01
      3.20235759e-01 9.61218834e-01 4.57760304e-01 1. 5.97249508e-01
      9.91689742e-01 7.22986221e-01 9.39058185e-01 8.34970534e-01
      8.44875336e-01 8.97838891e-01 7.11911380e-01 9.35167015e-01
      5.51246524e-01 9.60707247e-01 3.90581727e-01 9.86247540e-01
      2.27146819e-01 1. 4.98614945e-02 8.05500969e-02 -9.14127454e-02
      1.53241649e-01 -1.63434908e-01 2.49508843e-01 -1.68975070e-01
      3.45776021e-01 -1.44044325e-01 4.42043215e-01 -9.41828266e-02
      5.44204295e-01 -9.14127454e-02 6.40471518e-01 -1.30193904e-01
      7.40667999e-01 -1.41274244e-01 8.40864420e-01 -1.19113572e-01
      9.13555980e-01 -4.15512472e-02 4.87229854e-01 -2.49307472e-02
      4.83300596e-01 7.20221624e-02 4.79371309e-01 1.71745151e-01
      4.73477393e-01 2.77008325e-01 3.88998032e-01 3.71191144e-01
      4.28290755e-01 3.87811631e-01 4.73477393e-01 3.98891956e-01
      5.22593319e-01 3.93351793e-01 5.65815330e-01 3.82271469e-01
      1.88605115e-01 2.77008303e-03 2.43614927e-01 -3.87811624e-02
      3.06483299e-01 -3.87811624e-02 3.67387027e-01 2.21606642e-02
      3.04518670e-01 3.04709133e-02 2.43614927e-01 3.32409963e-02
      6.18860483e-01 4.15512472e-02 6.85658157e-01 -1.38504151e-02
      7.46561885e-01 -2.77008303e-03 8.01571727e-01 4.43213284e-02
      7.44597256e-01 6.64819926e-02 6.79764271e-01 5.81717454e-02
      3.02554041e-01 6.01108015e-01 3.79174858e-01 5.62326849e-01
      4.40078586e-01 5.37396133e-01 4.75442052e-01 5.51246524e-01
      5.10805488e-01 5.42936265e-01 5.73673844e-01 5.81717432e-01
      6.54223979e-01 6.37119114e-01 5.67779958e-01 6.37119114e-01
      5.02946973e-01 6.23268723e-01 4.65618849e-01 6.17728531e-01
      4.30255413e-01 6.14958465e-01 3.75245571e-01 6.17728531e-01
      3.30058932e-01 5.92797756e-01 4.38113958e-01 5.78947365e-01
      4.73477393e-01 5.84487557e-01 5.08840859e-01 5.84487557e-01
      6.28683686e-01 6.20498598e-01 5.04911602e-01 5.78947365e-01
      4.67583507e-01 5.76177299e-01 4.34184670e-01 5.70637107e-01</_>
    <_>
      0. 0. 1.73267331e-02 1.73252285e-01 5.19801974e-02 3.40425521e-01
      8.91089141e-02 5.01519740e-01 1.46039605e-01 6.50455952e-01
      2.22772270e-01 7.81154990e-01 3.19306940e-01 9.02735591e-01
      4.28217828e-01 9.78723407e-01 5.56930721e-01 1. 6.85643554e-01
      9.66565371e-01 7.89603949e-01 8.69300902e-01 8.78712893e-01
      7.35562325e-01 9.38118815e-01 5.83586633e-01 9.75247502e-01
      4.16413367e-01 9.90099013e-01 2.52279639e-01 1. 8.20668712e-02
      9.97524738e-01 -9.11854133e-02 8.16831663e-02 -9.72644389e-02
      1.50990099e-01 -1.67173252e-01 2.50000000e-01 -1.82370827e-01
      3.46534640e-01 -1.51975691e-01 4.50495064e-01 -1.24620058e-01
      5.47029674e-01 -1.39817625e-01 6.41089082e-01 -1.82370827e-01
      7.37623751e-01 -2.24924013e-01 8.36633682e-01 -2.27963522e-01
      9.13366318e-01 -1.70212761e-01 5.04950523e-01 -4.25531901e-02
      5.09900987e-01 4.86322194e-02 5.14851511e-01 1.39817625e-01
      5.17326713e-01 2.37082064e-01 4.20792073e-01 3.58662605e-01
      4.72772270e-01 3.67781162e-01 5.29702961e-01 3.76899689e-01
      5.84158421e-01 3.58662605e-01 6.33663356e-01 3.40425521e-01
      1.98019803e-01 6.07902743e-03 2.57425755e-01 -3.34346518e-02
      3.24257433e-01 -4.25531901e-02 3.91089112e-01 6.07902743e-03
      3.26732665e-01 3.03951371e-02 2.57425755e-01 3.95136774e-02
      6.26237631e-01 -1.21580549e-02 6.85643554e-01 -6.68693036e-02
      7.54950523e-01 -6.99088126e-02 8.11881185e-01 -3.95136774e-02
      7.62376249e-01 3.03951371e-03 6.90594077e-01 3.03951371e-03
      3.56435657e-01 6.01823688e-01 4.33168322e-01 5.56231022e-01
      4.95049506e-01 5.28875351e-01 5.39603949e-01 5.41033447e-01
      5.81683159e-01 5.22796333e-01 6.48514867e-01 5.41033447e-01
      7.32673287e-01 5.74468076e-01 6.55940592e-01 6.32218838e-01
      5.94059408e-01 6.59574449e-01 5.49504936e-01 6.65653467e-01
      5.04950523e-01 6.65653467e-01 4.40594047e-01 6.47416413e-01
      3.91089112e-01 5.98784208e-01 4.97524738e-01 5.80547094e-01
      5.42079210e-01 5.86626112e-01 5.84158421e-01 5.74468076e-01
      6.98019803e-01 5.74468076e-01 5.86633682e-01 5.77507615e-01
      5.44554472e-01 5.92705190e-01 5.00000000e-01 5.83586633e-01</_>
    <_>
      0. 0. 1.48514854e-02 1.74050644e-01 4.20792066e-02 3.44936728e-01
      7.67326728e-02 5.12658179e-01 1.28712878e-01 6.70886040e-01
      2.05445543e-01 8.03797424e-01 3.06930691e-01 9.14556980e-01
      4.18316841e-01 9.90506351e-01 5.56930721e-01 1. 6.88118815e-01
      9.68354404e-01 7.99504936e-01 8.63924026e-01 8.88613880e-01
      7.34177172e-01 9.52970326e-01 5.88607550e-01 9.92574275e-01
      4.24050570e-01 1. 2.56329149e-01 1. 8.86076018e-02 9.92574275e-01
      -8.22784901e-02 5.69306947e-02 -8.22784901e-02 1.16336636e-01
      -1.70886099e-01 2.12871283e-01 -1.99367106e-01 3.09405953e-01
      -1.74050644e-01 4.13366348e-01 -1.45569637e-01 5.44554472e-01
      -1.55063301e-01 6.36138618e-01 -1.96202546e-01 7.35148489e-01
      -2.34177232e-01 8.31683159e-01 -2.21519008e-01 8.98514867e-01
      -1.48734197e-01 4.82673258e-01 -4.74683605e-02 4.85148519e-01
      4.11392450e-02 4.87623751e-01 1.29746854e-01 4.92574245e-01
      2.27848127e-01 3.91089112e-01 3.25949401e-01 4.45544541e-01
      3.48101288e-01 5.07425725e-01 3.63924086e-01 5.69306910e-01
      3.35443079e-01 6.21287107e-01 3.00632954e-01 1.75742581e-01 0.
      2.30198026e-01 -2.84810159e-02 2.92079210e-01 -4.11392450e-02
      3.58910888e-01 -1.26582291e-02 2.97029704e-01 3.16455727e-03
      2.32673272e-01 1.26582291e-02 6.21287107e-01 -3.16455737e-02
      6.80693090e-01 -6.64556995e-02 7.42574275e-01 -6.96202591e-02
      8.01980197e-01 -5.37974723e-02 7.45049477e-01 -2.84810159e-02
      6.83168292e-01 -2.84810159e-02 3.29207927e-01 5.85443020e-01
      3.91089112e-01 5.22151828e-01 4.57920790e-01 4.93670851e-01
      5.17326713e-01 5.09493649e-01 5.69306910e-01 4.81012613e-01
      6.36138618e-01 4.96835381e-01 7.00495064e-01 5.53797424e-01
      6.48514867e-01 6.17088556e-01 5.86633682e-01 6.64556921e-01
      5.32178223e-01 6.80379689e-01 4.72772270e-01 6.77215159e-01
      4.03465360e-01 6.45569563e-01 3.63861382e-01 5.82278430e-01
      4.62871283e-01 5.66455662e-01 5.19801974e-01 5.69620192e-01
      5.74257433e-01 5.53797424e-01 6.70792103e-01 5.53797424e-01
      5.79207897e-01 5.66455662e-01 5.24752498e-01 5.82278430e-01
      4.67821777e-01 5.75949311e-01</_>
    <_>
      0. 0. 2.21674871e-02 1.70278624e-01 5.17241396e-02 3.31269324e-01
      8.62068981e-02 4.86068159e-01 1.37931034e-01 6.31578982e-01
      2.09359601e-01 7.61609912e-01 3.00492615e-01 8.76160979e-01
      4.06403929e-01 9.69040275e-01 5.29556632e-01 1. 6.50246322e-01
      9.75232184e-01 7.56157637e-01 8.82352948e-01 8.47290635e-01
      7.58513927e-01 9.13793087e-01 6.13003135e-01 9.53201950e-01
      4.52012450e-01 9.75369453e-01 2.91021645e-01 9.92610812e-01
      1.26934975e-01 1. -4.64396253e-02 8.62068981e-02 3.71516980e-02
      1.65024623e-01 -1.54798748e-02 2.61083752e-01 -1.85758490e-02
      3.59605908e-01 9.28792451e-03 4.63054180e-01 3.09597496e-02
      5.83743870e-01 1.54798748e-02 6.74876869e-01 -2.78637744e-02
      7.63546824e-01 -7.12074265e-02 8.59605908e-01 -8.35913271e-02
      9.33497548e-01 -3.71516980e-02 5.19704461e-01 9.28792506e-02
      5.24630547e-01 1.88854471e-01 5.27093589e-01 2.81733721e-01
      5.32019675e-01 3.80804926e-01 4.33497548e-01 4.33436573e-01
      4.82758611e-01 4.52012450e-01 5.32019675e-01 4.67492312e-01
      5.83743870e-01 4.52012450e-01 6.25615776e-01 4.30340618e-01
      2.06896558e-01 1.08359121e-01 2.63546795e-01 8.66872966e-02
      3.25123161e-01 7.73993731e-02 3.86699498e-01 1.08359121e-01
      3.27586204e-01 1.26934975e-01 2.66009837e-01 1.33126929e-01
      6.47783279e-01 9.28792506e-02 7.06896544e-01 4.95355986e-02
      7.68472910e-01 4.33436483e-02 8.25123131e-01 6.19194992e-02
      7.75862098e-01 9.90711972e-02 7.14285731e-01 1.02167174e-01
      3.52216750e-01 5.94427288e-01 4.23645318e-01 5.69659472e-01
      4.82758611e-01 5.57275593e-01 5.24630547e-01 5.69659472e-01
      5.71428597e-01 5.60371578e-01 6.33004904e-01 5.69659472e-01
      7.01970458e-01 6.00619256e-01 6.35468006e-01 6.43962860e-01
      5.73891640e-01 6.56346798e-01 5.29556632e-01 6.59442782e-01
      4.85221684e-01 6.53250813e-01 4.26108360e-01 6.31578982e-01
      3.81773412e-01 5.88235319e-01 4.85221684e-01 5.88235319e-01
      5.27093589e-01 5.97523272e-01 5.73891640e-01 5.91331303e-01
      6.72413766e-01 5.94427288e-01 5.71428597e-01 6.00619256e-01
      5.27093589e-01 6.06811166e-01 4.85221684e-01 5.94427288e-01</_>
    <_>
      0. 0. 1.04347831e-02 1.76470593e-01 3.13043483e-02 3.42245996e-01
      5.56521751e-02 5.10695159e-01 9.04347822e-02 6.73796773e-01
      1.54782608e-01 8.12834203e-01 2.48695657e-01 9.11764681e-01
      3.54782611e-01 9.81283426e-01 4.85217392e-01 1. 6.15652204e-01
      9.75935817e-01 7.28695631e-01 9.09090936e-01 8.29565227e-01
      8.12834203e-01 9.00869548e-01 6.76470578e-01 9.40869570e-01
      5.10695159e-01 9.63478267e-01 3.42245996e-01 9.86086965e-01
      1.65775403e-01 1. -1.87165774e-02 7.82608688e-02 -1.01604275e-01
      1.47826090e-01 -1.68449193e-01 2.31304348e-01 -1.84491977e-01
      3.19999993e-01 -1.73796788e-01 4.12173927e-01 -1.57754004e-01
      5.21739125e-01 -1.68449193e-01 6.20869577e-01 -1.92513362e-01
      7.16521740e-01 -2.03208551e-01 8.06956530e-01 -1.87165782e-01
      8.79999995e-01 -1.25668451e-01 4.76521730e-01 -4.27807495e-02
      4.76521730e-01 5.08021377e-02 4.76521730e-01 1.47058830e-01
      4.74782616e-01 2.48663098e-01 3.77391309e-01 3.63636374e-01
      4.24347818e-01 3.79679143e-01 4.74782616e-01 3.93048137e-01
      5.25217414e-01 3.79679143e-01 5.70434809e-01 3.66310149e-01
      1.66956529e-01 -1.60427801e-02 2.20869571e-01 -6.68449178e-02
      2.83478260e-01 -6.95187151e-02 3.39130431e-01 -5.34759369e-03
      2.85217404e-01 1.06951874e-02 2.20869571e-01 1.60427801e-02
      6.12173915e-01 -1.33689838e-02 6.67826116e-01 -8.55614990e-02
      7.32173920e-01 -8.55614990e-02 7.87826061e-01 -3.74331549e-02
      7.37391293e-01 -2.67379684e-03 6.74782634e-01 0. 3.25217396e-01
      6.22994661e-01 3.72173905e-01 5.45454562e-01 4.20869559e-01
      5.08021414e-01 4.59130436e-01 5.26737988e-01 5.04347801e-01
      5.13368964e-01 5.65217376e-01 5.56149721e-01 6.33043468e-01
      6.31016016e-01 5.66956520e-01 6.44385040e-01 5.09565234e-01
      6.49732649e-01 4.62608695e-01 6.52406394e-01 4.22608703e-01
      6.47058845e-01 3.75652164e-01 6.39037430e-01 3.47826093e-01
      6.09625697e-01 4.20869559e-01 5.74866295e-01 4.59130436e-01
      5.80213904e-01 5.06086946e-01 5.77540100e-01 6.06956542e-01
      6.17647052e-01 5.06086946e-01 5.66844940e-01 4.60869551e-01
      5.74866295e-01 4.22608703e-01 5.66844940e-01</_>
    <_>
      0. 0. 7.04225339e-03 1.55210644e-01 1.93661973e-02 3.12638581e-01
      3.87323946e-02 4.74501103e-01 7.21830949e-02 6.29711747e-01
      1.42605633e-01 7.67184019e-01 2.39436626e-01 8.78048778e-01
      3.59154940e-01 9.62305963e-01 5.00000000e-01 1. 6.44366205e-01
      9.75609779e-01 7.69366205e-01 8.98004413e-01 8.64436626e-01
      7.78270483e-01 9.29577470e-01 6.29711747e-01 9.63028193e-01
      4.67849225e-01 9.84154940e-01 2.99334824e-01 9.96478856e-01
      1.35254994e-01 1. -2.21729483e-02 7.39436597e-02 -1.17516629e-01
      1.35563374e-01 -2.19512194e-01 2.32394367e-01 -2.48337030e-01
      3.38028163e-01 -2.28381380e-01 4.38380271e-01 -1.88470066e-01
      5.65140843e-01 -1.86252773e-01 6.67253494e-01 -2.26164073e-01
      7.74647892e-01 -2.50554323e-01 8.80281687e-01 -2.19512194e-01
      9.41901386e-01 -1.08647451e-01 5.03521144e-01 -8.20399150e-02
      5.05281687e-01 1.55210644e-02 5.03521144e-01 1.08647451e-01
      5.03521144e-01 2.12860316e-01 3.69718313e-01 2.97117531e-01
      4.36619729e-01 3.14855874e-01 5.05281687e-01 3.34811538e-01
      5.73943675e-01 3.19290459e-01 6.39084518e-01 3.03769410e-01
      1.70774654e-01 -3.76940146e-02 2.28873238e-01 -8.42572078e-02
      2.99295783e-01 -8.42572078e-02 3.64436626e-01 -3.32594253e-02
      2.97535211e-01 -2.21729483e-02 2.27112681e-01 -2.21729483e-02
      6.46126747e-01 -3.10421288e-02 7.11267591e-01 -8.20399150e-02
      7.81690121e-01 -8.42572078e-02 8.43309879e-01 -3.76940146e-02
      7.85211265e-01 -1.99556537e-02 7.14788735e-01 -1.99556537e-02
      2.86971837e-01 5.41019976e-01 3.55633795e-01 4.50110853e-01
      4.31338042e-01 4.07982260e-01 4.96478885e-01 4.27937925e-01
      5.59859157e-01 4.14634138e-01 6.39084518e-01 4.56762761e-01
      7.09507048e-01 5.54323733e-01 6.40845060e-01 5.98669648e-01
      5.66901386e-01 6.23059869e-01 5.00000000e-01 6.25277162e-01
      4.31338042e-01 6.11973405e-01 3.59154940e-01 5.85365832e-01
      3.18661958e-01 5.27716160e-01 4.31338042e-01 4.76718396e-01
      4.96478885e-01 4.85587597e-01 5.61619699e-01 4.83370274e-01
      6.79577470e-01 5.38802683e-01 5.61619699e-01 5.27716160e-01
      4.98239428e-01 5.34368098e-01 4.33098584e-01 5.21064281e-01</_>
    <_>
      0. 0. 1.74825173e-02 1.79669037e-01 4.02097888e-02 3.49881798e-01
      5.94405606e-02 5.24822712e-01 9.09090936e-02 6.85579181e-01
      1.59090906e-01 8.20330977e-01 2.53496498e-01 9.14893627e-01
      3.67132872e-01 9.78723407e-01 5.03496528e-01 1. 6.38111889e-01
      9.83451545e-01 7.56992996e-01 9.21985805e-01 8.60139847e-01
      8.25059116e-01 9.30069923e-01 6.87943280e-01 9.63286698e-01
      5.22458613e-01 9.75524485e-01 3.47517729e-01 9.91258740e-01
      1.74940899e-01 1. -2.36406620e-03 8.74125883e-02 -1.20567374e-01
      1.43356636e-01 -2.17494085e-01 2.34265730e-01 -2.50591010e-01
      3.35664332e-01 -2.48226956e-01 4.31818187e-01 -2.17494085e-01
      5.83916068e-01 -2.15130016e-01 6.74825191e-01 -2.52955079e-01
      7.72727251e-01 -2.60047287e-01 8.61888111e-01 -2.24586293e-01
      9.12587404e-01 -1.18203312e-01 5.05244732e-01 -1.25295505e-01
      5.06992996e-01 -2.83687934e-02 5.06992996e-01 6.85579181e-02
      5.10489523e-01 1.72576830e-01 3.95104885e-01 2.83687949e-01
      4.49300706e-01 3.00236404e-01 5.08741260e-01 3.14420789e-01
      5.66433549e-01 3.00236404e-01 6.18881106e-01 2.81323880e-01
      1.88811183e-01 -5.91016561e-02 2.43006989e-01 -1.04018912e-01
      3.05944055e-01 -1.06382981e-01 3.63636374e-01 -6.61938563e-02
      3.04195791e-01 -5.43735214e-02 2.43006989e-01 -4.96453904e-02
      6.34615362e-01 -6.38297871e-02 6.94055915e-01 -1.08747043e-01
      7.56992996e-01 -1.04018912e-01 8.11188817e-01 -5.91016561e-02
      7.56992996e-01 -4.72813249e-02 6.94055915e-01 -5.43735214e-02
      3.30419570e-01 5.60283661e-01 3.98601413e-01 4.79905427e-01
      4.58041966e-01 4.42080379e-01 5.10489523e-01 4.56264764e-01
      5.61188817e-01 4.42080379e-01 6.20629370e-01 4.72813249e-01
      6.83566451e-01 5.55555582e-01 6.17132843e-01 5.60283661e-01
      5.61188817e-01 5.57919621e-01 5.10489523e-01 5.60283661e-01
      4.59790200e-01 5.60283661e-01 3.98601413e-01 5.65011799e-01
      3.58391613e-01 5.46099305e-01 4.58041966e-01 4.89361703e-01
      5.08741260e-01 4.94089842e-01 5.59440553e-01 4.89361703e-01
      6.57342672e-01 5.41371167e-01 5.59440553e-01 4.94089842e-01
      5.10489523e-01 5.01182020e-01 4.59790200e-01 4.96453911e-01</_>
    <_>
      0. 0. 1.70316305e-02 1.71521038e-01 3.89294401e-02 3.43042076e-01
      7.29926974e-02 5.01618147e-01 1.28953770e-01 6.44012928e-01
      2.04379559e-01 7.73462772e-01 2.91970789e-01 8.83495152e-01
      3.91727507e-01 9.77346301e-01 5.10948896e-01 1. 6.32603407e-01
      9.74110007e-01 7.37226248e-01 8.89967620e-01 8.27250600e-01
      7.83171535e-01 9.02676404e-01 6.56957924e-01 9.53771293e-01
      5.08090615e-01 9.78102207e-01 3.46278310e-01 9.90267634e-01
      1.77993521e-01 1. 1.29449842e-02 1.02189779e-01 -9.06148851e-02
      1.65450126e-01 -1.81229770e-01 2.57907540e-01 -2.23300964e-01
      3.60097319e-01 -2.10355982e-01 4.59854007e-01 -1.68284789e-01
      5.52311420e-01 -1.65048540e-01 6.52068138e-01 -2.10355982e-01
      7.51824796e-01 -2.26537213e-01 8.51581514e-01 -1.90938517e-01
      9.09975648e-01 -1.00323625e-01 5.08515835e-01 -7.76699036e-02
      5.08515835e-01 4.20711972e-02 5.10948896e-01 1.61812291e-01
      5.10948896e-01 2.81553388e-01 4.13625300e-01 3.43042076e-01
      4.59854007e-01 3.65695804e-01 5.10948896e-01 3.81877035e-01
      5.62043786e-01 3.65695804e-01 6.10705614e-01 3.46278310e-01
      2.21411198e-01 -3.23624611e-02 2.72506088e-01 -6.79611638e-02
      3.30900252e-01 -7.44336545e-02 3.89294416e-01 -3.88349518e-02
      3.33333343e-01 -2.58899685e-02 2.74939179e-01 -1.94174759e-02
      6.25304163e-01 -3.55987065e-02 6.86131358e-01 -7.11974129e-02
      7.46958613e-01 -6.47249222e-02 7.98053503e-01 -2.58899685e-02
      7.44525552e-01 -1.61812305e-02 6.86131358e-01 -2.26537213e-02
      3.23600978e-01 5.40453076e-01 3.89294416e-01 5.14563084e-01
      4.50121641e-01 5.08090615e-01 5.03649652e-01 5.21035612e-01
      5.59610724e-01 5.01618147e-01 6.25304163e-01 5.04854381e-01
      6.93430662e-01 5.24271846e-01 6.32603407e-01 5.79288006e-01
      5.69343090e-01 6.24595463e-01 5.13382018e-01 6.37540460e-01
      4.57420915e-01 6.27831697e-01 3.94160599e-01 5.85760534e-01
      3.50364953e-01 5.33980608e-01 4.52554733e-01 5.30744314e-01
      5.06082714e-01 5.43689311e-01 5.62043786e-01 5.27508080e-01
      6.66666687e-01 5.24271846e-01 5.64476907e-01 5.40453076e-01
      5.10948896e-01 5.59870541e-01 4.54987824e-01 5.40453076e-01</_>
    <_>
      5.37634408e-03 0. 0. 1.62251741e-01 2.68817204e-03 3.31125885e-01
      1.88172050e-02 4.90066290e-01 5.91397844e-02 6.49006665e-01
      1.26344085e-01 7.91390777e-01 2.23118275e-01 9.10596013e-01
      3.41397852e-01 9.80132461e-01 4.86559153e-01 1. 6.31720424e-01
      9.80132461e-01 7.55376339e-01 9.10596013e-01 8.57526898e-01
      7.91390777e-01 9.27419364e-01 6.49006665e-01 9.73118305e-01
      4.90066290e-01 9.91935492e-01 3.41059655e-01 1. 1.85430542e-01 1.
      2.98013221e-02 7.79569894e-02 -9.60264802e-02 1.50537640e-01
      -1.62251636e-01 2.50000000e-01 -1.72185406e-01 3.52150530e-01
      -1.49006605e-01 4.51612890e-01 -1.12582773e-01 5.48387110e-01
      -1.05960257e-01 6.50537610e-01 -1.42384097e-01 7.55376339e-01
      -1.68874159e-01 8.54838729e-01 -1.52317867e-01 9.22043025e-01
      -7.28476718e-02 4.97311831e-01 -3.64238359e-02 4.91935492e-01
      6.62251562e-02 4.89247322e-01 1.65563002e-01 4.83870953e-01
      2.68211991e-01 3.73655915e-01 3.54304701e-01 4.27419364e-01
      3.64238471e-01 4.83870953e-01 3.77483517e-01 5.43010771e-01
      3.64238471e-01 5.99462390e-01 3.54304701e-01 1.74731180e-01
      -2.98013221e-02 2.36559138e-01 -5.29801287e-02 3.01075280e-01
      -5.62913865e-02 3.62903237e-01 -1.98675469e-02 3.01075280e-01
      -1.32450322e-02 2.33870968e-01 -1.32450322e-02 6.31720424e-01
      -1.32450322e-02 6.96236551e-01 -4.63576131e-02 7.63440847e-01
      -3.97350937e-02 8.22580636e-01 -1.65562890e-02 7.60752678e-01 0.
      6.96236551e-01 -3.31125804e-03 2.74193555e-01 5.66225231e-01
      3.52150530e-01 5.13245106e-01 4.32795703e-01 4.83443767e-01
      4.86559153e-01 5.06622553e-01 5.45698941e-01 4.86755013e-01
      6.31720424e-01 5.13245106e-01 7.06989229e-01 5.69536448e-01
      6.31720424e-01 6.12582803e-01 5.48387110e-01 6.35761619e-01
      4.86559153e-01 6.42384171e-01 4.32795703e-01 6.39072895e-01
      3.52150530e-01 6.15894079e-01 3.06451619e-01 5.62913954e-01
      4.32795703e-01 5.49668908e-01 4.86559153e-01 5.66225231e-01
      5.45698941e-01 5.52980185e-01 6.77419364e-01 5.66225231e-01
      5.48387110e-01 5.52980185e-01 4.89247322e-01 5.62913954e-01
      4.35483873e-01 5.49668908e-01</_>
    <_>
      2.71739135e-03 0. 0. 1.61971748e-01 2.71739135e-03 3.30985844e-01
      1.90217383e-02 4.96478826e-01 6.25000000e-02 6.54929519e-01
      1.35869563e-01 7.95774639e-01 2.28260875e-01 9.08450723e-01
      3.42391312e-01 9.85915482e-01 4.89130437e-01 1. 6.38586938e-01
      9.82394338e-01 7.58152187e-01 9.01408434e-01 8.58695626e-01
      7.88732350e-01 9.37500000e-01 6.51408434e-01 9.78260875e-01
      4.96478826e-01 9.94565189e-01 3.38028103e-01 1. 1.76056251e-01 1.
      2.11267620e-02 6.52173907e-02 -8.45070481e-02 1.38586953e-01
      -1.58450723e-01 2.33695656e-01 -1.79577485e-01 3.36956531e-01
      -1.65492982e-01 4.34782594e-01 -1.23239450e-01 5.76086938e-01
      -1.05633818e-01 6.71195626e-01 -1.44366220e-01 7.69021749e-01
      -1.76056355e-01 8.66847813e-01 -1.61971852e-01 9.26630437e-01
      -7.74647966e-02 4.97282594e-01 -3.52112725e-02 4.94565219e-01
      6.33802861e-02 4.91847813e-01 1.58450723e-01 4.89130437e-01
      2.60563314e-01 3.58695656e-01 3.06337953e-01 4.18478251e-01
      3.34506959e-01 4.86413032e-01 3.59154850e-01 5.54347813e-01
      3.34506959e-01 6.16847813e-01 3.06337953e-01 1.71195656e-01
      -3.87323983e-02 2.33695656e-01 -5.63380346e-02 2.93478251e-01
      -5.63380346e-02 3.55978251e-01 -2.46478897e-02 2.93478251e-01
      -2.46478897e-02 2.30978265e-01 -2.81690173e-02 6.33152187e-01
      -2.11267620e-02 7.01086938e-01 -5.28169088e-02 7.63586938e-01
      -5.28169088e-02 8.23369563e-01 -3.16901430e-02 7.63586938e-01
      -1.76056363e-02 6.98369563e-01 -1.76056363e-02 2.82608688e-01
      5.28168976e-01 3.42391312e-01 4.50704157e-01 4.13043469e-01
      4.29577410e-01 4.78260875e-01 4.54225302e-01 5.46195626e-01
      4.29577410e-01 6.16847813e-01 4.50704157e-01 6.79347813e-01
      5.38732350e-01 6.19565189e-01 5.88028133e-01 5.48913062e-01
      6.19718254e-01 4.78260875e-01 6.26760542e-01 4.07608688e-01
      6.16197169e-01 3.36956531e-01 5.80985844e-01 3.15217406e-01
      5.21126688e-01 4.13043469e-01 4.96478826e-01 4.78260875e-01
      5.10563314e-01 5.46195626e-01 4.99999940e-01 6.49456501e-01
      5.31690061e-01 5.48913062e-01 5.07042229e-01 4.78260875e-01
      5.17605603e-01 4.10326093e-01 5.03521085e-01</_>
    <_>
      0. 0. 5.69800567e-03 1.87265918e-01 1.13960113e-02 3.63295883e-01
      2.84900293e-02 5.31835198e-01 7.69230798e-02 6.85393274e-01
      1.53846160e-01 8.12734067e-01 2.56410271e-01 9.10112381e-01
      3.73219371e-01 9.77528095e-01 4.98575509e-01 1. 6.26780629e-01
      9.81273413e-01 7.40740716e-01 9.13857698e-01 8.37606847e-01
      8.23970020e-01 8.97435904e-01 6.92883909e-01 9.37321961e-01
      5.54307103e-01 9.60113943e-01 3.89513105e-01 9.82905984e-01
      2.24719107e-01 1. 5.61797768e-02 1.31054133e-01 -4.49438207e-02
      2.07977206e-01 -1.34831458e-01 3.13390315e-01 -1.68539330e-01
      4.21652436e-01 -1.61048695e-01 5.27065516e-01 -1.23595506e-01
      5.92592597e-01 -1.08614229e-01 6.98005676e-01 -1.31086141e-01
      8.00569773e-01 -1.31086141e-01 8.94586921e-01 -8.98876414e-02
      9.45868969e-01 1.49812736e-02 5.64102590e-01 -3.74531820e-02
      5.66951573e-01 5.99250942e-02 5.69800556e-01 1.61048695e-01
      5.69800556e-01 2.62172282e-01 4.38746452e-01 3.40823978e-01
      4.92877483e-01 3.63295883e-01 5.49857557e-01 3.85767788e-01
      6.03988588e-01 3.78277153e-01 6.55270636e-01 3.63295883e-01
      2.45014250e-01 -1.49812736e-02 3.01994294e-01 -5.24344556e-02
      3.64672363e-01 -5.61797768e-02 4.18803424e-01 0. 3.61823350e-01
      3.74531839e-03 2.99145311e-01 7.49063678e-03 6.66666687e-01
      1.87265910e-02 7.23646700e-01 -2.62172278e-02 7.92022765e-01
      -1.49812736e-02 8.40455830e-01 4.11985032e-02 7.86324799e-01
      5.24344556e-02 7.23646700e-01 4.11985032e-02 3.70370358e-01
      6.44194782e-01 4.27350432e-01 5.58052421e-01 4.95726496e-01
      5.28089881e-01 5.38461566e-01 5.50561786e-01 5.78347564e-01
      5.43071151e-01 6.38176620e-01 5.99250913e-01 6.83760703e-01
      7.04119861e-01 6.21082604e-01 6.92883909e-01 5.61253548e-01
      6.77902639e-01 5.21367550e-01 6.74157321e-01 4.78632480e-01
      6.59176052e-01 4.21652436e-01 6.47940099e-01 4.01709408e-01
      6.29213512e-01 4.90028501e-01 5.88014960e-01 5.32763541e-01
      6.02996230e-01 5.72649598e-01 6.06741548e-01 6.49572670e-01
      6.85393274e-01 5.66951573e-01 6.10486865e-01 5.27065516e-01
      6.06741548e-01 4.84330475e-01 5.91760278e-01</_>
    <_>
      0. 0. 1.98019799e-02 1.72757566e-01 4.95049506e-02 3.42192769e-01
      7.92079195e-02 5.08305669e-01 1.21287130e-01 6.71096385e-01
      1.93069309e-01 8.07308972e-01 2.94554442e-01 9.13621247e-01
      4.13366348e-01 9.83388722e-01 5.37128687e-01 1. 6.60891116e-01
      9.63455141e-01 7.74752498e-01 8.77076447e-01 8.73762369e-01
      7.60797381e-01 9.38118815e-01 6.11295700e-01 9.62871313e-01
      4.45182770e-01 9.80198026e-01 2.75747567e-01 9.97524738e-01
      1.06312282e-01 1. -6.64451793e-02 8.16831663e-02 -3.32225896e-02
      1.46039605e-01 -1.09634541e-01 2.35148519e-01 -1.26245841e-01
      3.31683159e-01 -1.16279058e-01 4.25742567e-01 -8.97009894e-02
      5.29702961e-01 -8.30564722e-02 6.23762369e-01 -1.16279058e-01
      7.15346515e-01 -1.49501652e-01 8.14356446e-01 -1.52823910e-01
      8.91089082e-01 -8.97009894e-02 4.85148519e-01 -1.32890353e-02
      4.90099013e-01 1.02990024e-01 4.95049506e-01 2.12624669e-01
      5.02475262e-01 3.28903735e-01 4.10891086e-01 4.08637941e-01
      4.57920790e-01 4.35216010e-01 5.07425725e-01 4.51827288e-01
      5.59405923e-01 4.28571492e-01 6.03960395e-01 3.95348907e-01
      2.07920790e-01 4.31893654e-02 2.59900987e-01 1.32890353e-02
      3.16831678e-01 3.32225882e-03 3.71287137e-01 3.65448482e-02
      3.16831678e-01 5.64783998e-02 2.59900987e-01 6.31229207e-02
      6.08910918e-01 2.32558120e-02 6.65841579e-01 -1.32890353e-02
      7.22772300e-01 -1.99335534e-02 7.79702961e-01 6.64451765e-03
      7.27722764e-01 3.32225896e-02 6.70792103e-01 3.65448482e-02
      3.58910888e-01 6.31229281e-01 4.08415854e-01 6.01328969e-01
      4.60396051e-01 5.84717631e-01 5.04950523e-01 6.01328969e-01
      5.47029674e-01 5.84717631e-01 6.08910918e-01 5.94684422e-01
      6.65841579e-01 6.24584734e-01 6.11386120e-01 6.74418628e-01
      5.54455459e-01 6.94352210e-01 5.12376249e-01 7.00996697e-01
      4.70297039e-01 6.94352210e-01 4.15841579e-01 6.71096385e-01
      3.83663356e-01 6.27907038e-01 4.62871283e-01 6.21262491e-01
      5.07425725e-01 6.31229281e-01 5.49504936e-01 6.21262491e-01
      6.38613880e-01 6.21262491e-01 5.49504936e-01 6.24584734e-01
      5.07425725e-01 6.34551525e-01 4.65346545e-01 6.24584734e-01</_>
    <_>
      0. 0. 0. 1.66666672e-01 1.86170209e-02 3.33333343e-01
      4.52127643e-02 5.07575750e-01 9.04255286e-02 6.70454562e-01
      1.70212761e-01 8.10606062e-01 2.84574479e-01 9.09090936e-01
      4.12234038e-01 9.92424250e-01 5.50531924e-01 1. 6.88829780e-01
      9.69696999e-01 8.05851042e-01 8.71212125e-01 9.06914890e-01
      7.53787875e-01 9.76063848e-01 5.94696999e-01 1. 4.09090906e-01
      9.97340441e-01 2.19696969e-01 9.97340441e-01 3.03030312e-02
      9.81382966e-01 -1.47727266e-01 5.58510646e-02 -2.31060609e-01
      1.03723407e-01 -3.21969688e-01 1.91489369e-01 -3.40909094e-01
      2.73936182e-01 -3.10606062e-01 3.56382966e-01 -2.65151501e-01
      5.58510661e-01 -2.87878782e-01 6.35638297e-01 -3.63636374e-01
      7.20744669e-01 -4.12878782e-01 8.11170220e-01 -4.09090906e-01
      8.80319178e-01 -3.44696969e-01 4.68085110e-01 -1.70454547e-01
      4.76063818e-01 -4.54545468e-02 4.84042555e-01 7.95454532e-02
      4.92021263e-01 2.12121218e-01 4.09574479e-01 2.95454532e-01
      4.54787225e-01 3.10606062e-01 5.05319178e-01 3.21969688e-01
      5.55851042e-01 2.91666657e-01 6.01063848e-01 2.61363626e-01
      1.56914890e-01 -1.09848484e-01 2.07446814e-01 -1.59090906e-01
      2.68617034e-01 -1.66666672e-01 3.35106373e-01 -1.21212125e-01
      2.71276593e-01 -1.06060609e-01 2.10106388e-01 -9.46969688e-02
      6.22340441e-01 -1.47727266e-01 6.80851042e-01 -2.04545453e-01
      7.36702144e-01 -2.15909094e-01 7.92553186e-01 -1.81818187e-01
      7.44680822e-01 -1.51515156e-01 6.86170220e-01 -1.47727266e-01
      3.37765962e-01 5.41666687e-01 3.90957445e-01 4.62121218e-01
      4.49468076e-01 4.31818187e-01 5.13297856e-01 4.50757563e-01
      5.74468076e-01 4.20454532e-01 6.43617034e-01 4.28030312e-01
      7.12765932e-01 4.88636374e-01 6.56914890e-01 5.41666687e-01
      5.93085110e-01 5.83333313e-01 5.29255331e-01 5.98484874e-01
      4.65425521e-01 5.98484874e-01 3.98936182e-01 5.75757563e-01
      3.61702114e-01 5.34090936e-01 4.54787225e-01 5.00000000e-01
      5.15957475e-01 5.03787875e-01 5.79787254e-01 4.84848499e-01
      6.91489339e-01 4.88636374e-01 5.85106373e-01 4.84848499e-01
      5.21276593e-01 5.03787875e-01 4.60106373e-01 4.96212125e-01</_>
    <_>
      0. 0. 2.01511327e-02 1.92727268e-01 4.78589423e-02 3.70909095e-01
      7.55667537e-02 5.45454562e-01 1.20906800e-01 7.01818168e-01
      1.96473554e-01 8.29090893e-01 2.94710338e-01 9.20000017e-01
      4.03022677e-01 9.89090919e-01 5.21410584e-01 1. 6.42317355e-01
      9.63636339e-01 7.55667508e-01 8.83636355e-01 8.63979876e-01
      7.81818211e-01 9.39546585e-01 6.43636346e-01 9.74811077e-01
      4.79999989e-01 9.84886646e-01 3.01818192e-01 9.92443323e-01
      1.27272725e-01 1. -5.81818186e-02 6.04534000e-02 -9.81818214e-02
      1.30982369e-01 -1.92727268e-01 2.26700246e-01 -2.29090914e-01
      3.27455908e-01 -2.14545459e-01 4.33249384e-01 -1.81818187e-01
      4.98740554e-01 -2.07272723e-01 6.09571815e-01 -2.32727274e-01
      7.12846339e-01 -2.50909090e-01 8.16120923e-01 -2.21818179e-01
      8.94206524e-01 -1.30909085e-01 4.73551631e-01 -1.12727270e-01
      4.76070523e-01 -2.90909093e-02 4.76070523e-01 5.09090908e-02
      4.78589416e-01 1.41818181e-01 3.97984892e-01 2.90909082e-01
      4.40806031e-01 2.98181832e-01 4.86146092e-01 3.05454552e-01
      5.28967261e-01 2.94545442e-01 5.69269538e-01 2.83636361e-01
      1.83879092e-01 -5.81818186e-02 2.36775815e-01 -1.16363637e-01
      3.02267015e-01 -1.23636365e-01 3.57682616e-01 -6.18181825e-02
      3.02267015e-01 -3.99999991e-02 2.39294708e-01 -3.27272713e-02
      5.99496245e-01 -7.27272704e-02 6.57430708e-01 -1.38181821e-01
      7.22921908e-01 -1.23636365e-01 7.80856431e-01 -6.90909103e-02
      7.25440800e-01 -4.72727269e-02 6.62468493e-01 -5.45454547e-02
      3.14861447e-01 5.56363642e-01 3.77833754e-01 4.58181828e-01
      4.43324924e-01 4.03636366e-01 4.88664985e-01 4.14545447e-01
      5.39042830e-01 4.00000006e-01 6.07052922e-01 4.43636358e-01
      6.70025170e-01 5.41818202e-01 6.09571815e-01 5.78181803e-01
      5.44080615e-01 5.96363664e-01 4.93702769e-01 6.03636384e-01
      4.43324924e-01 6.03636384e-01 3.80352646e-01 5.92727244e-01
      3.45088154e-01 5.41818202e-01 4.43324924e-01 5.01818180e-01
      4.91183877e-01 5.01818180e-01 5.41561723e-01 4.98181820e-01
      6.37279570e-01 5.27272701e-01 5.41561723e-01 5.01818180e-01
      4.91183877e-01 5.09090900e-01 4.43324924e-01 5.09090900e-01</_>
    <_>
      0. 0. 1.51515156e-02 1.68421060e-01 4.29292917e-02 3.36842120e-01
      6.81818202e-02 5.01754403e-01 1.11111112e-01 6.56140327e-01
      1.81818187e-01 7.89473712e-01 2.77777791e-01 8.91228080e-01
      3.76262635e-01 9.75438595e-01 4.94949490e-01 1. 6.16161644e-01
      9.68421042e-01 7.27272749e-01 8.87719274e-01 8.38383853e-01
      7.92982459e-01 9.19191897e-01 6.63157880e-01 9.59595978e-01
      5.05263150e-01 9.77272749e-01 3.36842120e-01 9.92424250e-01
      1.61403507e-01 1. -1.75438598e-02 6.56565651e-02 -7.01754391e-02
      1.33838385e-01 -1.54385969e-01 2.32323229e-01 -1.68421060e-01
      3.30808073e-01 -1.40350878e-01 4.31818187e-01 -1.01754382e-01
      5.07575750e-01 -1.15789473e-01 6.11111104e-01 -1.61403507e-01
      7.14646459e-01 -1.89473689e-01 8.20707083e-01 -1.78947374e-01
      9.01515126e-01 -9.82456133e-02 4.74747479e-01 -7.01754391e-02
      4.74747479e-01 3.50877200e-03 4.77272719e-01 7.36842081e-02
      4.77272719e-01 1.54385969e-01 4.01515156e-01 2.94736832e-01
      4.44444448e-01 3.12280715e-01 4.89898980e-01 3.22807014e-01
      5.32828271e-01 3.08771938e-01 5.70707083e-01 2.84210533e-01
      1.86868683e-01 -3.15789469e-02 2.42424250e-01 -7.71929845e-02
      3.05555552e-01 -8.42105299e-02 3.68686855e-01 -3.85964923e-02
      3.08080822e-01 -1.75438598e-02 2.44949490e-01 -1.05263162e-02
      5.98484874e-01 -4.56140339e-02 6.56565666e-01 -9.47368443e-02
      7.22222209e-01 -8.42105299e-02 7.80303001e-01 -4.21052650e-02
      7.22222209e-01 -2.45614033e-02 6.59090936e-01 -3.15789469e-02
      3.30808073e-01 5.71929812e-01 3.86363626e-01 4.94736850e-01
      4.41919178e-01 4.52631593e-01 4.87373739e-01 4.73684222e-01
      5.32828271e-01 4.52631593e-01 5.88383853e-01 4.87719297e-01
      6.46464646e-01 5.57894766e-01 5.88383853e-01 5.96491218e-01
      5.35353541e-01 6.17543876e-01 4.87373739e-01 6.24561429e-01
      4.41919178e-01 6.17543876e-01 3.91414136e-01 6.07017517e-01
      3.61111104e-01 5.61403513e-01 4.41919178e-01 5.26315808e-01
      4.87373739e-01 5.29824555e-01 5.35353541e-01 5.22807002e-01
      6.13636374e-01 5.47368407e-01 5.30303001e-01 5.29824555e-01
      4.87373739e-01 5.43859661e-01 4.41919178e-01 5.33333361e-01</_>
    <_>
      0. 0. 8.43881816e-03 1.63978487e-01 2.53164563e-02 3.25268805e-01
      4.21940945e-02 4.83870953e-01 7.80590698e-02 6.34408593e-01
      1.41350210e-01 7.74193525e-01 2.29957804e-01 8.87096763e-01
      3.37552756e-01 9.67741907e-01 4.66244727e-01 1. 5.99156141e-01
      9.83870983e-01 7.17299581e-01 9.19354856e-01 8.18565428e-01
      8.19892466e-01 8.92405093e-01 6.85483873e-01 9.34599161e-01
      5.37634432e-01 9.59915638e-01 3.70967746e-01 9.83122349e-01
      2.01612905e-01 1. 2.68817209e-02 8.43881890e-02 -1.02150537e-01
      1.56118140e-01 -1.77419350e-01 2.53164560e-01 -1.98924735e-01
      3.54430377e-01 -1.82795703e-01 4.45147693e-01 -1.34408608e-01
      5.67510545e-01 -1.29032254e-01 6.60337567e-01 -1.69354841e-01
      7.57383943e-01 -1.82795703e-01 8.52320671e-01 -1.61290318e-01
      9.17721510e-01 -8.06451589e-02 5.14767945e-01 -4.03225794e-02
      5.14767945e-01 5.10752685e-02 5.16877651e-01 1.45161286e-01
      5.16877651e-01 2.41935477e-01 4.17721510e-01 3.11827958e-01
      4.62025315e-01 3.33333343e-01 5.10548532e-01 3.52150530e-01
      5.59071720e-01 3.41397852e-01 5.97046435e-01 3.25268805e-01
      2.02531651e-01 -1.61290318e-02 2.61603385e-01 -4.30107526e-02
      3.20675105e-01 -4.56989259e-02 3.79746825e-01 -1.61290318e-02
      3.20675105e-01 0. 2.59493679e-01 2.68817204e-03 6.22362852e-01
      -5.37634408e-03 6.85653985e-01 -3.49462368e-02 7.46835470e-01
      -2.95698922e-02 8.01687777e-01 2.68817204e-03 7.46835470e-01
      2.41935477e-02 6.85653985e-01 1.61290318e-02 3.27004224e-01
      5.43010771e-01 3.77637118e-01 4.62365597e-01 4.40928280e-01
      4.35483873e-01 4.91561174e-01 4.56989259e-01 5.44303775e-01
      4.48924720e-01 6.03375554e-01 4.91935492e-01 6.47679329e-01
      5.80645144e-01 5.94936728e-01 6.55913949e-01 5.33755302e-01
      6.90860212e-01 4.76793259e-01 6.93548381e-01 4.24050629e-01
      6.77419364e-01 3.67088616e-01 6.26344085e-01 3.58649790e-01
      5.34946263e-01 4.36708868e-01 5.02688169e-01 4.87341762e-01
      5.16129017e-01 5.42194068e-01 5.18817186e-01 6.16033733e-01
      5.67204297e-01 5.35864949e-01 5.72580636e-01 4.83122349e-01
      5.75268805e-01 4.32489455e-01 5.59139788e-01</_>
    <_>
      0. 0. 2.00364292e-02 1.64705873e-01 4.37158458e-02 3.31764758e-01
      6.92167580e-02 4.94117677e-01 1.14754096e-01 6.49411798e-01
      1.98542804e-01 7.83529401e-01 2.96903461e-01 8.96470606e-01
      4.09836054e-01 9.81176496e-01 5.42805076e-01 1. 6.81238592e-01
      9.64705884e-01 7.90528238e-01 8.61176491e-01 8.87067378e-01
      7.38823533e-01 9.56284165e-01 5.90588272e-01 9.83606577e-01
      4.25882399e-01 9.90892529e-01 2.63529390e-01 9.98178482e-01
      9.88235250e-02 1. -6.35294095e-02 6.37522787e-02 -6.82352856e-02
      1.31147534e-01 -1.41176462e-01 2.25865215e-01 -1.52941167e-01
      3.22404385e-01 -1.43529400e-01 4.18943524e-01 -1.05882347e-01
      5.62841535e-01 -9.88235250e-02 6.53916240e-01 -1.48235276e-01
      7.50455379e-01 -1.71764687e-01 8.46994519e-01 -1.74117640e-01
      9.25318778e-01 -1.10588230e-01 4.89981771e-01 -1.64705869e-02
      4.93624777e-01 7.99999908e-02 4.97267753e-01 1.76470578e-01
      5.00910759e-01 2.77647048e-01 4.09836054e-01 3.71764749e-01
      4.57194895e-01 3.85882407e-01 5.10018229e-01 4.00000036e-01
      5.62841535e-01 3.76470625e-01 6.12021863e-01 3.55294168e-01
      1.87613845e-01 9.41176433e-03 2.40437165e-01 -2.11764686e-02
      3.00546438e-01 -2.58823503e-02 3.58834237e-01 7.05882302e-03
      2.98724949e-01 2.35294104e-02 2.38615662e-01 2.82352921e-02
      6.35701299e-01 -4.70588217e-03 6.88524604e-01 -3.99999954e-02
      7.48633862e-01 -4.23529372e-02 8.05100203e-01 -2.11764686e-02
      7.52276838e-01 4.70588217e-03 6.92167580e-01 4.70588217e-03
      3.36976320e-01 6.07058823e-01 3.97085607e-01 5.50588250e-01
      4.62659389e-01 5.12941182e-01 5.20947158e-01 5.31764746e-01
      5.75591981e-01 5.03529429e-01 6.42987251e-01 5.24705887e-01
      7.04918027e-01 5.71764708e-01 6.53916240e-01 6.35294139e-01
      5.88342428e-01 6.70588255e-01 5.30054629e-01 6.84705913e-01
      4.69945341e-01 6.82352960e-01 4.00728583e-01 6.61176503e-01
      3.69763196e-01 6.04705930e-01 4.64480877e-01 5.78823566e-01
      5.22768676e-01 5.83529413e-01 5.79234958e-01 5.67058861e-01
      6.77595615e-01 5.71764708e-01 5.82877934e-01 5.71764708e-01
      5.24590135e-01 5.85882366e-01 4.66302365e-01 5.83529413e-01</_>
    <_>
      0. 0. 1.02249486e-02 1.53452680e-01 3.27198356e-02 3.12020451e-01
      5.72597124e-02 4.62915599e-01 9.20245424e-02 6.16368294e-01
      1.57464206e-01 7.54475713e-01 2.45398775e-01 8.82352948e-01
      3.49693239e-01 9.71867025e-01 4.82617587e-01 1. 6.23721898e-01
      9.82097208e-01 7.44376302e-01 8.95140648e-01 8.46625745e-01
      7.72378504e-01 9.18200433e-01 6.29155993e-01 9.52965260e-01
      4.70588237e-01 9.71370161e-01 3.09462905e-01 9.89775062e-01
      1.43222511e-01 1. -1.53452689e-02 5.11247441e-02 -1.02301789e-02
      1.18609406e-01 -9.46291536e-02 2.22903892e-01 -1.09974422e-01
      3.29243362e-01 -9.46291536e-02 4.33537841e-01 -5.88235296e-02
      5.23517370e-01 -5.62659837e-02 6.27811849e-01 -9.20716077e-02
      7.34151304e-01 -1.15089513e-01 8.44580770e-01 -1.09974422e-01
      9.18200433e-01 -3.06905378e-02 4.76482630e-01 1.02301789e-02
      4.78527606e-01 1.04859337e-01 4.78527606e-01 1.96930945e-01
      4.80572611e-01 2.96675205e-01 3.74233127e-01 3.60613823e-01
      4.25357878e-01 3.81074160e-01 4.82617587e-01 4.01534528e-01
      5.39877295e-01 3.83631706e-01 5.93047023e-01 3.63171369e-01
      1.82004094e-01 2.04603579e-02 2.35173821e-01 -2.55754474e-03
      2.90388554e-01 -5.11508947e-03 3.51738244e-01 2.81329919e-02
      2.92433530e-01 3.06905378e-02 2.33128831e-01 3.32480818e-02
      6.13496959e-01 3.06905378e-02 6.72801614e-01 -2.55754474e-03
      7.32106328e-01 -2.55754474e-03 7.91411042e-01 1.53452689e-02
      7.34151304e-01 3.06905378e-02 6.72801614e-01 3.32480818e-02
      3.02658498e-01 5.60102284e-01 3.61963183e-01 5.21739125e-01
      4.29447860e-01 4.96163696e-01 4.78527606e-01 5.19181609e-01
      5.31697333e-01 5.01278758e-01 6.03271961e-01 5.29411793e-01
      6.70756638e-01 5.70332468e-01 6.03271961e-01 6.36828661e-01
      5.33742309e-01 6.75191820e-01 4.76482630e-01 6.82864428e-01
      4.23312873e-01 6.70076728e-01 3.59918207e-01 6.24040902e-01
      3.29243362e-01 5.62659860e-01 4.27402854e-01 5.65217376e-01
      4.78527606e-01 5.78005135e-01 5.33742309e-01 5.67774951e-01
      6.44171774e-01 5.67774951e-01 5.31697333e-01 5.65217376e-01
      4.76482630e-01 5.78005135e-01 4.25357878e-01 5.60102284e-01</_>
    <_>
      0. 0. 1.31291030e-02 1.71974435e-01 3.06345727e-02 3.37579548e-01
      5.03282286e-02 4.99999940e-01 9.19037163e-02 6.52866185e-01
      1.66301966e-01 7.89808869e-01 2.64770240e-01 8.98089170e-01
      3.74179423e-01 9.71337557e-01 5.05470455e-01 1. 6.34573281e-01
      9.84076440e-01 7.37417936e-01 9.07643318e-01 8.27133477e-01
      8.02547753e-01 8.92778993e-01 6.68789804e-01 9.29978132e-01
      5.12738824e-01 9.51859951e-01 3.47133696e-01 9.75929976e-01
      1.87898010e-01 1. 2.54776124e-02 1.20350108e-01 -1.62420392e-01
      1.94748357e-01 -2.54777104e-01 2.91028440e-01 -2.96178371e-01
      3.96061271e-01 -2.89808959e-01 4.96717721e-01 -2.48407662e-01
      6.10503256e-01 -2.42038235e-01 7.06783354e-01 -2.80254811e-01
      8.03063452e-01 -2.77070105e-01 8.88402641e-01 -2.26114675e-01
      9.36542690e-01 -1.21019118e-01 5.49234152e-01 -1.30573258e-01
      5.49234152e-01 -2.22929958e-02 5.49234152e-01 8.59871730e-02
      5.49234152e-01 2.00636864e-01 4.52954054e-01 3.18471283e-01
      4.96717721e-01 3.24840695e-01 5.42669594e-01 3.37579548e-01
      5.84245086e-01 3.28025401e-01 6.23632371e-01 3.18471283e-01
      2.29759306e-01 -8.28025565e-02 2.82275707e-01 -1.46496832e-01
      3.50109398e-01 -1.56050965e-01 4.04814005e-01 -8.28025565e-02
      3.50109398e-01 -6.05095588e-02 2.84463882e-01 -5.41401319e-02
      6.56455159e-01 -7.00637028e-02 7.13347912e-01 -1.33757979e-01
      7.78993428e-01 -1.24203831e-01 8.27133477e-01 -5.41401319e-02
      7.74617076e-01 -2.86624227e-02 7.11159766e-01 -4.14012782e-02
      3.54485780e-01 5.25477648e-01 4.28884029e-01 4.87261087e-01
      4.94529545e-01 4.61783379e-01 5.33916831e-01 4.80891675e-01
      5.75492322e-01 4.64968115e-01 6.34573281e-01 4.96815234e-01
      6.98030651e-01 5.57324827e-01 6.28008723e-01 5.89171946e-01
      5.68927765e-01 6.01910770e-01 5.27352273e-01 6.01910770e-01
      4.83588636e-01 5.95541358e-01 4.24507648e-01 5.76433063e-01
      3.85120362e-01 5.22292972e-01 4.92341369e-01 5.15923500e-01
      5.33916831e-01 5.28662384e-01 5.73304176e-01 5.22292972e-01
      6.71772420e-01 5.44585943e-01 5.71115971e-01 5.28662384e-01
      5.29540479e-01 5.35031796e-01 4.85776812e-01 5.22292972e-01</_>
    <_>
      0. 0. 1.06382975e-02 1.57248169e-01 2.97872350e-02 3.19410264e-01
      5.10638282e-02 4.84029442e-01 9.57446843e-02 6.38820589e-01
      1.78723410e-01 7.73955762e-01 2.85106391e-01 8.91891897e-01
      4.10638303e-01 9.82800961e-01 5.55319130e-01 1. 6.95744693e-01
      9.53316927e-01 8.00000012e-01 8.45208824e-01 8.89361680e-01
      7.22358704e-01 9.48936164e-01 5.87223530e-01 9.74468112e-01
      4.42260414e-01 9.87234056e-01 2.89926231e-01 1. 1.32678136e-01
      9.95744705e-01 -2.21130233e-02 9.36170220e-02 -2.70270295e-02
      1.65957451e-01 -9.33661014e-02 2.61702120e-01 -9.58231017e-02
      3.55319142e-01 -5.89680634e-02 4.53191489e-01 -2.70270295e-02
      5.65957427e-01 -3.93120423e-02 6.59574449e-01 -7.37100765e-02
      7.48936176e-01 -1.08108118e-01 8.40425551e-01 -1.15479127e-01
      9.12765980e-01 -5.65110594e-02 5.08510649e-01 4.66830507e-02
      5.10638297e-01 1.59705177e-01 5.12765944e-01 2.72727221e-01
      5.17021298e-01 3.88206333e-01 3.95744681e-01 4.15233374e-01
      4.55319136e-01 4.47174400e-01 5.23404241e-01 4.76658434e-01
      5.91489375e-01 4.39803392e-01 6.51063859e-01 3.95577341e-01
      2.17021272e-01 5.89680634e-02 2.70212770e-01 2.70270295e-02
      3.36170226e-01 2.94840317e-02 3.95744681e-01 6.63390681e-02
      3.29787225e-01 8.10810849e-02 2.65957445e-01 7.86240846e-02
      6.29787207e-01 6.63390681e-02 6.85106397e-01 2.70270295e-02
      7.51063824e-01 1.96560211e-02 8.06382954e-01 4.42260467e-02
      7.55319178e-01 7.12530762e-02 6.91489339e-01 7.37100765e-02
      3.40425521e-01 5.77395558e-01 4.02127653e-01 5.40540516e-01
      4.72340435e-01 5.28255522e-01 5.36170185e-01 5.42997479e-01
      5.95744669e-01 5.18427491e-01 6.59574449e-01 5.15970469e-01
      7.14893639e-01 5.42997479e-01 6.65957451e-01 6.14250600e-01
      6.08510613e-01 6.63390636e-01 5.46808481e-01 6.80589676e-01
      4.80851054e-01 6.78132653e-01 4.10638303e-01 6.43734634e-01
      3.70212764e-01 5.84766567e-01 4.72340435e-01 5.92137575e-01
      5.38297892e-01 5.92137575e-01 6.00000024e-01 5.82309544e-01
      6.85106397e-01 5.55282533e-01 6.04255319e-01 5.84766567e-01
      5.40425539e-01 6.01965547e-01 4.76595759e-01 5.94594538e-01</_>
    <_>
      0. 0. 9.77198686e-03 1.72576830e-01 2.60586310e-02 3.42789590e-01
      5.37459292e-02 5.13002336e-01 1.00977197e-01 6.76122904e-01
      1.79153100e-01 8.10874701e-01 2.80130297e-01 9.14893627e-01
      3.87622148e-01 9.85815585e-01 5.04885972e-01 1. 6.22149825e-01
      9.73995268e-01 7.29641676e-01 9.03073311e-01 8.27361584e-01
      8.01418424e-01 9.05537486e-01 6.71394825e-01 9.49511409e-01
      5.15366435e-01 9.73941386e-01 3.45153660e-01 9.90227997e-01
      1.72576830e-01 1. -2.36406620e-03 1.17263846e-01 -1.34751767e-01
      1.82410419e-01 -2.12765962e-01 2.70358294e-01 -2.26950347e-01
      3.61563504e-01 -2.10401893e-01 4.54397380e-01 -1.79669037e-01
      5.45602620e-01 -1.72576830e-01 6.41693830e-01 -2.10401893e-01
      7.37785041e-01 -2.29314417e-01 8.28990221e-01 -2.10401893e-01
      8.95765483e-01 -1.27659574e-01 4.95113999e-01 -2.12765951e-02
      4.95113999e-01 8.27423185e-02 4.96742666e-01 1.82033092e-01
      4.96742666e-01 2.90780127e-01 3.99022788e-01 4.23167855e-01
      4.46254075e-01 4.27895993e-01 4.95113999e-01 4.34988171e-01
      5.43973923e-01 4.27895993e-01 5.92833877e-01 4.16075647e-01
      1.97068408e-01 -4.72813239e-03 2.49185666e-01 -5.91016561e-02
      3.14332247e-01 -5.67375869e-02 3.59934866e-01 2.36406624e-02
      3.06188911e-01 4.01891246e-02 2.42671013e-01 3.54609936e-02
      6.36807799e-01 1.89125296e-02 6.84039116e-01 -5.91016561e-02
      7.50814319e-01 -6.38297871e-02 8.06188941e-01 -4.72813239e-03
      7.55700350e-01 3.30969281e-02 6.88925087e-01 3.78250591e-02
      3.28990221e-01 6.35933816e-01 3.84364814e-01 5.83924353e-01
      4.41368073e-01 5.50827444e-01 4.85342026e-01 5.72104037e-01
      5.27687311e-01 5.50827444e-01 5.89576542e-01 5.74468076e-01
      6.56351805e-01 6.26477540e-01 5.92833877e-01 6.71394825e-01
      5.35830617e-01 6.92671418e-01 4.91856664e-01 6.97399557e-01
      4.44625407e-01 6.92671418e-01 3.89250815e-01 6.73758864e-01
      3.53420198e-01 6.31205678e-01 4.41368073e-01 6.24113500e-01
      4.86970693e-01 6.31205678e-01 5.30944645e-01 6.19385362e-01
      6.33550465e-01 6.21749401e-01 5.30944645e-01 6.14657223e-01
      4.88599360e-01 6.26477540e-01 4.42996740e-01 6.19385362e-01</_>
    <_>
      0. 0. 2.13219617e-02 1.66666672e-01 5.33049032e-02 3.30357134e-01
      8.74200463e-02 4.97023821e-01 1.30063966e-01 6.57738090e-01
      2.00426444e-01 7.97619045e-01 2.98507452e-01 9.04761910e-01
      4.13646042e-01 9.85119045e-01 5.39445639e-01 1. 6.65245175e-01
      9.67261910e-01 7.71854997e-01 8.75000000e-01 8.67803812e-01
      7.52976179e-01 9.33901906e-01 6.04166687e-01 9.70149279e-01
      4.31547612e-01 9.82942402e-01 2.52976179e-01 9.95735586e-01
      7.44047612e-02 1. -1.07142858e-01 7.46268630e-02 -7.14285746e-02
      1.38592750e-01 -1.42857149e-01 2.30277181e-01 -1.57738090e-01
      3.19829434e-01 -1.36904761e-01 4.07249480e-01 -1.04166664e-01
      5.33049047e-01 -1.19047619e-01 6.22601271e-01 -1.75595239e-01
      7.16417909e-01 -2.05357149e-01 8.12366724e-01 -2.05357149e-01
      8.91258001e-01 -1.51785716e-01 4.75479752e-01 -2.08333340e-02
      4.77611929e-01 9.52380970e-02 4.75479752e-01 2.08333328e-01
      4.75479752e-01 3.27380955e-01 3.98720682e-01 3.83928567e-01
      4.41364616e-01 4.07738090e-01 4.90405113e-01 4.25595224e-01
      5.39445639e-01 3.98809522e-01 5.84221721e-01 3.69047612e-01
      1.85501069e-01 2.97619053e-03 2.36673772e-01 -3.86904776e-02
      2.96375275e-01 -4.16666679e-02 3.53944570e-01 8.92857183e-03
      2.98507452e-01 2.08333340e-02 2.36673772e-01 2.67857146e-02
      6.18336916e-01 -1.48809524e-02 6.69509590e-01 -7.44047612e-02
      7.31343269e-01 -8.63095224e-02 7.86780357e-01 -5.65476194e-02
      7.39872098e-01 -2.38095243e-02 6.78038359e-01 -1.48809524e-02
      3.64605546e-01 6.01190448e-01 4.11513865e-01 5.62500000e-01
      4.60554361e-01 5.35714269e-01 4.96801704e-01 5.50595224e-01
      5.37313461e-01 5.26785731e-01 5.99147141e-01 5.41666687e-01
      6.63112998e-01 5.71428597e-01 6.09808087e-01 6.27976179e-01
      5.52238822e-01 6.69642866e-01 5.09594858e-01 6.81547642e-01
      4.71215338e-01 6.78571403e-01 4.20042634e-01 6.48809552e-01
      3.90191883e-01 5.95238090e-01 4.64818776e-01 5.89285731e-01
      5.01066089e-01 5.98214269e-01 5.41577816e-01 5.80357134e-01
      6.41791046e-01 5.68452358e-01 5.45842230e-01 5.80357134e-01
      5.03198266e-01 5.95238090e-01 4.69083160e-01 5.83333313e-01</_>
    <_>
      0. 0. 1.79999992e-02 1.72413781e-01 4.39999998e-02 3.39522600e-01
      7.99999982e-02 4.98673767e-01 1.29999995e-01 6.55172467e-01
      2.09999993e-01 7.90450931e-01 3.10000002e-01 9.07161832e-01
      4.23999995e-01 9.86737430e-01 5.60000002e-01 1. 6.94000006e-01
      9.81432378e-01 7.91999996e-01 8.88594151e-01 8.67999971e-01
      7.55968213e-01 9.27999973e-01 6.04774594e-01 9.62000012e-01
      4.45623398e-01 9.80000019e-01 2.81167090e-01 9.95999992e-01
      1.11405827e-01 1. -6.10079542e-02 1.00000001e-01 -6.63129911e-02
      1.67999998e-01 -1.37931019e-01 2.61999995e-01 -1.48541108e-01
      3.56000006e-01 -1.27320945e-01 4.49999988e-01 -9.01856720e-02
      5.68000019e-01 -9.81432274e-02 6.60000026e-01 -1.43236056e-01
      7.51999974e-01 -1.67108744e-01 8.47999990e-01 -1.61803707e-01
      9.17999983e-01 -9.54907089e-02 5.15999973e-01 -3.71352769e-02
      5.23999989e-01 7.16180280e-02 5.29999971e-01 1.80371344e-01
      5.37999988e-01 2.94429779e-01 4.48000014e-01 3.87267947e-01
      4.90000010e-01 4.00530547e-01 5.37999988e-01 4.13793147e-01
      5.82000017e-01 3.97878021e-01 6.21999979e-01 3.84615421e-01
      2.09999993e-01 -1.06100785e-02 2.63999999e-01 -6.10079542e-02
      3.35999995e-01 -6.36604726e-02 3.95999998e-01 2.65251962e-03
      3.33999991e-01 2.38726772e-02 2.63999999e-01 2.65251976e-02
      6.32000029e-01 -5.30503923e-03 6.91999972e-01 -7.69230723e-02
      7.63999999e-01 -7.69230723e-02 8.18000019e-01 -2.91777160e-02
      7.68000007e-01 1.06100785e-02 6.98000014e-01 1.06100785e-02
      3.35999995e-01 5.83554387e-01 4.14000005e-01 5.54376721e-01
      4.93999988e-01 5.30503988e-01 5.46000004e-01 5.49071670e-01
      5.97999990e-01 5.25198996e-01 6.74000025e-01 5.43766618e-01
      7.48000026e-01 5.62334239e-01 6.77999973e-01 6.33952260e-01
      6.06000006e-01 6.68435037e-01 5.51999986e-01 6.76392615e-01
      4.95999992e-01 6.73740089e-01 4.16000009e-01 6.47214890e-01
      3.63999993e-01 5.88859439e-01 4.93999988e-01 5.94164491e-01
      5.47999978e-01 6.04774594e-01 6.00000024e-01 5.88859439e-01
      7.20000029e-01 5.67639291e-01 6.01999998e-01 5.88859439e-01
      5.47999978e-01 6.02122068e-01 4.93999988e-01 5.94164491e-01</_>
    <_>
      0. 0. 1.61616169e-02 1.68937340e-01 4.04040404e-02 3.29700232e-01
      6.86868653e-02 4.95912760e-01 1.13131315e-01 6.56675696e-01
      1.93939388e-01 7.92915523e-01 2.96969712e-01 9.04632151e-01
      4.12121207e-01 9.86376047e-01 5.47474742e-01 1. 6.80808067e-01
      9.75476861e-01 7.85858572e-01 8.85558546e-01 8.74747455e-01
      7.62942731e-01 9.37373757e-01 6.18528605e-01 9.71717179e-01
      4.57765609e-01 9.87878799e-01 2.88828373e-01 1. 1.19891018e-01
      9.97979820e-01 -4.63215299e-02 8.88888910e-02 -3.54223475e-02
      1.53535351e-01 -1.19891018e-01 2.50505060e-01 -1.38964593e-01
      3.51515144e-01 -1.25340611e-01 4.50505048e-01 -9.80926529e-02
      5.49494922e-01 -1.06267042e-01 6.42424226e-01 -1.49863780e-01
      7.43434370e-01 -1.60762951e-01 8.42424214e-01 -1.44414186e-01
      9.15151536e-01 -7.08446950e-02 5.07070720e-01 -4.63215299e-02
      5.13131320e-01 5.99455088e-02 5.17171741e-01 1.63487747e-01
      5.23232341e-01 2.75204390e-01 4.32323247e-01 3.37874591e-01
      4.76767689e-01 3.67847353e-01 5.31313121e-01 3.89645725e-01
      5.85858583e-01 3.59672964e-01 6.30303025e-01 3.26975435e-01
      2.14141414e-01 2.72479584e-03 2.66666681e-01 -2.99727544e-02
      3.23232323e-01 -3.81471403e-02 3.85858595e-01 -1.08991833e-02
      3.27272713e-01 0. 2.70707071e-01 8.17438774e-03 6.40404046e-01
      -1.63487755e-02 6.94949508e-01 -5.17711230e-02 7.53535330e-01
      -4.90463264e-02 8.10101032e-01 -2.17983667e-02 7.55555570e-01
      -1.36239789e-02 6.98989928e-01 -1.08991833e-02 3.67676765e-01
      5.83106220e-01 4.24242437e-01 5.20435929e-01 4.90909100e-01
      4.93187964e-01 5.43434322e-01 5.09536743e-01 5.93939424e-01
      4.87738371e-01 6.62626266e-01 5.09536743e-01 7.21212149e-01
      5.69482267e-01 6.66666687e-01 6.15803778e-01 6.02020204e-01
      6.48501337e-01 5.49494922e-01 6.56675696e-01 4.94949490e-01
      6.48501337e-01 4.30303037e-01 6.23978198e-01 3.95959586e-01
      5.77656627e-01 4.90909100e-01 5.55858254e-01 5.43434322e-01
      5.64032674e-01 5.95959604e-01 5.53133488e-01 6.94949508e-01
      5.66757441e-01 5.97979784e-01 5.69482267e-01 5.45454562e-01
      5.80381453e-01 4.92929280e-01 5.69482267e-01</_>
    <_>
      0. 0. 6.19834708e-03 1.74418539e-01 1.85950417e-02 3.43023211e-01
      3.30578499e-02 5.14534831e-01 6.19834699e-02 6.80232525e-01
      1.32231399e-01 8.16860437e-01 2.35537186e-01 9.09883738e-01
      3.47107440e-01 9.73837197e-01 4.75206614e-01 1. 6.07438028e-01
      9.94186044e-01 7.19008267e-01 9.41860437e-01 8.24380159e-01
      8.60465109e-01 8.98760319e-01 7.38372087e-01 9.35950398e-01
      5.75581372e-01 9.58677709e-01 4.12790656e-01 9.81404960e-01
      2.44185984e-01 1. 7.26744235e-02 8.47107470e-02 -1.27906993e-01
      1.46694213e-01 -2.29651183e-01 2.47933879e-01 -2.55813986e-01
      3.49173546e-01 -2.29651183e-01 4.44214880e-01 -1.71511650e-01
      6.01239681e-01 -1.54069781e-01 7.00413227e-01 -1.91860482e-01
      8.03718984e-01 -1.97674438e-01 8.98760319e-01 -1.48255825e-01
      9.48347092e-01 -3.77907008e-02 5.22727251e-01 -5.52325621e-02
      5.16528904e-01 4.06976789e-02 5.10330558e-01 1.33720860e-01
      5.06198347e-01 2.32558072e-01 3.98760319e-01 3.11046451e-01
      4.46280986e-01 3.40116233e-01 5.00000000e-01 3.60465050e-01
      5.55785120e-01 3.48837137e-01 6.05371892e-01 3.28488320e-01
      1.98347107e-01 -3.48837227e-02 2.56198347e-01 -7.26744235e-02
      3.20247948e-01 -6.68604746e-02 3.80165279e-01 -1.16279079e-02
      3.14049602e-01 -1.16279079e-02 2.50000000e-01 -1.74418613e-02
      6.44628108e-01 1.16279079e-02 7.10743785e-01 -3.48837227e-02
      7.72727251e-01 -2.32558157e-02 8.26446295e-01 2.32558157e-02
      7.70661175e-01 3.19767483e-02 7.06611574e-01 2.32558157e-02
      3.34710747e-01 5.63953459e-01 3.92561972e-01 5.05813897e-01
      4.52479333e-01 4.76744145e-01 4.91735548e-01 4.97092992e-01
      5.35123944e-01 4.85465080e-01 5.97107410e-01 5.23255765e-01
      6.50826454e-01 5.93023241e-01 5.90909064e-01 6.22092962e-01
      5.30991733e-01 6.36627853e-01 4.85537201e-01 6.36627853e-01
      4.42148775e-01 6.27906919e-01 3.86363626e-01 6.04651153e-01
      3.61570239e-01 5.58139503e-01 4.50413227e-01 5.49418569e-01
      4.89669412e-01 5.58139503e-01 5.35123944e-01 5.52325547e-01
      6.23966932e-01 5.78488350e-01 5.33057868e-01 5.55232525e-01
      4.89669412e-01 5.61046481e-01 4.48347121e-01 5.49418569e-01</_>
    <_>
      0. 0. 7.29927002e-03 1.67146966e-01 2.18978096e-02 3.34294021e-01
      3.40632610e-02 4.98559117e-01 7.05596134e-02 6.54178679e-01
      1.41119227e-01 7.83861697e-01 2.33576640e-01 8.93371761e-01
      3.40632617e-01 9.76945221e-01 4.69586372e-01 1. 6.00973248e-01
      9.71181571e-01 7.17761576e-01 8.87608051e-01 8.22384417e-01
      7.86743522e-01 9.05109465e-01 6.62824214e-01 9.48905110e-01
      5.12968361e-01 9.78102207e-01 3.51585060e-01 9.92700756e-01
      1.87319875e-01 1. 1.72910653e-02 6.08272515e-02 -6.05187267e-02
      1.31386861e-01 -1.03746392e-01 2.18978107e-01 -9.79826972e-02
      3.06569338e-01 -8.35734829e-02 3.94160599e-01 -6.05187267e-02
      5.57177603e-01 -5.47550395e-02 6.39902651e-01 -7.20461011e-02
      7.20194638e-01 -8.06916356e-02 8.00486624e-01 -8.06916356e-02
      8.73479307e-01 -4.61095050e-02 4.69586372e-01 1.72910653e-02
      4.67153281e-01 1.06628232e-01 4.64720190e-01 1.95965394e-01
      4.62287098e-01 2.91066349e-01 3.67396593e-01 3.65994304e-01
      4.11192209e-01 3.89049053e-01 4.62287098e-01 4.06340122e-01
      5.13382018e-01 3.89049053e-01 5.62043786e-01 3.65994304e-01
      1.75182477e-01 8.64553265e-03 2.31143549e-01 -1.72910653e-02
      2.89537698e-01 -1.15273762e-02 3.45498770e-01 3.45821306e-02
      2.87104636e-01 3.45821306e-02 2.26277366e-01 3.17002870e-02
      6.10705614e-01 4.32276614e-02 6.66666687e-01 5.76368812e-03
      7.22627759e-01 5.76368812e-03 7.78588831e-01 3.45821306e-02
      7.25060821e-01 5.18731959e-02 6.66666687e-01 4.89913486e-02
      2.82238454e-01 5.67723393e-01 3.45498770e-01 5.21613896e-01
      4.11192209e-01 5.04322827e-01 4.59854007e-01 5.21613896e-01
      5.13382018e-01 5.04322827e-01 5.76642334e-01 5.21613896e-01
      6.42335773e-01 5.67723393e-01 5.79075396e-01 6.16714716e-01
      5.15815079e-01 6.39769495e-01 4.62287098e-01 6.48415029e-01
      4.11192209e-01 6.39769495e-01 3.47931862e-01 6.19596601e-01
      3.11435521e-01 5.67723393e-01 4.11192209e-01 5.61959684e-01
      4.59854007e-01 5.67723393e-01 5.13382018e-01 5.59077859e-01
      6.10705614e-01 5.67723393e-01 5.15815079e-01 5.64841509e-01
      4.62287098e-01 5.73487043e-01 4.11192209e-01 5.64841509e-01</_>
    <_>
      0. 0. 1.33037698e-02 1.77325577e-01 3.76940146e-02 3.51744175e-01
      6.20842576e-02 5.23255825e-01 1.08647451e-01 6.86046541e-01
      1.88470066e-01 8.22674394e-01 2.90465623e-01 9.24418628e-01
      4.05764967e-01 9.88372087e-01 5.36585391e-01 1. 6.65188491e-01
      9.79651153e-01 7.64966726e-01 8.95348847e-01 8.55875850e-01
      7.84883738e-01 9.22394693e-01 6.39534891e-01 9.55654085e-01
      4.76744175e-01 9.68957901e-01 3.05232555e-01 9.91130829e-01
      1.33720934e-01 1. -4.06976752e-02 7.53880292e-02 -1.39534891e-01
      1.39689580e-01 -2.12209299e-01 2.28381380e-01 -2.47093022e-01
      3.28159660e-01 -2.58720934e-01 4.25720632e-01 -2.23837212e-01
      5.94235063e-01 -2.29651168e-01 6.87361419e-01 -2.67441869e-01
      7.84922421e-01 -2.67441869e-01 8.73614192e-01 -2.38372087e-01
      9.35698450e-01 -1.59883723e-01 5.07760525e-01 -7.55813941e-02
      5.09977818e-01 3.19767445e-02 5.12195110e-01 1.36627913e-01
      5.14412403e-01 2.50000000e-01 4.32372510e-01 3.66279066e-01
      4.72283810e-01 3.75000000e-01 5.16629696e-01 3.86627913e-01
      5.58758318e-01 3.77906978e-01 6.00886941e-01 3.63372087e-01
      1.79600880e-01 -4.06976752e-02 2.35033259e-01 -9.59302336e-02
      3.08203995e-01 -9.88372117e-02 3.79157424e-01 -3.77906971e-02
      3.08203995e-01 -1.74418613e-02 2.35033259e-01 -1.16279069e-02
      6.34146333e-01 -3.77906971e-02 7.02882469e-01 -1.01744182e-01
      7.76053190e-01 -9.88372117e-02 8.33702862e-01 -4.94186059e-02
      7.80487776e-01 -1.74418613e-02 7.05099761e-01 -2.03488376e-02
      3.32594246e-01 5.98837197e-01 3.99113089e-01 5.29069781e-01
      4.63414639e-01 4.91279066e-01 5.09977818e-01 5.14534891e-01
      5.56541026e-01 4.94186044e-01 6.27494454e-01 5.31976759e-01
      6.98447883e-01 5.95930219e-01 6.29711747e-01 6.19186044e-01
      5.63192904e-01 6.19186044e-01 5.14412403e-01 6.19186044e-01
      4.65631932e-01 6.19186044e-01 4.01330382e-01 6.16279066e-01
      3.56984466e-01 5.87209284e-01 4.65631932e-01 5.52325606e-01
      5.12195110e-01 5.61046541e-01 5.58758318e-01 5.52325606e-01
      6.69623077e-01 5.84302306e-01 5.58758318e-01 5.43604672e-01
      5.12195110e-01 5.52325606e-01 4.63414639e-01 5.43604672e-01</_>
    <_>
      0. 0. 1.11111114e-02 1.73789158e-01 3.33333351e-02 3.47578406e-01
      5.77777773e-02 5.12820542e-01 1.04444444e-01 6.78062677e-01
      1.84444442e-01 8.11965823e-01 2.86666662e-01 9.14529920e-01
      3.97777766e-01 9.85754967e-01 5.24444461e-01 1. 6.51111126e-01
      9.77207959e-01 7.55555570e-01 8.94586921e-01 8.48888874e-01
      7.83475816e-01 9.20000017e-01 6.41025662e-01 9.57777798e-01
      4.84330535e-01 9.73333359e-01 3.16239387e-01 9.95555580e-01
      1.48148134e-01 1. -2.56410241e-02 7.99999982e-02 -1.11111104e-01
      1.53333336e-01 -1.70940161e-01 2.46666670e-01 -1.79487169e-01
      3.46666664e-01 -1.65242150e-01 4.44444448e-01 -1.25356108e-01
      5.68888903e-01 -1.22507110e-01 6.57777786e-01 -1.68091148e-01
      7.55555570e-01 -1.90883175e-01 8.51111114e-01 -1.96581185e-01
      9.26666677e-01 -1.36752129e-01 5.06666660e-01 -4.84330431e-02
      5.06666660e-01 5.69800511e-02 5.08888900e-01 1.59544140e-01
      5.11111140e-01 2.67806321e-01 4.26666677e-01 3.76068443e-01
      4.68888879e-01 3.84615451e-01 5.13333321e-01 3.93162459e-01
      5.60000002e-01 3.81766438e-01 6.04444444e-01 3.70370418e-01
      1.82222217e-01 -2.56410241e-02 2.39999995e-01 -6.26780540e-02
      3.08888882e-01 -6.55270591e-02 3.77777785e-01 -1.70940161e-02
      3.08888882e-01 -5.69800520e-03 2.39999995e-01 -2.84900260e-03
      6.37777805e-01 -2.27920208e-02 7.04444468e-01 -7.40740672e-02
      7.75555551e-01 -7.40740672e-02 8.33333313e-01 -3.70370336e-02
      7.75555551e-01 -8.54700804e-03 7.06666648e-01 -1.13960104e-02
      3.31111103e-01 5.75498641e-01 3.97777766e-01 5.24216592e-01
      4.66666669e-01 5.01424551e-01 5.15555561e-01 5.18518567e-01
      5.62222242e-01 4.98575538e-01 6.33333325e-01 5.21367550e-01
      6.99999988e-01 5.75498641e-01 6.35555565e-01 6.21082664e-01
      5.66666663e-01 6.43874645e-01 5.15555561e-01 6.46723688e-01
      4.62222219e-01 6.46723688e-01 3.93333346e-01 6.26780689e-01
      3.60000014e-01 5.69800615e-01 4.66666669e-01 5.52706599e-01
      5.17777801e-01 5.66951632e-01 5.64444423e-01 5.58404624e-01
      6.71111107e-01 5.66951632e-01 5.62222242e-01 5.47008574e-01
      5.13333321e-01 5.58404624e-01 4.64444458e-01 5.49857616e-01</_>
    <_>
      0. 0. 1.06837610e-02 1.64420485e-01 3.20512839e-02 3.23450148e-01
      5.12820520e-02 4.87870634e-01 9.40170959e-02 6.38814032e-01
      1.62393168e-01 7.70889461e-01 2.56410271e-01 8.84097040e-01
      3.65384609e-01 9.70350385e-01 4.95726496e-01 1. 6.34615362e-01
      9.73045826e-01 7.62820542e-01 8.81401598e-01 8.65384638e-01
      7.60107815e-01 9.33760703e-01 6.11859858e-01 9.70085442e-01
      4.55525607e-01 9.87179458e-01 2.91105121e-01 1. 1.26684636e-01
      9.97863233e-01 -3.77358496e-02 5.98290600e-02 -7.27762803e-02
      1.21794872e-01 -1.53638810e-01 2.17948720e-01 -1.69811323e-01
      3.16239327e-01 -1.45552561e-01 4.18803424e-01 -1.05121292e-01
      5.27777791e-01 -1.07816711e-01 6.26068354e-01 -1.59029648e-01
      7.26495743e-01 -1.88679248e-01 8.26923072e-01 -1.77897573e-01
      8.99572670e-01 -1.05121292e-01 4.74358976e-01 -1.61725059e-02
      4.74358976e-01 7.81671181e-02 4.74358976e-01 1.72506735e-01
      4.74358976e-01 2.69541770e-01 4.01709408e-01 3.82749319e-01
      4.38034177e-01 3.98921847e-01 4.78632480e-01 4.07008082e-01
      5.21367550e-01 3.96226406e-01 5.61965823e-01 3.80053908e-01
      1.66666672e-01 2.69541773e-03 2.22222224e-01 -4.58221026e-02
      2.92735040e-01 -4.85175215e-02 3.54700863e-01 2.15633418e-02
      2.88461536e-01 4.31266837e-02 2.17948720e-01 4.58221026e-02
      6.08974338e-01 1.07816709e-02 6.68803394e-01 -6.19946085e-02
      7.41452992e-01 -6.19946085e-02 7.99145281e-01 -1.88679248e-02
      7.47863233e-01 2.96495948e-02 6.77350402e-01 3.23450118e-02
      3.16239327e-01 6.17250681e-01 3.76068383e-01 5.84905684e-01
      4.38034177e-01 5.63342333e-01 4.82905984e-01 5.82210243e-01
      5.27777791e-01 5.63342333e-01 5.98290622e-01 5.84905684e-01
      6.77350402e-01 6.14555240e-01 6.02564096e-01 6.79245293e-01
      5.32051265e-01 7.08894908e-01 4.85042721e-01 7.14285731e-01
      4.35897440e-01 7.06199467e-01 3.76068383e-01 6.76549852e-01
      3.44017088e-01 6.17250681e-01 4.38034177e-01 6.22641504e-01
      4.82905984e-01 6.33423209e-01 5.29914558e-01 6.25336945e-01
      6.47435904e-01 6.14555240e-01 5.27777791e-01 6.36118591e-01
      4.82905984e-01 6.46900296e-01 4.38034177e-01 6.36118591e-01</_>
    <_>
      0. 0. 2.16919743e-02 1.76100627e-01 4.33839485e-02 3.45911950e-01
      6.94143176e-02 5.22012591e-01 1.08459868e-01 6.85534596e-01
      1.73535794e-01 8.20754707e-01 2.68980473e-01 9.24528301e-01
      3.77440333e-01 9.84276712e-01 5.14099777e-01 1. 6.50759220e-01
      9.62264180e-01 7.67895877e-01 8.86792481e-01 8.74186575e-01
      7.83018887e-01 9.47939277e-01 6.41509414e-01 9.84815598e-01
      4.74842757e-01 9.95661616e-01 2.92452842e-01 1. 9.74842757e-02 1.
      -9.11949649e-02 4.33839485e-02 -1.63522020e-01 9.32754874e-02
      -2.70440251e-01 1.84381783e-01 -2.98742145e-01 2.79826462e-01
      -2.79874206e-01 3.83947939e-01 -2.54716992e-01 5.40130138e-01
      -2.57861644e-01 6.33405626e-01 -3.01886797e-01 7.28850305e-01
      -3.36477995e-01 8.26464236e-01 -3.23899359e-01 8.93709302e-01
      -2.32704401e-01 4.59869862e-01 -1.66666672e-01 4.57700640e-01
      -7.86163509e-02 4.55531448e-01 6.28930796e-03 4.53362256e-01
      1.00628927e-01 3.77440333e-01 2.23270446e-01 4.20824289e-01
      2.48427674e-01 4.72885042e-01 2.64150947e-01 5.24945796e-01
      2.35849053e-01 5.72668135e-01 2.04402521e-01 1.56182215e-01
      -8.49056616e-02 2.08242953e-01 -1.41509429e-01 2.73318887e-01
      -1.47798747e-01 3.42733175e-01 -9.43396240e-02 2.73318887e-01
      -7.86163509e-02 2.10412145e-01 -7.23270476e-02 6.00867689e-01
      -1.16352201e-01 6.63774431e-01 -1.76100627e-01 7.31019497e-01
      -1.79245278e-01 7.91757047e-01 -1.35220125e-01 7.35357940e-01
      -1.10062890e-01 6.65943623e-01 -1.10062890e-01 3.31887215e-01
      5.15723288e-01 3.75271142e-01 4.21383649e-01 4.29501086e-01
      3.80503148e-01 4.81561810e-01 3.99371058e-01 5.27114987e-01
      3.77358496e-01 5.92190862e-01 4.08805043e-01 6.61605179e-01
      5.06289303e-01 6.00867689e-01 5.56603789e-01 5.40130138e-01
      5.72327018e-01 4.90238607e-01 5.78616381e-01 4.38177884e-01
      5.72327018e-01 3.81778747e-01 5.56603789e-01 3.62255961e-01
      5.00000000e-01 4.33839470e-01 4.59119499e-01 4.83731031e-01
      4.62264150e-01 5.31453371e-01 4.52830195e-01 6.26898050e-01
      4.90566045e-01 5.31453371e-01 4.65408802e-01 4.85900223e-01
      4.74842757e-01 4.36008662e-01 4.68553454e-01</_>
    <_>
      0. 0. 2.20750552e-03 1.65644169e-01 1.10375276e-02 3.25153381e-01
      2.20750552e-02 4.90797549e-01 5.29801324e-02 6.53374255e-01
      1.16997793e-01 7.97546029e-01 2.16335535e-01 9.04908001e-01
      3.37748349e-01 9.78527606e-01 4.76821184e-01 1. 6.15894020e-01
      9.81595099e-01 7.43929386e-01 9.23312902e-01 8.49889636e-01
      8.28220844e-01 9.20529783e-01 6.96319044e-01 9.58057404e-01
      5.36809802e-01 9.77924943e-01 3.77300620e-01 9.91169989e-01
      2.14723930e-01 1. 4.29447852e-02 7.94702023e-02 -1.25766873e-01
      1.41280353e-01 -2.08588958e-01 2.29580581e-01 -2.26993859e-01
      3.17880809e-01 -2.17791408e-01 4.01766002e-01 -1.84049085e-01
      5.65121412e-01 -2.05521479e-01 6.55629158e-01 -2.33128831e-01
      7.46136844e-01 -2.39263803e-01 8.34437072e-01 -2.08588958e-01
      8.98454726e-01 -1.31901845e-01 4.81236190e-01 -8.58895704e-02
      4.76821184e-01 1.84049085e-02 4.72406179e-01 1.22699387e-01
      4.67991173e-01 2.30061352e-01 3.75275940e-01 3.19018394e-01
      4.19426054e-01 3.43558282e-01 4.70198661e-01 3.61963183e-01
      5.25386333e-01 3.49693239e-01 5.71743906e-01 3.31288338e-01
      1.76600441e-01 -3.06748468e-02 2.31788084e-01 -7.97545984e-02
      2.95805752e-01 -8.28220844e-02 3.55408400e-01 -2.76073627e-02
      2.95805752e-01 -1.53374234e-02 2.31788084e-01 -9.20245424e-03
      6.11479044e-01 -2.76073627e-02 6.75496697e-01 -8.28220844e-02
      7.39514351e-01 -7.36196339e-02 7.90286958e-01 -2.45398767e-02
      7.39514351e-01 -6.13496918e-03 6.77704215e-01 -9.20245424e-03
      2.56070644e-01 5.88957071e-01 3.28918308e-01 5.03067493e-01
      4.12803531e-01 4.66257662e-01 4.67991173e-01 4.81595099e-01
      5.29801309e-01 4.69325155e-01 6.22516572e-01 5.18404901e-01
      7.01986730e-01 6.07361972e-01 6.24724090e-01 6.80981576e-01
      5.34216344e-01 7.11656451e-01 4.67991173e-01 7.17791438e-01
      4.08388525e-01 7.08588958e-01 3.24503303e-01 6.68711662e-01
      2.89183229e-01 5.85889578e-01 4.12803531e-01 5.49079776e-01
      4.67991173e-01 5.55214703e-01 5.32008827e-01 5.52147210e-01
      6.68874145e-01 6.01226985e-01 5.29801309e-01 6.22699380e-01
      4.67991173e-01 6.22699380e-01 4.10596013e-01 6.16564393e-01</_>
    <_>
      4.55580885e-03 0. 0. 1.74342111e-01 6.83371304e-03 3.48684222e-01
      2.73348521e-02 5.19736826e-01 7.06150308e-02 6.80921078e-01
      1.45785883e-01 8.15789461e-01 2.46013671e-01 9.21052635e-01
      3.62186790e-01 9.80263174e-01 5.05694747e-01 1. 6.53758526e-01
      9.76973712e-01 7.67653763e-01 9.11184192e-01 8.65603626e-01
      8.05921078e-01 9.33940768e-01 6.61184192e-01 9.68109310e-01
      4.96710539e-01 9.84054685e-01 3.32236856e-01 9.97722089e-01
      1.67763159e-01 1. 0. 7.28929415e-02 -1.90789476e-01 1.45785883e-01
      -2.82894731e-01 2.43735760e-01 -3.05921048e-01 3.41685653e-01
      -2.86184222e-01 4.37357634e-01 -2.46710524e-01 5.87699294e-01
      -2.23684207e-01 6.81093395e-01 -2.53289461e-01 7.74487495e-01
      -2.69736856e-01 8.65603626e-01 -2.40131572e-01 9.22551274e-01
      -1.51315793e-01 5.12528479e-01 -1.05263159e-01 5.10250568e-01 0.
      5.10250568e-01 9.86842141e-02 5.10250568e-01 2.03947365e-01
      3.82687926e-01 2.89473683e-01 4.41913426e-01 3.15789461e-01
      5.07972658e-01 3.38815778e-01 5.74031889e-01 3.15789461e-01
      6.30979478e-01 2.89473683e-01 1.75398633e-01 -7.56578967e-02
      2.36902043e-01 -1.25000000e-01 3.05239171e-01 -1.21710524e-01
      3.71298403e-01 -5.92105277e-02 3.05239171e-01 -4.93421070e-02
      2.34624147e-01 -4.60526310e-02 6.37813210e-01 -4.93421070e-02
      7.03872442e-01 -1.11842103e-01 7.72209585e-01 -1.08552635e-01
      8.26879263e-01 -5.59210517e-02 7.72209585e-01 -3.28947380e-02
      7.03872442e-01 -3.61842103e-02 3.05239171e-01 5.36184192e-01
      3.75854224e-01 4.40789461e-01 4.55580860e-01 3.94736856e-01
      5.10250568e-01 4.14473683e-01 5.74031889e-01 3.98026317e-01
      6.51480615e-01 4.44078952e-01 7.12984025e-01 5.39473712e-01
      6.51480615e-01 6.05263174e-01 5.71753979e-01 6.44736826e-01
      5.07972658e-01 6.51315808e-01 4.46469247e-01 6.44736826e-01
      3.71298403e-01 6.08552635e-01 3.39407742e-01 5.32894731e-01
      4.53302950e-01 5.00000000e-01 5.10250568e-01 5.09868443e-01
      5.74031889e-01 5.03289461e-01 6.81093395e-01 5.36184192e-01
      5.71753979e-01 5.19736826e-01 5.07972658e-01 5.26315808e-01
      4.51025069e-01 5.16447365e-01</_>
    <_>
      0. 0. 4.38596494e-03 1.68711662e-01 2.19298247e-02 3.31288338e-01
      4.16666679e-02 5.00000000e-01 8.11403543e-02 6.59509182e-01
      1.42543852e-01 7.94478536e-01 2.34649122e-01 8.98773015e-01
      3.39912295e-01 9.72392619e-01 4.64912295e-01 1. 5.92105269e-01
      9.84662592e-01 7.06140339e-01 9.23312902e-01 8.04824591e-01
      8.25153351e-01 8.75000000e-01 6.96319044e-01 9.23245609e-01
      5.42944789e-01 9.56140339e-01 3.86503071e-01 9.84649122e-01
      2.23926380e-01 1. 5.52147254e-02 9.21052620e-02 -1.31901845e-01
      1.60087720e-01 -2.05521479e-01 2.54385978e-01 -2.11656436e-01
      3.48684222e-01 -1.80981591e-01 4.38596487e-01 -1.28834352e-01
      5.72368443e-01 -1.13496929e-01 6.64473712e-01 -1.62576690e-01
      7.60964930e-01 -1.80981591e-01 8.53070199e-01 -1.62576690e-01
      9.14473712e-01 -7.66871199e-02 5.04385948e-01 -1.84049085e-02
      5.00000000e-01 7.36196339e-02 4.95614022e-01 1.62576690e-01
      4.93421048e-01 2.57668704e-01 3.92543852e-01 3.68098170e-01
      4.36403513e-01 3.83435577e-01 4.86842096e-01 3.98773015e-01
      5.37280679e-01 3.92638028e-01 5.85526288e-01 3.80368084e-01
      1.97368428e-01 -3.06748459e-03 2.52192974e-01 -3.37423310e-02
      3.13596487e-01 -3.37423310e-02 3.75000000e-01 1.53374234e-02
      3.11403513e-01 2.76073627e-02 2.50000000e-01 2.76073627e-02
      6.29385948e-01 3.37423310e-02 6.90789461e-01 -1.22699384e-02
      7.52192974e-01 -3.06748459e-03 8.04824591e-01 3.68098170e-02
      7.50000000e-01 5.82822077e-02 6.86403513e-01 4.90797535e-02
      3.07017535e-01 6.04294479e-01 3.79385978e-01 5.70552170e-01
      4.38596487e-01 5.52147210e-01 4.78070170e-01 5.67484677e-01
      5.17543852e-01 5.58282197e-01 5.78947365e-01 5.79754591e-01
      6.51315808e-01 6.22699380e-01 5.78947365e-01 6.44171774e-01
      5.13157904e-01 6.47239268e-01 4.73684222e-01 6.47239268e-01
      4.32017535e-01 6.41104281e-01 3.75000000e-01 6.31901860e-01
      3.35526317e-01 6.01226985e-01 4.38596487e-01 5.85889578e-01
      4.78070170e-01 5.98159492e-01 5.17543852e-01 5.95091999e-01
      6.25000000e-01 6.16564393e-01 5.15350878e-01 5.98159492e-01
      4.75877196e-01 6.01226985e-01 4.36403513e-01 5.88957071e-01</_>
    <_>
      0. 0. 4.38596494e-03 1.59509182e-01 1.97368413e-02 3.22085857e-01
      3.50877196e-02 4.90797579e-01 6.35964945e-02 6.53374255e-01
      1.29385963e-01 7.85276115e-01 2.23684207e-01 8.89570534e-01
      3.33333343e-01 9.66257691e-01 4.62719291e-01 1. 5.96491218e-01
      9.84662592e-01 7.14912295e-01 9.17177916e-01 8.15789461e-01
      8.15950930e-01 8.85964930e-01 6.87116623e-01 9.25438583e-01
      5.33742368e-01 9.53947365e-01 3.74233097e-01 9.78070199e-01
      2.20858872e-01 1. 6.13496862e-02 7.67543837e-02 -1.28834337e-01
      1.46929830e-01 -2.05521449e-01 2.43421048e-01 -2.17791393e-01
      3.39912295e-01 -1.90184027e-01 4.36403513e-01 -1.50306731e-01
      5.85526288e-01 -1.38036802e-01 6.79824591e-01 -1.74846604e-01
      7.80701756e-01 -1.93251520e-01 8.72807026e-01 -1.59509182e-01
      9.29824591e-01 -6.74846545e-02 5.02192974e-01 -2.45398749e-02
      4.97807026e-01 6.44171685e-02 4.91228074e-01 1.47239253e-01
      4.84649122e-01 2.39263788e-01 3.90350878e-01 3.25153351e-01
      4.32017535e-01 3.49693209e-01 4.82456148e-01 3.74233097e-01
      5.30701756e-01 3.58895659e-01 5.76754391e-01 3.37423295e-01
      1.95175439e-01 -1.22699374e-02 2.56578952e-01 -2.76073590e-02
      3.13596487e-01 -2.45398749e-02 3.75000000e-01 9.20245331e-03
      3.07017535e-01 1.22699374e-02 2.50000000e-01 6.13496872e-03
      6.29385948e-01 2.45398749e-02 6.95175409e-01 -3.06748436e-03
      7.52192974e-01 3.06748436e-03 8.09210539e-01 2.76073590e-02
      7.50000000e-01 3.68098132e-02 6.90789461e-01 3.06748431e-02
      3.02631587e-01 5.36809862e-01 3.75000000e-01 5.00000060e-01
      4.36403513e-01 4.78527665e-01 4.75877196e-01 4.93865073e-01
      5.13157904e-01 4.84662622e-01 5.72368443e-01 5.09202480e-01
      6.42543852e-01 5.58282256e-01 5.72368443e-01 5.85889637e-01
      5.15350878e-01 6.04294538e-01 4.73684222e-01 6.07361972e-01
      4.29824561e-01 6.01227045e-01 3.70614022e-01 5.76687157e-01
      3.35526317e-01 5.39877355e-01 4.32017535e-01 5.33742368e-01
      4.73684222e-01 5.42944849e-01 5.13157904e-01 5.36809862e-01
      6.11842096e-01 5.52147269e-01 5.13157904e-01 5.39877355e-01
      4.75877196e-01 5.46012342e-01 4.34210539e-01 5.36809862e-01</_>
    <_>
      0. 0. 1.29870130e-02 1.77710921e-01 3.46320346e-02 3.49397659e-01
      6.27705604e-02 5.15060306e-01 1.14718616e-01 6.71686769e-01
      1.99134201e-01 8.04216862e-01 3.05194795e-01 9.06626523e-01
      4.19913411e-01 9.81927693e-01 5.41125536e-01 1. 6.60173178e-01
      9.78915691e-01 7.59740233e-01 8.85542154e-01 8.48484874e-01
      7.74096429e-01 9.13419902e-01 6.32530153e-01 9.54545438e-01
      4.72891629e-01 9.74025965e-01 3.13253075e-01 9.91342008e-01
      1.44578397e-01 1. -3.01204789e-02 9.74025950e-02 -6.32530078e-02
      1.73160180e-01 -1.26506016e-01 2.72727281e-01 -1.44578293e-01
      3.70129883e-01 -1.23493962e-01 4.69696969e-01 -9.33734849e-02
      5.86580098e-01 -9.93975848e-02 6.79653704e-01 -1.35542154e-01
      7.74891794e-01 -1.56626493e-01 8.63636374e-01 -1.35542154e-01
      9.28571403e-01 -5.72289117e-02 5.32467544e-01 -1.20481914e-02
      5.36796510e-01 1.08433820e-01 5.38961053e-01 2.28915736e-01
      5.43290019e-01 3.49397659e-01 4.50216442e-01 4.09638613e-01
      4.95671004e-01 4.27710891e-01 5.45454562e-01 4.48795229e-01
      5.90909064e-01 4.30722952e-01 6.32034659e-01 4.09638613e-01
      2.18614712e-01 9.03614331e-03 2.74891764e-01 -2.40963828e-02
      3.39826852e-01 -3.31325270e-02 3.98268402e-01 1.50602395e-02
      3.39826852e-01 3.01204789e-02 2.74891764e-01 3.61445732e-02
      6.49350643e-01 1.80722866e-02 7.05627680e-01 -3.01204789e-02
      7.70562768e-01 -2.40963828e-02 8.26839805e-01 1.50602395e-02
      7.70562768e-01 4.21686694e-02 7.05627680e-01 3.31325270e-02
      3.65800858e-01 5.81325352e-01 4.30735916e-01 5.63253045e-01
      4.95671004e-01 5.54216921e-01 5.43290019e-01 5.75301230e-01
      5.86580098e-01 5.51204860e-01 6.47186160e-01 5.63253045e-01
      7.01298714e-01 5.90361476e-01 6.47186160e-01 6.35542214e-01
      5.93073606e-01 6.71686769e-01 5.45454562e-01 6.80722892e-01
      4.97835487e-01 6.71686769e-01 4.32900429e-01 6.35542214e-01
      3.89610380e-01 5.84337413e-01 4.95671004e-01 5.99397600e-01
      5.45454562e-01 6.14457846e-01 5.88744581e-01 5.99397600e-01
      6.79653704e-01 5.90361476e-01 5.90909064e-01 5.87349415e-01
      5.45454562e-01 5.99397600e-01 4.97835487e-01 5.84337413e-01</_>
    <_>
      0. 0. 1.74672492e-02 1.64383560e-01 4.14847173e-02 3.23287666e-01
      6.33187741e-02 4.82191771e-01 1.04803495e-01 6.38356149e-01
      1.74672484e-01 7.78082192e-01 2.70742357e-01 8.95890415e-01
      3.84279490e-01 9.78082180e-01 5.32751083e-01 1. 6.85589492e-01
      9.75342453e-01 8.03493440e-01 8.84931505e-01 8.97379935e-01
      7.56164372e-01 9.56331849e-01 5.97260296e-01 9.80349362e-01
      4.30136979e-01 9.84716177e-01 2.63013691e-01 9.93449807e-01
      1.01369865e-01 1. -5.75342476e-02 7.20524043e-02 -1.34246573e-01
      1.33187771e-01 -2.32876718e-01 2.35807866e-01 -2.63013691e-01
      3.38427961e-01 -2.38356158e-01 4.38864619e-01 -1.91780820e-01
      5.54585159e-01 -1.91780820e-01 6.52838409e-01 -2.49315068e-01
      7.55458534e-01 -2.82191783e-01 8.60262036e-01 -2.65753418e-01
      9.27947581e-01 -1.69863015e-01 4.95633185e-01 -1.53424650e-01
      4.97816592e-01 -4.93150689e-02 4.97816592e-01 5.20547964e-02
      5.00000000e-01 1.61643833e-01 3.93013090e-01 2.43835613e-01
      4.47598249e-01 2.68493146e-01 5.13100445e-01 2.90410966e-01
      5.76419234e-01 2.65753418e-01 6.33187771e-01 2.35616446e-01
      1.81222707e-01 -7.12328777e-02 2.33624458e-01 -1.06849313e-01
      2.94759840e-01 -1.17808223e-01 3.64628822e-01 -9.86301377e-02
      3.01310033e-01 -7.94520527e-02 2.40174666e-01 -6.84931502e-02
      6.39737964e-01 -1.15068495e-01 7.09607005e-01 -1.39726028e-01
      7.70742357e-01 -1.34246573e-01 8.27510893e-01 -1.04109593e-01
      7.68558979e-01 -9.31506827e-02 7.07423568e-01 -1.01369865e-01
