<?xml version="1.0"?>
<opencv_storage>
<opencv_ml_svm>
  <format>3</format>
  <svmType>C_SVC</svmType>
  <kernel>
    <type>LINEAR</type></kernel>
  <C>1.</C>
  <term_criteria><iterations>100</iterations></term_criteria>
  <var_count>136</var_count>
  <class_count>2</class_count>
  <class_labels type_id="opencv-matrix">
    <rows>2</rows>
    <cols>1</cols>
    <dt>i</dt>
    <data>
      -1082130432 1065353216</data></class_labels>
  <sv_total>1</sv_total>
  <support_vectors>
    <_>
      -1.06388121e-03 0. -6.89105019e-02 -1.25031039e-01 -1.26085877e-01
      -1.49857044e-01 -4.91958149e-02 -3.15366834e-01 1.91018790e-01
      -4.59143698e-01 2.37133384e-01 -3.85346800e-01 1.20311111e-01
      -3.77029814e-02 -1.05908012e-03 -1.06803002e-02 -2.53186617e-02
      -3.15126181e-02 -2.03788765e-02 2.65922546e-02 -7.67290667e-02
      8.85375217e-02 -2.27292553e-01 -2.66316324e-01 -2.62841463e-01
      -3.90098453e-01 -8.56057480e-02 -2.34273404e-01 2.47021876e-02
      -1.50500610e-01 3.13998833e-02 -4.71491627e-02 -5.22297807e-02
      1.73432529e-01 -2.43737429e-01 -2.73864511e-02 -3.97842854e-01
      -3.24413925e-01 -4.03030187e-01 -3.91938150e-01 -4.13597375e-01
      -7.72370100e-02 -4.37062860e-01 1.01191394e-01 2.38257572e-01
      7.48091415e-02 2.34509215e-01 -1.35510713e-01 2.34861270e-01
      -2.99142569e-01 2.18597010e-01 -1.00896321e-01 7.28350878e-02
      9.17460546e-02 -9.01766270e-02 -6.35429472e-02 -4.09879424e-02
      -1.84967034e-02 -1.89676825e-02 -2.85333563e-02 -3.95398447e-03
      -2.48859357e-02 -6.11220039e-02 1.22276647e-02 -3.54328826e-02
      -1.73172519e-01 -3.90714817e-02 -3.25970888e-01 -3.80767472e-02
      -1.46674737e-01 1.92607455e-02 1.03025548e-01 -4.73957546e-02
      -5.12247235e-02 -1.39108196e-01 -3.71285975e-02 -7.79812112e-02
      -4.88431454e-02 -1.45830274e-01 -4.32654694e-02 -7.74082243e-02
      9.54551771e-02 -1.48660377e-01 1.33548051e-01 7.29610696e-02
      3.12335547e-02 4.57662232e-02 9.18356255e-02 9.74604040e-02
      9.71421525e-02 -6.19263994e-03 4.13278267e-02 1.04456358e-01
      2.30062559e-01 5.68073094e-02 2.01132655e-01 3.39423954e-01
      -3.78300399e-01 2.91835278e-01 1.16151288e-01 2.65654624e-01
      -7.17703393e-03 -3.49785946e-03 -1.54453358e-02 -1.65517196e-01
      1.06290933e-02 -1.82011366e-01 1.27169043e-01 -1.55572489e-01
      -2.72710115e-01 -2.08851308e-01 -2.43955255e-01 -1.60415292e-01
      2.55408976e-02 3.11534740e-02 3.92628228e-03 2.52863228e-01
      7.78123084e-03 3.20599616e-01 -2.50897944e-01 3.55509132e-01
      -2.04128519e-01 2.69123495e-01 2.68911779e-01 -7.50818569e-03
      3.21234375e-01 -1.90249041e-01 2.73017883e-01 -1.39583826e-01
      -1.42952561e-01 -1.80697963e-01 -9.70583409e-02 3.34741361e-02
      -1.50288297e-02 2.71435469e-01 -1.03198551e-01</_></support_vectors>
  <uncompressed_sv_total>179</uncompressed_sv_total>
  <uncompressed_support_vectors>
    <_>
      0. 0. 2.21674871e-02 1.70278624e-01 5.17241396e-02 3.31269324e-01
      8.62068981e-02 4.86068159e-01 1.37931034e-01 6.31578982e-01
      2.09359601e-01 7.61609912e-01 3.00492615e-01 8.76160979e-01
      4.06403929e-01 9.69040275e-01 5.29556632e-01 1. 6.50246322e-01
      9.75232184e-01 7.56157637e-01 8.82352948e-01 8.47290635e-01
      7.58513927e-01 9.13793087e-01 6.13003135e-01 9.53201950e-01
      4.52012450e-01 9.75369453e-01 2.91021645e-01 9.92610812e-01
      1.26934975e-01 1. -4.64396253e-02 8.62068981e-02 3.71516980e-02
      1.65024623e-01 -1.54798748e-02 2.61083752e-01 -1.85758490e-02
      3.59605908e-01 9.28792451e-03 4.63054180e-01 3.09597496e-02
      5.83743870e-01 1.54798748e-02 6.74876869e-01 -2.78637744e-02
      7.63546824e-01 -7.12074265e-02 8.59605908e-01 -8.35913271e-02
      9.33497548e-01 -3.71516980e-02 5.19704461e-01 9.28792506e-02
      5.24630547e-01 1.88854471e-01 5.27093589e-01 2.81733721e-01
      5.32019675e-01 3.80804926e-01 4.33497548e-01 4.33436573e-01
      4.82758611e-01 4.52012450e-01 5.32019675e-01 4.67492312e-01
      5.83743870e-01 4.52012450e-01 6.25615776e-01 4.30340618e-01
      2.06896558e-01 1.08359121e-01 2.63546795e-01 8.66872966e-02
      3.25123161e-01 7.73993731e-02 3.86699498e-01 1.08359121e-01
      3.27586204e-01 1.26934975e-01 2.66009837e-01 1.33126929e-01
      6.47783279e-01 9.28792506e-02 7.06896544e-01 4.95355986e-02
      7.68472910e-01 4.33436483e-02 8.25123131e-01 6.19194992e-02
      7.75862098e-01 9.90711972e-02 7.14285731e-01 1.02167174e-01
      3.52216750e-01 5.94427288e-01 4.23645318e-01 5.69659472e-01
      4.82758611e-01 5.57275593e-01 5.24630547e-01 5.69659472e-01
      5.71428597e-01 5.60371578e-01 6.33004904e-01 5.69659472e-01
      7.01970458e-01 6.00619256e-01 6.35468006e-01 6.43962860e-01
      5.73891640e-01 6.56346798e-01 5.29556632e-01 6.59442782e-01
      4.85221684e-01 6.53250813e-01 4.26108360e-01 6.31578982e-01
      3.81773412e-01 5.88235319e-01 4.85221684e-01 5.88235319e-01
      5.27093589e-01 5.97523272e-01 5.73891640e-01 5.91331303e-01
      6.72413766e-01 5.94427288e-01 5.71428597e-01 6.00619256e-01
      5.27093589e-01 6.06811166e-01 4.85221684e-01 5.94427288e-01</_>
    <_>
      0. 0. 5.69800567e-03 1.87265918e-01 1.13960113e-02 3.63295883e-01
      2.84900293e-02 5.31835198e-01 7.69230798e-02 6.85393274e-01
      1.53846160e-01 8.12734067e-01 2.56410271e-01 9.10112381e-01
      3.73219371e-01 9.77528095e-01 4.98575509e-01 1. 6.26780629e-01
      9.81273413e-01 7.40740716e-01 9.13857698e-01 8.37606847e-01
      8.23970020e-01 8.97435904e-01 6.92883909e-01 9.37321961e-01
      5.54307103e-01 9.60113943e-01 3.89513105e-01 9.82905984e-01
      2.24719107e-01 1. 5.61797768e-02 1.31054133e-01 -4.49438207e-02
      2.07977206e-01 -1.34831458e-01 3.13390315e-01 -1.68539330e-01
      4.21652436e-01 -1.61048695e-01 5.27065516e-01 -1.23595506e-01
      5.92592597e-01 -1.08614229e-01 6.98005676e-01 -1.31086141e-01
      8.00569773e-01 -1.31086141e-01 8.94586921e-01 -8.98876414e-02
      9.45868969e-01 1.49812736e-02 5.64102590e-01 -3.74531820e-02
      5.66951573e-01 5.99250942e-02 5.69800556e-01 1.61048695e-01
      5.69800556e-01 2.62172282e-01 4.38746452e-01 3.40823978e-01
      4.92877483e-01 3.63295883e-01 5.49857557e-01 3.85767788e-01
      6.03988588e-01 3.78277153e-01 6.55270636e-01 3.63295883e-01
      2.45014250e-01 -1.49812736e-02 3.01994294e-01 -5.24344556e-02
      3.64672363e-01 -5.61797768e-02 4.18803424e-01 0. 3.61823350e-01
      3.74531839e-03 2.99145311e-01 7.49063678e-03 6.66666687e-01
      1.87265910e-02 7.23646700e-01 -2.62172278e-02 7.92022765e-01
      -1.49812736e-02 8.40455830e-01 4.11985032e-02 7.86324799e-01
      5.24344556e-02 7.23646700e-01 4.11985032e-02 3.70370358e-01
      6.44194782e-01 4.27350432e-01 5.58052421e-01 4.95726496e-01
      5.28089881e-01 5.38461566e-01 5.50561786e-01 5.78347564e-01
      5.43071151e-01 6.38176620e-01 5.99250913e-01 6.83760703e-01
      7.04119861e-01 6.21082604e-01 6.92883909e-01 5.61253548e-01
      6.77902639e-01 5.21367550e-01 6.74157321e-01 4.78632480e-01
      6.59176052e-01 4.21652436e-01 6.47940099e-01 4.01709408e-01
      6.29213512e-01 4.90028501e-01 5.88014960e-01 5.32763541e-01
      6.02996230e-01 5.72649598e-01 6.06741548e-01 6.49572670e-01
      6.85393274e-01 5.66951573e-01 6.10486865e-01 5.27065516e-01
      6.06741548e-01 4.84330475e-01 5.91760278e-01</_>
    <_>
      0. 0. 0. 1.69611320e-01 5.69800567e-03 3.39222550e-01
      2.27920227e-02 4.98233169e-01 6.83760718e-02 6.50176644e-01
      1.45299152e-01 7.87985861e-01 2.47863248e-01 8.97526503e-01
      3.61823350e-01 9.78798568e-01 4.95726496e-01 1. 6.32478654e-01
      9.78798568e-01 7.40740716e-01 9.01060045e-01 8.37606847e-01
      7.98586547e-01 9.03133929e-01 6.64310932e-01 9.43019927e-01
      5.19434571e-01 9.60113943e-01 3.67491096e-01 9.80057001e-01
      2.15547726e-01 1. 6.00706786e-02 1.36752144e-01 -3.18021253e-02
      2.16524214e-01 -9.89399403e-02 3.19088310e-01 -1.13074221e-01
      4.21652436e-01 -9.89399403e-02 5.21367550e-01 -7.06713870e-02
      5.98290622e-01 -5.30035384e-02 6.95156693e-01 -7.42049515e-02
      7.92022765e-01 -8.12720954e-02 8.83190870e-01 -6.36042506e-02
      9.40170944e-01 1.76678468e-02 5.55555582e-01 0. 5.58404565e-01
      9.18728039e-02 5.58404565e-01 1.76678464e-01 5.61253548e-01
      2.75618285e-01 4.33048427e-01 3.53356808e-01 4.84330475e-01
      3.71024668e-01 5.44159532e-01 3.92226070e-01 5.98290622e-01
      3.81625384e-01 6.41025662e-01 3.67491096e-01 2.39316240e-01
      1.41342776e-02 2.96296299e-01 -3.18021253e-02 3.64672363e-01
      -3.18021253e-02 4.18803424e-01 1.76678468e-02 3.61823350e-01
      3.18021253e-02 2.93447286e-01 3.53356935e-02 6.60968661e-01
      3.53356935e-02 7.23646700e-01 -1.41342776e-02 7.89173782e-01
      -3.53356940e-03 8.34757864e-01 4.59364019e-02 7.86324799e-01
      6.36042506e-02 7.20797718e-01 5.30035384e-02 3.47578347e-01
      6.00706697e-01 4.13105398e-01 5.51236689e-01 4.87179488e-01
      5.15901029e-01 5.29914558e-01 5.37102401e-01 5.78347564e-01
      5.22968173e-01 6.43874645e-01 5.68904519e-01 6.89458668e-01
      6.25441670e-01 6.32478654e-01 6.71378076e-01 5.66951573e-01
      6.89045906e-01 5.18518507e-01 6.85512304e-01 4.72934484e-01
      6.78445220e-01 4.04558390e-01 6.53710186e-01 3.78917366e-01
      5.97173095e-01 4.81481493e-01 5.86572409e-01 5.27065516e-01
      5.97173095e-01 5.75498581e-01 5.93639553e-01 6.60968661e-01
      6.18374527e-01 5.69800556e-01 5.90105951e-01 5.24216533e-01
      5.93639553e-01 4.78632480e-01 5.86572409e-01</_>
    <_>
      0. 0. 2.88184430e-03 1.69675112e-01 5.76368859e-03 3.39350104e-01
      2.30547544e-02 5.01805007e-01 6.62824214e-02 6.49819434e-01
      1.44092217e-01 7.79783368e-01 2.47838616e-01 8.88086617e-01
      3.65994245e-01 9.74729240e-01 5.04322767e-01 1. 6.39769435e-01
      9.78339374e-01 7.46397674e-01 8.91696751e-01 8.38616729e-01
      7.87003577e-01 9.07781005e-01 6.57039702e-01 9.48126793e-01
      5.12635350e-01 9.65417862e-01 3.61010760e-01 9.85590756e-01
      2.02166080e-01 1. 4.69314121e-02 1.29683003e-01 -5.77617399e-02
      2.04610944e-01 -1.19133584e-01 2.96829969e-01 -1.40794232e-01
      3.94812673e-01 -1.26353800e-01 4.87031698e-01 -9.02527198e-02
      6.28242075e-01 -8.30325037e-02 7.20461071e-01 -9.74729359e-02
      8.09798300e-01 -1.01083040e-01 8.96253586e-01 -7.58122802e-02
      9.36599433e-01 0. 5.59077799e-01 -7.22021749e-03 5.59077799e-01
      6.85920641e-02 5.61959684e-01 1.51624560e-01 5.61959684e-01
      2.34657064e-01 4.29394811e-01 2.99638897e-01 4.84149843e-01
      3.28519791e-01 5.47550440e-01 3.53790551e-01 6.08069181e-01
      3.35740000e-01 6.57060504e-01 3.06859136e-01 2.39193082e-01
      7.22021749e-03 2.91066289e-01 -2.88808700e-02 3.54466856e-01
      -2.88808700e-02 4.09221888e-01 7.22021749e-03 3.51585001e-01
      1.80505440e-02 2.91066289e-01 1.80505440e-02 6.62824214e-01
      2.16606520e-02 7.23342955e-01 -1.08303260e-02 7.83861697e-01
      -3.61010875e-03 8.29971194e-01 3.24909799e-02 7.80979812e-01
      3.97111960e-02 7.20461071e-01 3.61010879e-02 3.60230535e-01
      5.63176870e-01 4.14985597e-01 4.94584769e-01 4.84149843e-01
      4.62093800e-01 5.30259371e-01 4.80144352e-01 5.73487043e-01
      4.65703905e-01 6.36887610e-01 5.09025216e-01 6.85878992e-01
      5.81227362e-01 6.36887610e-01 6.35379016e-01 5.76368868e-01
      6.49819434e-01 5.30259371e-01 6.53429568e-01 4.81268018e-01
      6.46209359e-01 4.12103742e-01 6.17328465e-01 3.89048994e-01
      5.55956602e-01 4.81268018e-01 5.37906110e-01 5.27377546e-01
      5.45126319e-01 5.73487043e-01 5.41516185e-01 6.57060504e-01
      5.74007154e-01 5.73487043e-01 5.52346528e-01 5.27377546e-01
      5.55956602e-01 4.81268018e-01 5.48736393e-01</_>
    <_>
      0. 0. 1.06382975e-02 1.57248169e-01 2.97872350e-02 3.19410264e-01
      5.10638282e-02 4.84029442e-01 9.57446843e-02 6.38820589e-01
      1.78723410e-01 7.73955762e-01 2.85106391e-01 8.91891897e-01
      4.10638303e-01 9.82800961e-01 5.55319130e-01 1. 6.95744693e-01
      9.53316927e-01 8.00000012e-01 8.45208824e-01 8.89361680e-01
      7.22358704e-01 9.48936164e-01 5.87223530e-01 9.74468112e-01
      4.42260414e-01 9.87234056e-01 2.89926231e-01 1. 1.32678136e-01
      9.95744705e-01 -2.21130233e-02 9.36170220e-02 -2.70270295e-02
      1.65957451e-01 -9.33661014e-02 2.61702120e-01 -9.58231017e-02
      3.55319142e-01 -5.89680634e-02 4.53191489e-01 -2.70270295e-02
      5.65957427e-01 -3.93120423e-02 6.59574449e-01 -7.37100765e-02
      7.48936176e-01 -1.08108118e-01 8.40425551e-01 -1.15479127e-01
      9.12765980e-01 -5.65110594e-02 5.08510649e-01 4.66830507e-02
      5.10638297e-01 1.59705177e-01 5.12765944e-01 2.72727221e-01
      5.17021298e-01 3.88206333e-01 3.95744681e-01 4.15233374e-01
      4.55319136e-01 4.47174400e-01 5.23404241e-01 4.76658434e-01
      5.91489375e-01 4.39803392e-01 6.51063859e-01 3.95577341e-01
      2.17021272e-01 5.89680634e-02 2.70212770e-01 2.70270295e-02
      3.36170226e-01 2.94840317e-02 3.95744681e-01 6.63390681e-02
      3.29787225e-01 8.10810849e-02 2.65957445e-01 7.86240846e-02
      6.29787207e-01 6.63390681e-02 6.85106397e-01 2.70270295e-02
      7.51063824e-01 1.96560211e-02 8.06382954e-01 4.42260467e-02
      7.55319178e-01 7.12530762e-02 6.91489339e-01 7.37100765e-02
      3.40425521e-01 5.77395558e-01 4.02127653e-01 5.40540516e-01
      4.72340435e-01 5.28255522e-01 5.36170185e-01 5.42997479e-01
      5.95744669e-01 5.18427491e-01 6.59574449e-01 5.15970469e-01
      7.14893639e-01 5.42997479e-01 6.65957451e-01 6.14250600e-01
      6.08510613e-01 6.63390636e-01 5.46808481e-01 6.80589676e-01
      4.80851054e-01 6.78132653e-01 4.10638303e-01 6.43734634e-01
      3.70212764e-01 5.84766567e-01 4.72340435e-01 5.92137575e-01
      5.38297892e-01 5.92137575e-01 6.00000024e-01 5.82309544e-01
      6.85106397e-01 5.55282533e-01 6.04255319e-01 5.84766567e-01
      5.40425539e-01 6.01965547e-01 4.76595759e-01 5.94594538e-01</_>
    <_>
      0. 0. 7.29927002e-03 1.67146966e-01 2.18978096e-02 3.34294021e-01
      3.40632610e-02 4.98559117e-01 7.05596134e-02 6.54178679e-01
      1.41119227e-01 7.83861697e-01 2.33576640e-01 8.93371761e-01
      3.40632617e-01 9.76945221e-01 4.69586372e-01 1. 6.00973248e-01
      9.71181571e-01 7.17761576e-01 8.87608051e-01 8.22384417e-01
      7.86743522e-01 9.05109465e-01 6.62824214e-01 9.48905110e-01
      5.12968361e-01 9.78102207e-01 3.51585060e-01 9.92700756e-01
      1.87319875e-01 1. 1.72910653e-02 6.08272515e-02 -6.05187267e-02
      1.31386861e-01 -1.03746392e-01 2.18978107e-01 -9.79826972e-02
      3.06569338e-01 -8.35734829e-02 3.94160599e-01 -6.05187267e-02
      5.57177603e-01 -5.47550395e-02 6.39902651e-01 -7.20461011e-02
      7.20194638e-01 -8.06916356e-02 8.00486624e-01 -8.06916356e-02
      8.73479307e-01 -4.61095050e-02 4.69586372e-01 1.72910653e-02
      4.67153281e-01 1.06628232e-01 4.64720190e-01 1.95965394e-01
      4.62287098e-01 2.91066349e-01 3.67396593e-01 3.65994304e-01
      4.11192209e-01 3.89049053e-01 4.62287098e-01 4.06340122e-01
      5.13382018e-01 3.89049053e-01 5.62043786e-01 3.65994304e-01
      1.75182477e-01 8.64553265e-03 2.31143549e-01 -1.72910653e-02
      2.89537698e-01 -1.15273762e-02 3.45498770e-01 3.45821306e-02
      2.87104636e-01 3.45821306e-02 2.26277366e-01 3.17002870e-02
      6.10705614e-01 4.32276614e-02 6.66666687e-01 5.76368812e-03
      7.22627759e-01 5.76368812e-03 7.78588831e-01 3.45821306e-02
      7.25060821e-01 5.18731959e-02 6.66666687e-01 4.89913486e-02
      2.82238454e-01 5.67723393e-01 3.45498770e-01 5.21613896e-01
      4.11192209e-01 5.04322827e-01 4.59854007e-01 5.21613896e-01
      5.13382018e-01 5.04322827e-01 5.76642334e-01 5.21613896e-01
      6.42335773e-01 5.67723393e-01 5.79075396e-01 6.16714716e-01
      5.15815079e-01 6.39769495e-01 4.62287098e-01 6.48415029e-01
      4.11192209e-01 6.39769495e-01 3.47931862e-01 6.19596601e-01
      3.11435521e-01 5.67723393e-01 4.11192209e-01 5.61959684e-01
      4.59854007e-01 5.67723393e-01 5.13382018e-01 5.59077859e-01
      6.10705614e-01 5.67723393e-01 5.15815079e-01 5.64841509e-01
      4.62287098e-01 5.73487043e-01 4.11192209e-01 5.64841509e-01</_>
    <_>
      0. 0. 2.20750552e-03 1.65644169e-01 1.10375276e-02 3.25153381e-01
      2.20750552e-02 4.90797549e-01 5.29801324e-02 6.53374255e-01
      1.16997793e-01 7.97546029e-01 2.16335535e-01 9.04908001e-01
      3.37748349e-01 9.78527606e-01 4.76821184e-01 1. 6.15894020e-01
      9.81595099e-01 7.43929386e-01 9.23312902e-01 8.49889636e-01
      8.28220844e-01 9.20529783e-01 6.96319044e-01 9.58057404e-01
      5.36809802e-01 9.77924943e-01 3.77300620e-01 9.91169989e-01
      2.14723930e-01 1. 4.29447852e-02 7.94702023e-02 -1.25766873e-01
      1.41280353e-01 -2.08588958e-01 2.29580581e-01 -2.26993859e-01
      3.17880809e-01 -2.17791408e-01 4.01766002e-01 -1.84049085e-01
      5.65121412e-01 -2.05521479e-01 6.55629158e-01 -2.33128831e-01
      7.46136844e-01 -2.39263803e-01 8.34437072e-01 -2.08588958e-01
      8.98454726e-01 -1.31901845e-01 4.81236190e-01 -8.58895704e-02
      4.76821184e-01 1.84049085e-02 4.72406179e-01 1.22699387e-01
      4.67991173e-01 2.30061352e-01 3.75275940e-01 3.19018394e-01
      4.19426054e-01 3.43558282e-01 4.70198661e-01 3.61963183e-01
      5.25386333e-01 3.49693239e-01 5.71743906e-01 3.31288338e-01
      1.76600441e-01 -3.06748468e-02 2.31788084e-01 -7.97545984e-02
      2.95805752e-01 -8.28220844e-02 3.55408400e-01 -2.76073627e-02
      2.95805752e-01 -1.53374234e-02 2.31788084e-01 -9.20245424e-03
      6.11479044e-01 -2.76073627e-02 6.75496697e-01 -8.28220844e-02
      7.39514351e-01 -7.36196339e-02 7.90286958e-01 -2.45398767e-02
      7.39514351e-01 -6.13496918e-03 6.77704215e-01 -9.20245424e-03
      2.56070644e-01 5.88957071e-01 3.28918308e-01 5.03067493e-01
      4.12803531e-01 4.66257662e-01 4.67991173e-01 4.81595099e-01
      5.29801309e-01 4.69325155e-01 6.22516572e-01 5.18404901e-01
      7.01986730e-01 6.07361972e-01 6.24724090e-01 6.80981576e-01
      5.34216344e-01 7.11656451e-01 4.67991173e-01 7.17791438e-01
      4.08388525e-01 7.08588958e-01 3.24503303e-01 6.68711662e-01
      2.89183229e-01 5.85889578e-01 4.12803531e-01 5.49079776e-01
      4.67991173e-01 5.55214703e-01 5.32008827e-01 5.52147210e-01
      6.68874145e-01 6.01226985e-01 5.29801309e-01 6.22699380e-01
      4.67991173e-01 6.22699380e-01 4.10596013e-01 6.16564393e-01</_>
    <_>
      0. 0. 4.04858310e-03 1.69811323e-01 2.42914986e-02 3.31536382e-01
      4.65587042e-02 4.93261456e-01 8.70445371e-02 6.49595678e-01
      1.43724695e-01 7.89757431e-01 2.32793525e-01 8.89487863e-01
      3.40080976e-01 9.62264180e-01 4.57489878e-01 1. 5.80971658e-01
      9.75741267e-01 6.98380589e-01 9.11051214e-01 8.07692289e-01
      8.14016163e-01 8.86639655e-01 6.84636116e-01 9.41295564e-01
      5.25606453e-01 9.73684192e-01 3.61185998e-01 9.91902828e-01
      1.91374660e-01 1. 1.88679248e-02 6.88259080e-02 -6.73854426e-02
      1.29554659e-01 -1.40161723e-01 2.12550610e-01 -1.50943354e-01
      2.95546561e-01 -1.21293798e-01 3.78542513e-01 -8.35579485e-02
      5.12145758e-01 -7.81671181e-02 5.99190295e-01 -1.13207549e-01
      6.90283418e-01 -1.34770885e-01 7.81376541e-01 -1.18598379e-01
      8.56275320e-01 -5.92991896e-02 4.49392706e-01 1.61725059e-02
      4.45344120e-01 1.05121292e-01 4.43319827e-01 1.91374660e-01
      4.39271241e-01 2.83018857e-01 3.58299583e-01 3.90835583e-01
      3.98785412e-01 4.09703493e-01 4.41295534e-01 4.23180580e-01
      4.89878535e-01 4.12398934e-01 5.36437273e-01 4.01617259e-01
      1.74089074e-01 2.15633418e-02 2.22672060e-01 -2.15633418e-02
      2.83400804e-01 -1.88679248e-02 3.34008098e-01 3.77358496e-02
      2.81376511e-01 5.39083555e-02 2.18623489e-01 5.66037744e-02
      5.87044537e-01 4.58221026e-02 6.37651801e-01 -8.08625296e-03
      6.98380589e-01 -2.69541773e-03 7.53036439e-01 3.50404307e-02
      7.02429175e-01 6.46900237e-02 6.41700387e-01 6.46900237e-02
      3.05668026e-01 6.11859858e-01 3.54250997e-01 5.52560627e-01
      4.08906877e-01 5.22911072e-01 4.47368413e-01 5.41778982e-01
      4.93927121e-01 5.28301895e-01 5.56680143e-01 5.60646892e-01
      6.17408931e-01 6.22641504e-01 5.54655850e-01 6.79245293e-01
      4.93927121e-01 7.00808644e-01 4.47368413e-01 7.03504026e-01
      4.04858291e-01 6.95417762e-01 3.56275290e-01 6.71159029e-01
      3.31983805e-01 6.06468976e-01 4.06882584e-01 5.90296507e-01
      4.47368413e-01 5.95687330e-01 4.91902828e-01 5.95687330e-01
      5.89068830e-01 6.17250681e-01 4.91902828e-01 6.22641504e-01
      4.47368413e-01 6.25336945e-01 4.06882584e-01 6.14555240e-01</_>
    <_>
      0. 0. 2.07468886e-02 1.70329675e-01 4.35684659e-02 3.35164845e-01
      7.26141110e-02 4.91758227e-01 1.14107884e-01 6.42857134e-01
      1.86721995e-01 7.74725258e-01 2.88381755e-01 8.95604372e-01
      4.06639010e-01 9.80769217e-01 5.51867247e-01 1. 6.88796699e-01
      9.86263752e-01 7.94605792e-01 8.90109897e-01 8.85892093e-01
      7.66483545e-01 9.50207472e-01 6.18131876e-01 9.79253113e-01
      4.42307681e-01 9.87551868e-01 2.66483516e-01 9.97925282e-01
      8.79120901e-02 1. -8.51648375e-02 9.33609977e-02 -1.92307699e-02
      1.72199175e-01 -9.34065953e-02 2.75933623e-01 -1.01648353e-01
      3.79668057e-01 -7.41758272e-02 4.81327802e-01 -3.57142873e-02
      5.68464756e-01 -4.67032976e-02 6.61825716e-01 -9.89011005e-02
      7.57261395e-01 -1.29120886e-01 8.56846452e-01 -1.40109897e-01
      9.35684621e-01 -8.24175850e-02 5.26970983e-01 1.64835174e-02
      5.33195019e-01 1.09890111e-01 5.41493773e-01 2.06043959e-01
      5.47717869e-01 3.07692319e-01 4.33609962e-01 3.57142866e-01
      4.91701245e-01 3.84615391e-01 5.53941905e-01 4.06593412e-01
      6.12033188e-01 3.73626381e-01 6.63900435e-01 3.35164845e-01
      2.17842326e-01 4.94505502e-02 2.73858935e-01 1.92307699e-02
      3.31950217e-01 1.64835174e-02 3.96265566e-01 5.21978028e-02
      3.34024906e-01 6.04395606e-02 2.73858935e-01 6.31868169e-02
      6.55601680e-01 3.02197803e-02 7.11618245e-01 -1.09890113e-02
      7.71784246e-01 -1.64835174e-02 8.27800810e-01 5.49450563e-03
      7.75933623e-01 2.47252751e-02 7.15767622e-01 3.02197803e-02
      3.65145236e-01 5.68681300e-01 4.23236519e-01 4.97252733e-01
      4.91701245e-01 4.72527474e-01 5.51867247e-01 4.91758227e-01
      6.07883811e-01 4.67032969e-01 6.70124471e-01 4.80769217e-01
      7.24066377e-01 5.46703279e-01 6.74273849e-01 6.01648331e-01
      6.18257284e-01 6.40109897e-01 5.58091283e-01 6.56593382e-01
      4.95850623e-01 6.51098907e-01 4.27385896e-01 6.26373649e-01
      3.92116189e-01 5.57692289e-01 4.91701245e-01 5.38461566e-01
      5.51867247e-01 5.46703279e-01 6.09958529e-01 5.32967031e-01
      6.97095454e-01 5.41208804e-01 6.12033188e-01 5.38461566e-01
      5.53941905e-01 5.54945052e-01 4.95850623e-01 5.46703279e-01</_>
    <_>
      0. 0. 6.35593198e-03 1.74041301e-01 1.48305083e-02 3.42182904e-01
      2.75423732e-02 5.19174039e-01 6.14406765e-02 6.75516248e-01
      1.27118647e-01 8.05309713e-01 2.24576265e-01 9.02654886e-01
      3.38983059e-01 9.67551649e-01 4.68220353e-01 1. 6.01694942e-01
      9.88200605e-01 7.18220353e-01 9.35103238e-01 8.13559294e-01
      8.52507353e-01 8.79237294e-01 7.34513283e-01 9.21610177e-01
      5.87020636e-01 9.51271176e-01 4.27728623e-01 9.76694942e-01
      2.65486717e-01 1. 9.73451361e-02 1.12288132e-01 -2.06489682e-01
      1.80084750e-01 -2.74336278e-01 2.69067794e-01 -2.92035401e-01
      3.55932206e-01 -2.74336278e-01 4.40677971e-01 -2.27138638e-01
      6.10169470e-01 -2.06489682e-01 6.94915235e-01 -2.35988200e-01
      7.86016941e-01 -2.33038351e-01 8.66525412e-01 -1.91740409e-01
      9.21610177e-01 -1.09144546e-01 5.19067824e-01 -1.15044251e-01
      5.12711883e-01 -2.35988200e-02 5.08474588e-01 6.78466111e-02
      5.02118647e-01 1.68141589e-01 4.00423735e-01 2.56637156e-01
      4.42796618e-01 2.89085537e-01 4.95762706e-01 3.15634221e-01
      5.48728824e-01 3.00884962e-01 5.97457647e-01 2.74336278e-01
      2.05508471e-01 -9.43952799e-02 2.60593206e-01 -1.35693222e-01
      3.17796618e-01 -1.32743359e-01 3.77118647e-01 -8.55457261e-02
      3.13559324e-01 -8.55457261e-02 2.56355941e-01 -8.55457261e-02
      6.50423706e-01 -5.30973449e-02 7.11864412e-01 -9.43952799e-02
      7.69067824e-01 -8.25958699e-02 8.22033882e-01 -3.24483775e-02
      7.64830530e-01 -2.94985250e-02 7.05508471e-01 -4.42477874e-02
      3.24152529e-01 5.22123873e-01 3.81355941e-01 4.51327443e-01
      4.38559324e-01 4.24778759e-01 4.89406794e-01 4.45427716e-01
      5.36016941e-01 4.36578184e-01 5.91101706e-01 4.74926263e-01
      6.48305058e-01 5.63421845e-01 5.84745765e-01 5.87020636e-01
      5.27542353e-01 5.95870197e-01 4.78813559e-01 5.92920363e-01
      4.27966088e-01 5.81120968e-01 3.75000000e-01 5.57522118e-01
      3.51694912e-01 5.16224205e-01 4.34322029e-01 4.89675522e-01
      4.85169500e-01 4.98525083e-01 5.31779647e-01 5.01474917e-01
      6.18644059e-01 5.51622391e-01 5.29661000e-01 5.19174039e-01
      4.83050853e-01 5.16224205e-01 4.32203382e-01 5.04424751e-01</_>
    <_>
      0. 0. 1.28755365e-02 1.61691532e-01 3.43347639e-02 3.23383063e-01
      5.15021458e-02 4.77611989e-01 9.65665206e-02 6.29353285e-01
      1.67381972e-01 7.63681591e-01 2.59656638e-01 8.80596995e-01
      3.62660944e-01 9.72636819e-01 4.84978527e-01 1. 6.07296109e-01
      9.72636819e-01 7.10300446e-01 8.83084595e-01 8.09012890e-01
      7.73631871e-01 8.90557945e-01 6.44278646e-01 9.37768221e-01
      4.95024920e-01 9.65665221e-01 3.33333313e-01 9.91416335e-01
      1.66666657e-01 1. -7.46268593e-03 9.65665206e-02 -5.47263622e-02
      1.65236056e-01 -1.09452724e-01 2.57510722e-01 -1.19402975e-01
      3.45493555e-01 -9.95024815e-02 4.31330472e-01 -6.96517378e-02
      5.51502168e-01 -7.21393004e-02 6.39485002e-01 -9.45273563e-02
      7.23175943e-01 -1.16915412e-01 8.11158776e-01 -1.06965169e-01
      8.81974220e-01 -5.47263622e-02 4.95708168e-01 1.99004952e-02
      5.00000000e-01 1.36815906e-01 5.06437778e-01 2.53731310e-01
      5.12875557e-01 3.75621855e-01 4.14163083e-01 4.32835788e-01
      4.59227473e-01 4.50248718e-01 5.06437778e-01 4.65174168e-01
      5.53648055e-01 4.52736288e-01 5.96566498e-01 4.35323358e-01
      2.06008583e-01 1.74129345e-02 2.59656638e-01 -2.73631811e-02
      3.26180249e-01 -2.48756204e-02 3.75536472e-01 3.48258689e-02
      3.21888417e-01 4.72636782e-02 2.55364805e-01 4.72636782e-02
      6.13733888e-01 3.73134315e-02 6.67382002e-01 -2.23880578e-02
      7.31759667e-01 -2.23880578e-02 7.81115890e-01 2.23880578e-02
      7.36051500e-01 5.22388034e-02 6.71673834e-01 4.97512408e-02
      3.36909860e-01 6.39303505e-01 3.96995693e-01 6.24378145e-01
      4.65665221e-01 6.04477644e-01 5.04291832e-01 6.21890604e-01
      5.47210276e-01 6.01990104e-01 6.11588001e-01 6.21890604e-01
      6.75965667e-01 6.46766186e-01 6.11588001e-01 7.03980148e-01
      5.47210276e-01 7.31343329e-01 5.02145946e-01 7.38806009e-01
      4.59227473e-01 7.33830869e-01 3.96995693e-01 7.08955228e-01
      3.66952777e-01 6.49253786e-01 4.63519305e-01 6.54228866e-01
      5.04291832e-01 6.61691546e-01 5.47210276e-01 6.51741326e-01
      6.50214612e-01 6.49253786e-01 5.45064390e-01 6.61691546e-01
      5.02145946e-01 6.71641827e-01 4.63519305e-01 6.61691546e-01</_>
    <_>
      0. 0. 0. 1.51098907e-01 8.71459674e-03 3.02197814e-01
      2.83224396e-02 4.61538464e-01 6.75381273e-02 6.12637341e-01
      1.32897601e-01 7.47252762e-01 2.15686277e-01 8.70879114e-01
      3.02832246e-01 9.64285731e-01 4.22657967e-01 1. 5.55555582e-01
      9.80769217e-01 6.75381243e-01 9.14835155e-01 7.90849686e-01
      8.15934062e-01 8.88888896e-01 6.89560413e-01 9.47712421e-01
      5.35714269e-01 9.78213489e-01 3.65384609e-01 9.91285384e-01
      1.97802201e-01 1. 1.92307699e-02 6.97167739e-02 -1.29120886e-01
      1.35076255e-01 -1.97802201e-01 2.20043570e-01 -2.11538464e-01
      3.05010885e-01 -1.89560443e-01 3.79084975e-01 -1.51098907e-01
      4.88017440e-01 -1.64835170e-01 5.72984755e-01 -2.08791211e-01
      6.66666687e-01 -2.28021979e-01 7.60348558e-01 -2.11538464e-01
      8.47494543e-01 -1.51098907e-01 4.31372553e-01 -4.67032976e-02
      4.22657967e-01 3.57142873e-02 4.13943350e-01 1.15384616e-01
      4.05228764e-01 2.00549453e-01 3.09368193e-01 3.15934062e-01
      3.61655772e-01 3.26923072e-01 4.16121989e-01 3.40659350e-01
      4.77124184e-01 3.32417578e-01 5.35947740e-01 3.24175835e-01
      1.39433548e-01 0. 1.96078435e-01 -4.12087925e-02 2.61437923e-01
      -4.39560451e-02 3.18082780e-01 8.24175868e-03 2.59259254e-01
      2.74725277e-02 1.93899781e-01 3.02197803e-02 5.77342033e-01
      -8.24175868e-03 6.38344228e-01 -6.04395606e-02 7.03703701e-01
      -6.04395606e-02 7.60348558e-01 -2.47252751e-02 7.08060980e-01
      1.09890113e-02 6.42701507e-01 8.24175868e-03 2.22222224e-01
      5.85164845e-01 2.85403043e-01 5.08241773e-01 3.66013080e-01
      4.58791196e-01 4.16121989e-01 4.78021979e-01 4.68409598e-01
      4.67032969e-01 5.64270139e-01 5.27472556e-01 6.51416123e-01
      6.09890103e-01 5.64270139e-01 7.33516455e-01 4.70588237e-01
      7.74725258e-01 4.09586042e-01 7.74725258e-01 3.52941185e-01
      7.60989010e-01 2.78867096e-01 7.11538434e-01 2.61437923e-01
      5.90659320e-01 3.66013080e-01 5.57692289e-01 4.16121989e-01
      5.68681300e-01 4.70588237e-01 5.68681300e-01 6.10021770e-01
      6.18131876e-01 4.66230929e-01 6.42857134e-01 4.11764711e-01
      6.45604372e-01 3.57298464e-01 6.31868124e-01</_>
    <_>
      0. 0. 1.09890113e-02 1.63141981e-01 2.63736267e-02 3.29305112e-01
      4.83516492e-02 4.95468318e-01 9.01098922e-02 6.49546862e-01
      1.71428576e-01 7.79456198e-01 2.74725288e-01 8.91238689e-01
      3.84615391e-01 9.75830793e-01 5.07692337e-01 1. 6.30769253e-01
      9.72809672e-01 7.38461554e-01 8.85196388e-01 8.41758251e-01
      7.76435077e-01 9.18681324e-01 6.43504560e-01 9.58241761e-01
      4.89426017e-01 9.80219781e-01 3.23262811e-01 9.93406594e-01
      1.57099679e-01 1. -6.04229560e-03 1.07692309e-01 -2.71903295e-02
      1.84615389e-01 -9.36555788e-02 2.79120892e-01 -1.05740175e-01
      3.75824183e-01 -9.36555788e-02 4.70329672e-01 -6.04229569e-02
      5.69230795e-01 -7.55286962e-02 6.61538482e-01 -1.08761318e-01
      7.53846169e-01 -1.17824763e-01 8.41758251e-01 -1.02719024e-01
      9.12087917e-01 -4.22960669e-02 5.20879149e-01 3.32326256e-02
      5.20879149e-01 1.45015091e-01 5.20879149e-01 2.53776401e-01
      5.20879149e-01 3.65558982e-01 4.35164839e-01 4.44108814e-01
      4.76923078e-01 4.59214538e-01 5.18681347e-01 4.68277991e-01
      5.62637389e-01 4.59214538e-01 6.02197826e-01 4.50151116e-01
      2.30769232e-01 3.62537727e-02 2.83516496e-01 0. 3.45054954e-01
      3.02114780e-03 3.91208798e-01 4.83383648e-02 3.40659350e-01
      6.34441003e-02 2.83516496e-01 6.34441003e-02 6.41758263e-01
      4.53172177e-02 6.92307711e-01 0. 7.51648366e-01 0. 8.00000012e-01
      3.62537727e-02 7.53846169e-01 6.04229569e-02 6.96703315e-01
      6.04229569e-02 3.51648360e-01 6.34441137e-01 4.15384620e-01
      5.98187327e-01 4.72527474e-01 5.74018180e-01 5.14285743e-01
      5.95166206e-01 5.62637389e-01 5.80060482e-01 6.17582440e-01
      6.10271931e-01 6.72527492e-01 6.43504560e-01 6.10989034e-01
      6.82779491e-01 5.53846180e-01 7.03927517e-01 5.05494535e-01
      7.09969819e-01 4.61538464e-01 7.00906396e-01 4.08791214e-01
      6.73716068e-01 3.75824183e-01 6.34441137e-01 4.70329672e-01
      6.22356534e-01 5.12087941e-01 6.37462258e-01 5.60439587e-01
      6.28398836e-01 6.46153867e-01 6.46525741e-01 5.53846180e-01
      6.25377655e-01 5.07692337e-01 6.34441137e-01 4.63736266e-01
      6.22356534e-01</_>
    <_>
      0. 0. 2.00445428e-02 1.76119387e-01 4.45434302e-02 3.49253803e-01
      6.90423176e-02 5.19403040e-01 1.13585748e-01 6.77611947e-01
      1.89309582e-01 8.11940312e-01 2.93986648e-01 9.13432837e-01
      4.27616924e-01 9.82089579e-01 5.63474417e-01 1. 6.90423191e-01
      9.64179099e-01 8.04008901e-01 8.80597055e-01 8.88641417e-01
      7.58208990e-01 9.44320738e-01 6.08955264e-01 9.68819618e-01
      4.35820937e-01 9.79955435e-01 2.59701550e-01 9.95545685e-01
      8.65671560e-02 1. -9.55223814e-02 1.02449887e-01 -1.28358200e-01
      1.55901998e-01 -2.38805950e-01 2.51670390e-01 -2.86567152e-01
      3.54120255e-01 -2.80597001e-01 4.49888647e-01 -2.44776100e-01
      5.92427611e-01 -2.56716400e-01 6.81514502e-01 -3.19402963e-01
      7.81737208e-01 -3.40298474e-01 8.77505541e-01 -3.04477572e-01
      9.33184862e-01 -2.02985063e-01 5.27839661e-01 -1.49253711e-01
      5.34521163e-01 -4.17910405e-02 5.38975477e-01 6.26865625e-02
      5.45657039e-01 1.76119387e-01 4.38752770e-01 2.59701550e-01
      4.89977717e-01 2.80597091e-01 5.47884166e-01 2.98507541e-01
      6.01336300e-01 2.77612001e-01 6.50334060e-01 2.47761175e-01
      2.36080185e-01 -6.86567128e-02 2.89532304e-01 -9.55223814e-02
      3.42984408e-01 -1.04477599e-01 4.05345201e-01 -8.35820809e-02
      3.49665910e-01 -7.16417879e-02 2.93986648e-01 -6.56716377e-02
      6.45879745e-01 -1.13432825e-01 7.08240509e-01 -1.46268636e-01
      7.59465456e-01 -1.49253711e-01 8.08463275e-01 -1.25373125e-01
      7.61692643e-01 -1.16417900e-01 7.08240509e-01 -1.13432825e-01
      3.87527853e-01 4.86567199e-01 4.49888647e-01 4.38806027e-01
      5.05567908e-01 4.14925426e-01 5.50111353e-01 4.26865727e-01
      5.96881986e-01 4.11940366e-01 6.59242749e-01 4.29850787e-01
      7.34966576e-01 4.68656778e-01 6.65924251e-01 4.98507500e-01
      6.08017802e-01 5.10447800e-01 5.59020042e-01 5.16417980e-01
      5.12249470e-01 5.13432860e-01 4.56570148e-01 5.07462740e-01
      4.16481078e-01 4.77611989e-01 5.07795095e-01 4.50746328e-01
      5.52338541e-01 4.56716478e-01 5.99109113e-01 4.50746328e-01
      7.06013381e-01 4.65671688e-01 6.01336300e-01 4.47761238e-01
      5.54565728e-01 4.56716478e-01 5.10022283e-01 4.50746328e-01</_>
    <_>
      0. 0. 0. 1.68195739e-01 8.77192989e-03 3.36391389e-01
      2.19298247e-02 5.01528978e-01 5.70175424e-02 6.60550416e-01
      1.33771926e-01 7.98165143e-01 2.41228074e-01 8.99082541e-01
      3.57456148e-01 9.69418943e-01 5.00000000e-01 1. 6.42543852e-01
      9.87767577e-01 7.63157904e-01 9.26605523e-01 8.72807026e-01
      8.31804276e-01 9.45175409e-01 7.00305760e-01 9.80263174e-01
      5.41284382e-01 9.95614052e-01 3.66972417e-01 1. 1.95718676e-01
      9.97807026e-01 2.44648345e-02 7.45614022e-02 -1.31498486e-01
      1.44736841e-01 -2.11009189e-01 2.39035085e-01 -2.11009189e-01
      3.33333343e-01 -1.80428147e-01 4.21052635e-01 -1.34556592e-01
      5.24122834e-01 -1.46788999e-01 6.27192974e-01 -1.77370042e-01
      7.28070199e-01 -1.95718676e-01 8.26754391e-01 -1.80428147e-01
      9.07894731e-01 -1.10091753e-01 4.73684222e-01 -4.28134613e-02
      4.71491218e-01 5.81039824e-02 4.71491218e-01 1.59021422e-01
      4.69298244e-01 2.69113183e-01 3.57456148e-01 3.39449465e-01
      4.10087705e-01 3.63914311e-01 4.69298244e-01 3.79204839e-01
      5.30701756e-01 3.63914311e-01 5.87719321e-01 3.45565677e-01
      1.73245609e-01 -3.05810422e-02 2.30263159e-01 -5.19877709e-02
      2.91666657e-01 -5.19877709e-02 3.55263144e-01 -1.52905211e-02
      2.91666657e-01 -9.17431246e-03 2.28070170e-01 -9.17431246e-03
      6.09649122e-01 -6.11620862e-03 6.77631557e-01 -3.97553556e-02
      7.39035070e-01 -3.36391479e-02 8.02631557e-01 -1.22324172e-02
      7.41228044e-01 9.17431246e-03 6.75438583e-01 6.11620862e-03
      2.89473683e-01 5.62691092e-01 3.46491218e-01 4.92354691e-01
      4.18859661e-01 4.52599347e-01 4.73684222e-01 4.77064162e-01
      5.32894731e-01 4.55657452e-01 6.11842096e-01 4.95412797e-01
      6.75438583e-01 5.81039727e-01 6.16228044e-01 6.48317993e-01
      5.39473712e-01 6.78899050e-01 4.78070170e-01 6.81957185e-01
      4.18859661e-01 6.75840974e-01 3.46491218e-01 6.36085570e-01
      3.22368413e-01 5.59632957e-01 4.16666657e-01 5.50458670e-01
      4.73684222e-01 5.62691092e-01 5.35087705e-01 5.53516805e-01
      6.44736826e-01 5.71865380e-01 5.37280679e-01 5.50458670e-01
      4.75877196e-01 5.59632957e-01 4.18859661e-01 5.47400594e-01</_>
    <_>
      0. 0. 1.27388537e-02 1.64179102e-01 2.97239907e-02 3.20895523e-01
      4.88322712e-02 4.75124389e-01 8.28025490e-02 6.24378085e-01
      1.52866244e-01 7.58706450e-01 2.42038220e-01 8.80596995e-01
      3.46072197e-01 9.75124359e-01 4.77706999e-01 1. 6.13588095e-01
      9.75124359e-01 7.32484102e-01 8.90547276e-01 8.32271755e-01
      7.73631811e-01 9.08704877e-01 6.36815906e-01 9.46921468e-01
      4.87562180e-01 9.66029704e-01 3.23383093e-01 9.87261176e-01
      1.56716421e-01 1. -1.74129345e-02 5.09554148e-02 -2.48756222e-02
      1.12526536e-01 -9.45273638e-02 2.08067939e-01 -8.95522386e-02
      2.97239929e-01 -5.97014911e-02 3.88535023e-01 -2.48756222e-02
      5.09554148e-01 -2.98507456e-02 6.09341800e-01 -6.46766201e-02
      7.07006395e-01 -9.20398012e-02 8.06794047e-01 -8.95522386e-02
      8.85350347e-01 -2.98507456e-02 4.52229291e-01 3.23383100e-02
      4.52229291e-01 1.39303476e-01 4.52229291e-01 2.48756215e-01
      4.50106144e-01 3.63184094e-01 3.67303610e-01 4.22885567e-01
      4.09766465e-01 4.40298498e-01 4.56475586e-01 4.55223888e-01
      5.05307853e-01 4.40298498e-01 5.52016973e-01 4.22885567e-01
      1.67728230e-01 3.48258689e-02 2.22929940e-01 7.46268639e-03
      2.82377928e-01 4.97512426e-03 3.37579608e-01 4.22885567e-02
      2.80254781e-01 5.47263697e-02 2.20806792e-01 5.72139286e-02
      5.94479859e-01 3.98009941e-02 6.56050980e-01 4.97512426e-03
      7.15498924e-01 9.95024852e-03 7.70700634e-01 3.98009941e-02
      7.15498924e-01 5.72139286e-02 6.56050980e-01 5.22388071e-02
      3.01486194e-01 6.11940324e-01 3.48195314e-01 5.72139323e-01
      4.05520171e-01 5.49751222e-01 4.54352438e-01 5.64676642e-01
      5.05307853e-01 5.47263682e-01 5.73248386e-01 5.67164183e-01
      6.34819508e-01 6.01990044e-01 5.75371563e-01 6.69154227e-01
      5.13800442e-01 7.03980088e-01 4.60721880e-01 7.13930368e-01
      4.05520171e-01 7.06467688e-01 3.50318462e-01 6.74129367e-01
      3.26963902e-01 6.11940324e-01 4.07643318e-01 6.09452724e-01
      4.56475586e-01 6.19403005e-01 5.09554148e-01 6.06965184e-01
      6.05095565e-01 6.04477584e-01 5.09554148e-01 6.06965184e-01
      4.56475586e-01 6.19403005e-01 4.07643318e-01 6.09452724e-01</_>
    <_>
      0. 0. 6.43776823e-03 1.57754019e-01 1.93133056e-02 3.12834173e-01
      3.43347639e-02 4.67914402e-01 5.79399131e-02 6.25668406e-01
      1.05150215e-01 7.64705837e-01 1.90987125e-01 8.82352948e-01
      2.93991417e-01 9.62566853e-01 4.27038640e-01 1. 5.64377666e-01
      9.89304841e-01 7.01716721e-01 9.30481255e-01 8.11158776e-01
      8.28876972e-01 8.84120166e-01 6.95187151e-01 9.24892724e-01
      5.40106893e-01 9.57081556e-01 3.79679084e-01 9.84978557e-01
      2.19251275e-01 1. 5.08021414e-02 4.93562222e-02 -9.35828984e-02
      1.15879826e-01 -1.68449208e-01 2.16738194e-01 -1.71123013e-01
      3.11158806e-01 -1.31016061e-01 3.99141639e-01 -7.48663172e-02
      5.30042946e-01 -6.14973307e-02 6.24463499e-01 -1.04278080e-01
      7.23175943e-01 -1.28342256e-01 8.24034333e-01 -1.09625675e-01
      8.94849777e-01 -3.20855640e-02 4.59227473e-01 1.06951883e-02
      4.52789694e-01 1.09625675e-01 4.46351945e-01 2.13903755e-01
      4.39914167e-01 3.20855558e-01 3.56223166e-01 3.93048078e-01
      3.94849777e-01 4.14438456e-01 4.42060083e-01 4.30481225e-01
      4.91416305e-01 4.22459841e-01 5.36480665e-01 4.11764652e-01
      1.50214598e-01 8.02139100e-03 2.06008583e-01 -3.20855640e-02
      2.78969944e-01 -2.40641739e-02 3.34763944e-01 4.54545505e-02
      2.70386279e-01 6.14973307e-02 1.99570820e-01 5.61497360e-02
      5.96566498e-01 6.68449253e-02 6.56652331e-01 8.02139100e-03
      7.29613721e-01 1.06951883e-02 7.85407722e-01 6.14973307e-02
      7.31759667e-01 9.62566957e-02 6.60944223e-01 9.35828984e-02
      3.15450639e-01 6.68449163e-01 3.54077250e-01 5.80213845e-01
      4.05579388e-01 5.40106893e-01 4.42060083e-01 5.66844881e-01
      4.82832611e-01 5.56149721e-01 5.38626611e-01 6.20320797e-01
      5.85836887e-01 7.24598885e-01 5.27897000e-01 7.32620299e-01
      4.72103000e-01 7.27272689e-01 4.29184556e-01 7.19251335e-01
      3.88412029e-01 7.05882311e-01 3.47639471e-01 6.84491932e-01
      3.47639471e-01 6.60427809e-01 4.01287556e-01 6.17647052e-01
      4.39914167e-01 6.33689821e-01 4.82832611e-01 6.36363626e-01
      5.53648055e-01 7.08556116e-01 4.74248916e-01 6.36363626e-01
      4.35622305e-01 6.33689821e-01 3.94849777e-01 6.14973247e-01</_>
    <_>
      0. 0. 1.06382975e-02 1.59779623e-01 2.76595745e-02 3.14049542e-01
      4.04255316e-02 4.71074343e-01 6.59574494e-02 6.28099144e-01
      1.19148940e-01 7.65840173e-01 2.08510637e-01 8.78787875e-01
      3.06382984e-01 9.66942132e-01 4.36170220e-01 1. 5.74468076e-01
      9.94490385e-01 6.97872341e-01 9.31129456e-01 8.06382954e-01
      8.31955910e-01 8.82978737e-01 7.02479303e-01 9.29787219e-01
      5.48209310e-01 9.59574461e-01 3.85674894e-01 9.85106409e-01
      2.23140433e-01 1. 4.95867804e-02 6.17021285e-02 -6.61157072e-02
      1.25531912e-01 -1.48760349e-01 2.21276596e-01 -1.57024801e-01
      3.14893603e-01 -1.21212132e-01 4.04255331e-01 -6.88705295e-02
      5.23404241e-01 -5.78512438e-02 6.21276617e-01 -1.04683205e-01
      7.21276581e-01 -1.29476592e-01 8.23404253e-01 -1.07438028e-01
      8.93617034e-01 -2.20385697e-02 4.57446814e-01 1.65289268e-02
      4.53191489e-01 1.12947665e-01 4.44680840e-01 2.09366322e-01
      4.38297868e-01 3.11294705e-01 3.51063818e-01 3.88429701e-01
      3.95744681e-01 4.10468280e-01 4.44680840e-01 4.24242377e-01
      4.97872353e-01 4.13223088e-01 5.46808481e-01 3.96694154e-01
      1.59574464e-01 1.65289268e-02 2.12765962e-01 -1.92837473e-02
      2.78723419e-01 -1.65289268e-02 3.40425521e-01 3.85674946e-02
      2.74468094e-01 5.23416027e-02 2.10638300e-01 5.23416027e-02
      5.95744669e-01 5.23416027e-02 6.61702156e-01 5.50964242e-03
      7.27659583e-01 1.10192848e-02 7.82978714e-01 5.23416027e-02
      7.25531936e-01 8.26446339e-02 6.59574449e-01 7.71349892e-02
      2.91489363e-01 6.06060565e-01 3.51063818e-01 5.67493081e-01
      4.10638303e-01 5.42699695e-01 4.51063842e-01 5.59228599e-01
      4.97872353e-01 5.45454502e-01 5.61702132e-01 5.73002696e-01
      6.29787207e-01 6.19834661e-01 5.59574485e-01 6.74931109e-01
      4.93617028e-01 6.99724495e-01 4.44680840e-01 7.02479303e-01
      3.97872329e-01 6.96969688e-01 3.42553198e-01 6.66666627e-01
      3.21276605e-01 6.03305757e-01 4.08510625e-01 5.84021986e-01
      4.51063842e-01 5.97796082e-01 4.97872353e-01 5.89531660e-01
      5.97872317e-01 6.11570239e-01 4.93617028e-01 6.17079854e-01
      4.46808517e-01 6.25344336e-01 4.02127653e-01 6.14325047e-01</_>
    <_>
      0. 0. 1.44230770e-02 1.80327863e-01 3.36538479e-02 3.60655725e-01
      5.76923080e-02 5.37704945e-01 1.05769232e-01 7.08196700e-01
      1.87500000e-01 8.45901668e-01 3.00480783e-01 9.44262266e-01
      4.32692319e-01 9.93442595e-01 5.72115362e-01 1. 6.99519217e-01
      9.73770499e-01 8.07692289e-01 9.04918015e-01 8.91826928e-01
      7.96721339e-01 9.49519217e-01 6.55737698e-01 9.80769217e-01
      4.95081961e-01 9.90384638e-01 3.27868849e-01 9.95192289e-01
      1.54098362e-01 1. -2.62295082e-02 1.05769232e-01 -8.19672123e-02
      1.85096160e-01 -1.57377049e-01 2.81250000e-01 -1.73770487e-01
      3.82211536e-01 -1.54098362e-01 4.78365391e-01 -1.18032783e-01
      6.10576928e-01 -1.31147534e-01 6.99519217e-01 -1.77049175e-01
      7.93269217e-01 -1.93442628e-01 8.82211566e-01 -1.83606550e-01
      9.44711566e-01 -1.11475408e-01 5.48076928e-01 -9.83606558e-03
      5.50480783e-01 9.18032750e-02 5.55288434e-01 1.93442628e-01
      5.60096145e-01 3.04918021e-01 4.35096145e-01 3.70491803e-01
      4.92788464e-01 3.93442631e-01 5.55288434e-01 4.13114756e-01
      6.15384638e-01 3.93442631e-01 6.68269217e-01 3.67213100e-01
      2.11538464e-01 1.63934417e-02 2.69230783e-01 -1.63934417e-02
      3.31730783e-01 -1.96721312e-02 3.96634609e-01 2.62295082e-02
      3.34134609e-01 4.59016375e-02 2.69230783e-01 4.59016375e-02
      6.77884638e-01 1.31147541e-02 7.37980783e-01 -3.93442623e-02
      8.02884638e-01 -3.93442623e-02 8.55769217e-01 -9.83606558e-03
      8.05288434e-01 2.62295082e-02 7.42788434e-01 2.95081958e-02
      3.82211536e-01 6.13114774e-01 4.49519217e-01 5.57377040e-01
      5.07211566e-01 5.27868867e-01 5.55288434e-01 5.44262290e-01
      6.00961566e-01 5.24590135e-01 6.63461566e-01 5.47540963e-01
      7.30769217e-01 6.00000024e-01 6.68269217e-01 6.29508197e-01
      6.10576928e-01 6.36065602e-01 5.62500000e-01 6.42622948e-01
      5.14423072e-01 6.42622948e-01 4.51923072e-01 6.42622948e-01
      4.08653855e-01 6.03278697e-01 5.07211566e-01 5.73770463e-01
      5.55288434e-01 5.83606541e-01 6.05769217e-01 5.67213118e-01
      7.06730783e-01 5.90163946e-01 6.05769217e-01 5.67213118e-01
      5.57692289e-01 5.80327868e-01 5.09615362e-01 5.73770463e-01</_>
    <_>
      0. 0. 1.47783253e-02 1.76100641e-01 4.67980281e-02 3.49056631e-01
      8.37438405e-02 5.12578547e-01 1.35467976e-01 6.69811308e-01
      2.09359601e-01 8.11320722e-01 3.02955657e-01 9.27672923e-01
      4.16256160e-01 9.90566015e-01 5.51724136e-01 1. 6.89655185e-01
      9.77987409e-01 7.93103456e-01 8.96226406e-01 8.76847267e-01
      7.67295599e-01 9.33497548e-01 6.16352141e-01 9.75369453e-01
      4.49685484e-01 9.92610812e-01 2.79874235e-01 1. 9.74842831e-02
      9.92610812e-01 -8.17610174e-02 7.38916248e-02 -1.22641519e-01
      1.35467976e-01 -2.01257885e-01 2.24137932e-01 -2.26415113e-01
      3.17734003e-01 -2.04402536e-01 4.11330044e-01 -1.72955990e-01
      5.46798050e-01 -1.94968566e-01 6.35468006e-01 -2.45283037e-01
      7.31527090e-01 -2.73584932e-01 8.27586234e-01 -2.64150977e-01
      8.96551728e-01 -1.91823915e-01 4.87684727e-01 -6.91823959e-02
      4.92610842e-01 3.14465426e-02 4.95073885e-01 1.32075489e-01
      4.97536957e-01 2.38993734e-01 4.03940886e-01 3.64779800e-01
      4.55665022e-01 3.77358437e-01 5.12315273e-01 3.83647740e-01
      5.64039409e-01 3.71069133e-01 6.13300502e-01 3.52201283e-01
      1.79802954e-01 -3.14465445e-03 2.33990148e-01 -4.71698157e-02
      3.05418730e-01 -5.34591228e-02 3.74384224e-01 -3.14465445e-03
      3.05418730e-01 2.51572356e-02 2.33990148e-01 3.45911980e-02
      6.10837460e-01 -2.20125802e-02 6.69950724e-01 -8.49056691e-02
      7.41379321e-01 -9.43396315e-02 8.02955687e-01 -5.66037782e-02
      7.48768449e-01 -9.43396334e-03 6.77339911e-01 -6.28930889e-03
      3.47290635e-01 6.41509414e-01 4.13793117e-01 5.78616321e-01
      4.75369453e-01 5.40880442e-01 5.19704461e-01 5.56603730e-01
      5.64039409e-01 5.37735820e-01 6.33004904e-01 5.66037714e-01
      7.14285731e-01 6.16352141e-01 6.42857134e-01 6.76100612e-01
      5.78817725e-01 6.98113203e-01 5.32019675e-01 7.04402506e-01
      4.85221684e-01 7.04402506e-01 4.21182275e-01 6.85534537e-01
      3.79310340e-01 6.38364732e-01 4.77832526e-01 6.10062838e-01
      5.24630547e-01 6.16352141e-01 5.68965495e-01 6.03773534e-01
      6.82265997e-01 6.13207519e-01 5.71428597e-01 6.03773534e-01
      5.27093589e-01 6.16352141e-01 4.80295569e-01 6.10062838e-01</_>
    <_>
      0. 0. 1.70212761e-02 1.70658663e-01 4.25531901e-02 3.38323414e-01
      6.80851042e-02 5.11976063e-01 1.08510636e-01 6.73652709e-01
      1.85106382e-01 8.08383226e-01 2.93617010e-01 9.07185614e-01
      4.08510625e-01 9.91017938e-01 5.31914890e-01 1. 6.53191507e-01
      9.64071870e-01 7.57446826e-01 8.68263483e-01 8.59574497e-01
      7.60479093e-01 9.29787219e-01 6.13772511e-01 9.63829815e-01
      4.46107835e-01 9.80851054e-01 2.69461155e-01 9.93616998e-01
      8.98203477e-02 1. -9.88023877e-02 8.29787254e-02 -9.88023877e-02
      1.48936167e-01 -1.64670646e-01 2.34042555e-01 -1.76646695e-01
      3.21276605e-01 -1.64670646e-01 4.08510625e-01 -1.31736517e-01
      5.38297892e-01 -1.49700582e-01 6.23404264e-01 -2.03592792e-01
      7.12765932e-01 -2.27544889e-01 8.04255307e-01 -2.30538905e-01
      8.82978737e-01 -1.70658663e-01 4.78723407e-01 -4.49101739e-02
      4.78723407e-01 7.48502910e-02 4.78723407e-01 1.97604775e-01
      4.80851054e-01 3.17365319e-01 3.95744681e-01 3.89221609e-01
      4.42553192e-01 4.10179704e-01 4.93617028e-01 4.28143770e-01
      5.42553186e-01 4.01197672e-01 5.89361727e-01 3.77245575e-01
      1.80851057e-01 -1.49700586e-02 2.34042555e-01 -6.58682585e-02
      2.97872335e-01 -6.58682585e-02 3.53191495e-01 -8.98203533e-03
      2.95744687e-01 2.99401162e-03 2.34042555e-01 5.98802324e-03
      6.21276617e-01 -3.59281413e-02 6.70212746e-01 -1.01796396e-01
      7.34042525e-01 -1.10778436e-01 7.87234068e-01 -6.88622668e-02
      7.40425527e-01 -4.19161655e-02 6.80851042e-01 -3.29341292e-02
      3.02127659e-01 5.92814386e-01 3.63829792e-01 5.35928190e-01
      4.40425545e-01 5.17964125e-01 5.02127647e-01 5.32934189e-01
      5.63829780e-01 5.11976063e-01 6.46808505e-01 5.20958126e-01
      7.12765932e-01 5.59880257e-01 6.55319154e-01 6.82634771e-01
      5.76595724e-01 7.42514968e-01 5.10638297e-01 7.57485032e-01
      4.44680840e-01 7.51497030e-01 3.65957439e-01 7.03592837e-01
      3.25531930e-01 5.95808446e-01 4.42553192e-01 5.59880257e-01
      5.04255295e-01 5.65868318e-01 5.68085134e-01 5.50898254e-01
      6.91489339e-01 5.65868318e-01 5.70212781e-01 6.61676705e-01
      5.04255295e-01 6.76646709e-01 4.44680840e-01 6.67664707e-01</_>
    <_>
      0. 0. 4.28265519e-03 1.62234038e-01 1.92719493e-02 3.21808517e-01
      3.42612416e-02 4.84042555e-01 5.78158461e-02 6.43617034e-01
      1.15631692e-01 7.79255331e-01 2.11991429e-01 8.85638297e-01
      3.19057822e-01 9.70744669e-01 4.51820135e-01 1. 5.97430408e-01
      9.89361703e-01 7.23768711e-01 9.17553186e-01 8.30835104e-01
      8.16489339e-01 9.01498914e-01 6.83510661e-01 9.40042853e-01
      5.23936152e-01 9.63597417e-01 3.64361703e-01 9.89293337e-01
      2.10106388e-01 1. 4.52127643e-02 5.35331890e-02 -9.04255286e-02
      1.22055672e-01 -1.56914890e-01 2.16274083e-01 -1.59574464e-01
      3.06209862e-01 -1.22340426e-01 3.89721632e-01 -6.91489354e-02
      5.33190548e-01 -5.31914905e-02 6.27408981e-01 -9.84042585e-02
      7.23768711e-01 -1.25000000e-01 8.22269797e-01 -1.14361703e-01
      8.95074964e-01 -4.25531901e-02 4.60385442e-01 2.65957452e-02
      4.56102788e-01 1.22340426e-01 4.49678808e-01 2.26063833e-01
      4.43254828e-01 3.29787225e-01 3.59743029e-01 4.12234038e-01
      4.00428265e-01 4.30851072e-01 4.47537482e-01 4.46808517e-01
      4.96787995e-01 4.33510631e-01 5.43897212e-01 4.20212775e-01
      1.52034268e-01 1.86170209e-02 2.05567449e-01 -2.92553194e-02
      2.78372586e-01 -2.12765951e-02 3.38329762e-01 5.05319163e-02
      2.69807279e-01 7.44680837e-02 1.97002143e-01 6.91489354e-02
      5.97430408e-01 6.64893612e-02 6.61670208e-01 0. 7.34475374e-01 0.
      7.92291224e-01 5.58510646e-02 7.38758028e-01 9.84042585e-02
      6.65952861e-01 9.57446843e-02 2.61241972e-01 6.48936152e-01
      3.34047109e-01 5.98404229e-01 3.98286939e-01 5.69148958e-01
      4.45396155e-01 5.90425551e-01 4.96787995e-01 5.71808517e-01
      5.71734488e-01 6.09042525e-01 6.48822248e-01 6.59574449e-01
      5.71734488e-01 6.99468076e-01 4.96787995e-01 7.15425551e-01
      4.45396155e-01 7.18085110e-01 3.94004285e-01 7.10106373e-01
      3.29764456e-01 6.91489339e-01 2.91220546e-01 6.48936152e-01
      3.98286939e-01 6.25000000e-01 4.45396155e-01 6.32978737e-01
      4.96787995e-01 6.25000000e-01 6.16702378e-01 6.56914890e-01
      4.96787995e-01 6.46276593e-01 4.45396155e-01 6.51595771e-01
      3.98286939e-01 6.40957475e-01</_>
    <_>
      0. 0. 3.57142859e-03 1.63538873e-01 1.96428578e-02 3.24396789e-01
      4.46428582e-02 4.85254705e-01 7.50000030e-02 6.40750647e-01
      1.25000000e-01 7.82841802e-01 2.07142860e-01 9.03485239e-01
      3.12500000e-01 9.78552282e-01 4.49999988e-01 1. 5.91071427e-01
      9.86595154e-01 7.14285731e-01 9.32975888e-01 8.19642842e-01
      8.33780169e-01 8.96428585e-01 6.97050929e-01 9.37500000e-01
      5.33512056e-01 9.64285731e-01 3.56568366e-01 9.87500012e-01
      1.79624662e-01 1. -8.04289524e-03 5.71428575e-02 -1.52815014e-01
      1.12499997e-01 -2.68096507e-01 1.98214293e-01 -3.29758704e-01
      2.92857140e-01 -3.40482563e-01 3.82142872e-01 -3.08310986e-01
      5.39285719e-01 -3.24396789e-01 6.37499988e-01 -3.56568366e-01
      7.41071403e-01 -3.48525465e-01 8.33928585e-01 -2.84182310e-01
      8.96428585e-01 -1.68900803e-01 4.53571439e-01 -9.91957113e-02
      4.53571439e-01 1.34048257e-02 4.49999988e-01 1.23324394e-01
      4.48214293e-01 2.38605902e-01 3.39285702e-01 3.64611268e-01
      3.94642860e-01 3.75335127e-01 4.48214293e-01 3.88739944e-01
      5.08928597e-01 3.78016084e-01 5.66071451e-01 3.69973183e-01
      1.35714293e-01 -4.02144790e-02 1.94642857e-01 -1.20643429e-01
      2.75000006e-01 -1.26005366e-01 3.39285702e-01 -2.41286866e-02
      2.71428585e-01 -2.68096523e-03 1.91071436e-01 0. 5.94642878e-01
      -3.75335105e-02 6.62500024e-01 -1.39410183e-01 7.42857158e-01
      -1.42091155e-01 8.05357158e-01 -6.16621971e-02 7.48214304e-01
      -1.87667552e-02 6.67857170e-01 -1.60857905e-02 2.39285707e-01
      6.11260056e-01 3.07142854e-01 5.30831099e-01 3.85714293e-01
      4.85254705e-01 4.46428567e-01 5.04021466e-01 5.08928597e-01
      4.85254705e-01 6.00000024e-01 5.33512056e-01 6.82142854e-01
      6.27345860e-01 6.00000024e-01 7.15817690e-01 5.12499988e-01
      7.45308340e-01 4.44642872e-01 7.50670254e-01 3.76785725e-01
      7.42627323e-01 3.01785707e-01 7.02412844e-01 2.75000006e-01
      6.11260056e-01 3.83928567e-01 5.71045578e-01 4.46428567e-01
      5.76407492e-01 5.10714293e-01 5.71045578e-01 6.48214281e-01
      6.24664903e-01 5.10714293e-01 6.27345860e-01 4.44642872e-01
      6.35388732e-01 3.80357146e-01 6.24664903e-01</_>
    <_>
      4.62962966e-03 0. 0. 1.56250000e-01 4.62962966e-03 3.15625012e-01
      2.08333340e-02 4.81249988e-01 6.71296269e-02 6.34374976e-01
      1.48148149e-01 7.71875024e-01 2.50000000e-01 8.84374976e-01
      3.65740746e-01 9.71875012e-01 5.13888896e-01 1. 6.55092597e-01
      9.68750000e-01 7.66203701e-01 8.75000000e-01 8.65740716e-01
      7.62499988e-01 9.37500000e-01 6.18749976e-01 9.74537015e-01
      4.53125000e-01 9.90740716e-01 2.84375012e-01 1. 1.18749999e-01
      9.97685194e-01 -4.68750000e-02 9.02777761e-02 -1.81250006e-01
      1.55092597e-01 -2.53125012e-01 2.40740746e-01 -2.75000006e-01
      3.28703701e-01 -2.62499988e-01 4.02777791e-01 -2.21874997e-01
      6.04166687e-01 -2.53125012e-01 6.82870388e-01 -3.06250006e-01
      7.68518507e-01 -3.24999988e-01 8.51851881e-01 -2.96875000e-01
      9.09722209e-01 -2.12500006e-01 5.04629612e-01 -1.03124999e-01
      5.02314806e-01 -3.12500005e-03 5.02314806e-01 9.68749970e-02
      5.00000000e-01 2.00000003e-01 3.77314806e-01 2.75000006e-01
      4.39814806e-01 3.03124994e-01 5.04629612e-01 3.28125000e-01
      5.69444418e-01 3.03124994e-01 6.27314806e-01 2.78124988e-01
      1.78240746e-01 -8.12499970e-02 2.38425925e-01 -1.28124997e-01
      3.07870358e-01 -1.21875003e-01 3.70370358e-01 -6.25000000e-02
      3.05555552e-01 -5.31250015e-02 2.36111104e-01 -5.00000007e-02
      6.36574090e-01 -6.56249970e-02 7.01388896e-01 -1.28124997e-01
      7.68518507e-01 -1.25000000e-01 8.24074090e-01 -7.81250000e-02
      7.70833313e-01 -5.00000007e-02 7.03703701e-01 -5.00000007e-02
      2.75462955e-01 5.06250024e-01 3.44907403e-01 4.31250006e-01
      4.42129642e-01 3.96874994e-01 5.02314806e-01 4.12499994e-01
      5.69444418e-01 4.00000006e-01 6.66666687e-01 4.40625012e-01
      7.33796299e-01 5.12499988e-01 6.71296299e-01 6.68749988e-01
      5.76388896e-01 7.37500012e-01 5.04629612e-01 7.46874988e-01
      4.37500000e-01 7.34375000e-01 3.40277791e-01 6.59375012e-01
      3.00925940e-01 5.12499988e-01 4.42129642e-01 4.84375000e-01
      5.04629612e-01 4.93750006e-01 5.71759284e-01 4.84375000e-01
      7.03703701e-01 5.18750012e-01 5.74074090e-01 6.15625024e-01
      5.04629612e-01 6.25000000e-01 4.39814806e-01 6.12500012e-01</_>
    <_>
      0. 0. 1.32743362e-02 1.66189104e-01 3.98230106e-02 3.23782206e-01
      6.85840696e-02 4.84240741e-01 1.12831861e-01 6.44699156e-01
      1.81415930e-01 7.85100281e-01 2.78761059e-01 8.96848142e-01
      3.93805295e-01 9.82808053e-01 5.22123873e-01 1. 6.52654886e-01
      9.68481362e-01 7.72123873e-01 8.71060193e-01 8.76106203e-01
      7.53581703e-01 9.49115038e-01 6.07449889e-01 9.84513283e-01
      4.38395470e-01 9.91150439e-01 2.69340962e-01 1. 9.45558622e-02 1.
      -7.73638934e-02 5.75221255e-02 -6.30372465e-02 1.17256634e-01
      -1.46131799e-01 2.12389380e-01 -1.63323775e-01 3.09734523e-01
      -1.46131799e-01 4.04867262e-01 -1.06017180e-01 5.33185840e-01
      -1.06017180e-01 6.23893797e-01 -1.60458446e-01 7.16814160e-01
      -1.94842383e-01 8.18584085e-01 -1.94842383e-01 9.00442481e-01
      -1.31805152e-01 4.71238941e-01 -2.57879626e-02 4.73451316e-01
      8.30945522e-02 4.73451316e-01 1.91977054e-01 4.75663722e-01
      3.03724915e-01 3.98230076e-01 3.46704930e-01 4.38053101e-01
      3.72492880e-01 4.86725658e-01 3.92550200e-01 5.37610590e-01
      3.63896906e-01 5.81858397e-01 3.29512864e-01 1.74778759e-01
      1.43266460e-02 2.25663722e-01 -2.29226332e-02 2.87610620e-01
      -3.15186232e-02 3.53982300e-01 2.86532915e-03 2.89822996e-01
      1.71919763e-02 2.27876112e-01 2.57879626e-02 6.10619485e-01
      -1.71919763e-02 6.70354009e-01 -6.01719134e-02 7.32300878e-01
      -6.30372465e-02 7.94247806e-01 -3.43839526e-02 7.36725688e-01
      -1.14613166e-02 6.72566354e-01 -1.14613166e-02 3.49557519e-01
      5.64469934e-01 3.93805295e-01 5.01432717e-01 4.40265477e-01
      4.81375396e-01 4.91150439e-01 4.89971399e-01 5.33185840e-01
      4.69914079e-01 5.92920363e-01 4.69914079e-01 6.54867232e-01
      5.24355352e-01 6.06194675e-01 5.78796625e-01 5.55309713e-01
      6.18911207e-01 5.06637156e-01 6.33237839e-01 4.55752224e-01
      6.30372524e-01 4.02654856e-01 6.04584575e-01 3.80530983e-01
      5.53008616e-01 4.42477882e-01 5.35816669e-01 4.93362844e-01
      5.38681984e-01 5.39822996e-01 5.24355352e-01 6.30530953e-01
      5.18624663e-01 5.46460152e-01 5.27220666e-01 5.00000000e-01
      5.44412673e-01 4.51327443e-01 5.35816669e-01</_>
    <_>
      0. 0. 5.98802418e-03 1.62162155e-01 1.79640725e-02 3.24324310e-01
      2.59481035e-02 4.97297347e-01 5.18962070e-02 6.64864898e-01
      1.15768462e-01 8.08108151e-01 2.23552898e-01 9.05405402e-01
      3.51297408e-01 9.75675702e-01 4.89021957e-01 1. 6.28742516e-01
      9.78378356e-01 7.54491031e-01 9.10810828e-01 8.60279441e-01
      8.18918943e-01 9.26147699e-01 6.81081116e-01 9.62075830e-01
      5.24324358e-01 9.84031916e-01 3.64864826e-01 9.96007979e-01
      2.02702686e-01 1. 4.05405387e-02 7.18562901e-02 -1.59459442e-01
      1.21756487e-01 -2.56756693e-01 2.05588818e-01 -3.02702636e-01
      2.99401194e-01 -2.94594526e-01 3.87225538e-01 -2.48648584e-01
      5.88822365e-01 -2.40540519e-01 6.78642690e-01 -2.86486417e-01
      7.72455096e-01 -2.97297239e-01 8.60279441e-01 -2.48648584e-01
      9.16167676e-01 -1.51351333e-01 4.83033925e-01 -5.94594553e-02
      4.79041904e-01 3.78378332e-02 4.75049913e-01 1.35135129e-01
      4.71057892e-01 2.35135123e-01 3.79241526e-01 3.43243212e-01
      4.23153698e-01 3.62162143e-01 4.71057892e-01 3.78378361e-01
      5.22954106e-01 3.67567539e-01 5.70858300e-01 3.54054034e-01
      1.77644715e-01 -1.35135120e-02 2.31536925e-01 -5.94594553e-02
      2.97405183e-01 -5.40540479e-02 3.59281451e-01 2.70270254e-03
      2.93413162e-01 2.43243221e-02 2.27544904e-01 2.16216203e-02
      6.16766453e-01 8.10810737e-03 6.78642690e-01 -4.59459424e-02
      7.48502970e-01 -4.59459424e-02 8.02395225e-01 0. 7.50499010e-01
      3.78378332e-02 6.80638731e-01 3.78378332e-02 2.55489022e-01
      6.18918955e-01 3.33333343e-01 5.32432497e-01 4.11177635e-01
      5.02702773e-01 4.65069860e-01 5.18918931e-01 5.16966045e-01
      5.10810852e-01 6.02794409e-01 5.59459507e-01 6.90618753e-01
      6.43243253e-01 6.02794409e-01 7.02702701e-01 5.14970064e-01
      7.16216266e-01 4.61077839e-01 7.13513553e-01 4.03193623e-01
      7.02702701e-01 3.29341322e-01 6.81081116e-01 2.83433139e-01
      6.10810816e-01 4.11177635e-01 5.59459507e-01 4.65069860e-01
      5.67567587e-01 5.16966045e-01 5.70270300e-01 6.56686604e-01
      6.37837887e-01 5.12974024e-01 6.43243253e-01 4.61077839e-01
      6.40540600e-01 4.05189633e-01 6.35135174e-01</_>
    <_>
      0. 0. 1.30597018e-02 1.68797955e-01 3.73134315e-02 3.29923272e-01
      6.90298527e-02 4.91048604e-01 1.15671642e-01 6.44501269e-01
      1.86567158e-01 7.80051172e-01 2.81716406e-01 8.92583132e-01
      3.91791046e-01 9.84654725e-01 5.24253726e-01 1. 6.52985096e-01
      9.64194357e-01 7.53731370e-01 8.67007673e-01 8.41417909e-01
      7.54475713e-01 9.10447776e-01 6.16368294e-01 9.47761178e-01
      4.55242962e-01 9.72014904e-01 2.94117659e-01 9.92537320e-01
      1.22762151e-01 1. -4.60358039e-02 9.51492563e-02 -6.90537095e-02
      1.71641797e-01 -1.45780057e-01 2.70522386e-01 -1.73913047e-01
      3.75000000e-01 -1.81585684e-01 4.72014934e-01 -1.45780057e-01
      5.54104507e-01 -1.45780057e-01 6.47388041e-01 -1.89258307e-01
      7.50000000e-01 -1.96930945e-01 8.48880589e-01 -1.86700761e-01
      9.21641767e-01 -1.15089513e-01 5.16791046e-01 -4.34782617e-02
      5.20522416e-01 4.34782617e-02 5.24253726e-01 1.30434781e-01
      5.26119411e-01 2.22506389e-01 4.21641797e-01 3.22250634e-01
      4.72014934e-01 3.37595910e-01 5.26119411e-01 3.50383639e-01
      5.76492548e-01 3.29923272e-01 6.23134315e-01 3.06905359e-01
      2.12686568e-01 -5.11508947e-03 2.66791046e-01 -4.34782617e-02
      3.24626863e-01 -5.11508957e-02 3.84328365e-01 -1.53452689e-02
      3.26492548e-01 -2.55754474e-03 2.68656731e-01 2.55754474e-03
      6.43656731e-01 -3.58056277e-02 6.97761178e-01 -7.67263398e-02
      7.55596995e-01 -7.67263398e-02 8.11567187e-01 -4.60358039e-02
      7.55596995e-01 -3.32480818e-02 6.99626863e-01 -3.32480818e-02
      3.48880589e-01 5.62659860e-01 3.99253726e-01 4.78260875e-01
      4.68283594e-01 4.47570324e-01 5.26119411e-01 4.65473145e-01
      5.78358233e-01 4.45012778e-01 6.45522416e-01 4.70588237e-01
      6.95895493e-01 5.49872100e-01 6.49253726e-01 6.49616361e-01
      5.83955228e-01 6.98209703e-01 5.26119411e-01 7.10997462e-01
      4.64552253e-01 7.03324795e-01 3.93656731e-01 6.52173936e-01
      3.78731340e-01 5.54987192e-01 4.70149249e-01 5.06393850e-01
      5.26119411e-01 5.14066517e-01 5.80223858e-01 5.01278758e-01
      6.67910457e-01 5.47314584e-01 5.78358233e-01 5.90792835e-01
      5.24253726e-01 6.03580534e-01 4.66417909e-01 5.90792835e-01</_>
    <_>
      0. 0. 6.28930796e-03 1.61209062e-01 1.67714879e-02 3.14861447e-01
      3.98322865e-02 4.73551631e-01 8.80503133e-02 6.19647384e-01
      1.69811323e-01 7.53148615e-01 2.66247392e-01 8.71536553e-01
      3.75262052e-01 9.74811077e-01 4.98951793e-01 1. 6.22641504e-01
      9.69773293e-01 7.31656194e-01 8.74055445e-01 8.21802914e-01
      7.50629723e-01 9.01467502e-01 6.09571815e-01 9.47589099e-01
      4.53400493e-01 9.74842787e-01 2.87153661e-01 9.93710697e-01
      1.20906800e-01 1. -5.28967269e-02 5.03144637e-02 -1.23425692e-01
      1.13207549e-01 -2.14105800e-01 2.09643602e-01 -2.44332492e-01
      3.10272545e-01 -2.39294708e-01 3.96226406e-01 -1.96473554e-01
      5.26205480e-01 -1.98992446e-01 6.26834393e-01 -2.51889169e-01
      7.44234800e-01 -2.61964738e-01 8.53249490e-01 -2.19143569e-01
      9.26624715e-01 -1.25944585e-01 4.75890994e-01 -7.30478615e-02
      4.77987409e-01 4.53400500e-02 4.80083853e-01 1.63727954e-01
      4.84276742e-01 2.84634769e-01 3.66876304e-01 3.19899231e-01
      4.23480093e-01 3.55163723e-01 4.86373156e-01 3.80352646e-01
      5.49266219e-01 3.55163723e-01 6.03773594e-01 3.22418123e-01
      1.42557651e-01 -4.28211577e-02 2.03354299e-01 -7.55667537e-02
      2.70440251e-01 -7.55667537e-02 3.35429758e-01 -3.77833769e-02
      2.70440251e-01 -3.27455923e-02 2.07547173e-01 -3.02267000e-02
      6.16352201e-01 -4.53400500e-02 6.85534596e-01 -8.81612077e-02
      7.54716992e-01 -8.56423154e-02 8.17610085e-01 -5.28967269e-02
      7.54716992e-01 -4.28211577e-02 6.87631011e-01 -4.53400500e-02
      3.06079656e-01 5.56675076e-01 3.52201253e-01 4.68513846e-01
      4.25576508e-01 4.43324924e-01 4.88469601e-01 4.63476062e-01
      5.57651997e-01 4.43324924e-01 6.39412999e-01 4.71032739e-01
      6.87631011e-01 5.56675076e-01 6.41509414e-01 6.75062954e-01
      5.68134189e-01 7.50629723e-01 4.94758904e-01 7.63224185e-01
      4.23480093e-01 7.50629723e-01 3.52201253e-01 6.72544062e-01
      3.33333343e-01 5.49118400e-01 4.23480093e-01 4.98740554e-01
      4.90566045e-01 5.08816123e-01 5.59748411e-01 4.96221662e-01
      6.56184494e-01 5.51637292e-01 5.61844885e-01 6.34760678e-01
      4.90566045e-01 6.47355139e-01 4.23480093e-01 6.32241786e-01</_>
    <_>
      0. 0. 6.47948170e-03 1.60664827e-01 2.80777533e-02 3.24099720e-01
      5.61555065e-02 4.81994450e-01 9.93520543e-02 6.39889181e-01
      1.70626357e-01 7.81163454e-01 2.65658736e-01 9.00277019e-01
      3.77969772e-01 9.86149609e-01 5.16198695e-01 1. 6.56587481e-01
      9.72299159e-01 7.75377989e-01 8.78116369e-01 8.74730051e-01
      7.53462613e-01 9.43844497e-01 6.06648207e-01 9.80561554e-01
      4.43213284e-01 9.91360664e-01 2.82548487e-01 1. 1.24653742e-01
      9.95680332e-01 -2.77008303e-02 7.77537823e-02 -1.02493078e-01
      1.36069119e-01 -1.91135734e-01 2.28941679e-01 -2.07756236e-01
      3.21814269e-01 -1.93905815e-01 4.14686829e-01 -1.60664827e-01
      5.46436310e-01 -1.71745151e-01 6.34989202e-01 -2.13296399e-01
      7.27861762e-01 -2.35457063e-01 8.22894156e-01 -2.27146819e-01
      8.92008662e-01 -1.46814406e-01 4.73002166e-01 -4.98614945e-02
      4.73002166e-01 4.98614945e-02 4.70842332e-01 1.49584487e-01
      4.68682498e-01 2.57617742e-01 3.71490270e-01 3.10249299e-01
      4.21166301e-01 3.37950140e-01 4.79481637e-01 3.60110790e-01
      5.37796974e-01 3.32409978e-01 5.91792643e-01 3.01939070e-01
      1.81425482e-01 -8.31024908e-03 2.35421166e-01 -5.81717454e-02
      3.02375823e-01 -6.64819926e-02 3.67170632e-01 -1.38504151e-02
      3.02375823e-01 0. 2.33261332e-01 5.54016605e-03 6.02591813e-01
      -1.93905812e-02 6.60907149e-01 -8.31024945e-02 7.30021596e-01
      -8.31024945e-02 7.88336933e-01 -3.60110812e-02 7.34341264e-01
      -1.10803321e-02 6.65226758e-01 -1.10803321e-02 3.15334767e-01
      5.48476458e-01 3.62850964e-01 4.84764546e-01 4.27645802e-01
      4.48753476e-01 4.81641471e-01 4.65373963e-01 5.33477306e-01
      4.43213284e-01 6.04751647e-01 4.73684222e-01 6.63066983e-01
      5.31855941e-01 6.11231089e-01 6.01108015e-01 5.44276476e-01
      6.45429373e-01 4.88120943e-01 6.59279764e-01 4.29805607e-01
      6.50969505e-01 3.67170632e-01 6.14958465e-01 3.47732186e-01
      5.45706391e-01 4.27645802e-01 5.31855941e-01 4.83801305e-01
      5.40166199e-01 5.37796974e-01 5.29085875e-01 6.32829368e-01
      5.31855941e-01 5.37796974e-01 5.23545682e-01 4.83801305e-01
      5.40166199e-01 4.29805607e-01 5.29085875e-01</_>
    <_>
      0. 0. 1.00603625e-02 1.53005466e-01 2.81690136e-02 3.03278685e-01
      5.23138829e-02 4.61748630e-01 8.04829001e-02 6.20218575e-01
      1.38833001e-01 7.65027344e-01 2.29376256e-01 8.90710354e-01
      3.40040237e-01 9.80874300e-01 4.70824957e-01 1. 6.07645869e-01
      9.86338794e-01 7.32394338e-01 9.12568331e-01 8.47082496e-01
      8.06010902e-01 9.25553322e-01 6.66666687e-01 9.63782668e-01
      5.05464494e-01 9.83903408e-01 3.36065561e-01 9.95975852e-01
      1.72131151e-01 1. 5.46448072e-03 7.64587522e-02 -7.92349726e-02
      1.38833001e-01 -1.25683054e-01 2.19315901e-01 -1.22950822e-01
      2.95774639e-01 -8.19672123e-02 3.66197169e-01 -3.27868834e-02
      5.53319931e-01 -3.27868834e-02 6.31790757e-01 -9.01639313e-02
      7.16297805e-01 -1.39344260e-01 8.04829001e-01 -1.44808739e-01
      8.81287754e-01 -9.28961784e-02 4.60764587e-01 1.36612020e-02
      4.52716291e-01 1.25683054e-01 4.48692143e-01 2.34972671e-01
      4.42655921e-01 3.49726766e-01 3.62173051e-01 3.93442631e-01
      4.04426545e-01 4.23497260e-01 4.54728365e-01 4.48087424e-01
      5.09054303e-01 4.23497260e-01 5.59356153e-01 3.98907095e-01
      1.69014081e-01 4.91803288e-02 2.25352108e-01 4.09836061e-02
      2.81690150e-01 4.09836061e-02 3.40040237e-01 6.01092912e-02
      2.81690150e-01 6.55737668e-02 2.23340034e-01 6.83060139e-02
      6.03621721e-01 5.46448082e-02 6.59959733e-01 3.82513665e-02
      7.16297805e-01 3.27868834e-02 7.80684114e-01 4.37158458e-02
      7.20321953e-01 6.28415272e-02 6.61971807e-01 6.01092912e-02
      3.11871231e-01 6.14754081e-01 3.60160977e-01 5.62841535e-01
      4.08450693e-01 5.43715835e-01 4.58752513e-01 5.60109317e-01
      5.13078451e-01 5.40983617e-01 5.71428597e-01 5.57377040e-01
      6.37826979e-01 6.09289646e-01 5.75452745e-01 6.58469975e-01
      5.19114673e-01 6.85792327e-01 4.62776661e-01 6.93989098e-01
      4.12474841e-01 6.85792327e-01 3.64185125e-01 6.61202192e-01
      3.38028163e-01 6.12021863e-01 4.10462767e-01 5.92896163e-01
      4.60764587e-01 6.03825152e-01 5.15090525e-01 5.92896163e-01
      6.11670017e-01 6.06557369e-01 5.15090525e-01 6.01092875e-01
      4.60764587e-01 6.14754081e-01 4.12474841e-01 6.01092875e-01</_>
    <_>
      0. 0. 1.01522841e-02 1.79775283e-01 2.53807101e-02 3.55805248e-01
      4.56852801e-02 5.35580516e-01 8.62944126e-02 7.04119861e-01
      1.57360405e-01 8.35205972e-01 2.58883238e-01 9.21348333e-01
      3.70558381e-01 9.85018730e-01 4.94923860e-01 1. 6.19289339e-01
      9.66292143e-01 7.33502567e-01 8.98876429e-01 8.47715735e-01
      8.12734067e-01 9.31472063e-01 6.85393274e-01 9.74619269e-01
      5.24344563e-01 9.92385805e-01 3.48314613e-01 9.94923830e-01
      1.68539330e-01 1. -1.12359552e-02 7.36040622e-02 -2.02247187e-01
      1.14213198e-01 -3.37078661e-01 1.97969541e-01 -4.08239692e-01
      2.96954304e-01 -4.04494375e-01 3.93401027e-01 -3.52059931e-01
      5.40609121e-01 -3.67041200e-01 6.42131984e-01 -4.23220962e-01
      7.43654847e-01 -4.26966280e-01 8.37563455e-01 -3.52059931e-01
      8.85786831e-01 -2.24719107e-01 4.77157354e-01 -1.64794013e-01
      4.79695439e-01 -7.86516890e-02 4.79695439e-01 3.74531839e-03
      4.79695439e-01 9.73782763e-02 3.90862942e-01 2.73408234e-01
      4.36548233e-01 2.80898869e-01 4.79695439e-01 2.88389504e-01
      5.25380731e-01 2.77153552e-01 5.65989852e-01 2.65917599e-01
      1.85279191e-01 -8.61423239e-02 2.33502537e-01 -1.49812728e-01
      2.99492389e-01 -1.53558046e-01 3.60406101e-01 -8.98876414e-02
      2.99492389e-01 -5.99250942e-02 2.33502537e-01 -5.24344556e-02
      5.98984778e-01 -9.73782763e-02 6.64974630e-01 -1.61048695e-01
      7.30964482e-01 -1.49812728e-01 7.81725883e-01 -8.61423239e-02
      7.28426397e-01 -5.99250942e-02 6.64974630e-01 -6.36704117e-02
      2.58883238e-01 5.61797738e-01 3.37563455e-01 4.71910119e-01
      4.21319783e-01 4.30711597e-01 4.74619299e-01 4.45692897e-01
      5.35533011e-01 4.30711597e-01 6.14213169e-01 4.68164802e-01
      6.95431471e-01 5.46816468e-01 6.16751254e-01 6.10486865e-01
      5.38071036e-01 6.32958829e-01 4.77157354e-01 6.40449464e-01
      4.18781728e-01 6.44194782e-01 3.37563455e-01 6.32958829e-01
      2.91878164e-01 5.58052421e-01 4.21319783e-01 4.90636706e-01
      4.74619299e-01 4.90636706e-01 5.35533011e-01 4.86891389e-01
      6.59898460e-01 5.43071151e-01 5.35533011e-01 5.65543056e-01
      4.74619299e-01 5.73033690e-01 4.18781728e-01 5.73033690e-01</_>
    <_>
      0. 0. 8.84955749e-03 1.62420303e-01 1.76991150e-02 3.18471283e-01
      2.65486725e-02 4.80891675e-01 5.53097352e-02 6.40127361e-01
      1.26106188e-01 7.80254781e-01 2.32300878e-01 8.82165611e-01
      3.51769924e-01 9.61783409e-01 4.93362844e-01 1. 6.30530953e-01
      9.80891705e-01 7.47787595e-01 9.01273847e-01 8.51769924e-01
      8.12101901e-01 9.18141603e-01 6.87898040e-01 9.49115038e-01
      5.28662384e-01 9.69026566e-01 3.69426697e-01 9.88938034e-01
      2.07006291e-01 1. 4.77707051e-02 1.10619470e-01 -2.19745249e-01
      1.72566369e-01 -3.15286666e-01 2.67699122e-01 -3.56687933e-01
      3.65044236e-01 -3.53503227e-01 4.64601755e-01 -3.18471372e-01
      6.01769924e-01 -2.96178371e-01 6.96902633e-01 -3.31210226e-01
      7.94247806e-01 -3.34394932e-01 8.84955764e-01 -2.89808959e-01
      9.35840726e-01 -1.78343967e-01 5.28761089e-01 -1.62420392e-01
      5.28761089e-01 -4.45859917e-02 5.30973434e-01 7.64330328e-02
      5.30973434e-01 1.97452158e-01 4.22566384e-01 3.02547693e-01
      4.71238941e-01 3.15286547e-01 5.22123873e-01 3.34394842e-01
      5.70796490e-01 3.21655989e-01 6.17256641e-01 3.08917135e-01
      2.14601770e-01 -1.05095550e-01 2.65486717e-01 -1.75159246e-01
      3.36283177e-01 -1.75159246e-01 3.93805295e-01 -9.87261236e-02
      3.34070802e-01 -7.32484162e-02 2.65486717e-01 -7.00637028e-02
      6.46017671e-01 -8.28025565e-02 7.05752194e-01 -1.56050965e-01
      7.76548684e-01 -1.43312111e-01 8.25221241e-01 -6.68789893e-02
      7.74336278e-01 -4.14012782e-02 7.05752194e-01 -4.77707051e-02
      2.72123903e-01 5.19108236e-01 3.56194705e-01 4.61783379e-01
      4.49115038e-01 4.29936260e-01 5.08849561e-01 4.49044526e-01
      5.68584085e-01 4.36305672e-01 6.52654886e-01 4.80891675e-01
      7.21238911e-01 5.66878915e-01 6.48230076e-01 6.49681509e-01
      5.66371679e-01 6.84713364e-01 5.02212405e-01 6.87898040e-01
      4.38053101e-01 6.78343892e-01 3.49557519e-01 6.24203801e-01
      3.05309743e-01 5.25477648e-01 4.46902663e-01 4.93630528e-01
      5.06637156e-01 5.03184676e-01 5.68584085e-01 4.99999940e-01
      6.90265477e-01 5.60509503e-01 5.68584085e-01 5.85987210e-01
      5.06637156e-01 5.85987210e-01 4.44690257e-01 5.76433063e-01</_>
    <_>
      0. 0. 1.49892932e-02 1.60857841e-01 3.21199149e-02 3.13672870e-01
      5.13918623e-02 4.66487885e-01 9.20770913e-02 6.13941014e-01
      1.67023554e-01 7.56032169e-01 2.59100646e-01 8.79356563e-01
      3.74732345e-01 9.75871325e-01 5.11777282e-01 1. 6.46680951e-01
      9.73190367e-01 7.49464691e-01 8.71313691e-01 8.37259114e-01
      7.53351212e-01 9.07922924e-01 6.16621971e-01 9.44325507e-01
      4.66487885e-01 9.63597417e-01 3.10991913e-01 9.85010684e-01
      1.55495912e-01 1. -8.04289617e-03 7.28051364e-02 -7.77479932e-02
      1.43468946e-01 -1.55495986e-01 2.44111344e-01 -1.71581790e-01
      3.40471089e-01 -1.44772127e-01 4.32548165e-01 -9.65147540e-02
      6.01713061e-01 -1.01876684e-01 6.87366188e-01 -1.55495986e-01
      7.77301908e-01 -1.82305649e-01 8.69379044e-01 -1.71581790e-01
      9.31477487e-01 -9.91957188e-02 5.16059935e-01 -4.02144790e-02
      5.16059935e-01 7.23859817e-02 5.20342588e-01 1.82305560e-01
      5.22483945e-01 2.97587067e-01 4.23982859e-01 3.43163490e-01
      4.71092075e-01 3.61930251e-01 5.22483945e-01 3.86058927e-01
      5.73875785e-01 3.61930251e-01 6.14561021e-01 3.43163490e-01
      1.86295509e-01 -2.68096547e-03 2.46252671e-01 -2.14477237e-02
      3.08351189e-01 -2.14477237e-02 3.72591019e-01 -5.36193093e-03
      3.10492516e-01 8.04289617e-03 2.48393998e-01 1.07238619e-02
      6.48822248e-01 -8.04289617e-03 7.13062108e-01 -2.68096533e-02
      7.75160611e-01 -2.68096533e-02 8.35117757e-01 -5.36193093e-03
      7.77301908e-01 8.04289617e-03 7.15203404e-01 2.68096547e-03
      3.27623129e-01 5.73726535e-01 3.83297652e-01 4.87935603e-01
      4.60385442e-01 4.53083068e-01 5.22483945e-01 4.74530786e-01
      5.86723745e-01 4.55764025e-01 6.48822248e-01 4.87935603e-01
      6.91648841e-01 5.84450364e-01 6.44539595e-01 6.64879322e-01
      5.84582448e-01 7.13136733e-01 5.16059935e-01 7.26541519e-01
      4.47537482e-01 7.15817690e-01 3.74732345e-01 6.67560279e-01
      3.57601702e-01 5.65683603e-01 4.58244115e-01 5.28150082e-01
      5.22483945e-01 5.38873971e-01 5.86723745e-01 5.28150082e-01
      6.57387555e-01 5.73726535e-01 5.80299795e-01 5.81769407e-01
      5.16059935e-01 5.95174253e-01 4.51820135e-01 5.84450364e-01</_>
    <_>
      0. 0. 8.94854590e-03 1.66666657e-01 3.13199088e-02 3.30508530e-01
      4.92170006e-02 4.97175187e-01 8.94854590e-02 6.55367255e-01
      1.67785242e-01 7.90960491e-01 2.72930652e-01 9.01129961e-01
      3.91498893e-01 9.77401137e-01 5.19015670e-01 1. 6.48769557e-01
      9.71751392e-01 7.62863517e-01 8.87005687e-01 8.63534689e-01
      7.74011314e-01 9.32885885e-01 6.32768393e-01 9.66442943e-01
      4.68926609e-01 9.77628648e-01 2.96610236e-01 9.97762859e-01
      1.24293774e-01 1. -4.80225943e-02 7.38255009e-02 -1.32768348e-01
      1.43176734e-01 -1.94915235e-01 2.30425060e-01 -2.14689240e-01
      3.24384779e-01 -2.17514113e-01 4.18344527e-01 -1.89265519e-01
      5.72706938e-01 -1.94915235e-01 6.59955263e-01 -2.23163828e-01
      7.51677871e-01 -2.23163828e-01 8.41163337e-01 -2.09039524e-01
      9.10514534e-01 -1.46892637e-01 4.96644288e-01 -6.21468872e-02
      4.98881429e-01 4.23728786e-02 5.01118541e-01 1.46892637e-01
      5.03355682e-01 2.57062197e-01 4.16107386e-01 3.53107393e-01
      4.63087261e-01 3.67231697e-01 5.10067105e-01 3.78531128e-01
      5.57047009e-01 3.64406824e-01 6.01789713e-01 3.47457677e-01
      1.76733777e-01 -4.23728786e-02 2.34899327e-01 -8.75706151e-02
      3.02013427e-01 -8.75706151e-02 3.69127512e-01 -3.38983014e-02
      2.99776286e-01 -2.54237261e-02 2.34899327e-01 -2.25988682e-02
      6.28635347e-01 -3.67231593e-02 6.91275179e-01 -9.03954729e-02
      7.60626376e-01 -9.32203308e-02 8.21029067e-01 -5.08474521e-02
      7.62863517e-01 -2.82485858e-02 6.95749462e-01 -2.82485858e-02
      3.06487709e-01 5.62146902e-01 3.73601794e-01 5.00000060e-01
      4.47427303e-01 4.68926609e-01 5.07829964e-01 4.91525471e-01
      5.63758373e-01 4.71751451e-01 6.37583911e-01 5.02824903e-01
      7.04697967e-01 5.67796648e-01 6.39821053e-01 6.32768393e-01
      5.68232656e-01 6.69491529e-01 5.07829964e-01 6.77966118e-01
      4.45190161e-01 6.69491529e-01 3.73601794e-01 6.32768393e-01
      3.40044737e-01 5.62146902e-01 4.49664444e-01 5.36723197e-01
      5.10067105e-01 5.45197785e-01 5.65995514e-01 5.36723197e-01
      6.73378050e-01 5.64971805e-01 5.63758373e-01 5.64971805e-01
      5.05592823e-01 5.73446393e-01 4.45190161e-01 5.67796648e-01</_>
    <_>
      0. 0. 4.33839485e-03 1.65760860e-01 2.60303691e-02 3.28804404e-01
      4.55531441e-02 4.89130467e-01 7.37527087e-02 6.54891312e-01
      1.32321045e-01 7.90760875e-01 2.27765724e-01 8.96739125e-01
      3.44902396e-01 9.75543499e-01 4.79392618e-01 1. 6.18221283e-01
      9.78260875e-01 7.46203899e-01 8.99456501e-01 8.54663789e-01
      7.98913062e-01 9.24078107e-01 6.63043499e-01 9.60954428e-01
      5.08152187e-01 9.80477214e-01 3.42391372e-01 9.93492424e-01
      1.82065278e-01 1. 1.35869551e-02 6.94143176e-02 -1.30434766e-01
      1.21475056e-01 -2.20108673e-01 2.12581351e-01 -2.52717376e-01
      3.05856824e-01 -2.25543454e-01 3.90455544e-01 -1.60326079e-01
      5.85683286e-01 -1.65760860e-01 6.70282006e-01 -2.17391282e-01
      7.63557494e-01 -2.33695626e-01 8.54663789e-01 -1.95652157e-01
      9.06724513e-01 -1.08695641e-01 4.83731031e-01 0. 4.79392618e-01
      9.78260785e-02 4.77223426e-01 1.95652246e-01 4.72885042e-01
      2.96195716e-01 3.90455544e-01 3.88586998e-01 4.29501086e-01
      4.07608747e-01 4.75054234e-01 4.21195686e-01 5.22776544e-01
      4.10326123e-01 5.66160500e-01 3.94021779e-01 1.77874193e-01
      2.71739112e-03 2.34273314e-01 -5.97826019e-02 3.12364429e-01
      -5.16304299e-02 3.70932758e-01 2.98913009e-02 3.01518440e-01
      5.97826019e-02 2.23427325e-01 5.16304299e-02 6.09544456e-01
      4.07608673e-02 6.70282006e-01 -3.80434766e-02 7.46203899e-01
      -4.34782580e-02 8.00433815e-01 2.17391290e-02 7.52711475e-01
      6.79347739e-02 6.74620390e-01 7.06521645e-02 2.81995654e-01
      6.44021749e-01 3.49240780e-01 5.65217435e-01 4.25162703e-01
      5.24456561e-01 4.72885042e-01 5.43478310e-01 5.20607352e-01
      5.27173936e-01 6.05206072e-01 5.73369622e-01 6.78958774e-01
      6.46739185e-01 6.07375264e-01 7.39130437e-01 5.24945796e-01
      7.66304374e-01 4.70715821e-01 7.69021749e-01 4.16485906e-01
      7.66304374e-01 3.42733175e-01 7.36413062e-01 3.12364429e-01
      6.41304374e-01 4.22993481e-01 5.78804374e-01 4.72885042e-01
      5.84239185e-01 5.20607352e-01 5.84239185e-01 6.46420836e-01
      6.44021749e-01 5.22776544e-01 6.84782624e-01 4.70715821e-01
      6.90217435e-01 4.20824289e-01 6.84782624e-01</_>
    <_>
      0. 0. 2.39234441e-03 1.61473081e-01 2.15311013e-02 3.22946161e-01
      5.02392352e-02 4.87252116e-01 9.80861261e-02 6.45892322e-01
      1.69856459e-01 7.81869709e-01 2.53588527e-01 9.00849879e-01
      3.56459320e-01 9.80169952e-01 4.97607648e-01 1. 6.41148329e-01
      9.74504232e-01 7.48803854e-01 8.81019831e-01 8.44497621e-01
      7.59206772e-01 9.18660283e-01 6.17563725e-01 9.64114845e-01
      4.58923519e-01 9.85645950e-01 2.91784704e-01 1. 1.24645889e-01
      9.97607648e-01 -3.68271954e-02 1.67464111e-02 -1.21813029e-01
      7.89473653e-02 -2.18130305e-01 1.81818187e-01 -2.43626058e-01
      2.89473683e-01 -2.23796040e-01 3.92344505e-01 -1.86968833e-01
      5.23923457e-01 -1.92634568e-01 6.38755977e-01 -2.35127479e-01
      7.53588498e-01 -2.57790357e-01 8.68421078e-01 -2.35127479e-01
      9.42583740e-01 -1.41643062e-01 4.68899518e-01 -9.91501436e-02
      4.66507167e-01 -5.66572230e-03 4.64114845e-01 8.49858373e-02
      4.64114845e-01 1.84135973e-01 3.44497621e-01 2.49291778e-01
      4.04306233e-01 2.80453265e-01 4.76076543e-01 3.08781862e-01
      5.50239205e-01 2.74787545e-01 6.14832520e-01 2.37960339e-01
      1.24401912e-01 -3.96600552e-02 1.84210524e-01 -6.79886714e-02
      2.51196176e-01 -7.08215311e-02 3.30143541e-01 -4.24929187e-02
      2.53588527e-01 -3.68271954e-02 1.86602876e-01 -3.11614722e-02
      6.29186630e-01 -4.53257784e-02 7.03349292e-01 -7.64872506e-02
      7.72727251e-01 -7.36543909e-02 8.37320566e-01 -4.81586419e-02
      7.75119603e-01 -3.39943357e-02 7.03349292e-01 -3.96600552e-02
      2.75119603e-01 5.01416445e-01 3.46889943e-01 4.16430593e-01
      4.18660283e-01 3.88101995e-01 4.83253598e-01 4.07932013e-01
      5.52631557e-01 3.85269135e-01 6.33971274e-01 4.07932013e-01
      7.08133996e-01 4.87252116e-01 6.36363626e-01 5.38243651e-01
      5.59808612e-01 5.75070798e-01 4.88038272e-01 5.83569407e-01
      4.21052635e-01 5.75070798e-01 3.49282295e-01 5.52407920e-01
      3.11004788e-01 4.95750695e-01 4.21052635e-01 4.67422098e-01
      4.85645920e-01 4.75920677e-01 5.57416260e-01 4.64589238e-01
      6.72248781e-01 4.87252116e-01 5.57416260e-01 4.81586397e-01
      4.85645920e-01 4.92917836e-01 4.18660283e-01 4.81586397e-01</_>
    <_>
      0. 0. 1.05932206e-02 1.46987945e-01 2.96610165e-02 2.96385556e-01
      5.08474559e-02 4.45783138e-01 9.11016986e-02 5.92771113e-01
      1.65254235e-01 7.30120480e-01 2.54237294e-01 8.55421662e-01
      3.68644059e-01 9.63855445e-01 5.02118647e-01 1. 6.33474588e-01
      9.73493993e-01 7.50000000e-01 8.72289181e-01 8.49576294e-01
      7.51807213e-01 9.25847471e-01 6.14457846e-01 9.57627118e-01
      4.69879508e-01 9.70339000e-01 3.18072289e-01 9.85169470e-01
      1.71084344e-01 1. 2.40963846e-02 8.26271176e-02 -3.37349400e-02
      1.54661015e-01 -9.63855386e-02 2.56355941e-01 -9.63855386e-02
      3.51694912e-01 -6.74698800e-02 4.47033912e-01 -2.89156623e-02
      5.76271176e-01 -4.09638546e-02 6.77966118e-01 -7.46987984e-02
      7.77542353e-01 -9.15662646e-02 8.77118647e-01 -7.46987984e-02
      9.38559294e-01 -2.40963860e-03 5.10593235e-01 3.61445770e-02
      5.08474588e-01 1.39759034e-01 5.06355941e-01 2.43373498e-01
      5.06355941e-01 3.51807237e-01 4.08898294e-01 3.87951821e-01
      4.53389823e-01 4.09638554e-01 5.04237294e-01 4.31325287e-01
      5.57203412e-01 4.14457828e-01 6.03813589e-01 3.97590369e-01
      2.07627118e-01 3.61445770e-02 2.64830500e-01 2.40963846e-02
      3.26271176e-01 2.16867477e-02 3.81355941e-01 4.09638546e-02
      3.26271176e-01 4.81927693e-02 2.66949147e-01 5.06024100e-02
      6.37711883e-01 4.81927693e-02 6.97033882e-01 2.65060235e-02
      7.58474588e-01 3.37349400e-02 8.11440706e-01 5.78313246e-02
      7.58474588e-01 6.50602430e-02 6.97033882e-01 6.02409653e-02
      3.38983059e-01 5.56626499e-01 3.87711853e-01 5.10843396e-01
      4.51271176e-01 5.03614485e-01 5.02118647e-01 5.27710855e-01
      5.55084765e-01 5.15662670e-01 6.20762706e-01 5.34939766e-01
      6.71610177e-01 5.73493958e-01 6.20762706e-01 6.65060222e-01
      5.57203412e-01 7.08433747e-01 4.97881353e-01 7.13253021e-01
      4.42796618e-01 6.96385562e-01 3.83474588e-01 6.43373489e-01
      3.60169500e-01 5.51807225e-01 4.49152529e-01 5.44578314e-01
      5.02118647e-01 5.63855410e-01 5.57203412e-01 5.54216862e-01
      6.44067824e-01 5.71084321e-01 5.55084765e-01 6.24096394e-01
      4.97881353e-01 6.36144578e-01 4.44915265e-01 6.12048209e-01</_>
    <_>
      0. 0. 1.87110193e-02 1.82539672e-01 4.57380451e-02 3.59788328e-01
      6.44490644e-02 5.31746089e-01 1.01871103e-01 6.95767224e-01
      1.85031191e-01 8.30687821e-01 3.07692319e-01 9.15343940e-01
      4.36590433e-01 9.86772478e-01 5.65488577e-01 1. 6.83991671e-01
      9.57671940e-01 7.85862803e-01 8.59788358e-01 8.81496906e-01
      7.64550269e-01 9.45945919e-01 6.32275164e-01 9.70893979e-01
      4.73545015e-01 9.75051999e-01 3.09523791e-01 9.91684020e-01
      1.45502627e-01 1. -2.64550243e-02 9.14760903e-02 -7.67195672e-02
      1.60083160e-01 -1.45502627e-01 2.51559258e-01 -1.53439134e-01
      3.38877350e-01 -1.32275119e-01 4.26195413e-01 -9.78835896e-02
      5.75883567e-01 -1.03174597e-01 6.65280640e-01 -1.37566119e-01
      7.54677773e-01 -1.56084642e-01 8.44074845e-01 -1.48148134e-01
      9.12681937e-01 -8.73015821e-02 5.03118515e-01 5.29100467e-03
      5.07276535e-01 1.11111104e-01 5.11434495e-01 2.22222209e-01
      5.15592515e-01 3.30687791e-01 4.24116433e-01 4.02116358e-01
      4.69854474e-01 4.15343881e-01 5.17671525e-01 4.28571403e-01
      5.61330557e-01 4.07407373e-01 6.02910578e-01 3.88888866e-01
      2.03742206e-01 1.58730149e-02 2.59875268e-01 -1.58730149e-02
      3.20166320e-01 -1.32275121e-02 3.74220371e-01 3.17460299e-02
      3.13929319e-01 4.23280373e-02 2.55717248e-01 3.96825373e-02
      6.34095609e-01 2.38095224e-02 6.88149691e-01 -2.11640187e-02
      7.48440742e-01 -2.38095224e-02 8.04573834e-01 1.05820093e-02
      7.50519753e-01 2.91005261e-02 6.92307711e-01 3.17460299e-02
      3.05613309e-01 6.29629672e-01 3.74220371e-01 5.50264597e-01
      4.57380444e-01 5.10582030e-01 5.23908496e-01 5.21164060e-01
      5.88357568e-01 4.97354537e-01 6.71517670e-01 5.18518567e-01
      7.31808722e-01 5.79365134e-01 6.83991671e-01 6.61375701e-01
      6.07068598e-01 7.08994746e-01 5.40540516e-01 7.24867761e-01
      4.69854474e-01 7.27513254e-01 3.82536381e-01 7.06349254e-01
      3.30561340e-01 6.24338627e-01 4.59459454e-01 5.66137612e-01
      5.25987506e-01 5.63492119e-01 5.92515588e-01 5.50264597e-01
      7.08939731e-01 5.79365134e-01 6.00831628e-01 6.34920657e-01
      5.34303546e-01 6.45502687e-01 4.67775464e-01 6.50793672e-01</_>
    <_>
      0. 0. 1.05485236e-02 1.62291154e-01 2.95358654e-02 3.26968938e-01
      4.64135036e-02 4.86873537e-01 9.07173008e-02 6.39618158e-01
      1.66666672e-01 7.75656343e-01 2.61603385e-01 8.87828171e-01
      3.75527412e-01 9.80906904e-01 5.08438826e-01 1. 6.37130797e-01
      9.64200497e-01 7.38396645e-01 8.68735075e-01 8.33333313e-01
      7.61336505e-01 9.09282684e-01 6.34844899e-01 9.51476812e-01
      4.86873537e-01 9.70464110e-01 3.29355597e-01 9.87341762e-01
      1.69451058e-01 1. 2.38663470e-03 9.28270072e-02 -6.68257698e-02
      1.60337552e-01 -1.28878266e-01 2.51054853e-01 -1.33651540e-01
      3.37552756e-01 -1.07398562e-01 4.19831216e-01 -6.68257698e-02
      5.94936728e-01 -6.92124069e-02 6.72995806e-01 -1.12171829e-01
      7.57383943e-01 -1.43198073e-01 8.50210965e-01 -1.38424814e-01
      9.11392391e-01 -7.39856735e-02 5.08438826e-01 4.05727886e-02
      5.12658238e-01 1.59904525e-01 5.16877651e-01 2.76849627e-01
      5.21097064e-01 3.98568004e-01 4.07173008e-01 4.36754137e-01
      4.62025315e-01 4.58233923e-01 5.16877651e-01 4.74940360e-01
      5.69620252e-01 4.58233923e-01 6.13924026e-01 4.34367508e-01
      2.04641357e-01 5.01193292e-02 2.59493679e-01 4.77326941e-03
      3.31223637e-01 9.54653881e-03 3.88185650e-01 7.39856735e-02
      3.27004224e-01 8.59188512e-02 2.55274266e-01 8.35322142e-02
      6.18143439e-01 7.39856735e-02 6.77215219e-01 1.19331731e-02
      7.46835470e-01 9.54653881e-03 7.97468364e-01 5.25059626e-02
      7.51054823e-01 8.59188512e-02 6.83544278e-01 8.83054808e-02
      2.84810126e-01 6.01432025e-01 3.60759497e-01 5.68019152e-01
      4.47257370e-01 5.56085944e-01 5.08438826e-01 5.70405781e-01
      5.73839664e-01 5.53699315e-01 6.56118155e-01 5.60859203e-01
      7.19409287e-01 5.84725559e-01 6.58227861e-01 6.94510758e-01
      5.80168784e-01 7.54176617e-01 5.08438826e-01 7.68496454e-01
      4.43037987e-01 7.61336505e-01 3.56540084e-01 7.08830595e-01
      3.12236279e-01 6.08591914e-01 4.47257370e-01 6.03818655e-01
      5.06329119e-01 6.10978544e-01 5.73839664e-01 5.96658766e-01
      6.91983104e-01 5.94272077e-01 5.78059077e-01 6.70644403e-01
      5.08438826e-01 6.87350869e-01 4.47257370e-01 6.80190980e-01</_>
    <_>
      0. 0. 9.41619556e-03 1.64021164e-01 3.20150666e-02 3.22751313e-01
      5.46139367e-02 4.86772478e-01 8.66290033e-02 6.50793672e-01
      1.52542368e-01 7.96296299e-01 2.61770248e-01 9.04761910e-01
      3.82297546e-01 9.78836000e-01 5.25423706e-01 1. 6.62900209e-01
      9.68253970e-01 7.81544268e-01 8.83597910e-01 8.81355941e-01
      7.69841254e-01 9.41619575e-01 6.16402090e-01 9.67984915e-01
      4.44444448e-01 9.86817300e-01 2.77777791e-01 1. 1.13756612e-01 1.
      -5.55555560e-02 8.85122418e-02 -1.21693119e-01 1.48775890e-01
      -2.27513224e-01 2.41054609e-01 -2.83068776e-01 3.46516013e-01
      -2.96296299e-01 4.50094163e-01 -2.72486776e-01 5.57438791e-01
      -2.80423284e-01 6.57250464e-01 -3.06878299e-01 7.57062137e-01
      -3.09523821e-01 8.51224124e-01 -2.80423284e-01 9.15254235e-01
      -1.87830687e-01 5.10357797e-01 -1.05820104e-01 5.12241066e-01
      -5.29100513e-03 5.16007543e-01 9.78835970e-02 5.19774020e-01
      2.06349209e-01 4.14312631e-01 3.46560836e-01 4.68926549e-01
      3.57142866e-01 5.25423706e-01 3.65079373e-01 5.78154445e-01
      3.46560836e-01 6.29001856e-01 3.28042328e-01 2.01506585e-01
      -2.91005298e-02 2.52354056e-01 -9.25925896e-02 3.20150673e-01
      -1.00529097e-01 3.82297546e-01 -3.70370373e-02 3.20150673e-01
      -1.05820103e-02 2.54237294e-01 -5.29100513e-03 6.36534870e-01
      -5.82010597e-02 6.91148758e-01 -1.32275134e-01 7.58945405e-01
      -1.40211642e-01 8.17325771e-01 -8.46560821e-02 7.66478360e-01
      -5.29100522e-02 6.98681712e-01 -4.76190485e-02 2.93785304e-01
      6.03174627e-01 3.76647830e-01 5.39682567e-01 4.63276833e-01
      5.00000000e-01 5.23540497e-01 5.10582030e-01 5.78154445e-01
      4.92063493e-01 6.62900209e-01 5.23809552e-01 7.45762706e-01
      5.82010567e-01 6.68549895e-01 6.69312179e-01 5.87570608e-01
      7.06349194e-01 5.25423706e-01 7.16931224e-01 4.61393595e-01
      7.11640239e-01 3.74764591e-01 6.82539701e-01 3.25800389e-01
      6.00529075e-01 4.63276833e-01 5.58201075e-01 5.25423706e-01
      5.63492060e-01 5.81920922e-01 5.52910030e-01 7.11864412e-01
      5.84656060e-01 5.81920922e-01 6.13756597e-01 5.23540497e-01
      6.19047642e-01 4.61393595e-01 6.16402090e-01</_>
    <_>
      0. 0. 6.91244239e-03 1.59340665e-01 2.53456216e-02 3.15934062e-01
      5.06912433e-02 4.75274712e-01 9.67741907e-02 6.26373649e-01
      1.77419350e-01 7.66483545e-01 2.74193555e-01 8.81868124e-01
      3.89400929e-01 9.75274742e-01 5.23041487e-01 1. 6.61290348e-01
      9.72527444e-01 7.69585252e-01 8.81868124e-01 8.59447002e-01
      7.55494535e-01 9.30875599e-01 6.15384638e-01 9.65437770e-01
      4.61538464e-01 9.81566846e-01 3.04945052e-01 9.95391726e-01
      1.51098907e-01 1. -5.49450563e-03 7.37327188e-02 -5.49450563e-03
      1.42857149e-01 -9.89011005e-02 2.51152068e-01 -1.34615391e-01
      3.59447002e-01 -1.26373634e-01 4.60829496e-01 -8.51648375e-02
      5.73732734e-01 -9.06593427e-02 6.68202758e-01 -1.37362644e-01
      7.74193525e-01 -1.45604402e-01 8.73271883e-01 -1.07142858e-01
      9.37788010e-01 -2.19780225e-02 5.09216607e-01 -8.24175868e-03
      5.04608274e-01 1.04395606e-01 5.00000000e-01 2.17032969e-01
      4.97695863e-01 3.32417578e-01 3.84792626e-01 3.54395598e-01
      4.37788010e-01 3.84615391e-01 5.00000000e-01 4.09340650e-01
      5.64516127e-01 3.81868124e-01 6.17511511e-01 3.48901093e-01
      1.91244245e-01 3.29670347e-02 2.51152068e-01 1.64835174e-02
      3.11059922e-01 1.64835174e-02 3.80184323e-01 3.02197803e-02
      3.15668195e-01 3.84615399e-02 2.55760372e-01 4.39560451e-02
      6.35944724e-01 2.19780225e-02 7.07373261e-01 2.74725282e-03
      7.67281115e-01 5.49450563e-03 8.24884772e-01 1.92307699e-02
      7.67281115e-01 2.74725277e-02 7.07373261e-01 2.74725277e-02
      3.15668195e-01 5.30219793e-01 3.77880186e-01 4.78021979e-01
      4.44700450e-01 4.67032969e-01 5.02304137e-01 4.83516484e-01
      5.62211990e-01 4.58791196e-01 6.26728117e-01 4.64285702e-01
      6.91244245e-01 5.16483545e-01 6.31336391e-01 5.68681300e-01
      5.71428597e-01 6.07142866e-01 5.09216607e-01 6.18131876e-01
      4.49308753e-01 6.15384638e-01 3.84792626e-01 5.82417607e-01
      3.45622122e-01 5.24725258e-01 4.44700450e-01 5.10989010e-01
      5.02304137e-01 5.19230783e-01 5.64516127e-01 5.05494535e-01
      6.58986151e-01 5.10989010e-01 5.69124401e-01 5.30219793e-01
      5.06912470e-01 5.49450576e-01 4.49308753e-01 5.35714269e-01</_>
    <_>
      0. 0. 1.54867256e-02 1.74174190e-01 3.53982300e-02 3.48348379e-01
      5.08849546e-02 5.16516566e-01 8.18584040e-02 6.75675631e-01
      1.41592920e-01 8.07807803e-01 2.34513268e-01 9.06906903e-01
      3.42920363e-01 9.72972989e-01 4.62389380e-01 1. 5.86283207e-01
      9.78978992e-01 7.10177004e-01 9.21921909e-01 8.23008835e-01
      8.31831813e-01 9.02654886e-01 6.99699700e-01 9.44690287e-01
      5.37537575e-01 9.66814160e-01 3.60360384e-01 9.84513283e-01
      1.80180192e-01 1. -6.00600662e-03 8.40707943e-02 -1.35135144e-01
      1.37168139e-01 -2.16216236e-01 2.16814160e-01 -2.70270348e-01
      3.07522118e-01 -2.76276350e-01 3.84955764e-01 -2.31231302e-01
      5.50884962e-01 -2.34234303e-01 6.37168169e-01 -2.85285354e-01
      7.27876127e-01 -2.79279351e-01 8.11946929e-01 -2.25225285e-01
      8.78318608e-01 -1.47147164e-01 4.64601755e-01 -7.50750825e-02
      4.60177004e-01 2.70270295e-02 4.53539819e-01 1.32132143e-01
      4.46902663e-01 2.37237260e-01 3.73893797e-01 3.27327371e-01
      4.09292042e-01 3.51351380e-01 4.49115038e-01 3.69369417e-01
      4.95575219e-01 3.51351380e-01 5.39822996e-01 3.33333373e-01
      1.79203540e-01 -3.60360406e-02 2.36725658e-01 -8.70870948e-02
      3.05309743e-01 -8.70870948e-02 3.69469017e-01 -1.80180203e-02
      3.03097337e-01 -6.00600662e-03 2.34513268e-01 -6.00600662e-03
      5.81858397e-01 -2.10210234e-02 6.48230076e-01 -8.70870948e-02
      7.14601755e-01 -8.70870948e-02 7.72123873e-01 -3.60360406e-02
      7.16814160e-01 -9.00901016e-03 6.50442481e-01 -6.00600662e-03
      2.63274342e-01 5.91591537e-01 3.34070802e-01 4.89489526e-01
      4.11504418e-01 4.53453481e-01 4.62389380e-01 4.65465516e-01
      5.22123873e-01 4.56456512e-01 6.06194675e-01 4.95495528e-01
      6.81415915e-01 5.97597539e-01 6.06194675e-01 6.66666627e-01
      5.24336278e-01 6.93693638e-01 4.60177004e-01 6.96696699e-01
      4.02654856e-01 6.93693638e-01 3.29646021e-01 6.66666627e-01
      2.87610620e-01 5.79579532e-01 4.09292042e-01 5.10510564e-01
      4.62389380e-01 5.13513565e-01 5.22123873e-01 5.10510564e-01
      6.54867232e-01 5.88588536e-01 5.22123873e-01 6.36636615e-01
      4.60177004e-01 6.39639616e-01 4.07079637e-01 6.33633614e-01</_>
    <_>
      0. 0. 6.84931502e-03 1.68639049e-01 2.05479451e-02 3.31360936e-01
      2.96803657e-02 4.97041434e-01 5.93607314e-02 6.53846145e-01
      1.23287670e-01 7.81065106e-01 2.12328762e-01 8.81656826e-01
      3.15068483e-01 9.61538434e-01 4.33789968e-01 1. 5.59360743e-01
      9.82248545e-01 6.82648420e-01 9.23076928e-01 7.96803653e-01
      8.37278128e-01 8.81278515e-01 7.13017762e-01 9.26940620e-01
      5.62130153e-01 9.52054799e-01 3.99408281e-01 9.77168977e-01
      2.30769232e-01 1. 5.62130176e-02 9.36073065e-02 -8.87573957e-02
      1.57534242e-01 -1.47928998e-01 2.37442926e-01 -1.92307696e-01
      3.26484025e-01 -2.04142019e-01 4.10958916e-01 -1.71597630e-01
      5.41095912e-01 -1.42011836e-01 6.32420063e-01 -1.59763306e-01
      7.23744273e-01 -1.47928998e-01 8.05936098e-01 -1.00591719e-01
      8.74429226e-01 -3.84615399e-02 4.70319629e-01 -1.47928996e-02
      4.61187214e-01 9.46745574e-02 4.52054799e-01 2.01183438e-01
      4.42922384e-01 3.10650885e-01 3.60730588e-01 3.69822472e-01
      3.99543375e-01 3.96449715e-01 4.42922384e-01 4.23076928e-01
      4.90867585e-01 3.99408281e-01 5.38812757e-01 3.78698230e-01
      1.84931502e-01 -8.87573976e-03 2.46575341e-01 -4.43786979e-02
      3.12785387e-01 -3.84615399e-02 3.65296811e-01 2.07100585e-02
      3.03652972e-01 2.66272184e-02 2.39726022e-01 2.07100585e-02
      5.93607306e-01 3.84615399e-02 6.52968049e-01 -1.18343197e-02
      7.14611888e-01 -5.91715984e-03 7.69406378e-01 3.55029590e-02
      7.12328792e-01 5.62130176e-02 6.52968049e-01 5.32544367e-02
      2.48858452e-01 5.73964477e-01 3.17351609e-01 5.00000000e-01
      3.92694056e-01 4.82248515e-01 4.49771702e-01 4.97041434e-01
      5.13698637e-01 4.91124272e-01 5.93607306e-01 5.20710051e-01
      6.66666687e-01 6.09467447e-01 5.95890403e-01 6.89349115e-01
      5.11415541e-01 7.15976357e-01 4.45205480e-01 7.18934894e-01
      3.81278545e-01 7.10059166e-01 3.08219165e-01 6.68639064e-01
      2.73972601e-01 5.71005940e-01 3.90410960e-01 5.38461566e-01
      4.47488576e-01 5.44378698e-01 5.11415541e-01 5.47337294e-01
      6.41552508e-01 6.00591719e-01 5.13698637e-01 6.62721872e-01
      4.49771702e-01 6.62721872e-01 3.88127863e-01 6.50887549e-01</_>
    <_>
      0. 0. 4.07331996e-03 1.68571353e-01 1.22199589e-02 3.37142795e-01
      1.62932798e-02 5.14285684e-01 4.88798358e-02 6.85714245e-01
      1.32382885e-01 8.17142844e-01 2.46435851e-01 9.08571422e-01
      3.70672107e-01 9.77142870e-01 5.09164989e-01 1. 6.47657812e-01
      9.74285722e-01 7.63747454e-01 9.02857125e-01 8.69653761e-01
      8.14285696e-01 9.40936863e-01 6.91428542e-01 9.65376794e-01
      5.31428516e-01 9.77596760e-01 3.62857074e-01 9.91853356e-01
      1.97142780e-01 1. 2.28571445e-02 8.75763744e-02 -8.57142955e-02
      1.58859476e-01 -1.71428591e-01 2.54582494e-01 -1.94285735e-01
      3.54378819e-01 -1.85714304e-01 4.54175144e-01 -1.54285729e-01
      5.62118113e-01 -1.42857149e-01 6.59877777e-01 -1.74285725e-01
      7.57637501e-01 -1.85714304e-01 8.55397165e-01 -1.57142878e-01
      9.18533623e-01 -6.57142922e-02 5.13238311e-01 -4.28571478e-02
      5.15274942e-01 5.14285751e-02 5.17311633e-01 1.48571357e-01
      5.19348264e-01 2.48571366e-01 3.99185330e-01 3.54285657e-01
      4.54175144e-01 3.68571371e-01 5.11201620e-01 3.88571382e-01
      5.66191435e-01 3.74285668e-01 6.17107928e-01 3.59999955e-01
      2.01629326e-01 -5.71428612e-03 2.56619155e-01 -5.42857200e-02
      3.19755614e-01 -5.14285751e-02 3.74745429e-01 5.71428612e-03
      3.15682292e-01 2.00000014e-02 2.54582494e-01 2.00000014e-02
      6.29327893e-01 1.71428584e-02 6.86354399e-01 -4.28571478e-02
      7.49490857e-01 -4.28571478e-02 8.06517303e-01 2.85714306e-03
      7.53564179e-01 2.85714306e-02 6.92464352e-01 3.14285755e-02
      2.50509173e-01 5.74285686e-01 3.36048871e-01 5.11428535e-01
      4.29735243e-01 4.88571376e-01 4.98981684e-01 5.11428535e-01
      5.70264757e-01 4.94285673e-01 6.59877777e-01 5.22857130e-01
      7.41344213e-01 5.85714221e-01 6.59877777e-01 6.57142818e-01
