<?xml version="1.0"?>
<opencv_storage>
<opencv_ml_svm>
  <format>3</format>
  <svmType>C_SVC</svmType>
  <kernel>
    <type>LINEAR</type></kernel>
  <C>1.</C>
  <term_criteria><iterations>100</iterations></term_criteria>
  <var_count>136</var_count>
  <class_count>2</class_count>
  <class_labels type_id="opencv-matrix">
    <rows>2</rows>
    <cols>1</cols>
    <dt>i</dt>
    <data>
      -1082130432 1065353216</data></class_labels>
  <sv_total>1</sv_total>
  <support_vectors>
    <_>
      2.46701073e-02 0. 9.42012016e-03 1.43006876e-01 1.23677582e-01
      3.42568249e-01 3.41904640e-01 2.33489603e-01 3.08164030e-01
      3.04072738e-01 7.20409229e-02 3.72291893e-01 -2.15591699e-01
      4.30412769e-01 -2.76761770e-01 1.95262581e-01 -1.11370005e-01
      -2.32727528e-02 1.39110476e-01 1.40739441e-01 7.62658641e-02
      2.36567587e-01 -7.84943029e-02 2.84742653e-01 -2.86649495e-01
      2.33989090e-01 -3.45915020e-01 1.37540922e-01 -2.42078334e-01
      1.49505675e-01 -8.83349627e-02 -3.85869034e-02 -7.18458891e-02
      -1.57524914e-01 1.11856960e-01 7.17855617e-02 1.86961085e-01
      2.75401056e-01 3.05682570e-01 3.89346719e-01 4.82422978e-01
      4.07532662e-01 7.08791316e-01 2.55951524e-01 -4.10099059e-01
      1.17606521e-01 -2.45876610e-01 2.31925339e-01 -8.77925456e-02
      8.47639218e-02 -8.92676320e-03 -5.96926324e-02 -5.30643761e-02
      -5.93511164e-02 2.97417399e-02 -1.02810338e-01 4.62202802e-02
      -4.17396694e-01 5.81271760e-02 -7.17697203e-01 8.09424371e-02
      -9.66675878e-01 1.13111250e-01 -5.86598217e-01 5.00181429e-02
      -6.03355825e-01 7.60830119e-02 -6.86037183e-01 1.06545307e-01
      -6.15037978e-01 8.35814103e-02 -6.75963461e-01 -2.46654809e-01
      -1.10008903e-01 -2.60447562e-01 -9.89193991e-02 -1.23874471e-01
      -2.81008929e-01 -5.93690109e-03 -4.94453818e-01 -3.82626057e-02
      -1.78701341e-01 -1.94601014e-01 -6.62388951e-02 9.76525396e-02
      -5.00842869e-01 2.09401235e-01 -3.50562245e-01 3.79163235e-01
      -2.94040829e-01 3.57119054e-01 -2.16105238e-01 3.71652544e-01
      -1.36690080e-01 1.44603834e-01 -2.47892603e-01 2.05635309e+00
      3.04364944e+00 8.59463334e-01 5.41633368e-01 2.26468995e-01
      -3.71601194e-01 3.69761102e-02 -2.74395913e-01 -1.87989652e-01
      -3.88439476e-01 -8.36403072e-01 4.18766350e-01 -2.02954292e+00
      3.06831598e+00 -9.25009370e-01 9.44524586e-01 -1.97949231e-01
      -1.62701383e-01 1.91378780e-02 -2.93898553e-01 2.57735997e-01
      -1.04052179e-01 9.56768632e-01 9.32463467e-01 2.09306860e+00
      2.24628139e+00 2.51047134e-01 7.78082618e-03 4.12277952e-02
      -1.71162814e-01 -1.79703176e-01 1.81057490e-03 -2.09231472e+00
      2.33257914e+00 -2.09502652e-01 -3.42566729e-01 1.75673570e-02
      -4.36423451e-01 2.41153985e-01 -3.39708596e-01</_></support_vectors>
  <uncompressed_sv_total>163</uncompressed_sv_total>
  <uncompressed_support_vectors>
    <_>
      0. 0. 2.21674871e-02 1.70278624e-01 5.17241396e-02 3.31269324e-01
      8.62068981e-02 4.86068159e-01 1.37931034e-01 6.31578982e-01
      2.09359601e-01 7.61609912e-01 3.00492615e-01 8.76160979e-01
      4.06403929e-01 9.69040275e-01 5.29556632e-01 1. 6.50246322e-01
      9.75232184e-01 7.56157637e-01 8.82352948e-01 8.47290635e-01
      7.58513927e-01 9.13793087e-01 6.13003135e-01 9.53201950e-01
      4.52012450e-01 9.75369453e-01 2.91021645e-01 9.92610812e-01
      1.26934975e-01 1. -4.64396253e-02 8.62068981e-02 3.71516980e-02
      1.65024623e-01 -1.54798748e-02 2.61083752e-01 -1.85758490e-02
      3.59605908e-01 9.28792451e-03 4.63054180e-01 3.09597496e-02
      5.83743870e-01 1.54798748e-02 6.74876869e-01 -2.78637744e-02
      7.63546824e-01 -7.12074265e-02 8.59605908e-01 -8.35913271e-02
      9.33497548e-01 -3.71516980e-02 5.19704461e-01 9.28792506e-02
      5.24630547e-01 1.88854471e-01 5.27093589e-01 2.81733721e-01
      5.32019675e-01 3.80804926e-01 4.33497548e-01 4.33436573e-01
      4.82758611e-01 4.52012450e-01 5.32019675e-01 4.67492312e-01
      5.83743870e-01 4.52012450e-01 6.25615776e-01 4.30340618e-01
      2.06896558e-01 1.08359121e-01 2.63546795e-01 8.66872966e-02
      3.25123161e-01 7.73993731e-02 3.86699498e-01 1.08359121e-01
      3.27586204e-01 1.26934975e-01 2.66009837e-01 1.33126929e-01
      6.47783279e-01 9.28792506e-02 7.06896544e-01 4.95355986e-02
      7.68472910e-01 4.33436483e-02 8.25123131e-01 6.19194992e-02
      7.75862098e-01 9.90711972e-02 7.14285731e-01 1.02167174e-01
      3.52216750e-01 5.94427288e-01 4.23645318e-01 5.69659472e-01
      4.82758611e-01 5.57275593e-01 5.24630547e-01 5.69659472e-01
      5.71428597e-01 5.60371578e-01 6.33004904e-01 5.69659472e-01
      7.01970458e-01 6.00619256e-01 6.35468006e-01 6.43962860e-01
      5.73891640e-01 6.56346798e-01 5.29556632e-01 6.59442782e-01
      4.85221684e-01 6.53250813e-01 4.26108360e-01 6.31578982e-01
      3.81773412e-01 5.88235319e-01 4.85221684e-01 5.88235319e-01
      5.27093589e-01 5.97523272e-01 5.73891640e-01 5.91331303e-01
      6.72413766e-01 5.94427288e-01 5.71428597e-01 6.00619256e-01
      5.27093589e-01 6.06811166e-01 4.85221684e-01 5.94427288e-01</_>
    <_>
      0. 0. 7.04225339e-03 1.55210644e-01 1.93661973e-02 3.12638581e-01
      3.87323946e-02 4.74501103e-01 7.21830949e-02 6.29711747e-01
      1.42605633e-01 7.67184019e-01 2.39436626e-01 8.78048778e-01
      3.59154940e-01 9.62305963e-01 5.00000000e-01 1. 6.44366205e-01
      9.75609779e-01 7.69366205e-01 8.98004413e-01 8.64436626e-01
      7.78270483e-01 9.29577470e-01 6.29711747e-01 9.63028193e-01
      4.67849225e-01 9.84154940e-01 2.99334824e-01 9.96478856e-01
      1.35254994e-01 1. -2.21729483e-02 7.39436597e-02 -1.17516629e-01
      1.35563374e-01 -2.19512194e-01 2.32394367e-01 -2.48337030e-01
      3.38028163e-01 -2.28381380e-01 4.38380271e-01 -1.88470066e-01
      5.65140843e-01 -1.86252773e-01 6.67253494e-01 -2.26164073e-01
      7.74647892e-01 -2.50554323e-01 8.80281687e-01 -2.19512194e-01
      9.41901386e-01 -1.08647451e-01 5.03521144e-01 -8.20399150e-02
      5.05281687e-01 1.55210644e-02 5.03521144e-01 1.08647451e-01
      5.03521144e-01 2.12860316e-01 3.69718313e-01 2.97117531e-01
      4.36619729e-01 3.14855874e-01 5.05281687e-01 3.34811538e-01
      5.73943675e-01 3.19290459e-01 6.39084518e-01 3.03769410e-01
      1.70774654e-01 -3.76940146e-02 2.28873238e-01 -8.42572078e-02
      2.99295783e-01 -8.42572078e-02 3.64436626e-01 -3.32594253e-02
      2.97535211e-01 -2.21729483e-02 2.27112681e-01 -2.21729483e-02
      6.46126747e-01 -3.10421288e-02 7.11267591e-01 -8.20399150e-02
      7.81690121e-01 -8.42572078e-02 8.43309879e-01 -3.76940146e-02
      7.85211265e-01 -1.99556537e-02 7.14788735e-01 -1.99556537e-02
      2.86971837e-01 5.41019976e-01 3.55633795e-01 4.50110853e-01
      4.31338042e-01 4.07982260e-01 4.96478885e-01 4.27937925e-01
      5.59859157e-01 4.14634138e-01 6.39084518e-01 4.56762761e-01
      7.09507048e-01 5.54323733e-01 6.40845060e-01 5.98669648e-01
      5.66901386e-01 6.23059869e-01 5.00000000e-01 6.25277162e-01
      4.31338042e-01 6.11973405e-01 3.59154940e-01 5.85365832e-01
      3.18661958e-01 5.27716160e-01 4.31338042e-01 4.76718396e-01
      4.96478885e-01 4.85587597e-01 5.61619699e-01 4.83370274e-01
      6.79577470e-01 5.38802683e-01 5.61619699e-01 5.27716160e-01
      4.98239428e-01 5.34368098e-01 4.33098584e-01 5.21064281e-01</_>
    <_>
      0. 0. 1.70316305e-02 1.71521038e-01 3.89294401e-02 3.43042076e-01
      7.29926974e-02 5.01618147e-01 1.28953770e-01 6.44012928e-01
      2.04379559e-01 7.73462772e-01 2.91970789e-01 8.83495152e-01
      3.91727507e-01 9.77346301e-01 5.10948896e-01 1. 6.32603407e-01
      9.74110007e-01 7.37226248e-01 8.89967620e-01 8.27250600e-01
      7.83171535e-01 9.02676404e-01 6.56957924e-01 9.53771293e-01
      5.08090615e-01 9.78102207e-01 3.46278310e-01 9.90267634e-01
      1.77993521e-01 1. 1.29449842e-02 1.02189779e-01 -9.06148851e-02
      1.65450126e-01 -1.81229770e-01 2.57907540e-01 -2.23300964e-01
      3.60097319e-01 -2.10355982e-01 4.59854007e-01 -1.68284789e-01
      5.52311420e-01 -1.65048540e-01 6.52068138e-01 -2.10355982e-01
      7.51824796e-01 -2.26537213e-01 8.51581514e-01 -1.90938517e-01
      9.09975648e-01 -1.00323625e-01 5.08515835e-01 -7.76699036e-02
      5.08515835e-01 4.20711972e-02 5.10948896e-01 1.61812291e-01
      5.10948896e-01 2.81553388e-01 4.13625300e-01 3.43042076e-01
      4.59854007e-01 3.65695804e-01 5.10948896e-01 3.81877035e-01
      5.62043786e-01 3.65695804e-01 6.10705614e-01 3.46278310e-01
      2.21411198e-01 -3.23624611e-02 2.72506088e-01 -6.79611638e-02
      3.30900252e-01 -7.44336545e-02 3.89294416e-01 -3.88349518e-02
      3.33333343e-01 -2.58899685e-02 2.74939179e-01 -1.94174759e-02
      6.25304163e-01 -3.55987065e-02 6.86131358e-01 -7.11974129e-02
      7.46958613e-01 -6.47249222e-02 7.98053503e-01 -2.58899685e-02
      7.44525552e-01 -1.61812305e-02 6.86131358e-01 -2.26537213e-02
      3.23600978e-01 5.40453076e-01 3.89294416e-01 5.14563084e-01
      4.50121641e-01 5.08090615e-01 5.03649652e-01 5.21035612e-01
      5.59610724e-01 5.01618147e-01 6.25304163e-01 5.04854381e-01
      6.93430662e-01 5.24271846e-01 6.32603407e-01 5.79288006e-01
      5.69343090e-01 6.24595463e-01 5.13382018e-01 6.37540460e-01
      4.57420915e-01 6.27831697e-01 3.94160599e-01 5.85760534e-01
      3.50364953e-01 5.33980608e-01 4.52554733e-01 5.30744314e-01
      5.06082714e-01 5.43689311e-01 5.62043786e-01 5.27508080e-01
      6.66666687e-01 5.24271846e-01 5.64476907e-01 5.40453076e-01
      5.10948896e-01 5.59870541e-01 4.54987824e-01 5.40453076e-01</_>
    <_>
      5.37634408e-03 0. 0. 1.62251741e-01 2.68817204e-03 3.31125885e-01
      1.88172050e-02 4.90066290e-01 5.91397844e-02 6.49006665e-01
      1.26344085e-01 7.91390777e-01 2.23118275e-01 9.10596013e-01
      3.41397852e-01 9.80132461e-01 4.86559153e-01 1. 6.31720424e-01
      9.80132461e-01 7.55376339e-01 9.10596013e-01 8.57526898e-01
      7.91390777e-01 9.27419364e-01 6.49006665e-01 9.73118305e-01
      4.90066290e-01 9.91935492e-01 3.41059655e-01 1. 1.85430542e-01 1.
      2.98013221e-02 7.79569894e-02 -9.60264802e-02 1.50537640e-01
      -1.62251636e-01 2.50000000e-01 -1.72185406e-01 3.52150530e-01
      -1.49006605e-01 4.51612890e-01 -1.12582773e-01 5.48387110e-01
      -1.05960257e-01 6.50537610e-01 -1.42384097e-01 7.55376339e-01
      -1.68874159e-01 8.54838729e-01 -1.52317867e-01 9.22043025e-01
      -7.28476718e-02 4.97311831e-01 -3.64238359e-02 4.91935492e-01
      6.62251562e-02 4.89247322e-01 1.65563002e-01 4.83870953e-01
      2.68211991e-01 3.73655915e-01 3.54304701e-01 4.27419364e-01
      3.64238471e-01 4.83870953e-01 3.77483517e-01 5.43010771e-01
      3.64238471e-01 5.99462390e-01 3.54304701e-01 1.74731180e-01
      -2.98013221e-02 2.36559138e-01 -5.29801287e-02 3.01075280e-01
      -5.62913865e-02 3.62903237e-01 -1.98675469e-02 3.01075280e-01
      -1.32450322e-02 2.33870968e-01 -1.32450322e-02 6.31720424e-01
      -1.32450322e-02 6.96236551e-01 -4.63576131e-02 7.63440847e-01
      -3.97350937e-02 8.22580636e-01 -1.65562890e-02 7.60752678e-01 0.
      6.96236551e-01 -3.31125804e-03 2.74193555e-01 5.66225231e-01
      3.52150530e-01 5.13245106e-01 4.32795703e-01 4.83443767e-01
      4.86559153e-01 5.06622553e-01 5.45698941e-01 4.86755013e-01
      6.31720424e-01 5.13245106e-01 7.06989229e-01 5.69536448e-01
      6.31720424e-01 6.12582803e-01 5.48387110e-01 6.35761619e-01
      4.86559153e-01 6.42384171e-01 4.32795703e-01 6.39072895e-01
      3.52150530e-01 6.15894079e-01 3.06451619e-01 5.62913954e-01
      4.32795703e-01 5.49668908e-01 4.86559153e-01 5.66225231e-01
      5.45698941e-01 5.52980185e-01 6.77419364e-01 5.66225231e-01
      5.48387110e-01 5.52980185e-01 4.89247322e-01 5.62913954e-01
      4.35483873e-01 5.49668908e-01</_>
    <_>
      2.71739135e-03 0. 0. 1.61971748e-01 2.71739135e-03 3.30985844e-01
      1.90217383e-02 4.96478826e-01 6.25000000e-02 6.54929519e-01
      1.35869563e-01 7.95774639e-01 2.28260875e-01 9.08450723e-01
      3.42391312e-01 9.85915482e-01 4.89130437e-01 1. 6.38586938e-01
      9.82394338e-01 7.58152187e-01 9.01408434e-01 8.58695626e-01
      7.88732350e-01 9.37500000e-01 6.51408434e-01 9.78260875e-01
      4.96478826e-01 9.94565189e-01 3.38028103e-01 1. 1.76056251e-01 1.
      2.11267620e-02 6.52173907e-02 -8.45070481e-02 1.38586953e-01
      -1.58450723e-01 2.33695656e-01 -1.79577485e-01 3.36956531e-01
      -1.65492982e-01 4.34782594e-01 -1.23239450e-01 5.76086938e-01
      -1.05633818e-01 6.71195626e-01 -1.44366220e-01 7.69021749e-01
      -1.76056355e-01 8.66847813e-01 -1.61971852e-01 9.26630437e-01
      -7.74647966e-02 4.97282594e-01 -3.52112725e-02 4.94565219e-01
      6.33802861e-02 4.91847813e-01 1.58450723e-01 4.89130437e-01
      2.60563314e-01 3.58695656e-01 3.06337953e-01 4.18478251e-01
      3.34506959e-01 4.86413032e-01 3.59154850e-01 5.54347813e-01
      3.34506959e-01 6.16847813e-01 3.06337953e-01 1.71195656e-01
      -3.87323983e-02 2.33695656e-01 -5.63380346e-02 2.93478251e-01
      -5.63380346e-02 3.55978251e-01 -2.46478897e-02 2.93478251e-01
      -2.46478897e-02 2.30978265e-01 -2.81690173e-02 6.33152187e-01
      -2.11267620e-02 7.01086938e-01 -5.28169088e-02 7.63586938e-01
      -5.28169088e-02 8.23369563e-01 -3.16901430e-02 7.63586938e-01
      -1.76056363e-02 6.98369563e-01 -1.76056363e-02 2.82608688e-01
      5.28168976e-01 3.42391312e-01 4.50704157e-01 4.13043469e-01
      4.29577410e-01 4.78260875e-01 4.54225302e-01 5.46195626e-01
      4.29577410e-01 6.16847813e-01 4.50704157e-01 6.79347813e-01
      5.38732350e-01 6.19565189e-01 5.88028133e-01 5.48913062e-01
      6.19718254e-01 4.78260875e-01 6.26760542e-01 4.07608688e-01
      6.16197169e-01 3.36956531e-01 5.80985844e-01 3.15217406e-01
      5.21126688e-01 4.13043469e-01 4.96478826e-01 4.78260875e-01
      5.10563314e-01 5.46195626e-01 4.99999940e-01 6.49456501e-01
      5.31690061e-01 5.48913062e-01 5.07042229e-01 4.78260875e-01
      5.17605603e-01 4.10326093e-01 5.03521085e-01</_>
    <_>
      0. 0. 0. 1.66666672e-01 1.86170209e-02 3.33333343e-01
      4.52127643e-02 5.07575750e-01 9.04255286e-02 6.70454562e-01
      1.70212761e-01 8.10606062e-01 2.84574479e-01 9.09090936e-01
      4.12234038e-01 9.92424250e-01 5.50531924e-01 1. 6.88829780e-01
      9.69696999e-01 8.05851042e-01 8.71212125e-01 9.06914890e-01
      7.53787875e-01 9.76063848e-01 5.94696999e-01 1. 4.09090906e-01
      9.97340441e-01 2.19696969e-01 9.97340441e-01 3.03030312e-02
      9.81382966e-01 -1.47727266e-01 5.58510646e-02 -2.31060609e-01
      1.03723407e-01 -3.21969688e-01 1.91489369e-01 -3.40909094e-01
      2.73936182e-01 -3.10606062e-01 3.56382966e-01 -2.65151501e-01
      5.58510661e-01 -2.87878782e-01 6.35638297e-01 -3.63636374e-01
      7.20744669e-01 -4.12878782e-01 8.11170220e-01 -4.09090906e-01
      8.80319178e-01 -3.44696969e-01 4.68085110e-01 -1.70454547e-01
      4.76063818e-01 -4.54545468e-02 4.84042555e-01 7.95454532e-02
      4.92021263e-01 2.12121218e-01 4.09574479e-01 2.95454532e-01
      4.54787225e-01 3.10606062e-01 5.05319178e-01 3.21969688e-01
      5.55851042e-01 2.91666657e-01 6.01063848e-01 2.61363626e-01
      1.56914890e-01 -1.09848484e-01 2.07446814e-01 -1.59090906e-01
      2.68617034e-01 -1.66666672e-01 3.35106373e-01 -1.21212125e-01
      2.71276593e-01 -1.06060609e-01 2.10106388e-01 -9.46969688e-02
      6.22340441e-01 -1.47727266e-01 6.80851042e-01 -2.04545453e-01
      7.36702144e-01 -2.15909094e-01 7.92553186e-01 -1.81818187e-01
      7.44680822e-01 -1.51515156e-01 6.86170220e-01 -1.47727266e-01
      3.37765962e-01 5.41666687e-01 3.90957445e-01 4.62121218e-01
      4.49468076e-01 4.31818187e-01 5.13297856e-01 4.50757563e-01
      5.74468076e-01 4.20454532e-01 6.43617034e-01 4.28030312e-01
      7.12765932e-01 4.88636374e-01 6.56914890e-01 5.41666687e-01
      5.93085110e-01 5.83333313e-01 5.29255331e-01 5.98484874e-01
      4.65425521e-01 5.98484874e-01 3.98936182e-01 5.75757563e-01
      3.61702114e-01 5.34090936e-01 4.54787225e-01 5.00000000e-01
      5.15957475e-01 5.03787875e-01 5.79787254e-01 4.84848499e-01
      6.91489339e-01 4.88636374e-01 5.85106373e-01 4.84848499e-01
      5.21276593e-01 5.03787875e-01 4.60106373e-01 4.96212125e-01</_>
    <_>
      0. 0. 1.02249486e-02 1.53452680e-01 3.27198356e-02 3.12020451e-01
      5.72597124e-02 4.62915599e-01 9.20245424e-02 6.16368294e-01
      1.57464206e-01 7.54475713e-01 2.45398775e-01 8.82352948e-01
      3.49693239e-01 9.71867025e-01 4.82617587e-01 1. 6.23721898e-01
      9.82097208e-01 7.44376302e-01 8.95140648e-01 8.46625745e-01
      7.72378504e-01 9.18200433e-01 6.29155993e-01 9.52965260e-01
      4.70588237e-01 9.71370161e-01 3.09462905e-01 9.89775062e-01
      1.43222511e-01 1. -1.53452689e-02 5.11247441e-02 -1.02301789e-02
      1.18609406e-01 -9.46291536e-02 2.22903892e-01 -1.09974422e-01
      3.29243362e-01 -9.46291536e-02 4.33537841e-01 -5.88235296e-02
      5.23517370e-01 -5.62659837e-02 6.27811849e-01 -9.20716077e-02
      7.34151304e-01 -1.15089513e-01 8.44580770e-01 -1.09974422e-01
      9.18200433e-01 -3.06905378e-02 4.76482630e-01 1.02301789e-02
      4.78527606e-01 1.04859337e-01 4.78527606e-01 1.96930945e-01
      4.80572611e-01 2.96675205e-01 3.74233127e-01 3.60613823e-01
      4.25357878e-01 3.81074160e-01 4.82617587e-01 4.01534528e-01
      5.39877295e-01 3.83631706e-01 5.93047023e-01 3.63171369e-01
      1.82004094e-01 2.04603579e-02 2.35173821e-01 -2.55754474e-03
      2.90388554e-01 -5.11508947e-03 3.51738244e-01 2.81329919e-02
      2.92433530e-01 3.06905378e-02 2.33128831e-01 3.32480818e-02
      6.13496959e-01 3.06905378e-02 6.72801614e-01 -2.55754474e-03
      7.32106328e-01 -2.55754474e-03 7.91411042e-01 1.53452689e-02
      7.34151304e-01 3.06905378e-02 6.72801614e-01 3.32480818e-02
      3.02658498e-01 5.60102284e-01 3.61963183e-01 5.21739125e-01
      4.29447860e-01 4.96163696e-01 4.78527606e-01 5.19181609e-01
      5.31697333e-01 5.01278758e-01 6.03271961e-01 5.29411793e-01
      6.70756638e-01 5.70332468e-01 6.03271961e-01 6.36828661e-01
      5.33742309e-01 6.75191820e-01 4.76482630e-01 6.82864428e-01
      4.23312873e-01 6.70076728e-01 3.59918207e-01 6.24040902e-01
      3.29243362e-01 5.62659860e-01 4.27402854e-01 5.65217376e-01
      4.78527606e-01 5.78005135e-01 5.33742309e-01 5.67774951e-01
      6.44171774e-01 5.67774951e-01 5.31697333e-01 5.65217376e-01
      4.76482630e-01 5.78005135e-01 4.25357878e-01 5.60102284e-01</_>
    <_>
      0. 0. 1.06382975e-02 1.57248169e-01 2.97872350e-02 3.19410264e-01
      5.10638282e-02 4.84029442e-01 9.57446843e-02 6.38820589e-01
      1.78723410e-01 7.73955762e-01 2.85106391e-01 8.91891897e-01
      4.10638303e-01 9.82800961e-01 5.55319130e-01 1. 6.95744693e-01
      9.53316927e-01 8.00000012e-01 8.45208824e-01 8.89361680e-01
      7.22358704e-01 9.48936164e-01 5.87223530e-01 9.74468112e-01
      4.42260414e-01 9.87234056e-01 2.89926231e-01 1. 1.32678136e-01
      9.95744705e-01 -2.21130233e-02 9.36170220e-02 -2.70270295e-02
      1.65957451e-01 -9.33661014e-02 2.61702120e-01 -9.58231017e-02
      3.55319142e-01 -5.89680634e-02 4.53191489e-01 -2.70270295e-02
      5.65957427e-01 -3.93120423e-02 6.59574449e-01 -7.37100765e-02
      7.48936176e-01 -1.08108118e-01 8.40425551e-01 -1.15479127e-01
      9.12765980e-01 -5.65110594e-02 5.08510649e-01 4.66830507e-02
      5.10638297e-01 1.59705177e-01 5.12765944e-01 2.72727221e-01
      5.17021298e-01 3.88206333e-01 3.95744681e-01 4.15233374e-01
      4.55319136e-01 4.47174400e-01 5.23404241e-01 4.76658434e-01
      5.91489375e-01 4.39803392e-01 6.51063859e-01 3.95577341e-01
      2.17021272e-01 5.89680634e-02 2.70212770e-01 2.70270295e-02
      3.36170226e-01 2.94840317e-02 3.95744681e-01 6.63390681e-02
      3.29787225e-01 8.10810849e-02 2.65957445e-01 7.86240846e-02
      6.29787207e-01 6.63390681e-02 6.85106397e-01 2.70270295e-02
      7.51063824e-01 1.96560211e-02 8.06382954e-01 4.42260467e-02
      7.55319178e-01 7.12530762e-02 6.91489339e-01 7.37100765e-02
      3.40425521e-01 5.77395558e-01 4.02127653e-01 5.40540516e-01
      4.72340435e-01 5.28255522e-01 5.36170185e-01 5.42997479e-01
      5.95744669e-01 5.18427491e-01 6.59574449e-01 5.15970469e-01
      7.14893639e-01 5.42997479e-01 6.65957451e-01 6.14250600e-01
      6.08510613e-01 6.63390636e-01 5.46808481e-01 6.80589676e-01
      4.80851054e-01 6.78132653e-01 4.10638303e-01 6.43734634e-01
      3.70212764e-01 5.84766567e-01 4.72340435e-01 5.92137575e-01
      5.38297892e-01 5.92137575e-01 6.00000024e-01 5.82309544e-01
      6.85106397e-01 5.55282533e-01 6.04255319e-01 5.84766567e-01
      5.40425539e-01 6.01965547e-01 4.76595759e-01 5.94594538e-01</_>
    <_>
      0. 0. 7.29927002e-03 1.67146966e-01 2.18978096e-02 3.34294021e-01
      3.40632610e-02 4.98559117e-01 7.05596134e-02 6.54178679e-01
      1.41119227e-01 7.83861697e-01 2.33576640e-01 8.93371761e-01
      3.40632617e-01 9.76945221e-01 4.69586372e-01 1. 6.00973248e-01
      9.71181571e-01 7.17761576e-01 8.87608051e-01 8.22384417e-01
      7.86743522e-01 9.05109465e-01 6.62824214e-01 9.48905110e-01
      5.12968361e-01 9.78102207e-01 3.51585060e-01 9.92700756e-01
      1.87319875e-01 1. 1.72910653e-02 6.08272515e-02 -6.05187267e-02
      1.31386861e-01 -1.03746392e-01 2.18978107e-01 -9.79826972e-02
      3.06569338e-01 -8.35734829e-02 3.94160599e-01 -6.05187267e-02
      5.57177603e-01 -5.47550395e-02 6.39902651e-01 -7.20461011e-02
      7.20194638e-01 -8.06916356e-02 8.00486624e-01 -8.06916356e-02
      8.73479307e-01 -4.61095050e-02 4.69586372e-01 1.72910653e-02
      4.67153281e-01 1.06628232e-01 4.64720190e-01 1.95965394e-01
      4.62287098e-01 2.91066349e-01 3.67396593e-01 3.65994304e-01
      4.11192209e-01 3.89049053e-01 4.62287098e-01 4.06340122e-01
      5.13382018e-01 3.89049053e-01 5.62043786e-01 3.65994304e-01
      1.75182477e-01 8.64553265e-03 2.31143549e-01 -1.72910653e-02
      2.89537698e-01 -1.15273762e-02 3.45498770e-01 3.45821306e-02
      2.87104636e-01 3.45821306e-02 2.26277366e-01 3.17002870e-02
      6.10705614e-01 4.32276614e-02 6.66666687e-01 5.76368812e-03
      7.22627759e-01 5.76368812e-03 7.78588831e-01 3.45821306e-02
      7.25060821e-01 5.18731959e-02 6.66666687e-01 4.89913486e-02
      2.82238454e-01 5.67723393e-01 3.45498770e-01 5.21613896e-01
      4.11192209e-01 5.04322827e-01 4.59854007e-01 5.21613896e-01
      5.13382018e-01 5.04322827e-01 5.76642334e-01 5.21613896e-01
      6.42335773e-01 5.67723393e-01 5.79075396e-01 6.16714716e-01
      5.15815079e-01 6.39769495e-01 4.62287098e-01 6.48415029e-01
      4.11192209e-01 6.39769495e-01 3.47931862e-01 6.19596601e-01
      3.11435521e-01 5.67723393e-01 4.11192209e-01 5.61959684e-01
      4.59854007e-01 5.67723393e-01 5.13382018e-01 5.59077859e-01
      6.10705614e-01 5.67723393e-01 5.15815079e-01 5.64841509e-01
      4.62287098e-01 5.73487043e-01 4.11192209e-01 5.64841509e-01</_>
    <_>
      4.55580885e-03 0. 0. 1.74342111e-01 6.83371304e-03 3.48684222e-01
      2.73348521e-02 5.19736826e-01 7.06150308e-02 6.80921078e-01
      1.45785883e-01 8.15789461e-01 2.46013671e-01 9.21052635e-01
      3.62186790e-01 9.80263174e-01 5.05694747e-01 1. 6.53758526e-01
      9.76973712e-01 7.67653763e-01 9.11184192e-01 8.65603626e-01
      8.05921078e-01 9.33940768e-01 6.61184192e-01 9.68109310e-01
      4.96710539e-01 9.84054685e-01 3.32236856e-01 9.97722089e-01
      1.67763159e-01 1. 0. 7.28929415e-02 -1.90789476e-01 1.45785883e-01
      -2.82894731e-01 2.43735760e-01 -3.05921048e-01 3.41685653e-01
      -2.86184222e-01 4.37357634e-01 -2.46710524e-01 5.87699294e-01
      -2.23684207e-01 6.81093395e-01 -2.53289461e-01 7.74487495e-01
      -2.69736856e-01 8.65603626e-01 -2.40131572e-01 9.22551274e-01
      -1.51315793e-01 5.12528479e-01 -1.05263159e-01 5.10250568e-01 0.
      5.10250568e-01 9.86842141e-02 5.10250568e-01 2.03947365e-01
      3.82687926e-01 2.89473683e-01 4.41913426e-01 3.15789461e-01
      5.07972658e-01 3.38815778e-01 5.74031889e-01 3.15789461e-01
      6.30979478e-01 2.89473683e-01 1.75398633e-01 -7.56578967e-02
      2.36902043e-01 -1.25000000e-01 3.05239171e-01 -1.21710524e-01
      3.71298403e-01 -5.92105277e-02 3.05239171e-01 -4.93421070e-02
      2.34624147e-01 -4.60526310e-02 6.37813210e-01 -4.93421070e-02
      7.03872442e-01 -1.11842103e-01 7.72209585e-01 -1.08552635e-01
      8.26879263e-01 -5.59210517e-02 7.72209585e-01 -3.28947380e-02
      7.03872442e-01 -3.61842103e-02 3.05239171e-01 5.36184192e-01
      3.75854224e-01 4.40789461e-01 4.55580860e-01 3.94736856e-01
      5.10250568e-01 4.14473683e-01 5.74031889e-01 3.98026317e-01
      6.51480615e-01 4.44078952e-01 7.12984025e-01 5.39473712e-01
      6.51480615e-01 6.05263174e-01 5.71753979e-01 6.44736826e-01
      5.07972658e-01 6.51315808e-01 4.46469247e-01 6.44736826e-01
      3.71298403e-01 6.08552635e-01 3.39407742e-01 5.32894731e-01
      4.53302950e-01 5.00000000e-01 5.10250568e-01 5.09868443e-01
      5.74031889e-01 5.03289461e-01 6.81093395e-01 5.36184192e-01
      5.71753979e-01 5.19736826e-01 5.07972658e-01 5.26315808e-01
      4.51025069e-01 5.16447365e-01</_>
    <_>
      0. 0. 1.29870130e-02 1.61375642e-01 4.32900451e-02 3.14814866e-01
      6.27705604e-02 4.68254000e-01 9.52380970e-02 6.29629672e-01
      1.60173163e-01 7.75132298e-01 2.55411267e-01 8.91534388e-01
      3.76623362e-01 9.76190507e-01 5.17316043e-01 1. 6.51515126e-01
      9.76190507e-01 7.57575750e-01 8.83597910e-01 8.44155848e-01
      7.67195761e-01 9.00432885e-01 6.29629672e-01 9.30735946e-01
      4.76190507e-01 9.56709981e-01 3.22751373e-01 9.84848499e-01
      1.69312149e-01 1. 7.93650746e-03 6.70995638e-02 -3.17460299e-02
      1.38528138e-01 -9.52380896e-02 2.31601730e-01 -1.08465597e-01
      3.24675322e-01 -7.67195672e-02 4.15584415e-01 -3.70370336e-02
      6.51515126e-01 -6.08465560e-02 7.35930741e-01 -1.11111104e-01
      8.22510839e-01 -1.34920627e-01 9.02597427e-01 -1.11111104e-01
      9.56709981e-01 -3.96825373e-02 5.30303001e-01 1.85185168e-02
      5.30303001e-01 1.32275119e-01 5.30303001e-01 2.46031806e-01
      5.32467544e-01 3.59788418e-01 4.30735916e-01 3.80952418e-01
      4.76190478e-01 4.10052955e-01 5.30303001e-01 4.33862478e-01
      5.84415555e-01 4.10052955e-01 6.25541151e-01 3.80952418e-01
      1.94805190e-01 5.29100485e-02 2.55411267e-01 1.85185168e-02
      3.18181813e-01 1.85185168e-02 3.83116871e-01 5.55555522e-02
      3.18181813e-01 6.87830597e-02 2.55411267e-01 7.14285672e-02
      6.62337661e-01 6.08465560e-02 7.29437232e-01 2.11640187e-02
      7.94372320e-01 2.38095224e-02 8.48484874e-01 5.55555522e-02
      7.92207778e-01 7.40740672e-02 7.27272749e-01 7.14285672e-02
      3.41991335e-01 5.68783104e-01 4.15584415e-01 5.18518567e-01
      4.80519474e-01 5.02645552e-01 5.30303001e-01 5.18518567e-01
      5.82251072e-01 5.00000060e-01 6.40692651e-01 5.10582030e-01
      6.96969688e-01 5.55555582e-01 6.38528168e-01 6.05820119e-01
      5.80086589e-01 6.42857194e-01 5.25974035e-01 6.53439164e-01
      4.74025965e-01 6.48148179e-01 4.11255419e-01 6.19047642e-01
      3.74458879e-01 5.66137612e-01 4.78354990e-01 5.55555582e-01
      5.28138518e-01 5.60846567e-01 5.82251072e-01 5.50264597e-01
      6.66666687e-01 5.55555582e-01 5.80086589e-01 5.52910089e-01
      5.23809552e-01 5.66137612e-01 4.76190478e-01 5.58201075e-01</_>
    <_>
      0. 0. 1.68776363e-02 1.87692285e-01 4.00843881e-02 3.69230837e-01
      7.38396645e-02 5.35384655e-01 1.30801693e-01 6.89230800e-01
      2.17299581e-01 8.18461537e-01 3.22784811e-01 9.16923106e-01
      4.36708868e-01 9.87692297e-01 5.61181426e-01 1. 6.85653985e-01
      9.59999979e-01 7.95358658e-01 8.73846173e-01 8.90295386e-01
      7.53846169e-01 9.55696225e-01 6.03076935e-01 9.89451468e-01
      4.24615443e-01 9.97890294e-01 2.46153817e-01 1. 6.46153763e-02
      9.97890294e-01 -1.19999990e-01 7.38396645e-02 -1.38461530e-01
      1.35021091e-01 -2.33846128e-01 2.27848098e-01 -2.76923060e-01
      3.27004224e-01 -2.73846120e-01 4.28270042e-01 -2.49230742e-01
      5.37974656e-01 -2.61538446e-01 6.41350210e-01 -2.98461497e-01
      7.40506351e-01 -3.19999963e-01 8.37552726e-01 -2.95384586e-01
      9.07172978e-01 -2.15384603e-01 4.91561174e-01 -1.50769219e-01
      4.95780587e-01 -4.61538434e-02 5.00000000e-01 6.15384541e-02
      5.04219413e-01 1.72307670e-01 4.17721510e-01 2.92307675e-01
      4.62025315e-01 3.07692289e-01 5.12658238e-01 3.13846111e-01
      5.63291132e-01 2.98461497e-01 6.07594907e-01 2.76923060e-01
      2.02531651e-01 -6.15384541e-02 2.51054853e-01 -1.13846146e-01
      3.14345986e-01 -1.26153842e-01 3.79746825e-01 -7.99999908e-02
      3.20675105e-01 -5.23076877e-02 2.57383972e-01 -4.30769175e-02
      6.07594907e-01 -1.10769220e-01 6.66666687e-01 -1.72307670e-01
      7.32067525e-01 -1.69230759e-01 7.91139245e-01 -1.26153842e-01
      7.36286938e-01 -9.84615311e-02 6.70886099e-01 -9.53846052e-02
      3.31223637e-01 5.20000041e-01 4.05063301e-01 4.83076960e-01
      4.68354434e-01 4.61538523e-01 5.16877651e-01 4.76923138e-01
      5.63291132e-01 4.52307731e-01 6.35021091e-01 4.64615434e-01
      7.17299581e-01 4.73846197e-01 6.45569623e-01 5.60000062e-01
      5.80168784e-01 6.06153905e-01 5.29535890e-01 6.15384638e-01
      4.78902966e-01 6.12307727e-01 4.13502097e-01 5.84615409e-01
      3.60759497e-01 5.20000041e-01 4.72573847e-01 5.01538515e-01
      5.18987358e-01 5.10769248e-01 5.67510545e-01 4.92307752e-01
      6.85653985e-01 4.80000049e-01 5.71729958e-01 5.07692337e-01
      5.23206770e-01 5.23076952e-01 4.74683553e-01 5.16923130e-01</_>
    <_>
      0. 0. 2.00445428e-02 1.76119387e-01 4.45434302e-02 3.49253803e-01
      6.90423176e-02 5.19403040e-01 1.13585748e-01 6.77611947e-01
      1.89309582e-01 8.11940312e-01 2.93986648e-01 9.13432837e-01
      4.27616924e-01 9.82089579e-01 5.63474417e-01 1. 6.90423191e-01
      9.64179099e-01 8.04008901e-01 8.80597055e-01 8.88641417e-01
      7.58208990e-01 9.44320738e-01 6.08955264e-01 9.68819618e-01
      4.35820937e-01 9.79955435e-01 2.59701550e-01 9.95545685e-01
      8.65671560e-02 1. -9.55223814e-02 1.02449887e-01 -1.28358200e-01
      1.55901998e-01 -2.38805950e-01 2.51670390e-01 -2.86567152e-01
      3.54120255e-01 -2.80597001e-01 4.49888647e-01 -2.44776100e-01
      5.92427611e-01 -2.56716400e-01 6.81514502e-01 -3.19402963e-01
      7.81737208e-01 -3.40298474e-01 8.77505541e-01 -3.04477572e-01
      9.33184862e-01 -2.02985063e-01 5.27839661e-01 -1.49253711e-01
      5.34521163e-01 -4.17910405e-02 5.38975477e-01 6.26865625e-02
      5.45657039e-01 1.76119387e-01 4.38752770e-01 2.59701550e-01
      4.89977717e-01 2.80597091e-01 5.47884166e-01 2.98507541e-01
      6.01336300e-01 2.77612001e-01 6.50334060e-01 2.47761175e-01
      2.36080185e-01 -6.86567128e-02 2.89532304e-01 -9.55223814e-02
      3.42984408e-01 -1.04477599e-01 4.05345201e-01 -8.35820809e-02
      3.49665910e-01 -7.16417879e-02 2.93986648e-01 -6.56716377e-02
      6.45879745e-01 -1.13432825e-01 7.08240509e-01 -1.46268636e-01
      7.59465456e-01 -1.49253711e-01 8.08463275e-01 -1.25373125e-01
      7.61692643e-01 -1.16417900e-01 7.08240509e-01 -1.13432825e-01
      3.87527853e-01 4.86567199e-01 4.49888647e-01 4.38806027e-01
      5.05567908e-01 4.14925426e-01 5.50111353e-01 4.26865727e-01
      5.96881986e-01 4.11940366e-01 6.59242749e-01 4.29850787e-01
      7.34966576e-01 4.68656778e-01 6.65924251e-01 4.98507500e-01
      6.08017802e-01 5.10447800e-01 5.59020042e-01 5.16417980e-01
      5.12249470e-01 5.13432860e-01 4.56570148e-01 5.07462740e-01
      4.16481078e-01 4.77611989e-01 5.07795095e-01 4.50746328e-01
      5.52338541e-01 4.56716478e-01 5.99109113e-01 4.50746328e-01
      7.06013381e-01 4.65671688e-01 6.01336300e-01 4.47761238e-01
      5.54565728e-01 4.56716478e-01 5.10022283e-01 4.50746328e-01</_>
    <_>
      0. 0. 1.27388537e-02 1.64179102e-01 2.97239907e-02 3.20895523e-01
      4.88322712e-02 4.75124389e-01 8.28025490e-02 6.24378085e-01
      1.52866244e-01 7.58706450e-01 2.42038220e-01 8.80596995e-01
      3.46072197e-01 9.75124359e-01 4.77706999e-01 1. 6.13588095e-01
      9.75124359e-01 7.32484102e-01 8.90547276e-01 8.32271755e-01
      7.73631811e-01 9.08704877e-01 6.36815906e-01 9.46921468e-01
      4.87562180e-01 9.66029704e-01 3.23383093e-01 9.87261176e-01
      1.56716421e-01 1. -1.74129345e-02 5.09554148e-02 -2.48756222e-02
      1.12526536e-01 -9.45273638e-02 2.08067939e-01 -8.95522386e-02
      2.97239929e-01 -5.97014911e-02 3.88535023e-01 -2.48756222e-02
      5.09554148e-01 -2.98507456e-02 6.09341800e-01 -6.46766201e-02
      7.07006395e-01 -9.20398012e-02 8.06794047e-01 -8.95522386e-02
      8.85350347e-01 -2.98507456e-02 4.52229291e-01 3.23383100e-02
      4.52229291e-01 1.39303476e-01 4.52229291e-01 2.48756215e-01
      4.50106144e-01 3.63184094e-01 3.67303610e-01 4.22885567e-01
      4.09766465e-01 4.40298498e-01 4.56475586e-01 4.55223888e-01
      5.05307853e-01 4.40298498e-01 5.52016973e-01 4.22885567e-01
      1.67728230e-01 3.48258689e-02 2.22929940e-01 7.46268639e-03
      2.82377928e-01 4.97512426e-03 3.37579608e-01 4.22885567e-02
      2.80254781e-01 5.47263697e-02 2.20806792e-01 5.72139286e-02
      5.94479859e-01 3.98009941e-02 6.56050980e-01 4.97512426e-03
      7.15498924e-01 9.95024852e-03 7.70700634e-01 3.98009941e-02
      7.15498924e-01 5.72139286e-02 6.56050980e-01 5.22388071e-02
      3.01486194e-01 6.11940324e-01 3.48195314e-01 5.72139323e-01
      4.05520171e-01 5.49751222e-01 4.54352438e-01 5.64676642e-01
      5.05307853e-01 5.47263682e-01 5.73248386e-01 5.67164183e-01
      6.34819508e-01 6.01990044e-01 5.75371563e-01 6.69154227e-01
      5.13800442e-01 7.03980088e-01 4.60721880e-01 7.13930368e-01
      4.05520171e-01 7.06467688e-01 3.50318462e-01 6.74129367e-01
      3.26963902e-01 6.11940324e-01 4.07643318e-01 6.09452724e-01
      4.56475586e-01 6.19403005e-01 5.09554148e-01 6.06965184e-01
      6.05095565e-01 6.04477584e-01 5.09554148e-01 6.06965184e-01
      4.56475586e-01 6.19403005e-01 4.07643318e-01 6.09452724e-01</_>
    <_>
      0. 0. 1.70212761e-02 1.70658663e-01 4.25531901e-02 3.38323414e-01
      6.80851042e-02 5.11976063e-01 1.08510636e-01 6.73652709e-01
      1.85106382e-01 8.08383226e-01 2.93617010e-01 9.07185614e-01
      4.08510625e-01 9.91017938e-01 5.31914890e-01 1. 6.53191507e-01
      9.64071870e-01 7.57446826e-01 8.68263483e-01 8.59574497e-01
      7.60479093e-01 9.29787219e-01 6.13772511e-01 9.63829815e-01
      4.46107835e-01 9.80851054e-01 2.69461155e-01 9.93616998e-01
      8.98203477e-02 1. -9.88023877e-02 8.29787254e-02 -9.88023877e-02
      1.48936167e-01 -1.64670646e-01 2.34042555e-01 -1.76646695e-01
      3.21276605e-01 -1.64670646e-01 4.08510625e-01 -1.31736517e-01
      5.38297892e-01 -1.49700582e-01 6.23404264e-01 -2.03592792e-01
      7.12765932e-01 -2.27544889e-01 8.04255307e-01 -2.30538905e-01
      8.82978737e-01 -1.70658663e-01 4.78723407e-01 -4.49101739e-02
      4.78723407e-01 7.48502910e-02 4.78723407e-01 1.97604775e-01
      4.80851054e-01 3.17365319e-01 3.95744681e-01 3.89221609e-01
      4.42553192e-01 4.10179704e-01 4.93617028e-01 4.28143770e-01
      5.42553186e-01 4.01197672e-01 5.89361727e-01 3.77245575e-01
      1.80851057e-01 -1.49700586e-02 2.34042555e-01 -6.58682585e-02
      2.97872335e-01 -6.58682585e-02 3.53191495e-01 -8.98203533e-03
      2.95744687e-01 2.99401162e-03 2.34042555e-01 5.98802324e-03
      6.21276617e-01 -3.59281413e-02 6.70212746e-01 -1.01796396e-01
      7.34042525e-01 -1.10778436e-01 7.87234068e-01 -6.88622668e-02
      7.40425527e-01 -4.19161655e-02 6.80851042e-01 -3.29341292e-02
      3.02127659e-01 5.92814386e-01 3.63829792e-01 5.35928190e-01
      4.40425545e-01 5.17964125e-01 5.02127647e-01 5.32934189e-01
      5.63829780e-01 5.11976063e-01 6.46808505e-01 5.20958126e-01
      7.12765932e-01 5.59880257e-01 6.55319154e-01 6.82634771e-01
      5.76595724e-01 7.42514968e-01 5.10638297e-01 7.57485032e-01
      4.44680840e-01 7.51497030e-01 3.65957439e-01 7.03592837e-01
      3.25531930e-01 5.95808446e-01 4.42553192e-01 5.59880257e-01
      5.04255295e-01 5.65868318e-01 5.68085134e-01 5.50898254e-01
      6.91489339e-01 5.65868318e-01 5.70212781e-01 6.61676705e-01
      5.04255295e-01 6.76646709e-01 4.44680840e-01 6.67664707e-01</_>
    <_>
      0. 0. 3.57142859e-03 1.63538873e-01 1.96428578e-02 3.24396789e-01
      4.46428582e-02 4.85254705e-01 7.50000030e-02 6.40750647e-01
      1.25000000e-01 7.82841802e-01 2.07142860e-01 9.03485239e-01
      3.12500000e-01 9.78552282e-01 4.49999988e-01 1. 5.91071427e-01
      9.86595154e-01 7.14285731e-01 9.32975888e-01 8.19642842e-01
      8.33780169e-01 8.96428585e-01 6.97050929e-01 9.37500000e-01
      5.33512056e-01 9.64285731e-01 3.56568366e-01 9.87500012e-01
      1.79624662e-01 1. -8.04289524e-03 5.71428575e-02 -1.52815014e-01
      1.12499997e-01 -2.68096507e-01 1.98214293e-01 -3.29758704e-01
      2.92857140e-01 -3.40482563e-01 3.82142872e-01 -3.08310986e-01
      5.39285719e-01 -3.24396789e-01 6.37499988e-01 -3.56568366e-01
      7.41071403e-01 -3.48525465e-01 8.33928585e-01 -2.84182310e-01
      8.96428585e-01 -1.68900803e-01 4.53571439e-01 -9.91957113e-02
      4.53571439e-01 1.34048257e-02 4.49999988e-01 1.23324394e-01
      4.48214293e-01 2.38605902e-01 3.39285702e-01 3.64611268e-01
      3.94642860e-01 3.75335127e-01 4.48214293e-01 3.88739944e-01
      5.08928597e-01 3.78016084e-01 5.66071451e-01 3.69973183e-01
      1.35714293e-01 -4.02144790e-02 1.94642857e-01 -1.20643429e-01
      2.75000006e-01 -1.26005366e-01 3.39285702e-01 -2.41286866e-02
      2.71428585e-01 -2.68096523e-03 1.91071436e-01 0. 5.94642878e-01
      -3.75335105e-02 6.62500024e-01 -1.39410183e-01 7.42857158e-01
      -1.42091155e-01 8.05357158e-01 -6.16621971e-02 7.48214304e-01
      -1.87667552e-02 6.67857170e-01 -1.60857905e-02 2.39285707e-01
      6.11260056e-01 3.07142854e-01 5.30831099e-01 3.85714293e-01
      4.85254705e-01 4.46428567e-01 5.04021466e-01 5.08928597e-01
      4.85254705e-01 6.00000024e-01 5.33512056e-01 6.82142854e-01
      6.27345860e-01 6.00000024e-01 7.15817690e-01 5.12499988e-01
      7.45308340e-01 4.44642872e-01 7.50670254e-01 3.76785725e-01
      7.42627323e-01 3.01785707e-01 7.02412844e-01 2.75000006e-01
      6.11260056e-01 3.83928567e-01 5.71045578e-01 4.46428567e-01
      5.76407492e-01 5.10714293e-01 5.71045578e-01 6.48214281e-01
      6.24664903e-01 5.10714293e-01 6.27345860e-01 4.44642872e-01
      6.35388732e-01 3.80357146e-01 6.24664903e-01</_>
    <_>
      4.62962966e-03 0. 0. 1.56250000e-01 4.62962966e-03 3.15625012e-01
      2.08333340e-02 4.81249988e-01 6.71296269e-02 6.34374976e-01
      1.48148149e-01 7.71875024e-01 2.50000000e-01 8.84374976e-01
      3.65740746e-01 9.71875012e-01 5.13888896e-01 1. 6.55092597e-01
      9.68750000e-01 7.66203701e-01 8.75000000e-01 8.65740716e-01
      7.62499988e-01 9.37500000e-01 6.18749976e-01 9.74537015e-01
      4.53125000e-01 9.90740716e-01 2.84375012e-01 1. 1.18749999e-01
      9.97685194e-01 -4.68750000e-02 9.02777761e-02 -1.81250006e-01
      1.55092597e-01 -2.53125012e-01 2.40740746e-01 -2.75000006e-01
      3.28703701e-01 -2.62499988e-01 4.02777791e-01 -2.21874997e-01
      6.04166687e-01 -2.53125012e-01 6.82870388e-01 -3.06250006e-01
      7.68518507e-01 -3.24999988e-01 8.51851881e-01 -2.96875000e-01
      9.09722209e-01 -2.12500006e-01 5.04629612e-01 -1.03124999e-01
      5.02314806e-01 -3.12500005e-03 5.02314806e-01 9.68749970e-02
      5.00000000e-01 2.00000003e-01 3.77314806e-01 2.75000006e-01
      4.39814806e-01 3.03124994e-01 5.04629612e-01 3.28125000e-01
      5.69444418e-01 3.03124994e-01 6.27314806e-01 2.78124988e-01
      1.78240746e-01 -8.12499970e-02 2.38425925e-01 -1.28124997e-01
      3.07870358e-01 -1.21875003e-01 3.70370358e-01 -6.25000000e-02
      3.05555552e-01 -5.31250015e-02 2.36111104e-01 -5.00000007e-02
      6.36574090e-01 -6.56249970e-02 7.01388896e-01 -1.28124997e-01
      7.68518507e-01 -1.25000000e-01 8.24074090e-01 -7.81250000e-02
      7.70833313e-01 -5.00000007e-02 7.03703701e-01 -5.00000007e-02
      2.75462955e-01 5.06250024e-01 3.44907403e-01 4.31250006e-01
      4.42129642e-01 3.96874994e-01 5.02314806e-01 4.12499994e-01
      5.69444418e-01 4.00000006e-01 6.66666687e-01 4.40625012e-01
      7.33796299e-01 5.12499988e-01 6.71296299e-01 6.68749988e-01
      5.76388896e-01 7.37500012e-01 5.04629612e-01 7.46874988e-01
      4.37500000e-01 7.34375000e-01 3.40277791e-01 6.59375012e-01
      3.00925940e-01 5.12499988e-01 4.42129642e-01 4.84375000e-01
      5.04629612e-01 4.93750006e-01 5.71759284e-01 4.84375000e-01
      7.03703701e-01 5.18750012e-01 5.74074090e-01 6.15625024e-01
      5.04629612e-01 6.25000000e-01 4.39814806e-01 6.12500012e-01</_>
    <_>
      0. 0. 6.28930796e-03 1.61209062e-01 1.67714879e-02 3.14861447e-01
      3.98322865e-02 4.73551631e-01 8.80503133e-02 6.19647384e-01
      1.69811323e-01 7.53148615e-01 2.66247392e-01 8.71536553e-01
      3.75262052e-01 9.74811077e-01 4.98951793e-01 1. 6.22641504e-01
      9.69773293e-01 7.31656194e-01 8.74055445e-01 8.21802914e-01
      7.50629723e-01 9.01467502e-01 6.09571815e-01 9.47589099e-01
      4.53400493e-01 9.74842787e-01 2.87153661e-01 9.93710697e-01
      1.20906800e-01 1. -5.28967269e-02 5.03144637e-02 -1.23425692e-01
      1.13207549e-01 -2.14105800e-01 2.09643602e-01 -2.44332492e-01
      3.10272545e-01 -2.39294708e-01 3.96226406e-01 -1.96473554e-01
      5.26205480e-01 -1.98992446e-01 6.26834393e-01 -2.51889169e-01
      7.44234800e-01 -2.61964738e-01 8.53249490e-01 -2.19143569e-01
      9.26624715e-01 -1.25944585e-01 4.75890994e-01 -7.30478615e-02
      4.77987409e-01 4.53400500e-02 4.80083853e-01 1.63727954e-01
      4.84276742e-01 2.84634769e-01 3.66876304e-01 3.19899231e-01
      4.23480093e-01 3.55163723e-01 4.86373156e-01 3.80352646e-01
      5.49266219e-01 3.55163723e-01 6.03773594e-01 3.22418123e-01
      1.42557651e-01 -4.28211577e-02 2.03354299e-01 -7.55667537e-02
      2.70440251e-01 -7.55667537e-02 3.35429758e-01 -3.77833769e-02
      2.70440251e-01 -3.27455923e-02 2.07547173e-01 -3.02267000e-02
      6.16352201e-01 -4.53400500e-02 6.85534596e-01 -8.81612077e-02
      7.54716992e-01 -8.56423154e-02 8.17610085e-01 -5.28967269e-02
      7.54716992e-01 -4.28211577e-02 6.87631011e-01 -4.53400500e-02
      3.06079656e-01 5.56675076e-01 3.52201253e-01 4.68513846e-01
      4.25576508e-01 4.43324924e-01 4.88469601e-01 4.63476062e-01
      5.57651997e-01 4.43324924e-01 6.39412999e-01 4.71032739e-01
      6.87631011e-01 5.56675076e-01 6.41509414e-01 6.75062954e-01
      5.68134189e-01 7.50629723e-01 4.94758904e-01 7.63224185e-01
      4.23480093e-01 7.50629723e-01 3.52201253e-01 6.72544062e-01
      3.33333343e-01 5.49118400e-01 4.23480093e-01 4.98740554e-01
      4.90566045e-01 5.08816123e-01 5.59748411e-01 4.96221662e-01
      6.56184494e-01 5.51637292e-01 5.61844885e-01 6.34760678e-01
      4.90566045e-01 6.47355139e-01 4.23480093e-01 6.32241786e-01</_>
    <_>
      0. 0. 6.47948170e-03 1.60664827e-01 2.80777533e-02 3.24099720e-01
      5.61555065e-02 4.81994450e-01 9.93520543e-02 6.39889181e-01
      1.70626357e-01 7.81163454e-01 2.65658736e-01 9.00277019e-01
      3.77969772e-01 9.86149609e-01 5.16198695e-01 1. 6.56587481e-01
      9.72299159e-01 7.75377989e-01 8.78116369e-01 8.74730051e-01
      7.53462613e-01 9.43844497e-01 6.06648207e-01 9.80561554e-01
      4.43213284e-01 9.91360664e-01 2.82548487e-01 1. 1.24653742e-01
      9.95680332e-01 -2.77008303e-02 7.77537823e-02 -1.02493078e-01
      1.36069119e-01 -1.91135734e-01 2.28941679e-01 -2.07756236e-01
      3.21814269e-01 -1.93905815e-01 4.14686829e-01 -1.60664827e-01
      5.46436310e-01 -1.71745151e-01 6.34989202e-01 -2.13296399e-01
      7.27861762e-01 -2.35457063e-01 8.22894156e-01 -2.27146819e-01
      8.92008662e-01 -1.46814406e-01 4.73002166e-01 -4.98614945e-02
      4.73002166e-01 4.98614945e-02 4.70842332e-01 1.49584487e-01
      4.68682498e-01 2.57617742e-01 3.71490270e-01 3.10249299e-01
      4.21166301e-01 3.37950140e-01 4.79481637e-01 3.60110790e-01
      5.37796974e-01 3.32409978e-01 5.91792643e-01 3.01939070e-01
      1.81425482e-01 -8.31024908e-03 2.35421166e-01 -5.81717454e-02
      3.02375823e-01 -6.64819926e-02 3.67170632e-01 -1.38504151e-02
      3.02375823e-01 0. 2.33261332e-01 5.54016605e-03 6.02591813e-01
      -1.93905812e-02 6.60907149e-01 -8.31024945e-02 7.30021596e-01
      -8.31024945e-02 7.88336933e-01 -3.60110812e-02 7.34341264e-01
      -1.10803321e-02 6.65226758e-01 -1.10803321e-02 3.15334767e-01
      5.48476458e-01 3.62850964e-01 4.84764546e-01 4.27645802e-01
      4.48753476e-01 4.81641471e-01 4.65373963e-01 5.33477306e-01
      4.43213284e-01 6.04751647e-01 4.73684222e-01 6.63066983e-01
      5.31855941e-01 6.11231089e-01 6.01108015e-01 5.44276476e-01
      6.45429373e-01 4.88120943e-01 6.59279764e-01 4.29805607e-01
      6.50969505e-01 3.67170632e-01 6.14958465e-01 3.47732186e-01
      5.45706391e-01 4.27645802e-01 5.31855941e-01 4.83801305e-01
      5.40166199e-01 5.37796974e-01 5.29085875e-01 6.32829368e-01
      5.31855941e-01 5.37796974e-01 5.23545682e-01 4.83801305e-01
      5.40166199e-01 4.29805607e-01 5.29085875e-01</_>
    <_>
      0. 0. 1.01522841e-02 1.79775283e-01 2.53807101e-02 3.55805248e-01
      4.56852801e-02 5.35580516e-01 8.62944126e-02 7.04119861e-01
      1.57360405e-01 8.35205972e-01 2.58883238e-01 9.21348333e-01
      3.70558381e-01 9.85018730e-01 4.94923860e-01 1. 6.19289339e-01
      9.66292143e-01 7.33502567e-01 8.98876429e-01 8.47715735e-01
      8.12734067e-01 9.31472063e-01 6.85393274e-01 9.74619269e-01
      5.24344563e-01 9.92385805e-01 3.48314613e-01 9.94923830e-01
      1.68539330e-01 1. -1.12359552e-02 7.36040622e-02 -2.02247187e-01
      1.14213198e-01 -3.37078661e-01 1.97969541e-01 -4.08239692e-01
      2.96954304e-01 -4.04494375e-01 3.93401027e-01 -3.52059931e-01
      5.40609121e-01 -3.67041200e-01 6.42131984e-01 -4.23220962e-01
      7.43654847e-01 -4.26966280e-01 8.37563455e-01 -3.52059931e-01
      8.85786831e-01 -2.24719107e-01 4.77157354e-01 -1.64794013e-01
      4.79695439e-01 -7.86516890e-02 4.79695439e-01 3.74531839e-03
      4.79695439e-01 9.73782763e-02 3.90862942e-01 2.73408234e-01
      4.36548233e-01 2.80898869e-01 4.79695439e-01 2.88389504e-01
      5.25380731e-01 2.77153552e-01 5.65989852e-01 2.65917599e-01
      1.85279191e-01 -8.61423239e-02 2.33502537e-01 -1.49812728e-01
      2.99492389e-01 -1.53558046e-01 3.60406101e-01 -8.98876414e-02
      2.99492389e-01 -5.99250942e-02 2.33502537e-01 -5.24344556e-02
      5.98984778e-01 -9.73782763e-02 6.64974630e-01 -1.61048695e-01
      7.30964482e-01 -1.49812728e-01 7.81725883e-01 -8.61423239e-02
      7.28426397e-01 -5.99250942e-02 6.64974630e-01 -6.36704117e-02
      2.58883238e-01 5.61797738e-01 3.37563455e-01 4.71910119e-01
      4.21319783e-01 4.30711597e-01 4.74619299e-01 4.45692897e-01
      5.35533011e-01 4.30711597e-01 6.14213169e-01 4.68164802e-01
      6.95431471e-01 5.46816468e-01 6.16751254e-01 6.10486865e-01
      5.38071036e-01 6.32958829e-01 4.77157354e-01 6.40449464e-01
      4.18781728e-01 6.44194782e-01 3.37563455e-01 6.32958829e-01
      2.91878164e-01 5.58052421e-01 4.21319783e-01 4.90636706e-01
      4.74619299e-01 4.90636706e-01 5.35533011e-01 4.86891389e-01
      6.59898460e-01 5.43071151e-01 5.35533011e-01 5.65543056e-01
      4.74619299e-01 5.73033690e-01 4.18781728e-01 5.73033690e-01</_>
    <_>
      0. 0. 8.84955749e-03 1.62420303e-01 1.76991150e-02 3.18471283e-01
      2.65486725e-02 4.80891675e-01 5.53097352e-02 6.40127361e-01
      1.26106188e-01 7.80254781e-01 2.32300878e-01 8.82165611e-01
      3.51769924e-01 9.61783409e-01 4.93362844e-01 1. 6.30530953e-01
      9.80891705e-01 7.47787595e-01 9.01273847e-01 8.51769924e-01
      8.12101901e-01 9.18141603e-01 6.87898040e-01 9.49115038e-01
      5.28662384e-01 9.69026566e-01 3.69426697e-01 9.88938034e-01
      2.07006291e-01 1. 4.77707051e-02 1.10619470e-01 -2.19745249e-01
      1.72566369e-01 -3.15286666e-01 2.67699122e-01 -3.56687933e-01
      3.65044236e-01 -3.53503227e-01 4.64601755e-01 -3.18471372e-01
      6.01769924e-01 -2.96178371e-01 6.96902633e-01 -3.31210226e-01
      7.94247806e-01 -3.34394932e-01 8.84955764e-01 -2.89808959e-01
      9.35840726e-01 -1.78343967e-01 5.28761089e-01 -1.62420392e-01
      5.28761089e-01 -4.45859917e-02 5.30973434e-01 7.64330328e-02
      5.30973434e-01 1.97452158e-01 4.22566384e-01 3.02547693e-01
      4.71238941e-01 3.15286547e-01 5.22123873e-01 3.34394842e-01
      5.70796490e-01 3.21655989e-01 6.17256641e-01 3.08917135e-01
      2.14601770e-01 -1.05095550e-01 2.65486717e-01 -1.75159246e-01
      3.36283177e-01 -1.75159246e-01 3.93805295e-01 -9.87261236e-02
      3.34070802e-01 -7.32484162e-02 2.65486717e-01 -7.00637028e-02
      6.46017671e-01 -8.28025565e-02 7.05752194e-01 -1.56050965e-01
      7.76548684e-01 -1.43312111e-01 8.25221241e-01 -6.68789893e-02
      7.74336278e-01 -4.14012782e-02 7.05752194e-01 -4.77707051e-02
      2.72123903e-01 5.19108236e-01 3.56194705e-01 4.61783379e-01
      4.49115038e-01 4.29936260e-01 5.08849561e-01 4.49044526e-01
      5.68584085e-01 4.36305672e-01 6.52654886e-01 4.80891675e-01
      7.21238911e-01 5.66878915e-01 6.48230076e-01 6.49681509e-01
      5.66371679e-01 6.84713364e-01 5.02212405e-01 6.87898040e-01
      4.38053101e-01 6.78343892e-01 3.49557519e-01 6.24203801e-01
      3.05309743e-01 5.25477648e-01 4.46902663e-01 4.93630528e-01
      5.06637156e-01 5.03184676e-01 5.68584085e-01 4.99999940e-01
      6.90265477e-01 5.60509503e-01 5.68584085e-01 5.85987210e-01
      5.06637156e-01 5.85987210e-01 4.44690257e-01 5.76433063e-01</_>
    <_>
      0. 0. 2.39234441e-03 1.61473081e-01 2.15311013e-02 3.22946161e-01
      5.02392352e-02 4.87252116e-01 9.80861261e-02 6.45892322e-01
      1.69856459e-01 7.81869709e-01 2.53588527e-01 9.00849879e-01
      3.56459320e-01 9.80169952e-01 4.97607648e-01 1. 6.41148329e-01
      9.74504232e-01 7.48803854e-01 8.81019831e-01 8.44497621e-01
      7.59206772e-01 9.18660283e-01 6.17563725e-01 9.64114845e-01
      4.58923519e-01 9.85645950e-01 2.91784704e-01 1. 1.24645889e-01
      9.97607648e-01 -3.68271954e-02 1.67464111e-02 -1.21813029e-01
      7.89473653e-02 -2.18130305e-01 1.81818187e-01 -2.43626058e-01
      2.89473683e-01 -2.23796040e-01 3.92344505e-01 -1.86968833e-01
      5.23923457e-01 -1.92634568e-01 6.38755977e-01 -2.35127479e-01
      7.53588498e-01 -2.57790357e-01 8.68421078e-01 -2.35127479e-01
      9.42583740e-01 -1.41643062e-01 4.68899518e-01 -9.91501436e-02
      4.66507167e-01 -5.66572230e-03 4.64114845e-01 8.49858373e-02
      4.64114845e-01 1.84135973e-01 3.44497621e-01 2.49291778e-01
      4.04306233e-01 2.80453265e-01 4.76076543e-01 3.08781862e-01
      5.50239205e-01 2.74787545e-01 6.14832520e-01 2.37960339e-01
      1.24401912e-01 -3.96600552e-02 1.84210524e-01 -6.79886714e-02
      2.51196176e-01 -7.08215311e-02 3.30143541e-01 -4.24929187e-02
      2.53588527e-01 -3.68271954e-02 1.86602876e-01 -3.11614722e-02
      6.29186630e-01 -4.53257784e-02 7.03349292e-01 -7.64872506e-02
      7.72727251e-01 -7.36543909e-02 8.37320566e-01 -4.81586419e-02
      7.75119603e-01 -3.39943357e-02 7.03349292e-01 -3.96600552e-02
      2.75119603e-01 5.01416445e-01 3.46889943e-01 4.16430593e-01
      4.18660283e-01 3.88101995e-01 4.83253598e-01 4.07932013e-01
      5.52631557e-01 3.85269135e-01 6.33971274e-01 4.07932013e-01
      7.08133996e-01 4.87252116e-01 6.36363626e-01 5.38243651e-01
      5.59808612e-01 5.75070798e-01 4.88038272e-01 5.83569407e-01
      4.21052635e-01 5.75070798e-01 3.49282295e-01 5.52407920e-01
      3.11004788e-01 4.95750695e-01 4.21052635e-01 4.67422098e-01
      4.85645920e-01 4.75920677e-01 5.57416260e-01 4.64589238e-01
      6.72248781e-01 4.87252116e-01 5.57416260e-01 4.81586397e-01
      4.85645920e-01 4.92917836e-01 4.18660283e-01 4.81586397e-01</_>
    <_>
      0. 0. 1.05932206e-02 1.46987945e-01 2.96610165e-02 2.96385556e-01
      5.08474559e-02 4.45783138e-01 9.11016986e-02 5.92771113e-01
      1.65254235e-01 7.30120480e-01 2.54237294e-01 8.55421662e-01
      3.68644059e-01 9.63855445e-01 5.02118647e-01 1. 6.33474588e-01
      9.73493993e-01 7.50000000e-01 8.72289181e-01 8.49576294e-01
      7.51807213e-01 9.25847471e-01 6.14457846e-01 9.57627118e-01
      4.69879508e-01 9.70339000e-01 3.18072289e-01 9.85169470e-01
      1.71084344e-01 1. 2.40963846e-02 8.26271176e-02 -3.37349400e-02
      1.54661015e-01 -9.63855386e-02 2.56355941e-01 -9.63855386e-02
      3.51694912e-01 -6.74698800e-02 4.47033912e-01 -2.89156623e-02
      5.76271176e-01 -4.09638546e-02 6.77966118e-01 -7.46987984e-02
      7.77542353e-01 -9.15662646e-02 8.77118647e-01 -7.46987984e-02
      9.38559294e-01 -2.40963860e-03 5.10593235e-01 3.61445770e-02
      5.08474588e-01 1.39759034e-01 5.06355941e-01 2.43373498e-01
      5.06355941e-01 3.51807237e-01 4.08898294e-01 3.87951821e-01
      4.53389823e-01 4.09638554e-01 5.04237294e-01 4.31325287e-01
      5.57203412e-01 4.14457828e-01 6.03813589e-01 3.97590369e-01
      2.07627118e-01 3.61445770e-02 2.64830500e-01 2.40963846e-02
      3.26271176e-01 2.16867477e-02 3.81355941e-01 4.09638546e-02
      3.26271176e-01 4.81927693e-02 2.66949147e-01 5.06024100e-02
      6.37711883e-01 4.81927693e-02 6.97033882e-01 2.65060235e-02
      7.58474588e-01 3.37349400e-02 8.11440706e-01 5.78313246e-02
      7.58474588e-01 6.50602430e-02 6.97033882e-01 6.02409653e-02
      3.38983059e-01 5.56626499e-01 3.87711853e-01 5.10843396e-01
      4.51271176e-01 5.03614485e-01 5.02118647e-01 5.27710855e-01
      5.55084765e-01 5.15662670e-01 6.20762706e-01 5.34939766e-01
      6.71610177e-01 5.73493958e-01 6.20762706e-01 6.65060222e-01
      5.57203412e-01 7.08433747e-01 4.97881353e-01 7.13253021e-01
      4.42796618e-01 6.96385562e-01 3.83474588e-01 6.43373489e-01
      3.60169500e-01 5.51807225e-01 4.49152529e-01 5.44578314e-01
      5.02118647e-01 5.63855410e-01 5.57203412e-01 5.54216862e-01
      6.44067824e-01 5.71084321e-01 5.55084765e-01 6.24096394e-01
      4.97881353e-01 6.36144578e-01 4.44915265e-01 6.12048209e-01</_>
    <_>
      0. 0. 1.87110193e-02 1.82539672e-01 4.57380451e-02 3.59788328e-01
      6.44490644e-02 5.31746089e-01 1.01871103e-01 6.95767224e-01
      1.85031191e-01 8.30687821e-01 3.07692319e-01 9.15343940e-01
      4.36590433e-01 9.86772478e-01 5.65488577e-01 1. 6.83991671e-01
      9.57671940e-01 7.85862803e-01 8.59788358e-01 8.81496906e-01
      7.64550269e-01 9.45945919e-01 6.32275164e-01 9.70893979e-01
      4.73545015e-01 9.75051999e-01 3.09523791e-01 9.91684020e-01
      1.45502627e-01 1. -2.64550243e-02 9.14760903e-02 -7.67195672e-02
      1.60083160e-01 -1.45502627e-01 2.51559258e-01 -1.53439134e-01
      3.38877350e-01 -1.32275119e-01 4.26195413e-01 -9.78835896e-02
      5.75883567e-01 -1.03174597e-01 6.65280640e-01 -1.37566119e-01
      7.54677773e-01 -1.56084642e-01 8.44074845e-01 -1.48148134e-01
      9.12681937e-01 -8.73015821e-02 5.03118515e-01 5.29100467e-03
      5.07276535e-01 1.11111104e-01 5.11434495e-01 2.22222209e-01
      5.15592515e-01 3.30687791e-01 4.24116433e-01 4.02116358e-01
      4.69854474e-01 4.15343881e-01 5.17671525e-01 4.28571403e-01
      5.61330557e-01 4.07407373e-01 6.02910578e-01 3.88888866e-01
      2.03742206e-01 1.58730149e-02 2.59875268e-01 -1.58730149e-02
      3.20166320e-01 -1.32275121e-02 3.74220371e-01 3.17460299e-02
      3.13929319e-01 4.23280373e-02 2.55717248e-01 3.96825373e-02
      6.34095609e-01 2.38095224e-02 6.88149691e-01 -2.11640187e-02
      7.48440742e-01 -2.38095224e-02 8.04573834e-01 1.05820093e-02
      7.50519753e-01 2.91005261e-02 6.92307711e-01 3.17460299e-02
      3.05613309e-01 6.29629672e-01 3.74220371e-01 5.50264597e-01
      4.57380444e-01 5.10582030e-01 5.23908496e-01 5.21164060e-01
      5.88357568e-01 4.97354537e-01 6.71517670e-01 5.18518567e-01
      7.31808722e-01 5.79365134e-01 6.83991671e-01 6.61375701e-01
      6.07068598e-01 7.08994746e-01 5.40540516e-01 7.24867761e-01
      4.69854474e-01 7.27513254e-01 3.82536381e-01 7.06349254e-01
      3.30561340e-01 6.24338627e-01 4.59459454e-01 5.66137612e-01
      5.25987506e-01 5.63492119e-01 5.92515588e-01 5.50264597e-01
      7.08939731e-01 5.79365134e-01 6.00831628e-01 6.34920657e-01
      5.34303546e-01 6.45502687e-01 4.67775464e-01 6.50793672e-01</_>
    <_>
      0. 0. 1.05485236e-02 1.62291154e-01 2.95358654e-02 3.26968938e-01
      4.64135036e-02 4.86873537e-01 9.07173008e-02 6.39618158e-01
      1.66666672e-01 7.75656343e-01 2.61603385e-01 8.87828171e-01
      3.75527412e-01 9.80906904e-01 5.08438826e-01 1. 6.37130797e-01
      9.64200497e-01 7.38396645e-01 8.68735075e-01 8.33333313e-01
      7.61336505e-01 9.09282684e-01 6.34844899e-01 9.51476812e-01
      4.86873537e-01 9.70464110e-01 3.29355597e-01 9.87341762e-01
      1.69451058e-01 1. 2.38663470e-03 9.28270072e-02 -6.68257698e-02
      1.60337552e-01 -1.28878266e-01 2.51054853e-01 -1.33651540e-01
      3.37552756e-01 -1.07398562e-01 4.19831216e-01 -6.68257698e-02
      5.94936728e-01 -6.92124069e-02 6.72995806e-01 -1.12171829e-01
      7.57383943e-01 -1.43198073e-01 8.50210965e-01 -1.38424814e-01
      9.11392391e-01 -7.39856735e-02 5.08438826e-01 4.05727886e-02
      5.12658238e-01 1.59904525e-01 5.16877651e-01 2.76849627e-01
      5.21097064e-01 3.98568004e-01 4.07173008e-01 4.36754137e-01
      4.62025315e-01 4.58233923e-01 5.16877651e-01 4.74940360e-01
      5.69620252e-01 4.58233923e-01 6.13924026e-01 4.34367508e-01
      2.04641357e-01 5.01193292e-02 2.59493679e-01 4.77326941e-03
      3.31223637e-01 9.54653881e-03 3.88185650e-01 7.39856735e-02
      3.27004224e-01 8.59188512e-02 2.55274266e-01 8.35322142e-02
      6.18143439e-01 7.39856735e-02 6.77215219e-01 1.19331731e-02
      7.46835470e-01 9.54653881e-03 7.97468364e-01 5.25059626e-02
      7.51054823e-01 8.59188512e-02 6.83544278e-01 8.83054808e-02
      2.84810126e-01 6.01432025e-01 3.60759497e-01 5.68019152e-01
      4.47257370e-01 5.56085944e-01 5.08438826e-01 5.70405781e-01
      5.73839664e-01 5.53699315e-01 6.56118155e-01 5.60859203e-01
      7.19409287e-01 5.84725559e-01 6.58227861e-01 6.94510758e-01
      5.80168784e-01 7.54176617e-01 5.08438826e-01 7.68496454e-01
      4.43037987e-01 7.61336505e-01 3.56540084e-01 7.08830595e-01
      3.12236279e-01 6.08591914e-01 4.47257370e-01 6.03818655e-01
      5.06329119e-01 6.10978544e-01 5.73839664e-01 5.96658766e-01
      6.91983104e-01 5.94272077e-01 5.78059077e-01 6.70644403e-01
      5.08438826e-01 6.87350869e-01 4.47257370e-01 6.80190980e-01</_>
    <_>
      0. 0. 6.91244239e-03 1.59340665e-01 2.53456216e-02 3.15934062e-01
      5.06912433e-02 4.75274712e-01 9.67741907e-02 6.26373649e-01
      1.77419350e-01 7.66483545e-01 2.74193555e-01 8.81868124e-01
      3.89400929e-01 9.75274742e-01 5.23041487e-01 1. 6.61290348e-01
      9.72527444e-01 7.69585252e-01 8.81868124e-01 8.59447002e-01
      7.55494535e-01 9.30875599e-01 6.15384638e-01 9.65437770e-01
      4.61538464e-01 9.81566846e-01 3.04945052e-01 9.95391726e-01
      1.51098907e-01 1. -5.49450563e-03 7.37327188e-02 -5.49450563e-03
      1.42857149e-01 -9.89011005e-02 2.51152068e-01 -1.34615391e-01
      3.59447002e-01 -1.26373634e-01 4.60829496e-01 -8.51648375e-02
      5.73732734e-01 -9.06593427e-02 6.68202758e-01 -1.37362644e-01
      7.74193525e-01 -1.45604402e-01 8.73271883e-01 -1.07142858e-01
      9.37788010e-01 -2.19780225e-02 5.09216607e-01 -8.24175868e-03
      5.04608274e-01 1.04395606e-01 5.00000000e-01 2.17032969e-01
      4.97695863e-01 3.32417578e-01 3.84792626e-01 3.54395598e-01
      4.37788010e-01 3.84615391e-01 5.00000000e-01 4.09340650e-01
      5.64516127e-01 3.81868124e-01 6.17511511e-01 3.48901093e-01
      1.91244245e-01 3.29670347e-02 2.51152068e-01 1.64835174e-02
      3.11059922e-01 1.64835174e-02 3.80184323e-01 3.02197803e-02
      3.15668195e-01 3.84615399e-02 2.55760372e-01 4.39560451e-02
      6.35944724e-01 2.19780225e-02 7.07373261e-01 2.74725282e-03
      7.67281115e-01 5.49450563e-03 8.24884772e-01 1.92307699e-02
      7.67281115e-01 2.74725277e-02 7.07373261e-01 2.74725277e-02
      3.15668195e-01 5.30219793e-01 3.77880186e-01 4.78021979e-01
      4.44700450e-01 4.67032969e-01 5.02304137e-01 4.83516484e-01
      5.62211990e-01 4.58791196e-01 6.26728117e-01 4.64285702e-01
      6.91244245e-01 5.16483545e-01 6.31336391e-01 5.68681300e-01
      5.71428597e-01 6.07142866e-01 5.09216607e-01 6.18131876e-01
      4.49308753e-01 6.15384638e-01 3.84792626e-01 5.82417607e-01
      3.45622122e-01 5.24725258e-01 4.44700450e-01 5.10989010e-01
      5.02304137e-01 5.19230783e-01 5.64516127e-01 5.05494535e-01
      6.58986151e-01 5.10989010e-01 5.69124401e-01 5.30219793e-01
      5.06912470e-01 5.49450576e-01 4.49308753e-01 5.35714269e-01</_>
    <_>
      0. 0. 6.84931502e-03 1.68639049e-01 2.05479451e-02 3.31360936e-01
      2.96803657e-02 4.97041434e-01 5.93607314e-02 6.53846145e-01
      1.23287670e-01 7.81065106e-01 2.12328762e-01 8.81656826e-01
      3.15068483e-01 9.61538434e-01 4.33789968e-01 1. 5.59360743e-01
      9.82248545e-01 6.82648420e-01 9.23076928e-01 7.96803653e-01
      8.37278128e-01 8.81278515e-01 7.13017762e-01 9.26940620e-01
      5.62130153e-01 9.52054799e-01 3.99408281e-01 9.77168977e-01
      2.30769232e-01 1. 5.62130176e-02 9.36073065e-02 -8.87573957e-02
      1.57534242e-01 -1.47928998e-01 2.37442926e-01 -1.92307696e-01
      3.26484025e-01 -2.04142019e-01 4.10958916e-01 -1.71597630e-01
      5.41095912e-01 -1.42011836e-01 6.32420063e-01 -1.59763306e-01
      7.23744273e-01 -1.47928998e-01 8.05936098e-01 -1.00591719e-01
      8.74429226e-01 -3.84615399e-02 4.70319629e-01 -1.47928996e-02
      4.61187214e-01 9.46745574e-02 4.52054799e-01 2.01183438e-01
      4.42922384e-01 3.10650885e-01 3.60730588e-01 3.69822472e-01
      3.99543375e-01 3.96449715e-01 4.42922384e-01 4.23076928e-01
      4.90867585e-01 3.99408281e-01 5.38812757e-01 3.78698230e-01
      1.84931502e-01 -8.87573976e-03 2.46575341e-01 -4.43786979e-02
      3.12785387e-01 -3.84615399e-02 3.65296811e-01 2.07100585e-02
      3.03652972e-01 2.66272184e-02 2.39726022e-01 2.07100585e-02
      5.93607306e-01 3.84615399e-02 6.52968049e-01 -1.18343197e-02
      7.14611888e-01 -5.91715984e-03 7.69406378e-01 3.55029590e-02
      7.12328792e-01 5.62130176e-02 6.52968049e-01 5.32544367e-02
      2.48858452e-01 5.73964477e-01 3.17351609e-01 5.00000000e-01
      3.92694056e-01 4.82248515e-01 4.49771702e-01 4.97041434e-01
      5.13698637e-01 4.91124272e-01 5.93607306e-01 5.20710051e-01
      6.66666687e-01 6.09467447e-01 5.95890403e-01 6.89349115e-01
      5.11415541e-01 7.15976357e-01 4.45205480e-01 7.18934894e-01
      3.81278545e-01 7.10059166e-01 3.08219165e-01 6.68639064e-01
      2.73972601e-01 5.71005940e-01 3.90410960e-01 5.38461566e-01
      4.47488576e-01 5.44378698e-01 5.11415541e-01 5.47337294e-01
      6.41552508e-01 6.00591719e-01 5.13698637e-01 6.62721872e-01
      4.49771702e-01 6.62721872e-01 3.88127863e-01 6.50887549e-01</_>
    <_>
      0. 0. 4.07331996e-03 1.68571353e-01 1.22199589e-02 3.37142795e-01
      1.62932798e-02 5.14285684e-01 4.88798358e-02 6.85714245e-01
      1.32382885e-01 8.17142844e-01 2.46435851e-01 9.08571422e-01
      3.70672107e-01 9.77142870e-01 5.09164989e-01 1. 6.47657812e-01
      9.74285722e-01 7.63747454e-01 9.02857125e-01 8.69653761e-01
      8.14285696e-01 9.40936863e-01 6.91428542e-01 9.65376794e-01
      5.31428516e-01 9.77596760e-01 3.62857074e-01 9.91853356e-01
      1.97142780e-01 1. 2.28571445e-02 8.75763744e-02 -8.57142955e-02
      1.58859476e-01 -1.71428591e-01 2.54582494e-01 -1.94285735e-01
      3.54378819e-01 -1.85714304e-01 4.54175144e-01 -1.54285729e-01
      5.62118113e-01 -1.42857149e-01 6.59877777e-01 -1.74285725e-01
      7.57637501e-01 -1.85714304e-01 8.55397165e-01 -1.57142878e-01
      9.18533623e-01 -6.57142922e-02 5.13238311e-01 -4.28571478e-02
      5.15274942e-01 5.14285751e-02 5.17311633e-01 1.48571357e-01
      5.19348264e-01 2.48571366e-01 3.99185330e-01 3.54285657e-01
      4.54175144e-01 3.68571371e-01 5.11201620e-01 3.88571382e-01
      5.66191435e-01 3.74285668e-01 6.17107928e-01 3.59999955e-01
      2.01629326e-01 -5.71428612e-03 2.56619155e-01 -5.42857200e-02
      3.19755614e-01 -5.14285751e-02 3.74745429e-01 5.71428612e-03
      3.15682292e-01 2.00000014e-02 2.54582494e-01 2.00000014e-02
      6.29327893e-01 1.71428584e-02 6.86354399e-01 -4.28571478e-02
      7.49490857e-01 -4.28571478e-02 8.06517303e-01 2.85714306e-03
      7.53564179e-01 2.85714306e-02 6.92464352e-01 3.14285755e-02
      2.50509173e-01 5.74285686e-01 3.36048871e-01 5.11428535e-01
      4.29735243e-01 4.88571376e-01 4.98981684e-01 5.11428535e-01
      5.70264757e-01 4.94285673e-01 6.59877777e-01 5.22857130e-01
      7.41344213e-01 5.85714221e-01 6.59877777e-01 6.57142818e-01
      5.70264757e-01 6.82857096e-01 4.96945024e-01 6.88571393e-01
      4.25661922e-01 6.77142859e-01 3.34012210e-01 6.48571372e-01
      2.79022396e-01 5.77142835e-01 4.29735243e-01 5.48571408e-01
      4.98981684e-01 5.57142794e-01 5.70264757e-01 5.51428556e-01
      7.10794270e-01 5.88571370e-01 5.68228126e-01 6.14285707e-01
      4.96945024e-01 6.19999945e-01 4.25661922e-01 6.11428559e-01</_>
    <_>
      0. 0. 1.11111114e-02 1.64086685e-01 2.66666673e-02 3.28173369e-01
      4.44444455e-02 4.95356023e-01 9.11111087e-02 6.56346738e-01
      1.80000007e-01 7.86377728e-01 2.93333322e-01 8.88544917e-01
      4.11111116e-01 9.78328168e-01 5.37777781e-01 1. 6.62222207e-01
      9.62848306e-01 7.66666651e-01 8.60681117e-01 8.68888915e-01
      7.52321959e-01 9.46666658e-01 6.22291028e-01 9.82222199e-01
      4.64396298e-01 9.91111100e-01 3.03405583e-01 9.97777760e-01
      1.45510837e-01 1. -2.16718260e-02 9.77777764e-02 -1.05263159e-01
      1.77777782e-01 -1.64086685e-01 2.75555551e-01 -1.70278639e-01
      3.66666675e-01 -1.45510837e-01 4.57777768e-01 -1.08359136e-01
      5.71111083e-01 -1.08359136e-01 6.57777786e-01 -1.51702791e-01
      7.48888910e-01 -1.73374608e-01 8.42222214e-01 -1.76470593e-01
      9.20000017e-01 -1.17647059e-01 5.15555561e-01 -4.64396290e-02
      5.15555561e-01 5.26315793e-02 5.13333321e-01 1.51702791e-01
      5.13333321e-01 2.56965935e-01 4.04444456e-01 3.21981430e-01
      4.57777768e-01 3.46749216e-01 5.15555561e-01 3.68421048e-01
      5.73333323e-01 3.40557277e-01 6.24444425e-01 3.12693506e-01
      2.08888888e-01 -1.23839006e-02 2.68888891e-01 -3.71517017e-02
      3.31111103e-01 -4.64396290e-02 3.93333346e-01 -9.28792544e-03
      3.28888893e-01 0. 2.68888891e-01 3.09597515e-03 6.28888905e-01
      -1.85758509e-02 6.88888907e-01 -5.57275526e-02 7.48888910e-01
      -5.57275526e-02 8.11111093e-01 -3.09597515e-02 7.51111090e-01
      -1.54798757e-02 6.91111088e-01 -1.54798757e-02 2.73333341e-01
      5.23219824e-01 3.51111114e-01 4.70588237e-01 4.48888898e-01
      4.52012390e-01 5.15555561e-01 4.61300313e-01 5.75555563e-01
      4.45820421e-01 6.73333347e-01 4.61300313e-01 7.51111090e-01
      4.98452008e-01 6.84444427e-01 6.62538707e-01 5.91111124e-01
      7.39938080e-01 5.22222221e-01 7.55417943e-01 4.53333348e-01
      7.49226034e-01 3.53333324e-01 6.84210539e-01 2.95555562e-01
      5.29411793e-01 4.51111108e-01 5.01547992e-01 5.15555561e-01
      5.07739961e-01 5.77777803e-01 4.95356023e-01 7.26666689e-01
      5.10835886e-01 5.84444463e-01 6.47058845e-01 5.19999981e-01
      6.59442723e-01 4.53333348e-01 6.56346738e-01</_>
    <_>
      0. 0. 2.25563906e-02 1.68316811e-01 5.01253121e-02 3.30032974e-01
      7.76942372e-02 4.88448888e-01 1.20300755e-01 6.36963725e-01
      1.87969923e-01 7.62376249e-01 2.80701756e-01 8.74587476e-01
      3.95989984e-01 9.63696361e-01 5.26315808e-01 1. 6.59147859e-01
      9.66996729e-01 7.76942372e-01 8.71287167e-01 8.67167890e-01
      7.49174953e-01 9.29824591e-01 6.03960454e-01 9.57393467e-01
      4.35643613e-01 9.74937320e-01 2.67326713e-01 9.92481232e-01
      9.24092308e-02 1. -8.91088992e-02 8.52130353e-02 -3.63036282e-02
      1.47869676e-01 -1.02310218e-01 2.33082712e-01 -1.25412524e-01
      3.23308259e-01 -1.25412524e-01 4.16040093e-01 -1.05610549e-01
      5.91478705e-01 -1.25412524e-01 6.79197967e-01 -1.61716148e-01
      7.66917288e-01 -1.81518137e-01 8.54636610e-01 -1.71617150e-01
      9.24812019e-01 -1.12211213e-01 5.06265640e-01 2.31023077e-02
      5.11278212e-01 1.32013187e-01 5.16290724e-01 2.37623736e-01
      5.18796980e-01 3.49834949e-01 4.11027580e-01 3.86138678e-01
      4.63659137e-01 4.09240991e-01 5.18796980e-01 4.29042965e-01
      5.71428597e-01 4.12541300e-01 6.16541326e-01 3.92739326e-01
      1.97994992e-01 4.29042876e-02 2.55639106e-01 6.60065934e-03
      3.18295747e-01 3.30032967e-03 3.75939846e-01 4.95049469e-02
      3.18295747e-01 5.94059341e-02 2.58145362e-01 6.27062619e-02
      6.34085238e-01 3.63036282e-02 6.94235563e-01 -1.98019780e-02
      7.56892204e-01 -2.97029670e-02 8.12030077e-01 3.30032967e-03
      7.61904776e-01 3.30032967e-02 6.99248135e-01 3.96039560e-02
      3.20802003e-01 5.64356506e-01 3.80952388e-01 5.08250892e-01
      4.53634083e-01 4.98349875e-01 5.08771956e-01 5.14851511e-01
      5.66416025e-01 5.04950523e-01 6.41604006e-01 5.28052866e-01
      7.06766903e-01 5.70957124e-01 6.41604006e-01 6.86468661e-01
      5.63909769e-01 7.22772300e-01 5.06265640e-01 7.26072609e-01
      4.46115285e-01 7.12871313e-01 3.73433590e-01 6.66666687e-01
      3.43358397e-01 5.64356506e-01 4.51127827e-01 5.41254163e-01
      5.08771956e-01 5.54455519e-01 5.66416025e-01 5.51155150e-01
      6.81704283e-01 5.74257493e-01 5.63909769e-01 6.43564403e-01
      5.06265640e-01 6.46864712e-01 4.46115285e-01 6.33663416e-01</_>
    <_>
      0. 0. 1.33333337e-02 1.57534227e-01 3.46666649e-02 3.18493217e-01
      5.33333346e-02 4.72602785e-01 8.53333324e-02 6.23287737e-01
      1.43999994e-01 7.60273993e-01 2.26666674e-01 8.76712322e-01
      3.25333327e-01 9.69178081e-01 4.56000000e-01 1. 5.92000008e-01
      9.76027429e-01 7.14666665e-01 8.90410960e-01 8.18666637e-01
      7.87671268e-01 8.98666680e-01 6.57534301e-01 9.38666642e-01
      5.03424704e-01 9.57333326e-01 3.42465818e-01 9.81333315e-01
      1.78082168e-01 1. 1.02739716e-02 6.93333298e-02 -7.87671134e-02
      1.28000006e-01 -1.50684923e-01 2.13333338e-01 -1.78082168e-01
      3.03999990e-01 -1.71232864e-01 3.91999990e-01 -1.33561626e-01
      5.09333313e-01 -1.26712322e-01 6.05333328e-01 -1.54109567e-01
      7.01333344e-01 -1.67808205e-01 7.91999996e-01 -1.43835604e-01
      8.61333311e-01 -7.87671134e-02 4.50666666e-01 -4.45205420e-02
      4.48000014e-01 3.76712307e-02 4.45333332e-01 1.23287655e-01
      4.42666680e-01 2.08904088e-01 3.51999998e-01 3.18493217e-01
      3.94666672e-01 3.35616499e-01 4.42666680e-01 3.52739781e-01
      4.93333340e-01 3.35616499e-01 5.38666666e-01 3.21917892e-01
      1.65333331e-01 -2.05479432e-02 2.16000006e-01 -6.16438277e-02
      2.80000001e-01 -5.82191721e-02 3.33333343e-01 -1.02739716e-02
      2.74666667e-01 0. 2.16000006e-01 0. 5.86666644e-01 -3.42465728e-03
      6.39999986e-01 -5.47945164e-02 7.03999996e-01 -4.79452014e-02
      7.59999990e-01 -6.84931455e-03 7.06666648e-01 1.02739716e-02
      6.45333350e-01 1.02739716e-02 2.37333328e-01 5.54794550e-01
      2.98666656e-01 4.89726067e-01 3.75999987e-01 4.62328821e-01
      4.37333345e-01 4.86301422e-01 5.06666660e-01 4.69178140e-01
      6.00000024e-01 5.03424704e-01 6.82666659e-01 5.71917832e-01
      6.00000024e-01 6.64383590e-01 5.04000008e-01 7.05479503e-01
      4.34666663e-01 7.08904147e-01 3.68000001e-01 6.95205510e-01
      2.96000004e-01 6.50684953e-01 2.66666681e-01 5.54794550e-01
      3.75999987e-01 5.20547986e-01 4.37333345e-01 5.30821979e-01
      5.06666660e-01 5.27397335e-01 6.50666654e-01 5.71917832e-01
      5.04000008e-01 6.19863033e-01 4.34666663e-01 6.26712382e-01
      3.73333335e-01 6.09589100e-01</_>
    <_>
      0. 0. 1.06666666e-02 1.57718122e-01 3.20000015e-02 3.18791956e-01
      5.33333346e-02 4.76510078e-01 8.26666653e-02 6.27516806e-01
      1.41333327e-01 7.68456399e-01 2.26666674e-01 8.85906041e-01
      3.25333327e-01 9.69798684e-01 4.50666666e-01 1. 5.83999991e-01
      9.83221471e-01 7.03999996e-01 9.02684569e-01 8.10666680e-01
      8.05369139e-01 8.96000028e-01 6.81208074e-01 9.33333337e-01
      5.30201316e-01 9.57333326e-01 3.69127512e-01 9.78666663e-01
      2.08053693e-01 1. 4.36241627e-02 6.93333298e-02 -9.06040296e-02
      1.33333340e-01 -1.51006714e-01 2.18666673e-01 -1.61073819e-01
      3.06666672e-01 -1.40939593e-01 3.94666672e-01 -1.07382551e-01
      5.14666677e-01 -9.06040296e-02 6.07999980e-01 -1.27516776e-01
      7.03999996e-01 -1.51006714e-01 8.00000012e-01 -1.24161072e-01
      8.69333327e-01 -5.70469797e-02 4.53333348e-01 -4.02684547e-02
      4.48000014e-01 3.69127505e-02 4.45333332e-01 1.14093959e-01
      4.42666680e-01 1.97986573e-01 3.57333332e-01 2.91946322e-01
      4.00000006e-01 3.08724821e-01 4.45333332e-01 3.28859061e-01
      4.95999992e-01 3.12080532e-01 5.41333318e-01 2.98657715e-01
      1.73333332e-01 -2.01342274e-02 2.24000007e-01 -4.69798669e-02
      2.80000001e-01 -4.69798669e-02 3.33333343e-01 -1.34228189e-02
      2.77333319e-01 -6.71140943e-03 2.24000007e-01 -1.00671137e-02
      5.89333355e-01 -3.35570471e-03 6.42666638e-01 -3.35570462e-02
      7.01333344e-01 -3.02013420e-02 7.57333338e-01 0. 6.98666692e-01
      1.00671137e-02 6.45333350e-01 6.71140943e-03 2.50666678e-01
      5.23489952e-01 3.03999990e-01 4.46308732e-01 3.73333335e-01
      4.22818780e-01 4.37333345e-01 4.46308732e-01 5.04000008e-01
      4.32885915e-01 5.83999991e-01 4.59731549e-01 6.50666654e-01
      5.43624163e-01 5.81333339e-01 6.24161065e-01 4.98666674e-01
      6.64429545e-01 4.29333329e-01 6.71140969e-01 3.62666667e-01
      6.54362440e-01 2.98666656e-01 6.00671113e-01 2.80000001e-01
      5.20134211e-01 3.73333335e-01 4.86577183e-01 4.37333345e-01
      5.00000000e-01 5.04000008e-01 4.96644288e-01 6.18666649e-01
      5.40268481e-01 4.98666674e-01 5.73825479e-01 4.32000011e-01
      5.80536902e-01 3.68000001e-01 5.60402691e-01</_>
    <_>
      0. 0. 2.07792204e-02 1.68316826e-01 4.15584408e-02 3.30033004e-01
      6.23376630e-02 4.95049506e-01 1.09090909e-01 6.50165021e-01
      1.84415579e-01 7.85478532e-01 2.85714298e-01 8.91089082e-01
      4.05194819e-01 9.76897717e-01 5.35064936e-01 1. 6.64935052e-01
      9.66996729e-01 7.71428585e-01 8.71287107e-01 8.62337649e-01
      7.55775571e-01 9.32467520e-01 6.17161691e-01 9.63636339e-01
      4.55445558e-01 9.74025965e-01 2.87128717e-01 9.89610374e-01
      1.22112215e-01 1. -4.95049506e-02 1.01298705e-01 -3.30033004e-02
      1.74025968e-01 -8.58085826e-02 2.59740263e-01 -8.25082511e-02
      3.45454544e-01 -5.28052822e-02 4.23376620e-01 -6.60066027e-03
      5.84415555e-01 -3.30033014e-03 6.57142878e-01 -5.94059415e-02
      7.40259767e-01 -9.90099013e-02 8.31168830e-01 -1.08910888e-01
      9.06493485e-01 -6.60066009e-02 5.11688292e-01 5.61056100e-02
      5.14285743e-01 1.55115515e-01 5.14285743e-01 2.57425755e-01
      5.16883135e-01 3.56435657e-01 4.31168824e-01 4.05940592e-01
      4.75324661e-01 4.29042906e-01 5.22077918e-01 4.45544541e-01
      5.66233754e-01 4.25742567e-01 6.05194807e-01 3.96039605e-01
      2.15584412e-01 6.27062693e-02 2.70129859e-01 4.29042913e-02
      3.27272713e-01 4.29042913e-02 3.81818175e-01 7.59075880e-02
      3.22077930e-01 8.25082511e-02 2.64935076e-01 7.59075880e-02
      6.36363626e-01 6.60066009e-02 6.88311696e-01 3.30033004e-02
      7.45454550e-01 2.31023096e-02 8.05194795e-01 3.63036320e-02
      7.50649333e-01 5.61056100e-02 6.93506479e-01 6.27062693e-02
      3.37662339e-01 5.61056077e-01 3.89610380e-01 5.24752498e-01
      4.57142860e-01 5.21452129e-01 5.19480526e-01 5.37953794e-01
      5.76623380e-01 5.18151820e-01 6.46753252e-01 5.08250833e-01
      7.11688340e-01 5.31353116e-01 6.62337661e-01 6.63366318e-01
      5.92207789e-01 7.35973597e-01 5.27272701e-01 7.52475262e-01
      4.59740251e-01 7.45874584e-01 3.84415597e-01 6.83168292e-01
      3.53246748e-01 5.61056077e-01 4.57142860e-01 5.57755768e-01
      5.19480526e-01 5.70957124e-01 5.81818163e-01 5.54455459e-01
      6.93506479e-01 5.37953794e-01 5.84415555e-01 6.66666687e-01
      5.22077918e-01 6.86468661e-01 4.57142860e-01 6.73267305e-01</_>
    <_>
      0. 0. 1.80412363e-02 1.65517241e-01 4.12371121e-02 3.27586204e-01
      6.70103058e-02 4.93103445e-01 1.10824741e-01 6.48275852e-01
      1.85567006e-01 7.86206901e-01 2.86082476e-01 8.96551728e-01
      4.07216489e-01 9.82758641e-01 5.36082447e-01 1. 6.64948463e-01
      9.75862086e-01 7.75773168e-01 8.82758617e-01 8.63402069e-01
      7.68965542e-01 9.30412352e-01 6.27586186e-01 9.61340189e-01
      4.68965530e-01 9.76804137e-01 3.06896538e-01 9.92268026e-01
      1.48275867e-01 1. -1.37931034e-02 1.08247422e-01 -8.27586204e-02
      1.72680408e-01 -1.51724145e-01 2.65463918e-01 -1.62068963e-01
      3.50515455e-01 -1.34482756e-01 4.30412382e-01 -8.62068981e-02
      5.95360816e-01 -8.27586204e-02 6.72680438e-01 -1.37931034e-01
      7.57731974e-01 -1.62068963e-01 8.42783511e-01 -1.58620685e-01
      9.07216489e-01 -1.00000001e-01 5.15463889e-01 0. 5.18041253e-01
      1.06896549e-01 5.20618558e-01 2.10344821e-01 5.23195863e-01
      3.10344815e-01 4.40721661e-01 3.75862062e-01 4.81958777e-01
      4.00000006e-01 5.25773168e-01 4.13793117e-01 5.69587648e-01
      3.96551728e-01 6.10824764e-01 3.72413784e-01 2.19072163e-01
      3.10344826e-02 2.73195863e-01 1.37931034e-02 3.32474232e-01
      1.03448275e-02 3.86597931e-01 3.79310362e-02 3.29896897e-01
      5.17241396e-02 2.73195863e-01 5.17241396e-02 6.44329906e-01
      3.10344826e-02 6.98453605e-01 6.89655170e-03 7.52577305e-01
      6.89655170e-03 8.06701005e-01 1.72413792e-02 7.57731974e-01
      3.79310362e-02 7.01030910e-01 4.13793102e-02 3.76288652e-01
      5.58620691e-01 4.25257742e-01 5.13793111e-01 4.76804137e-01
      5.06896555e-01 5.28350532e-01 5.24137914e-01 5.85051537e-01
      5.03448248e-01 6.36597931e-01 5.06896555e-01 6.88144326e-01
      5.31034470e-01 6.41752601e-01 5.96551716e-01 5.90206206e-01
      6.34482741e-01 5.33505142e-01 6.44827604e-01 4.76804137e-01
      6.37931049e-01 4.25257742e-01 6.10344827e-01 3.96907210e-01
      5.55172443e-01 4.76804137e-01 5.55172443e-01 5.30927837e-01
      5.65517247e-01 5.85051537e-01 5.51724136e-01 6.70103073e-01
      5.37931025e-01 5.87628841e-01 5.55172443e-01 5.30927837e-01
      5.72413802e-01 4.76804137e-01 5.62068939e-01</_>
    <_>
      0. 0. 1.70731712e-02 1.75257713e-01 4.14634161e-02 3.43642682e-01
      7.31707290e-02 5.12027562e-01 1.21951222e-01 6.52921021e-01
      1.92682922e-01 7.83505201e-01 2.82926828e-01 8.90034378e-01
      3.87804866e-01 9.82817888e-01 5.04878044e-01 1. 6.26829267e-01
      9.72508609e-01 7.34146357e-01 8.83161545e-01 8.29268277e-01
      7.76632309e-01 9.04878020e-01 6.46048129e-01 9.53658521e-01
      4.94845420e-01 9.78048801e-01 3.26460540e-01 9.87804890e-01
      1.51202738e-01 1. -2.40549799e-02 9.02439058e-02 -1.44329876e-01
      1.43902436e-01 -2.43986234e-01 2.34146342e-01 -2.85223335e-01
      3.31707329e-01 -2.78350472e-01 4.21951234e-01 -2.33676955e-01
      5.58536589e-01 -2.26804093e-01 6.43902421e-01 -2.74914056e-01
      7.41463423e-01 -2.92096198e-01 8.36585343e-01 -2.61168361e-01
      8.99999976e-01 -1.75257713e-01 4.87804890e-01 -1.40893459e-01
      4.87804890e-01 -3.09278313e-02 4.87804890e-01 7.90377930e-02
      4.90243912e-01 1.92439839e-01 3.97560984e-01 2.47422650e-01
      4.39024389e-01 2.74914056e-01 4.90243912e-01 2.98969150e-01
      5.43902457e-01 2.74914056e-01 5.92682898e-01 2.47422650e-01
      2.07317069e-01 -8.93470719e-02 2.56097555e-01 -1.16838478e-01
      3.12195122e-01 -1.20274901e-01 3.63414645e-01 -9.96563435e-02
      3.12195122e-01 -9.27834958e-02 2.58536577e-01 -8.93470719e-02
      6.24390244e-01 -9.96563435e-02 6.78048790e-01 -1.23711325e-01
      7.34146357e-01 -1.13402046e-01 7.87804902e-01 -8.59106407e-02
      7.31707335e-01 -8.59106407e-02 6.78048790e-01 -9.27834958e-02
      3.36585373e-01 4.94845420e-01 3.82926822e-01 4.29553330e-01
      4.39024389e-01 4.12371188e-01 4.92682934e-01 4.29553330e-01
      5.43902457e-01 4.15807635e-01 6.07317090e-01 4.29553330e-01
      6.56097531e-01 4.91408974e-01 6.07317090e-01 5.63573956e-01
      5.46341479e-01 6.04811013e-01 4.92682934e-01 6.11683905e-01
      4.39024389e-01 6.01374626e-01 3.80487800e-01 5.60137510e-01
      3.56097549e-01 4.81099725e-01 4.39024389e-01 4.53608304e-01
      4.92682934e-01 4.67354000e-01 5.43902457e-01 4.50171888e-01
      6.36585355e-01 4.81099725e-01 5.41463435e-01 5.15463948e-01
      4.92682934e-01 5.32646120e-01 4.39024389e-01 5.12027562e-01</_>
    <_>
      0. 0. 8.52272753e-03 1.66666642e-01 1.70454551e-02 3.33333403e-01
      3.12500000e-02 5.00000060e-01 7.95454532e-02 6.52482331e-01
      1.64772734e-01 7.83687949e-01 2.81250000e-01 8.86524856e-01
      3.94886374e-01 9.71631229e-01 5.19886374e-01 1. 6.42045438e-01
      9.75177288e-01 7.47159064e-01 8.82978737e-01 8.52272749e-01
      7.83687949e-01 9.26136374e-01 6.56028390e-01 9.57386374e-01
      5.10638356e-01 9.68750000e-01 3.51063907e-01 9.85795438e-01
      1.95035443e-01 1. 3.90070863e-02 1.42045453e-01 -5.31914830e-02
      2.18750000e-01 -1.27659559e-01 3.15340906e-01 -1.56028345e-01
      4.17613626e-01 -1.59574449e-01 5.17045438e-01 -1.41843960e-01
      6.13636374e-01 -1.34751752e-01 7.10227251e-01 -1.48936152e-01
      8.09659064e-01 -1.27659559e-01 8.97727251e-01 -8.51063728e-02
      9.46022749e-01 1.06382966e-02 5.65340936e-01 -2.83687916e-02
      5.65340936e-01 6.73758760e-02 5.65340936e-01 1.66666642e-01
      5.65340936e-01 2.69503623e-01 4.26136374e-01 3.19149017e-01
      4.85795468e-01 3.43971699e-01 5.48295438e-01 3.75886589e-01
      6.10795438e-01 3.58156085e-01 6.67613626e-01 3.36879492e-01
      2.52840906e-01 -3.54609895e-03 3.06818187e-01 -4.25531864e-02
      3.69318187e-01 -4.60992865e-02 4.23295468e-01 3.54609895e-03
      3.63636374e-01 1.06382966e-02 3.03977281e-01 1.06382966e-02
      6.73295438e-01 2.12765932e-02 7.32954562e-01 -2.12765932e-02
      7.95454562e-01 -1.41843958e-02 8.46590936e-01 3.54609899e-02
      7.92613626e-01 4.60992865e-02 7.30113626e-01 3.90070863e-02
      2.95454532e-01 5.07092237e-01 3.77840906e-01 4.78723466e-01
      4.65909094e-01 4.71631259e-01 5.34090936e-01 4.96453941e-01
      5.99431813e-01 4.82269555e-01 6.84659064e-01 5.10638356e-01
      7.55681813e-01 5.42553246e-01 6.84659064e-01 6.66666687e-01
      5.99431813e-01 7.16312110e-01 5.31250000e-01 7.23404288e-01
      4.57386374e-01 7.05673814e-01 3.69318187e-01 6.38297915e-01
      3.23863626e-01 5.17730534e-01 4.65909094e-01 5.21276653e-01
      5.34090936e-01 5.39007127e-01 5.99431813e-01 5.31914949e-01
      7.27272749e-01 5.49645424e-01 5.99431813e-01 6.24113500e-01
      5.31250000e-01 6.31205738e-01 4.63068187e-01 6.13475204e-01</_>
    <_>
      0. 0. 2.63852254e-03 1.78707227e-01 2.11081803e-02 3.53612155e-01
      4.74934019e-02 5.20912528e-01 9.23482850e-02 6.84410632e-01
      1.76780999e-01 8.17490518e-01 2.92875975e-01 9.04942989e-01
      4.16886538e-01 9.84790862e-01 5.46174169e-01 1. 6.72823191e-01
      9.65779483e-01 7.81002641e-01 8.66920173e-01 8.86543512e-01
      7.64258564e-01 9.63060677e-01 6.12167299e-01 9.94722962e-01
      4.29657787e-01 1. 2.35741451e-01 9.97361481e-01 4.56273779e-02
      9.89445925e-01 -1.36882126e-01 5.80474921e-02 -2.24334598e-01
      1.02902375e-01 -3.30798477e-01 1.92612141e-01 -3.76425862e-01
      2.84960419e-01 -3.68821293e-01 3.72031659e-01 -3.30798477e-01
      5.25065958e-01 -3.65019023e-01 6.14775717e-01 -4.22053218e-01
      7.09762514e-01 -4.41064626e-01 8.07387888e-01 -4.14448678e-01
      8.75989437e-01 -3.26996207e-01 4.59102899e-01 -2.05323189e-01
      4.64379936e-01 -7.60456249e-02 4.69657004e-01 5.32319397e-02
      4.74934042e-01 1.86311781e-01 3.93139839e-01 2.96577960e-01
      4.40633237e-01 3.07984799e-01 4.90765184e-01 3.19391638e-01
      5.43535650e-01 2.92775661e-01 5.93667567e-01 2.69961983e-01
      1.53034300e-01 -1.21673003e-01 2.03166232e-01 -1.82509512e-01
      2.63852239e-01 -1.93916351e-01 3.29815298e-01 -1.40684411e-01
      2.66490757e-01 -1.17870726e-01 2.08443269e-01 -1.06463879e-01
      6.14775717e-01 -1.71102658e-01 6.70184672e-01 -2.35741451e-01
      7.33509243e-01 -2.43346006e-01 7.91556716e-01 -1.93916351e-01
      7.36147761e-01 -1.67300373e-01 6.78100288e-01 -1.63498104e-01
      2.84960419e-01 5.66539943e-01 3.50923479e-01 4.71482903e-01
      4.32717681e-01 4.33460087e-01 5.03957808e-01 4.44866925e-01
      5.72559357e-01 4.18250948e-01 6.72823191e-01 4.33460087e-01
      7.59894431e-01 5.05703449e-01 6.86015844e-01 6.04562759e-01
      5.93667567e-01 6.57794654e-01 5.19788921e-01 6.73003793e-01
      4.45910305e-01 6.73003793e-01 3.58839065e-01 6.42585576e-01
      3.08707118e-01 5.58935344e-01 4.37994719e-01 4.90494311e-01
      5.09234846e-01 4.90494311e-01 5.77836394e-01 4.75285172e-01
      7.36147761e-01 5.05703449e-01 5.83113432e-01 5.74144483e-01
      5.11873364e-01 5.89353621e-01 4.40633237e-01 5.89353621e-01</_>
    <_>
      0. 0. 5.98802418e-03 1.90243959e-01 1.99600793e-02 3.82926881e-01
      6.38722554e-02 5.60975671e-01 1.47704586e-01 7.09756136e-01
      2.63473064e-01 8.34146380e-01 3.87225538e-01 9.29268301e-01
      5.16966045e-01 1. 6.48702621e-01 9.95121956e-01 7.50499010e-01
      9.36585367e-01 8.12375247e-01 8.21951210e-01 8.74251485e-01
      7.07317114e-01 9.34131742e-01 5.85365891e-01 9.80039895e-01
      4.48780537e-01 1. 3.07317138e-01 9.92015958e-01 1.60975590e-01
      9.70059872e-01 1.21951215e-02 2.31536925e-01 -6.09756038e-02
      3.05389225e-01 -1.29268289e-01 4.01197612e-01 -1.58536568e-01
      4.99002010e-01 -1.56097546e-01 5.90818346e-01 -1.24390237e-01
      7.00598776e-01 -1.31707311e-01 7.60479033e-01 -1.68292671e-01
      8.26347291e-01 -1.82926819e-01 8.90219569e-01 -1.87804863e-01
      9.32135701e-01 -1.41463399e-01 6.54690623e-01 5.12195081e-02
      6.68662667e-01 1.46341458e-01 6.86626732e-01 2.41463467e-01
      7.06586838e-01 3.41463476e-01 5.64870238e-01 4.36585397e-01
      6.26746535e-01 4.51219559e-01 6.90618753e-01 4.65853691e-01
      7.40518987e-01 4.41463470e-01 7.84431159e-01 4.09756154e-01
      3.13373268e-01 7.80487731e-02 3.73253495e-01 3.90243866e-02
      4.41117764e-01 3.90243866e-02 5.04990041e-01 9.26829204e-02
      4.41117764e-01 1.14634141e-01 3.69261473e-01 1.17073163e-01
      7.32534945e-01 7.80487731e-02 7.84431159e-01 1.46341454e-02
      8.46307397e-01 4.87804832e-03 8.96207571e-01 3.41463387e-02
      8.56287420e-01 7.80487731e-02 7.94411182e-01 8.53658468e-02
      4.23153698e-01 6.31707370e-01 5.22954106e-01 5.75609803e-01
      6.22754514e-01 5.46341479e-01 6.82634711e-01 5.56097567e-01
      7.36526966e-01 5.31707346e-01 7.94411182e-01 5.43902457e-01
      8.32335353e-01 5.87804914e-01 7.96407163e-01 7.26829290e-01
      7.40518987e-01 7.95121968e-01 6.78642690e-01 8.17073166e-01
      6.12774432e-01 8.17073166e-01 5.12974024e-01 7.73170769e-01
      4.57085818e-01 6.31707370e-01 6.20758474e-01 6.14634156e-01
      6.80638731e-01 6.14634156e-01 7.36526966e-01 6.02439046e-01
      8.04391205e-01 5.97561002e-01 7.36526966e-01 6.90243900e-01
      6.78642690e-01 7.12195158e-01 6.14770472e-01 7.12195158e-01</_>
    <_>
      4.08163248e-03 0. 0. 1.57068074e-01 2.04081624e-03 3.08900476e-01
      0. 4.71204132e-01 1.63265299e-02 6.38743401e-01 7.75510222e-02
      7.82722473e-01 1.79591835e-01 8.90052319e-01 3.08163255e-01
      9.71204162e-01 4.57142860e-01 1. 6.08163238e-01 9.79057610e-01
      7.40816355e-01 9.10994768e-01 8.53061199e-01 8.11518312e-01
      9.22448993e-01 6.75392628e-01 9.48979616e-01 5.18324554e-01
      9.69387770e-01 3.66492093e-01 9.89795923e-01 2.14659706e-01 1.
      5.23560233e-02 1.18367344e-01 -6.54450282e-02 1.91836730e-01
      -1.15183257e-01 2.79591829e-01 -1.17801055e-01 3.65306109e-01
      -9.94764492e-02 4.48979586e-01 -7.59162381e-02 5.42857170e-01
      -7.85340369e-02 6.34693861e-01 -9.68586430e-02 7.24489808e-01
      -9.68586430e-02 8.12244892e-01 -7.85340369e-02 8.77551019e-01
      -2.09424105e-02 4.95918363e-01 1.57068074e-02 4.93877560e-01
      1.12565450e-01 4.93877560e-01 2.12041900e-01 4.91836727e-01
      3.16753864e-01 3.89795929e-01 4.03141320e-01 4.34693873e-01
      4.24083710e-01 4.81632650e-01 4.39790517e-01 5.30612230e-01
      4.29319322e-01 5.73469400e-01 4.13612515e-01 1.97959185e-01
      1.57068074e-02 2.55102038e-01 -2.09424105e-02 3.20408165e-01
      -1.04712052e-02 3.71428579e-01 5.49738258e-02 3.10204089e-01
      5.23560233e-02 2.48979598e-01 4.45026197e-02 6.08163238e-01
      6.54450282e-02 6.67346954e-01 5.23560261e-03 7.30612218e-01
      1.30890058e-02 7.83673465e-01 5.75916283e-02 7.30612218e-01
      7.32984319e-02 6.69387758e-01 7.06806332e-02 2.20408157e-01
      5.78534007e-01 3.08163255e-01 5.41884780e-01 4.02040809e-01
      5.28795779e-01 4.67346936e-01 5.41884780e-01 5.32653034e-01
      5.28795779e-01 6.24489784e-01 5.49738169e-01 7.02040792e-01
      5.83769619e-01 6.18367374e-01 6.85863853e-01 5.28571427e-01
      7.30366468e-01 4.59183663e-01 7.43455470e-01 3.91836733e-01
      7.32984245e-01 2.97959179e-01 6.88481629e-01 2.46938780e-01
      5.89005232e-01 4.00000006e-01 5.86387396e-01 4.65306133e-01
      5.94240785e-01 5.30612230e-01 5.86387396e-01 6.77551031e-01
      5.94240785e-01 5.30612230e-01 6.59685850e-01 4.61224496e-01
      6.70157015e-01 3.95918369e-01 6.62303627e-01</_>
    <_>
      0. 0. 2.79329605e-02 1.80428132e-01 6.70391098e-02 3.57798159e-01
      1.08007446e-01 5.32110095e-01 1.56424582e-01 7.06422031e-01
      2.38361269e-01 8.50152910e-01 3.46368700e-01 9.48012233e-01
      4.76722538e-01 1. 6.20111704e-01 9.81651366e-01 7.56052136e-01
      9.38837945e-01 8.52886379e-01 8.34862411e-01 9.36685264e-01
      7.00305820e-01 9.86964643e-01 5.25993884e-01 1. 3.24159026e-01
      9.96275604e-01 1.34556577e-01 9.92551208e-01 -5.19877672e-02
      9.79515851e-01 -2.44648322e-01 7.44878948e-02 -1.22324161e-01
      1.22905031e-01 -2.53822625e-01 2.12290496e-01 -3.08868498e-01
      3.07262570e-01 -2.96636075e-01 3.94785851e-01 -2.47706428e-01
      5.34450650e-01 -2.90519863e-01 6.16387308e-01 -3.76146793e-01
      7.07634985e-01 -4.28134561e-01 8.00744891e-01 -4.15902138e-01
      8.64059567e-01 -3.14984709e-01 4.72998142e-01 -2.07951069e-01
      4.86033529e-01 -9.48012248e-02 4.99068916e-01 2.14067269e-02
      5.15828669e-01 1.37614682e-01 4.22718823e-01 2.38532111e-01
      4.76722538e-01 2.53822625e-01 5.34450650e-01 2.66055048e-01
      5.86592197e-01 2.23241597e-01 6.35009289e-01 1.80428132e-01
      1.76908746e-01 -7.64525980e-02 2.29050279e-01 -1.19266056e-01
      2.86778390e-01 -1.40672788e-01 3.53817493e-01 -1.25382259e-01
      2.96089381e-01 -9.78593305e-02 2.38361269e-01 -7.95107037e-02
      6.10800743e-01 -1.86544344e-01 6.66666687e-01 -2.26299688e-01
      7.24394798e-01 -2.32415900e-01 7.78398514e-01 -2.17125386e-01
      7.31843591e-01 -1.98776752e-01 6.74115479e-01 -1.89602450e-01
      3.51955295e-01 4.83180434e-01 4.17132229e-01 4.12844032e-01
      4.91620123e-01 3.73088688e-01 5.53072631e-01 3.85321110e-01
      6.12662971e-01 3.45565736e-01 6.90875232e-01 3.42507631e-01
      7.59776533e-01 3.76146793e-01 7.07634985e-01 4.83180434e-01
      6.36871517e-01 5.56574941e-01 5.73556781e-01 5.84097862e-01
      5.10242105e-01 5.93272150e-01 4.28305387e-01 5.71865439e-01
      3.79888266e-01 4.83180434e-01 4.97206718e-01 4.61773694e-01
      5.58659196e-01 4.58715588e-01 6.20111704e-01 4.31192666e-01
      7.33705759e-01 3.88379216e-01 6.23836100e-01 4.34250772e-01
      5.62383592e-01 4.64831799e-01 5.00931084e-01 4.67889905e-01</_>
    <_>
      0. 0. 1.08225113e-02 1.71091452e-01 2.16450226e-02 3.36283177e-01
      4.32900451e-02 5.07374644e-01 8.65800902e-02 6.63716793e-01
      1.58008665e-01 7.99410045e-01 2.59740263e-01 9.05604720e-01
      3.80952388e-01 9.79351044e-01 5.21645010e-01 1. 6.60173178e-01
      9.55752194e-01 7.83549786e-01 8.70206475e-01 8.89610410e-01
      7.52212405e-01 9.52380955e-01 6.04719758e-01 9.89177465e-01
      4.42477882e-01 1. 2.74336278e-01 9.97835517e-01 1.00294985e-01
      9.91342008e-01 -7.37463161e-02 4.97835502e-02 -1.44542769e-01
      9.95671004e-02 -2.47787610e-01 1.88311681e-01 -2.83185840e-01
      2.85714298e-01 -2.74336278e-01 3.85281384e-01 -2.35988200e-01
      5.21645010e-01 -2.41887912e-01 6.19047642e-01 -2.94985265e-01
      7.16450214e-01 -3.12684357e-01 8.16017330e-01 -2.86135703e-01
      8.85281384e-01 -1.97640121e-01 4.56709951e-01 -1.12094395e-01
      4.58874464e-01 -2.06489675e-02 4.61038947e-01 7.07964599e-02
      4.61038947e-01 1.68141589e-01 3.89610380e-01 3.09734523e-01
      4.28571433e-01 3.24483782e-01 4.76190478e-01 3.33333343e-01
      5.19480526e-01 3.15634221e-01 5.62770545e-01 2.94985265e-01
      1.53679654e-01 -5.30973449e-02 2.03463197e-01 -1.17994100e-01
      2.72727281e-01 -1.20943956e-01 3.41991335e-01 -4.42477874e-02
      2.72727281e-01 -1.76991150e-02 2.01298699e-01 -1.17994100e-02
      5.95238090e-01 -6.48967549e-02 6.58008635e-01 -1.47492632e-01
      7.31601715e-01 -1.53392330e-01 7.87878811e-01 -9.43952799e-02
      7.35930741e-01 -5.01474924e-02 6.64502144e-01 -4.71976399e-02
      2.74891764e-01 5.57522118e-01 3.54978353e-01 5.07374644e-01
      4.37229425e-01 4.80825961e-01 4.91341978e-01 4.89675522e-01
      5.41125536e-01 4.74926263e-01 6.32034659e-01 4.89675522e-01
      7.29437232e-01 5.13274312e-01 6.42857134e-01 6.34218276e-01
      5.56277037e-01 6.78466082e-01 5.02164483e-01 6.90265477e-01
      4.43722934e-01 6.90265477e-01 3.61471862e-01 6.57817125e-01
      3.05194795e-01 5.63421845e-01 4.39393938e-01 5.28023601e-01
      4.93506491e-01 5.30973434e-01 5.45454562e-01 5.19174039e-01
      7.01298714e-01 5.22123873e-01 5.49783528e-01 6.10619485e-01
      4.95671004e-01 6.22418880e-01 4.41558450e-01 6.16519153e-01</_>
    <_>
      0. 0. 8.84955749e-03 1.66666582e-01 1.99115053e-02 3.30188602e-01
      3.53982300e-02 4.96855289e-01 7.30088502e-02 6.60377324e-01
      1.41592920e-01 8.05031419e-01 2.36725658e-01 9.21383619e-01
      3.56194705e-01 9.93710697e-01 4.97787625e-01 1. 6.39380515e-01
      9.84276712e-01 7.58849561e-01 9.21383619e-01 8.58407080e-01
      8.17610025e-01 9.26991165e-01 6.79245234e-01 9.60177004e-01
      5.18867850e-01 9.77876127e-01 3.52201194e-01 9.88938034e-01
      1.82389855e-01 1. 0. 5.97345121e-02 -1.06918246e-01 1.21681415e-01
      -1.91823915e-01 2.14601770e-01 -2.13836491e-01 3.09734523e-01
      -1.94968566e-01 3.98230076e-01 -1.57232717e-01 5.33185840e-01
      -1.76100641e-01 6.26106203e-01 -2.23270461e-01 7.25663722e-01
      -2.48427704e-01 8.25221241e-01 -2.23270461e-01 8.96017671e-01
      -1.41509444e-01 4.64601755e-01 -1.03773594e-01 4.62389380e-01
      3.14465445e-03 4.60177004e-01 1.10062808e-01 4.57964599e-01
      2.23270372e-01 3.67256641e-01 2.98742086e-01 4.13716823e-01
      3.23899299e-01 4.66814160e-01 3.45911890e-01 5.24336278e-01
      3.20754647e-01 5.70796490e-01 2.98742086e-01 1.68141589e-01
      -4.08805087e-02 2.23451331e-01 -6.60377443e-02 2.78761059e-01
      -7.23270476e-02 3.42920363e-01 -5.03144711e-02 2.83185840e-01
      -4.08805087e-02 2.27876112e-01 -3.45911980e-02 6.06194675e-01
      -5.66037782e-02 6.70354009e-01 -8.49056691e-02 7.27876127e-01
      -8.17610174e-02 7.85398245e-01 -5.66037782e-02 7.30088472e-01
      -4.71698157e-02 6.70354009e-01 -5.03144711e-02 2.61061937e-01
      5.18867850e-01 3.40707958e-01 4.74842727e-01 4.15929198e-01
      4.62264091e-01 4.66814160e-01 4.74842727e-01 5.22123873e-01
      4.59119439e-01 6.03982329e-01 4.74842727e-01 6.90265477e-01
      5.18867850e-01 6.03982329e-01 5.78616321e-01 5.24336278e-01
      6.00628912e-01 4.66814160e-01 6.03773534e-01 4.13716823e-01
      6.03773534e-01 3.38495582e-01 5.78616321e-01 2.89822996e-01
      5.22012532e-01 4.15929198e-01 5.18867850e-01 4.69026536e-01
      5.25157213e-01 5.24336278e-01 5.12578547e-01 6.57079637e-01
      5.22012532e-01 5.19911528e-01 5.22012532e-01 4.64601755e-01
      5.31446517e-01 4.13716823e-01 5.25157213e-01</_>
    <_>
      0. 0. 4.35729837e-03 1.64739877e-01 1.52505450e-02 3.23699415e-01
      2.39651408e-02 4.85549122e-01 5.88235296e-02 6.41618490e-01
      1.26361653e-01 7.77456641e-01 2.26579517e-01 8.75722528e-01
      3.39869291e-01 9.59537566e-01 4.64052290e-01 1. 5.90413928e-01
      9.82658982e-01 7.10239649e-01 9.10404623e-01 8.12636137e-01
      8.17919075e-01 8.84531617e-01 6.87861264e-01 9.28104579e-01
      5.37572265e-01 9.56427038e-01 3.81502897e-01 9.82570827e-01
      2.19653174e-01 1. 4.91329469e-02 9.58605632e-02 -9.24855471e-02
      1.74291939e-01 -1.44508675e-01 2.70152509e-01 -1.35838151e-01
      3.61655772e-01 -1.06936418e-01 4.46623087e-01 -5.78034669e-02
      5.77342033e-01 -4.91329469e-02 6.64488018e-01 -9.53757241e-02
      7.58169949e-01 -1.12716764e-01 8.51851881e-01 -1.09826587e-01
      9.23747301e-01 -4.62427735e-02 5.07625282e-01 2.60115601e-02
      5.03268003e-01 1.12716764e-01 4.98910666e-01 2.05202311e-01
      4.94553387e-01 2.97687858e-01 3.79084975e-01 3.72832358e-01
      4.31372553e-01 3.95953745e-01 4.88017440e-01 4.16184962e-01
      5.44662297e-01 4.04624283e-01 5.96949875e-01 3.87283236e-01
      1.96078435e-01 2.60115601e-02 2.54901975e-01 -2.89017335e-03
      3.15904140e-01 0. 3.72549027e-01 4.91329469e-02 3.09368193e-01
      5.49132936e-02 2.48366013e-01 4.91329469e-02 6.36165559e-01
      6.35838136e-02 6.97167754e-01 2.02312134e-02 7.60348558e-01
      2.31213868e-02 8.14814806e-01 6.06936403e-02 7.60348558e-01
      7.80346841e-02 6.97167754e-01 7.51445070e-02 2.35294119e-01
      5.63583791e-01 3.24618727e-01 5.26011586e-01 4.13943350e-01
      5.11560678e-01 4.74945545e-01 5.26011586e-01 5.38126349e-01
      5.20231187e-01 6.25272334e-01 5.49132943e-01 7.08060980e-01
      5.95375717e-01 6.25272334e-01 7.08092511e-01 5.35947740e-01
      7.39884377e-01 4.70588237e-01 7.39884377e-01 4.05228764e-01
      7.25433528e-01 3.15904140e-01 6.79190755e-01 2.65795201e-01
      5.66473961e-01 4.11764711e-01 5.43352604e-01 4.72766876e-01
      5.54913282e-01 5.35947740e-01 5.54913282e-01 6.77559912e-01
      5.98265886e-01 5.35947740e-01 6.61849737e-01 4.72766876e-01
      6.58959508e-01 4.09586042e-01 6.47398829e-01</_>
    <_>
      0. 0. 6.62251655e-03 1.68141589e-01 2.64900662e-02 3.30383480e-01
      5.29801324e-02 4.92625356e-01 9.05077234e-02 6.48967564e-01
      1.56732887e-01 7.90560484e-01 2.60485649e-01 8.96755159e-01
      3.86313468e-01 9.76401150e-01 5.27593791e-01 1. 6.62251651e-01
      9.52802360e-01 7.77041972e-01 8.52507353e-01 8.74172211e-01
      7.37463117e-01 9.33774829e-01 5.98820031e-01 9.60264921e-01
      4.45427716e-01 9.77924943e-01 2.86135703e-01 9.95584965e-01
      1.26843661e-01 1. -3.83480825e-02 9.93377492e-02 -8.55457261e-02
      1.63355410e-01 -1.76991150e-01 2.58278131e-01 -2.21238941e-01
      3.62030894e-01 -2.27138638e-01 4.63576168e-01 -2.00589970e-01
      5.62913895e-01 -1.94690272e-01 6.55629158e-01 -2.27138638e-01
      7.52759397e-01 -2.35988200e-01 8.45474601e-01 -2.00589970e-01
      9.11699772e-01 -1.20943956e-01 5.16556263e-01 -7.37463161e-02
      5.23178816e-01 3.24483775e-02 5.27593791e-01 1.38643071e-01
      5.34216344e-01 2.47787610e-01 4.28256065e-01 3.53982300e-01
      4.76821184e-01 3.71681422e-01 5.27593791e-01 3.86430681e-01
      5.76158941e-01 3.62831861e-01 6.18101537e-01 3.33333343e-01
      2.11920530e-01 -1.76991150e-02 2.69315660e-01 -5.89970499e-02
      3.28918308e-01 -6.19469024e-02 3.95143479e-01 -2.06489675e-02
      3.31125826e-01 -5.89970499e-03 2.71523178e-01 0. 6.26931548e-01
      -2.35988200e-02 6.88741744e-01 -7.37463161e-02 7.46136844e-01
      -7.07964599e-02 8.03532004e-01 -3.24483775e-02 7.48344362e-01
      -1.47492625e-02 6.88741744e-01 -1.47492625e-02 3.06843281e-01
      5.78171074e-01 3.84105951e-01 5.10324478e-01 4.65783656e-01
      4.77876097e-01 5.20971298e-01 4.86725658e-01 5.80573976e-01
      4.69026536e-01 6.53421640e-01 4.86725658e-01 7.19646811e-01
