<?xml version="1.0"?>
<opencv_storage>
<opencv_ml_svm>
  <format>3</format>
  <svmType>C_SVC</svmType>
  <kernel>
    <type>LINEAR</type></kernel>
  <C>1.</C>
  <term_criteria><iterations>100</iterations></term_criteria>
  <var_count>136</var_count>
  <class_count>2</class_count>
  <class_labels type_id="opencv-matrix">
    <rows>2</rows>
    <cols>1</cols>
    <dt>i</dt>
    <data>
      -1082130432 1065353216</data></class_labels>
  <sv_total>1</sv_total>
  <support_vectors>
    <_>
      -1.04042534e-02 0. -3.30599509e-02 1.04103491e-01 -2.56585665e-02
      2.08242998e-01 3.95493535e-03 2.09550977e-01 4.62569073e-02
      1.53652340e-01 -1.04038054e-02 4.51653153e-02 -4.29697149e-02
      -1.90815441e-02 4.27579544e-02 -1.00694329e-01 4.60047536e-02
      -4.75708246e-02 6.57133684e-02 2.05881279e-02 1.32799655e-01
      1.68597445e-01 9.51394364e-02 1.78202763e-01 -6.42251968e-02
      2.14165941e-01 -9.22001004e-02 2.11768523e-01 -5.03264517e-02
      1.37389973e-01 -6.43643960e-02 1.24565940e-02 -1.25984192e-01
      -2.45980978e-01 1.43659025e-01 3.76081288e-01 -4.08523530e-03
      2.08806917e-01 -6.68971520e-03 5.81354760e-02 4.10895869e-02
      2.43801512e-02 3.65407802e-02 -5.95794804e-02 -8.29442367e-02
      -3.82818021e-02 -1.05464943e-01 -1.19245453e-02 -8.58501643e-02
      -5.26089296e-02 -1.06491797e-01 1.91683263e-01 -2.15359658e-01
      3.66511762e-01 -9.05432254e-02 -2.74407923e-01 -7.51241818e-02
      -2.66040359e-02 -5.31528927e-02 2.90138245e-01 -5.37944250e-02
      6.12800181e-01 -3.32939237e-01 -8.89567137e-02 -2.10467800e-01
      2.85111237e-02 -8.55078548e-03 1.10519484e-01 1.74995631e-01
      -1.66665800e-02 3.14929664e-01 -2.12205395e-01 2.39938535e-02
      4.31839190e-02 5.62764294e-02 1.38343304e-01 -2.04920564e-02
      7.84173757e-02 4.20228690e-02 -5.56142926e-02 2.74542347e-03
      -1.64589182e-01 7.48172253e-02 -1.41446635e-01 -1.40305057e-01
      -7.75885060e-02 -4.67282943e-02 4.44623157e-02 -1.19911879e-01
      1.08318873e-01 -1.25446618e-01 -2.94866953e-02 -2.17363626e-01
      -1.57115951e-01 -1.32959142e-01 -2.07107723e-01 4.11301851e-02
      1.41540080e-01 -1.20800436e-01 -8.49253535e-02 -2.58973558e-02
      5.70576414e-02 -8.82920716e-03 -3.80432829e-02 2.57824920e-02
      6.20664284e-03 1.26616478e-01 -1.84683725e-01 7.60568306e-02
      2.19896138e-01 1.18252166e-01 5.72268255e-02 2.21897047e-02
      -6.83491454e-02 2.89187636e-02 -1.08706340e-01 -1.05715347e-02
      -9.65049490e-02 -4.80655134e-02 3.76575254e-02 1.41607889e-03
      3.86044271e-02 -3.96306813e-03 -2.34965920e-01 7.47161312e-03
      -2.32339785e-01 1.71723273e-02 -2.52440780e-01 4.48355190e-02
      1.02003850e-01 2.49775667e-02 2.58454323e-01 2.40387786e-02
      2.82060117e-01 -1.55400932e-02 2.45161504e-01</_></support_vectors>
  <uncompressed_sv_total>167</uncompressed_sv_total>
  <uncompressed_support_vectors>
    <_>
      0. 0. 0. 1.68478265e-01 1.24740126e-02 3.26086968e-01
      3.32640335e-02 4.78260875e-01 6.65280670e-02 6.27717376e-01
      1.33056134e-01 7.66304374e-01 2.22453222e-01 8.85869563e-01
      3.34719330e-01 9.75543499e-01 4.63617474e-01 1. 5.94594598e-01
      9.83695626e-01 7.11018682e-01 9.13043499e-01 8.17047834e-01
      8.04347813e-01 8.96049917e-01 6.71195626e-01 9.35550928e-01
      5.13586938e-01 9.62577939e-01 3.47826093e-01 9.85446990e-01
      1.82065219e-01 1. 8.15217383e-03 3.95010412e-02 -1.84782609e-01
      1.08108111e-01 -2.55434781e-01 2.01663196e-01 -2.60869563e-01
      2.95218289e-01 -2.44565219e-01 3.88773382e-01 -2.11956516e-01
      5.44698536e-01 -2.14673907e-01 6.50727630e-01 -2.44565219e-01
      7.56756783e-01 -2.60869563e-01 8.60706866e-01 -2.39130437e-01
      9.37629938e-01 -1.68478265e-01 4.69854474e-01 -9.23913047e-02
      4.69854474e-01 4.07608710e-02 4.69854474e-01 1.73913047e-01
      4.69854474e-01 3.09782594e-01 3.67983371e-01 3.96739125e-01
      4.17879432e-01 4.15760875e-01 4.69854474e-01 4.34782594e-01
      5.28066516e-01 4.18478251e-01 5.80041587e-01 3.96739125e-01
      1.26819134e-01 -6.25000000e-02 1.89189196e-01 -1.14130437e-01
      2.61954248e-01 -1.11413047e-01 3.30561340e-01 -4.61956523e-02
      2.61954248e-01 -3.26086953e-02 1.89189196e-01 -2.98913047e-02
      6.15384638e-01 -4.61956523e-02 6.88149691e-01 -1.14130437e-01
      7.60914743e-01 -1.14130437e-01 8.21205795e-01 -6.25000000e-02
      7.65072763e-01 -2.98913047e-02 6.92307711e-01 -3.26086953e-02
      2.70270258e-01 6.11413062e-01 3.49272341e-01 5.62500000e-01
      4.17879432e-01 5.38043499e-01 4.71933484e-01 5.59782624e-01
      5.28066516e-01 5.40760875e-01 6.00831628e-01 5.67934811e-01
      6.88149691e-01 6.14130437e-01 6.00831628e-01 6.60326064e-01
      5.28066516e-01 6.79347813e-01 4.67775464e-01 6.82065189e-01
      4.09563422e-01 6.76630437e-01 3.43035340e-01 6.60326064e-01
      2.97297299e-01 6.05978251e-01 4.15800422e-01 5.84239125e-01
      4.71933484e-01 6.00543499e-01 5.28066516e-01 5.89673936e-01
      6.52806640e-01 6.11413062e-01 5.25987506e-01 5.89673936e-01
      4.67775464e-01 5.95108688e-01 4.11642402e-01 5.86956501e-01</_>
    <_>
      0. 0. 1.48423007e-02 1.78378373e-01 3.89610380e-02 3.54054064e-01
      7.42115006e-02 5.24324298e-01 1.20593689e-01 6.86486483e-01
      1.94805190e-01 8.21621597e-01 2.98701286e-01 9.27027047e-01
      4.15584415e-01 9.91891921e-01 5.39888680e-01 1. 6.60482347e-01
      9.75675702e-01 7.66233742e-01 8.94594610e-01 8.57142866e-01
      7.81081080e-01 9.18367326e-01 6.29729748e-01 9.49907243e-01
      4.59459454e-01 9.72170711e-01 2.91891903e-01 9.90723550e-01
      1.21621624e-01 1. -5.13513498e-02 1.11317255e-01 -6.21621609e-02
      1.91094622e-01 -1.35135129e-01 2.89424866e-01 -1.51351348e-01
      3.91465664e-01 -1.37837842e-01 4.97217059e-01 -1.16216213e-01
      5.82560301e-01 -1.16216213e-01 6.73469365e-01 -1.51351348e-01
      7.66233742e-01 -1.89189196e-01 8.58998120e-01 -1.94594592e-01
      9.29499090e-01 -1.24324322e-01 5.39888680e-01 -5.40540554e-03
      5.43599248e-01 8.10810775e-02 5.47309816e-01 1.64864868e-01
      5.52875698e-01 2.54054040e-01 4.52690154e-01 3.94594580e-01
      5.00927627e-01 3.97297293e-01 5.49165130e-01 4.00000006e-01
      5.95547318e-01 3.94594580e-01 6.38218939e-01 3.83783787e-01
      2.22634509e-01 1.35135138e-02 2.80148417e-01 -2.97297295e-02
      3.45083475e-01 -3.78378369e-02 4.00742114e-01 2.16216221e-02
      3.43228191e-01 4.86486480e-02 2.76437849e-01 5.13513498e-02
      6.58627093e-01 5.40540554e-03 7.14285731e-01 -6.21621609e-02
      7.79220760e-01 -6.75675645e-02 8.31168830e-01 -2.97297295e-02
      7.84786642e-01 1.62162166e-02 7.19851553e-01 2.16216221e-02
      3.72912794e-01 6.35135114e-01 4.47124302e-01 5.86486459e-01
      5.10204077e-01 5.62162161e-01 5.47309816e-01 5.75675666e-01
      5.78849733e-01 5.62162161e-01 6.40074193e-01 5.83783805e-01
      7.06864536e-01 6.27027035e-01 6.41929507e-01 6.72972977e-01
      5.82560301e-01 6.86486483e-01 5.47309816e-01 6.89189196e-01
      5.08348823e-01 6.89189196e-01 4.45269018e-01 6.78378403e-01
      4.00742114e-01 6.21621609e-01 5.10204077e-01 6.08108103e-01
      5.47309816e-01 6.18918896e-01 5.80704987e-01 6.08108103e-01
      6.80890560e-01 6.18918896e-01 5.80704987e-01 6.16216242e-01
      5.45454562e-01 6.24324322e-01 5.08348823e-01 6.16216242e-01</_>
    <_>
      0. 0. 7.85854645e-03 1.66204989e-01 1.96463652e-02 3.26869816e-01
      2.94695478e-02 4.84764546e-01 5.50098233e-02 6.45429373e-01
      1.10019647e-01 7.83933520e-01 2.06286833e-01 8.83656502e-01
      3.20235759e-01 9.61218834e-01 4.57760304e-01 1. 5.97249508e-01
      9.91689742e-01 7.22986221e-01 9.39058185e-01 8.34970534e-01
      8.44875336e-01 8.97838891e-01 7.11911380e-01 9.35167015e-01
      5.51246524e-01 9.60707247e-01 3.90581727e-01 9.86247540e-01
      2.27146819e-01 1. 4.98614945e-02 8.05500969e-02 -9.14127454e-02
      1.53241649e-01 -1.63434908e-01 2.49508843e-01 -1.68975070e-01
      3.45776021e-01 -1.44044325e-01 4.42043215e-01 -9.41828266e-02
      5.44204295e-01 -9.14127454e-02 6.40471518e-01 -1.30193904e-01
      7.40667999e-01 -1.41274244e-01 8.40864420e-01 -1.19113572e-01
      9.13555980e-01 -4.15512472e-02 4.87229854e-01 -2.49307472e-02
      4.83300596e-01 7.20221624e-02 4.79371309e-01 1.71745151e-01
      4.73477393e-01 2.77008325e-01 3.88998032e-01 3.71191144e-01
      4.28290755e-01 3.87811631e-01 4.73477393e-01 3.98891956e-01
      5.22593319e-01 3.93351793e-01 5.65815330e-01 3.82271469e-01
      1.88605115e-01 2.77008303e-03 2.43614927e-01 -3.87811624e-02
      3.06483299e-01 -3.87811624e-02 3.67387027e-01 2.21606642e-02
      3.04518670e-01 3.04709133e-02 2.43614927e-01 3.32409963e-02
      6.18860483e-01 4.15512472e-02 6.85658157e-01 -1.38504151e-02
      7.46561885e-01 -2.77008303e-03 8.01571727e-01 4.43213284e-02
      7.44597256e-01 6.64819926e-02 6.79764271e-01 5.81717454e-02
      3.02554041e-01 6.01108015e-01 3.79174858e-01 5.62326849e-01
      4.40078586e-01 5.37396133e-01 4.75442052e-01 5.51246524e-01
      5.10805488e-01 5.42936265e-01 5.73673844e-01 5.81717432e-01
      6.54223979e-01 6.37119114e-01 5.67779958e-01 6.37119114e-01
      5.02946973e-01 6.23268723e-01 4.65618849e-01 6.17728531e-01
      4.30255413e-01 6.14958465e-01 3.75245571e-01 6.17728531e-01
      3.30058932e-01 5.92797756e-01 4.38113958e-01 5.78947365e-01
      4.73477393e-01 5.84487557e-01 5.08840859e-01 5.84487557e-01
      6.28683686e-01 6.20498598e-01 5.04911602e-01 5.78947365e-01
      4.67583507e-01 5.76177299e-01 4.34184670e-01 5.70637107e-01</_>
    <_>
      0. 0. 1.73267331e-02 1.73252285e-01 5.19801974e-02 3.40425521e-01
      8.91089141e-02 5.01519740e-01 1.46039605e-01 6.50455952e-01
      2.22772270e-01 7.81154990e-01 3.19306940e-01 9.02735591e-01
      4.28217828e-01 9.78723407e-01 5.56930721e-01 1. 6.85643554e-01
      9.66565371e-01 7.89603949e-01 8.69300902e-01 8.78712893e-01
      7.35562325e-01 9.38118815e-01 5.83586633e-01 9.75247502e-01
      4.16413367e-01 9.90099013e-01 2.52279639e-01 1. 8.20668712e-02
      9.97524738e-01 -9.11854133e-02 8.16831663e-02 -9.72644389e-02
      1.50990099e-01 -1.67173252e-01 2.50000000e-01 -1.82370827e-01
      3.46534640e-01 -1.51975691e-01 4.50495064e-01 -1.24620058e-01
      5.47029674e-01 -1.39817625e-01 6.41089082e-01 -1.82370827e-01
      7.37623751e-01 -2.24924013e-01 8.36633682e-01 -2.27963522e-01
      9.13366318e-01 -1.70212761e-01 5.04950523e-01 -4.25531901e-02
      5.09900987e-01 4.86322194e-02 5.14851511e-01 1.39817625e-01
      5.17326713e-01 2.37082064e-01 4.20792073e-01 3.58662605e-01
      4.72772270e-01 3.67781162e-01 5.29702961e-01 3.76899689e-01
      5.84158421e-01 3.58662605e-01 6.33663356e-01 3.40425521e-01
      1.98019803e-01 6.07902743e-03 2.57425755e-01 -3.34346518e-02
      3.24257433e-01 -4.25531901e-02 3.91089112e-01 6.07902743e-03
      3.26732665e-01 3.03951371e-02 2.57425755e-01 3.95136774e-02
      6.26237631e-01 -1.21580549e-02 6.85643554e-01 -6.68693036e-02
      7.54950523e-01 -6.99088126e-02 8.11881185e-01 -3.95136774e-02
      7.62376249e-01 3.03951371e-03 6.90594077e-01 3.03951371e-03
      3.56435657e-01 6.01823688e-01 4.33168322e-01 5.56231022e-01
      4.95049506e-01 5.28875351e-01 5.39603949e-01 5.41033447e-01
      5.81683159e-01 5.22796333e-01 6.48514867e-01 5.41033447e-01
      7.32673287e-01 5.74468076e-01 6.55940592e-01 6.32218838e-01
      5.94059408e-01 6.59574449e-01 5.49504936e-01 6.65653467e-01
      5.04950523e-01 6.65653467e-01 4.40594047e-01 6.47416413e-01
      3.91089112e-01 5.98784208e-01 4.97524738e-01 5.80547094e-01
      5.42079210e-01 5.86626112e-01 5.84158421e-01 5.74468076e-01
      6.98019803e-01 5.74468076e-01 5.86633682e-01 5.77507615e-01
      5.44554472e-01 5.92705190e-01 5.00000000e-01 5.83586633e-01</_>
    <_>
      0. 0. 2.21674871e-02 1.70278624e-01 5.17241396e-02 3.31269324e-01
      8.62068981e-02 4.86068159e-01 1.37931034e-01 6.31578982e-01
      2.09359601e-01 7.61609912e-01 3.00492615e-01 8.76160979e-01
      4.06403929e-01 9.69040275e-01 5.29556632e-01 1. 6.50246322e-01
      9.75232184e-01 7.56157637e-01 8.82352948e-01 8.47290635e-01
      7.58513927e-01 9.13793087e-01 6.13003135e-01 9.53201950e-01
      4.52012450e-01 9.75369453e-01 2.91021645e-01 9.92610812e-01
      1.26934975e-01 1. -4.64396253e-02 8.62068981e-02 3.71516980e-02
      1.65024623e-01 -1.54798748e-02 2.61083752e-01 -1.85758490e-02
      3.59605908e-01 9.28792451e-03 4.63054180e-01 3.09597496e-02
      5.83743870e-01 1.54798748e-02 6.74876869e-01 -2.78637744e-02
      7.63546824e-01 -7.12074265e-02 8.59605908e-01 -8.35913271e-02
      9.33497548e-01 -3.71516980e-02 5.19704461e-01 9.28792506e-02
      5.24630547e-01 1.88854471e-01 5.27093589e-01 2.81733721e-01
      5.32019675e-01 3.80804926e-01 4.33497548e-01 4.33436573e-01
      4.82758611e-01 4.52012450e-01 5.32019675e-01 4.67492312e-01
      5.83743870e-01 4.52012450e-01 6.25615776e-01 4.30340618e-01
      2.06896558e-01 1.08359121e-01 2.63546795e-01 8.66872966e-02
      3.25123161e-01 7.73993731e-02 3.86699498e-01 1.08359121e-01
      3.27586204e-01 1.26934975e-01 2.66009837e-01 1.33126929e-01
      6.47783279e-01 9.28792506e-02 7.06896544e-01 4.95355986e-02
      7.68472910e-01 4.33436483e-02 8.25123131e-01 6.19194992e-02
      7.75862098e-01 9.90711972e-02 7.14285731e-01 1.02167174e-01
      3.52216750e-01 5.94427288e-01 4.23645318e-01 5.69659472e-01
      4.82758611e-01 5.57275593e-01 5.24630547e-01 5.69659472e-01
      5.71428597e-01 5.60371578e-01 6.33004904e-01 5.69659472e-01
      7.01970458e-01 6.00619256e-01 6.35468006e-01 6.43962860e-01
      5.73891640e-01 6.56346798e-01 5.29556632e-01 6.59442782e-01
      4.85221684e-01 6.53250813e-01 4.26108360e-01 6.31578982e-01
      3.81773412e-01 5.88235319e-01 4.85221684e-01 5.88235319e-01
      5.27093589e-01 5.97523272e-01 5.73891640e-01 5.91331303e-01
      6.72413766e-01 5.94427288e-01 5.71428597e-01 6.00619256e-01
      5.27093589e-01 6.06811166e-01 4.85221684e-01 5.94427288e-01</_>
    <_>
      0. 0. 0. 1.69611320e-01 5.69800567e-03 3.39222550e-01
      2.27920227e-02 4.98233169e-01 6.83760718e-02 6.50176644e-01
      1.45299152e-01 7.87985861e-01 2.47863248e-01 8.97526503e-01
      3.61823350e-01 9.78798568e-01 4.95726496e-01 1. 6.32478654e-01
      9.78798568e-01 7.40740716e-01 9.01060045e-01 8.37606847e-01
      7.98586547e-01 9.03133929e-01 6.64310932e-01 9.43019927e-01
      5.19434571e-01 9.60113943e-01 3.67491096e-01 9.80057001e-01
      2.15547726e-01 1. 6.00706786e-02 1.36752144e-01 -3.18021253e-02
      2.16524214e-01 -9.89399403e-02 3.19088310e-01 -1.13074221e-01
      4.21652436e-01 -9.89399403e-02 5.21367550e-01 -7.06713870e-02
      5.98290622e-01 -5.30035384e-02 6.95156693e-01 -7.42049515e-02
      7.92022765e-01 -8.12720954e-02 8.83190870e-01 -6.36042506e-02
      9.40170944e-01 1.76678468e-02 5.55555582e-01 0. 5.58404565e-01
      9.18728039e-02 5.58404565e-01 1.76678464e-01 5.61253548e-01
      2.75618285e-01 4.33048427e-01 3.53356808e-01 4.84330475e-01
      3.71024668e-01 5.44159532e-01 3.92226070e-01 5.98290622e-01
      3.81625384e-01 6.41025662e-01 3.67491096e-01 2.39316240e-01
      1.41342776e-02 2.96296299e-01 -3.18021253e-02 3.64672363e-01
      -3.18021253e-02 4.18803424e-01 1.76678468e-02 3.61823350e-01
      3.18021253e-02 2.93447286e-01 3.53356935e-02 6.60968661e-01
      3.53356935e-02 7.23646700e-01 -1.41342776e-02 7.89173782e-01
      -3.53356940e-03 8.34757864e-01 4.59364019e-02 7.86324799e-01
      6.36042506e-02 7.20797718e-01 5.30035384e-02 3.47578347e-01
      6.00706697e-01 4.13105398e-01 5.51236689e-01 4.87179488e-01
      5.15901029e-01 5.29914558e-01 5.37102401e-01 5.78347564e-01
      5.22968173e-01 6.43874645e-01 5.68904519e-01 6.89458668e-01
      6.25441670e-01 6.32478654e-01 6.71378076e-01 5.66951573e-01
      6.89045906e-01 5.18518507e-01 6.85512304e-01 4.72934484e-01
      6.78445220e-01 4.04558390e-01 6.53710186e-01 3.78917366e-01
      5.97173095e-01 4.81481493e-01 5.86572409e-01 5.27065516e-01
      5.97173095e-01 5.75498581e-01 5.93639553e-01 6.60968661e-01
      6.18374527e-01 5.69800556e-01 5.90105951e-01 5.24216533e-01
      5.93639553e-01 4.78632480e-01 5.86572409e-01</_>
    <_>
      0. 0. 0. 1.66666672e-01 1.86170209e-02 3.33333343e-01
      4.52127643e-02 5.07575750e-01 9.04255286e-02 6.70454562e-01
      1.70212761e-01 8.10606062e-01 2.84574479e-01 9.09090936e-01
      4.12234038e-01 9.92424250e-01 5.50531924e-01 1. 6.88829780e-01
      9.69696999e-01 8.05851042e-01 8.71212125e-01 9.06914890e-01
      7.53787875e-01 9.76063848e-01 5.94696999e-01 1. 4.09090906e-01
      9.97340441e-01 2.19696969e-01 9.97340441e-01 3.03030312e-02
      9.81382966e-01 -1.47727266e-01 5.58510646e-02 -2.31060609e-01
      1.03723407e-01 -3.21969688e-01 1.91489369e-01 -3.40909094e-01
      2.73936182e-01 -3.10606062e-01 3.56382966e-01 -2.65151501e-01
      5.58510661e-01 -2.87878782e-01 6.35638297e-01 -3.63636374e-01
      7.20744669e-01 -4.12878782e-01 8.11170220e-01 -4.09090906e-01
      8.80319178e-01 -3.44696969e-01 4.68085110e-01 -1.70454547e-01
      4.76063818e-01 -4.54545468e-02 4.84042555e-01 7.95454532e-02
      4.92021263e-01 2.12121218e-01 4.09574479e-01 2.95454532e-01
      4.54787225e-01 3.10606062e-01 5.05319178e-01 3.21969688e-01
      5.55851042e-01 2.91666657e-01 6.01063848e-01 2.61363626e-01
      1.56914890e-01 -1.09848484e-01 2.07446814e-01 -1.59090906e-01
      2.68617034e-01 -1.66666672e-01 3.35106373e-01 -1.21212125e-01
      2.71276593e-01 -1.06060609e-01 2.10106388e-01 -9.46969688e-02
      6.22340441e-01 -1.47727266e-01 6.80851042e-01 -2.04545453e-01
      7.36702144e-01 -2.15909094e-01 7.92553186e-01 -1.81818187e-01
      7.44680822e-01 -1.51515156e-01 6.86170220e-01 -1.47727266e-01
      3.37765962e-01 5.41666687e-01 3.90957445e-01 4.62121218e-01
      4.49468076e-01 4.31818187e-01 5.13297856e-01 4.50757563e-01
      5.74468076e-01 4.20454532e-01 6.43617034e-01 4.28030312e-01
      7.12765932e-01 4.88636374e-01 6.56914890e-01 5.41666687e-01
      5.93085110e-01 5.83333313e-01 5.29255331e-01 5.98484874e-01
      4.65425521e-01 5.98484874e-01 3.98936182e-01 5.75757563e-01
      3.61702114e-01 5.34090936e-01 4.54787225e-01 5.00000000e-01
      5.15957475e-01 5.03787875e-01 5.79787254e-01 4.84848499e-01
      6.91489339e-01 4.88636374e-01 5.85106373e-01 4.84848499e-01
      5.21276593e-01 5.03787875e-01 4.60106373e-01 4.96212125e-01</_>
    <_>
      0. 0. 1.31291030e-02 1.71974435e-01 3.06345727e-02 3.37579548e-01
      5.03282286e-02 4.99999940e-01 9.19037163e-02 6.52866185e-01
      1.66301966e-01 7.89808869e-01 2.64770240e-01 8.98089170e-01
      3.74179423e-01 9.71337557e-01 5.05470455e-01 1. 6.34573281e-01
      9.84076440e-01 7.37417936e-01 9.07643318e-01 8.27133477e-01
      8.02547753e-01 8.92778993e-01 6.68789804e-01 9.29978132e-01
      5.12738824e-01 9.51859951e-01 3.47133696e-01 9.75929976e-01
      1.87898010e-01 1. 2.54776124e-02 1.20350108e-01 -1.62420392e-01
      1.94748357e-01 -2.54777104e-01 2.91028440e-01 -2.96178371e-01
      3.96061271e-01 -2.89808959e-01 4.96717721e-01 -2.48407662e-01
      6.10503256e-01 -2.42038235e-01 7.06783354e-01 -2.80254811e-01
      8.03063452e-01 -2.77070105e-01 8.88402641e-01 -2.26114675e-01
      9.36542690e-01 -1.21019118e-01 5.49234152e-01 -1.30573258e-01
      5.49234152e-01 -2.22929958e-02 5.49234152e-01 8.59871730e-02
      5.49234152e-01 2.00636864e-01 4.52954054e-01 3.18471283e-01
      4.96717721e-01 3.24840695e-01 5.42669594e-01 3.37579548e-01
      5.84245086e-01 3.28025401e-01 6.23632371e-01 3.18471283e-01
      2.29759306e-01 -8.28025565e-02 2.82275707e-01 -1.46496832e-01
      3.50109398e-01 -1.56050965e-01 4.04814005e-01 -8.28025565e-02
      3.50109398e-01 -6.05095588e-02 2.84463882e-01 -5.41401319e-02
      6.56455159e-01 -7.00637028e-02 7.13347912e-01 -1.33757979e-01
      7.78993428e-01 -1.24203831e-01 8.27133477e-01 -5.41401319e-02
      7.74617076e-01 -2.86624227e-02 7.11159766e-01 -4.14012782e-02
      3.54485780e-01 5.25477648e-01 4.28884029e-01 4.87261087e-01
      4.94529545e-01 4.61783379e-01 5.33916831e-01 4.80891675e-01
      5.75492322e-01 4.64968115e-01 6.34573281e-01 4.96815234e-01
      6.98030651e-01 5.57324827e-01 6.28008723e-01 5.89171946e-01
      5.68927765e-01 6.01910770e-01 5.27352273e-01 6.01910770e-01
      4.83588636e-01 5.95541358e-01 4.24507648e-01 5.76433063e-01
      3.85120362e-01 5.22292972e-01 4.92341369e-01 5.15923500e-01
      5.33916831e-01 5.28662384e-01 5.73304176e-01 5.22292972e-01
      6.71772420e-01 5.44585943e-01 5.71115971e-01 5.28662384e-01
      5.29540479e-01 5.35031796e-01 4.85776812e-01 5.22292972e-01</_>
    <_>
      0. 0. 1.06382975e-02 1.57248169e-01 2.97872350e-02 3.19410264e-01
      5.10638282e-02 4.84029442e-01 9.57446843e-02 6.38820589e-01
      1.78723410e-01 7.73955762e-01 2.85106391e-01 8.91891897e-01
      4.10638303e-01 9.82800961e-01 5.55319130e-01 1. 6.95744693e-01
      9.53316927e-01 8.00000012e-01 8.45208824e-01 8.89361680e-01
      7.22358704e-01 9.48936164e-01 5.87223530e-01 9.74468112e-01
      4.42260414e-01 9.87234056e-01 2.89926231e-01 1. 1.32678136e-01
      9.95744705e-01 -2.21130233e-02 9.36170220e-02 -2.70270295e-02
      1.65957451e-01 -9.33661014e-02 2.61702120e-01 -9.58231017e-02
      3.55319142e-01 -5.89680634e-02 4.53191489e-01 -2.70270295e-02
      5.65957427e-01 -3.93120423e-02 6.59574449e-01 -7.37100765e-02
      7.48936176e-01 -1.08108118e-01 8.40425551e-01 -1.15479127e-01
      9.12765980e-01 -5.65110594e-02 5.08510649e-01 4.66830507e-02
      5.10638297e-01 1.59705177e-01 5.12765944e-01 2.72727221e-01
      5.17021298e-01 3.88206333e-01 3.95744681e-01 4.15233374e-01
      4.55319136e-01 4.47174400e-01 5.23404241e-01 4.76658434e-01
      5.91489375e-01 4.39803392e-01 6.51063859e-01 3.95577341e-01
      2.17021272e-01 5.89680634e-02 2.70212770e-01 2.70270295e-02
      3.36170226e-01 2.94840317e-02 3.95744681e-01 6.63390681e-02
      3.29787225e-01 8.10810849e-02 2.65957445e-01 7.86240846e-02
      6.29787207e-01 6.63390681e-02 6.85106397e-01 2.70270295e-02
      7.51063824e-01 1.96560211e-02 8.06382954e-01 4.42260467e-02
      7.55319178e-01 7.12530762e-02 6.91489339e-01 7.37100765e-02
      3.40425521e-01 5.77395558e-01 4.02127653e-01 5.40540516e-01
      4.72340435e-01 5.28255522e-01 5.36170185e-01 5.42997479e-01
      5.95744669e-01 5.18427491e-01 6.59574449e-01 5.15970469e-01
      7.14893639e-01 5.42997479e-01 6.65957451e-01 6.14250600e-01
      6.08510613e-01 6.63390636e-01 5.46808481e-01 6.80589676e-01
      4.80851054e-01 6.78132653e-01 4.10638303e-01 6.43734634e-01
      3.70212764e-01 5.84766567e-01 4.72340435e-01 5.92137575e-01
      5.38297892e-01 5.92137575e-01 6.00000024e-01 5.82309544e-01
      6.85106397e-01 5.55282533e-01 6.04255319e-01 5.84766567e-01
      5.40425539e-01 6.01965547e-01 4.76595759e-01 5.94594538e-01</_>
    <_>
      0. 0. 1.33037698e-02 1.77325577e-01 3.76940146e-02 3.51744175e-01
      6.20842576e-02 5.23255825e-01 1.08647451e-01 6.86046541e-01
      1.88470066e-01 8.22674394e-01 2.90465623e-01 9.24418628e-01
      4.05764967e-01 9.88372087e-01 5.36585391e-01 1. 6.65188491e-01
      9.79651153e-01 7.64966726e-01 8.95348847e-01 8.55875850e-01
      7.84883738e-01 9.22394693e-01 6.39534891e-01 9.55654085e-01
      4.76744175e-01 9.68957901e-01 3.05232555e-01 9.91130829e-01
      1.33720934e-01 1. -4.06976752e-02 7.53880292e-02 -1.39534891e-01
      1.39689580e-01 -2.12209299e-01 2.28381380e-01 -2.47093022e-01
      3.28159660e-01 -2.58720934e-01 4.25720632e-01 -2.23837212e-01
      5.94235063e-01 -2.29651168e-01 6.87361419e-01 -2.67441869e-01
      7.84922421e-01 -2.67441869e-01 8.73614192e-01 -2.38372087e-01
      9.35698450e-01 -1.59883723e-01 5.07760525e-01 -7.55813941e-02
      5.09977818e-01 3.19767445e-02 5.12195110e-01 1.36627913e-01
      5.14412403e-01 2.50000000e-01 4.32372510e-01 3.66279066e-01
      4.72283810e-01 3.75000000e-01 5.16629696e-01 3.86627913e-01
      5.58758318e-01 3.77906978e-01 6.00886941e-01 3.63372087e-01
      1.79600880e-01 -4.06976752e-02 2.35033259e-01 -9.59302336e-02
      3.08203995e-01 -9.88372117e-02 3.79157424e-01 -3.77906971e-02
      3.08203995e-01 -1.74418613e-02 2.35033259e-01 -1.16279069e-02
      6.34146333e-01 -3.77906971e-02 7.02882469e-01 -1.01744182e-01
      7.76053190e-01 -9.88372117e-02 8.33702862e-01 -4.94186059e-02
      7.80487776e-01 -1.74418613e-02 7.05099761e-01 -2.03488376e-02
      3.32594246e-01 5.98837197e-01 3.99113089e-01 5.29069781e-01
      4.63414639e-01 4.91279066e-01 5.09977818e-01 5.14534891e-01
      5.56541026e-01 4.94186044e-01 6.27494454e-01 5.31976759e-01
      6.98447883e-01 5.95930219e-01 6.29711747e-01 6.19186044e-01
      5.63192904e-01 6.19186044e-01 5.14412403e-01 6.19186044e-01
      4.65631932e-01 6.19186044e-01 4.01330382e-01 6.16279066e-01
      3.56984466e-01 5.87209284e-01 4.65631932e-01 5.52325606e-01
      5.12195110e-01 5.61046541e-01 5.58758318e-01 5.52325606e-01
      6.69623077e-01 5.84302306e-01 5.58758318e-01 5.43604672e-01
      5.12195110e-01 5.52325606e-01 4.63414639e-01 5.43604672e-01</_>
    <_>
      0. 0. 1.06837610e-02 1.64420485e-01 3.20512839e-02 3.23450148e-01
      5.12820520e-02 4.87870634e-01 9.40170959e-02 6.38814032e-01
      1.62393168e-01 7.70889461e-01 2.56410271e-01 8.84097040e-01
      3.65384609e-01 9.70350385e-01 4.95726496e-01 1. 6.34615362e-01
      9.73045826e-01 7.62820542e-01 8.81401598e-01 8.65384638e-01
      7.60107815e-01 9.33760703e-01 6.11859858e-01 9.70085442e-01
      4.55525607e-01 9.87179458e-01 2.91105121e-01 1. 1.26684636e-01
      9.97863233e-01 -3.77358496e-02 5.98290600e-02 -7.27762803e-02
      1.21794872e-01 -1.53638810e-01 2.17948720e-01 -1.69811323e-01
      3.16239327e-01 -1.45552561e-01 4.18803424e-01 -1.05121292e-01
      5.27777791e-01 -1.07816711e-01 6.26068354e-01 -1.59029648e-01
      7.26495743e-01 -1.88679248e-01 8.26923072e-01 -1.77897573e-01
      8.99572670e-01 -1.05121292e-01 4.74358976e-01 -1.61725059e-02
      4.74358976e-01 7.81671181e-02 4.74358976e-01 1.72506735e-01
      4.74358976e-01 2.69541770e-01 4.01709408e-01 3.82749319e-01
      4.38034177e-01 3.98921847e-01 4.78632480e-01 4.07008082e-01
      5.21367550e-01 3.96226406e-01 5.61965823e-01 3.80053908e-01
      1.66666672e-01 2.69541773e-03 2.22222224e-01 -4.58221026e-02
      2.92735040e-01 -4.85175215e-02 3.54700863e-01 2.15633418e-02
      2.88461536e-01 4.31266837e-02 2.17948720e-01 4.58221026e-02
      6.08974338e-01 1.07816709e-02 6.68803394e-01 -6.19946085e-02
      7.41452992e-01 -6.19946085e-02 7.99145281e-01 -1.88679248e-02
      7.47863233e-01 2.96495948e-02 6.77350402e-01 3.23450118e-02
      3.16239327e-01 6.17250681e-01 3.76068383e-01 5.84905684e-01
      4.38034177e-01 5.63342333e-01 4.82905984e-01 5.82210243e-01
      5.27777791e-01 5.63342333e-01 5.98290622e-01 5.84905684e-01
      6.77350402e-01 6.14555240e-01 6.02564096e-01 6.79245293e-01
      5.32051265e-01 7.08894908e-01 4.85042721e-01 7.14285731e-01
      4.35897440e-01 7.06199467e-01 3.76068383e-01 6.76549852e-01
      3.44017088e-01 6.17250681e-01 4.38034177e-01 6.22641504e-01
      4.82905984e-01 6.33423209e-01 5.29914558e-01 6.25336945e-01
      6.47435904e-01 6.14555240e-01 5.27777791e-01 6.36118591e-01
      4.82905984e-01 6.46900296e-01 4.38034177e-01 6.36118591e-01</_>
    <_>
      0. 0. 2.16919743e-02 1.76100627e-01 4.33839485e-02 3.45911950e-01
      6.94143176e-02 5.22012591e-01 1.08459868e-01 6.85534596e-01
      1.73535794e-01 8.20754707e-01 2.68980473e-01 9.24528301e-01
      3.77440333e-01 9.84276712e-01 5.14099777e-01 1. 6.50759220e-01
      9.62264180e-01 7.67895877e-01 8.86792481e-01 8.74186575e-01
      7.83018887e-01 9.47939277e-01 6.41509414e-01 9.84815598e-01
      4.74842757e-01 9.95661616e-01 2.92452842e-01 1. 9.74842757e-02 1.
      -9.11949649e-02 4.33839485e-02 -1.63522020e-01 9.32754874e-02
      -2.70440251e-01 1.84381783e-01 -2.98742145e-01 2.79826462e-01
      -2.79874206e-01 3.83947939e-01 -2.54716992e-01 5.40130138e-01
      -2.57861644e-01 6.33405626e-01 -3.01886797e-01 7.28850305e-01
      -3.36477995e-01 8.26464236e-01 -3.23899359e-01 8.93709302e-01
      -2.32704401e-01 4.59869862e-01 -1.66666672e-01 4.57700640e-01
      -7.86163509e-02 4.55531448e-01 6.28930796e-03 4.53362256e-01
      1.00628927e-01 3.77440333e-01 2.23270446e-01 4.20824289e-01
      2.48427674e-01 4.72885042e-01 2.64150947e-01 5.24945796e-01
      2.35849053e-01 5.72668135e-01 2.04402521e-01 1.56182215e-01
      -8.49056616e-02 2.08242953e-01 -1.41509429e-01 2.73318887e-01
      -1.47798747e-01 3.42733175e-01 -9.43396240e-02 2.73318887e-01
      -7.86163509e-02 2.10412145e-01 -7.23270476e-02 6.00867689e-01
      -1.16352201e-01 6.63774431e-01 -1.76100627e-01 7.31019497e-01
      -1.79245278e-01 7.91757047e-01 -1.35220125e-01 7.35357940e-01
      -1.10062890e-01 6.65943623e-01 -1.10062890e-01 3.31887215e-01
      5.15723288e-01 3.75271142e-01 4.21383649e-01 4.29501086e-01
      3.80503148e-01 4.81561810e-01 3.99371058e-01 5.27114987e-01
      3.77358496e-01 5.92190862e-01 4.08805043e-01 6.61605179e-01
      5.06289303e-01 6.00867689e-01 5.56603789e-01 5.40130138e-01
      5.72327018e-01 4.90238607e-01 5.78616381e-01 4.38177884e-01
      5.72327018e-01 3.81778747e-01 5.56603789e-01 3.62255961e-01
      5.00000000e-01 4.33839470e-01 4.59119499e-01 4.83731031e-01
      4.62264150e-01 5.31453371e-01 4.52830195e-01 6.26898050e-01
      4.90566045e-01 5.31453371e-01 4.65408802e-01 4.85900223e-01
      4.74842757e-01 4.36008662e-01 4.68553454e-01</_>
    <_>
      0. 0. 4.38596494e-03 1.68711662e-01 2.19298247e-02 3.31288338e-01
      4.16666679e-02 5.00000000e-01 8.11403543e-02 6.59509182e-01
      1.42543852e-01 7.94478536e-01 2.34649122e-01 8.98773015e-01
      3.39912295e-01 9.72392619e-01 4.64912295e-01 1. 5.92105269e-01
      9.84662592e-01 7.06140339e-01 9.23312902e-01 8.04824591e-01
      8.25153351e-01 8.75000000e-01 6.96319044e-01 9.23245609e-01
      5.42944789e-01 9.56140339e-01 3.86503071e-01 9.84649122e-01
      2.23926380e-01 1. 5.52147254e-02 9.21052620e-02 -1.31901845e-01
      1.60087720e-01 -2.05521479e-01 2.54385978e-01 -2.11656436e-01
      3.48684222e-01 -1.80981591e-01 4.38596487e-01 -1.28834352e-01
      5.72368443e-01 -1.13496929e-01 6.64473712e-01 -1.62576690e-01
      7.60964930e-01 -1.80981591e-01 8.53070199e-01 -1.62576690e-01
      9.14473712e-01 -7.66871199e-02 5.04385948e-01 -1.84049085e-02
      5.00000000e-01 7.36196339e-02 4.95614022e-01 1.62576690e-01
      4.93421048e-01 2.57668704e-01 3.92543852e-01 3.68098170e-01
      4.36403513e-01 3.83435577e-01 4.86842096e-01 3.98773015e-01
      5.37280679e-01 3.92638028e-01 5.85526288e-01 3.80368084e-01
      1.97368428e-01 -3.06748459e-03 2.52192974e-01 -3.37423310e-02
      3.13596487e-01 -3.37423310e-02 3.75000000e-01 1.53374234e-02
      3.11403513e-01 2.76073627e-02 2.50000000e-01 2.76073627e-02
      6.29385948e-01 3.37423310e-02 6.90789461e-01 -1.22699384e-02
      7.52192974e-01 -3.06748459e-03 8.04824591e-01 3.68098170e-02
      7.50000000e-01 5.82822077e-02 6.86403513e-01 4.90797535e-02
      3.07017535e-01 6.04294479e-01 3.79385978e-01 5.70552170e-01
      4.38596487e-01 5.52147210e-01 4.78070170e-01 5.67484677e-01
      5.17543852e-01 5.58282197e-01 5.78947365e-01 5.79754591e-01
      6.51315808e-01 6.22699380e-01 5.78947365e-01 6.44171774e-01
      5.13157904e-01 6.47239268e-01 4.73684222e-01 6.47239268e-01
      4.32017535e-01 6.41104281e-01 3.75000000e-01 6.31901860e-01
      3.35526317e-01 6.01226985e-01 4.38596487e-01 5.85889578e-01
      4.78070170e-01 5.98159492e-01 5.17543852e-01 5.95091999e-01
      6.25000000e-01 6.16564393e-01 5.15350878e-01 5.98159492e-01
      4.75877196e-01 6.01226985e-01 4.36403513e-01 5.88957071e-01</_>
    <_>
      0. 0. 4.38596494e-03 1.59509182e-01 1.97368413e-02 3.22085857e-01
      3.50877196e-02 4.90797579e-01 6.35964945e-02 6.53374255e-01
      1.29385963e-01 7.85276115e-01 2.23684207e-01 8.89570534e-01
      3.33333343e-01 9.66257691e-01 4.62719291e-01 1. 5.96491218e-01
      9.84662592e-01 7.14912295e-01 9.17177916e-01 8.15789461e-01
      8.15950930e-01 8.85964930e-01 6.87116623e-01 9.25438583e-01
      5.33742368e-01 9.53947365e-01 3.74233097e-01 9.78070199e-01
      2.20858872e-01 1. 6.13496862e-02 7.67543837e-02 -1.28834337e-01
      1.46929830e-01 -2.05521449e-01 2.43421048e-01 -2.17791393e-01
      3.39912295e-01 -1.90184027e-01 4.36403513e-01 -1.50306731e-01
      5.85526288e-01 -1.38036802e-01 6.79824591e-01 -1.74846604e-01
      7.80701756e-01 -1.93251520e-01 8.72807026e-01 -1.59509182e-01
      9.29824591e-01 -6.74846545e-02 5.02192974e-01 -2.45398749e-02
      4.97807026e-01 6.44171685e-02 4.91228074e-01 1.47239253e-01
      4.84649122e-01 2.39263788e-01 3.90350878e-01 3.25153351e-01
      4.32017535e-01 3.49693209e-01 4.82456148e-01 3.74233097e-01
      5.30701756e-01 3.58895659e-01 5.76754391e-01 3.37423295e-01
      1.95175439e-01 -1.22699374e-02 2.56578952e-01 -2.76073590e-02
      3.13596487e-01 -2.45398749e-02 3.75000000e-01 9.20245331e-03
      3.07017535e-01 1.22699374e-02 2.50000000e-01 6.13496872e-03
      6.29385948e-01 2.45398749e-02 6.95175409e-01 -3.06748436e-03
      7.52192974e-01 3.06748436e-03 8.09210539e-01 2.76073590e-02
      7.50000000e-01 3.68098132e-02 6.90789461e-01 3.06748431e-02
      3.02631587e-01 5.36809862e-01 3.75000000e-01 5.00000060e-01
      4.36403513e-01 4.78527665e-01 4.75877196e-01 4.93865073e-01
      5.13157904e-01 4.84662622e-01 5.72368443e-01 5.09202480e-01
      6.42543852e-01 5.58282256e-01 5.72368443e-01 5.85889637e-01
      5.15350878e-01 6.04294538e-01 4.73684222e-01 6.07361972e-01
      4.29824561e-01 6.01227045e-01 3.70614022e-01 5.76687157e-01
      3.35526317e-01 5.39877355e-01 4.32017535e-01 5.33742368e-01
      4.73684222e-01 5.42944849e-01 5.13157904e-01 5.36809862e-01
      6.11842096e-01 5.52147269e-01 5.13157904e-01 5.39877355e-01
      4.75877196e-01 5.46012342e-01 4.34210539e-01 5.36809862e-01</_>
    <_>
      0. 0. 9.70873795e-03 1.62790686e-01 3.10679618e-02 3.20413500e-01
      5.63106798e-02 4.78036225e-01 9.51456279e-02 6.22739077e-01
      1.68932036e-01 7.62273908e-01 2.69902915e-01 8.81136954e-01
      3.80582511e-01 9.71576214e-01 5.16504884e-01 1. 6.56310678e-01
      9.71576214e-01 7.61165023e-01 8.75968993e-01 8.50485444e-01
      7.54521966e-01 9.12621379e-01 6.14987135e-01 9.45631087e-01
      4.67700303e-01 9.65048552e-01 3.17829520e-01 9.88349497e-01
      1.73126608e-01 1. 2.32558120e-02 9.90291238e-02 -1.16279058e-01
      1.70873791e-01 -2.06718326e-01 2.71844655e-01 -2.42894039e-01
      3.80582511e-01 -2.32558116e-01 4.85436887e-01 -1.88630477e-01
      5.90291262e-01 -1.75710574e-01 6.91262126e-01 -2.09302306e-01
      7.90291250e-01 -2.11886287e-01 8.81553411e-01 -1.70542628e-01
      9.28155363e-01 -6.20154999e-02 5.43689311e-01 -8.26873332e-02
      5.43689311e-01 1.80878546e-02 5.45631051e-01 1.24031000e-01
      5.47572792e-01 2.32558206e-01 4.31067973e-01 3.15245539e-01
      4.81553406e-01 3.35917354e-01 5.33980608e-01 3.56589198e-01
      5.84466040e-01 3.43669295e-01 6.27184451e-01 3.30749393e-01
      2.21359223e-01 -5.16795814e-02 2.77669907e-01 -9.81912091e-02
      3.43689322e-01 -9.81912091e-02 4.01941746e-01 -4.13436666e-02
      3.41747582e-01 -2.84237713e-02 2.75728166e-01 -2.58397907e-02
      6.40776694e-01 -2.32558120e-02 7.02912629e-01 -8.01033527e-02
      7.68932045e-01 -7.23514184e-02 8.21359217e-01 -1.55038750e-02
      7.66990304e-01 5.16795833e-03 7.00970888e-01 -5.16795833e-03
      3.22330087e-01 5.32299757e-01 3.92233014e-01 4.93540078e-01
      4.60194170e-01 4.75452244e-01 5.10679603e-01 4.98708040e-01
      5.59223294e-01 4.83204186e-01 6.25242710e-01 5.09043992e-01
      6.95145607e-01 5.42635679e-01 6.23300970e-01 6.04651213e-01
      5.61165035e-01 6.30490959e-01 5.08737862e-01 6.35658920e-01
      4.56310689e-01 6.25322998e-01 3.90291274e-01 5.89147329e-01
      3.51456314e-01 5.32299757e-01 4.58252430e-01 5.27131796e-01
      5.08737862e-01 5.40051699e-01 5.61165035e-01 5.32299757e-01
      6.62135899e-01 5.42635679e-01 5.61165035e-01 5.24547815e-01
      5.08737862e-01 5.37467718e-01 4.58252430e-01 5.24547815e-01</_>
    <_>
      0. 0. 1.29870130e-02 1.61375642e-01 4.32900451e-02 3.14814866e-01
      6.27705604e-02 4.68254000e-01 9.52380970e-02 6.29629672e-01
      1.60173163e-01 7.75132298e-01 2.55411267e-01 8.91534388e-01
      3.76623362e-01 9.76190507e-01 5.17316043e-01 1. 6.51515126e-01
      9.76190507e-01 7.57575750e-01 8.83597910e-01 8.44155848e-01
      7.67195761e-01 9.00432885e-01 6.29629672e-01 9.30735946e-01
      4.76190507e-01 9.56709981e-01 3.22751373e-01 9.84848499e-01
      1.69312149e-01 1. 7.93650746e-03 6.70995638e-02 -3.17460299e-02
      1.38528138e-01 -9.52380896e-02 2.31601730e-01 -1.08465597e-01
      3.24675322e-01 -7.67195672e-02 4.15584415e-01 -3.70370336e-02
      6.51515126e-01 -6.08465560e-02 7.35930741e-01 -1.11111104e-01
      8.22510839e-01 -1.34920627e-01 9.02597427e-01 -1.11111104e-01
      9.56709981e-01 -3.96825373e-02 5.30303001e-01 1.85185168e-02
      5.30303001e-01 1.32275119e-01 5.30303001e-01 2.46031806e-01
      5.32467544e-01 3.59788418e-01 4.30735916e-01 3.80952418e-01
      4.76190478e-01 4.10052955e-01 5.30303001e-01 4.33862478e-01
      5.84415555e-01 4.10052955e-01 6.25541151e-01 3.80952418e-01
      1.94805190e-01 5.29100485e-02 2.55411267e-01 1.85185168e-02
      3.18181813e-01 1.85185168e-02 3.83116871e-01 5.55555522e-02
      3.18181813e-01 6.87830597e-02 2.55411267e-01 7.14285672e-02
      6.62337661e-01 6.08465560e-02 7.29437232e-01 2.11640187e-02
      7.94372320e-01 2.38095224e-02 8.48484874e-01 5.55555522e-02
      7.92207778e-01 7.40740672e-02 7.27272749e-01 7.14285672e-02
      3.41991335e-01 5.68783104e-01 4.15584415e-01 5.18518567e-01
      4.80519474e-01 5.02645552e-01 5.30303001e-01 5.18518567e-01
      5.82251072e-01 5.00000060e-01 6.40692651e-01 5.10582030e-01
      6.96969688e-01 5.55555582e-01 6.38528168e-01 6.05820119e-01
      5.80086589e-01 6.42857194e-01 5.25974035e-01 6.53439164e-01
      4.74025965e-01 6.48148179e-01 4.11255419e-01 6.19047642e-01
      3.74458879e-01 5.66137612e-01 4.78354990e-01 5.55555582e-01
      5.28138518e-01 5.60846567e-01 5.82251072e-01 5.50264597e-01
      6.66666687e-01 5.55555582e-01 5.80086589e-01 5.52910089e-01
      5.23809552e-01 5.66137612e-01 4.76190478e-01 5.58201075e-01</_>
    <_>
      0. 0. 1.50537631e-02 1.62465006e-01 3.22580636e-02 3.22128803e-01
      6.45161271e-02 4.78991538e-01 1.16129033e-01 6.27450943e-01
      1.95698932e-01 7.64705837e-01 2.94623643e-01 8.82352948e-01
      4.12903219e-01 9.77591038e-01 5.46236575e-01 1. 6.75268829e-01
      9.66386557e-01 7.76344061e-01 8.68347347e-01 8.62365603e-01
      7.47899115e-01 9.31182802e-01 6.02240860e-01 9.69892502e-01
      4.45378095e-01 9.87096786e-01 2.80112058e-01 9.93548393e-01
      1.17647067e-01 1. -4.48179320e-02 1.11827955e-01 -1.17647067e-01
      1.91397846e-01 -1.65266126e-01 2.83870965e-01 -1.70868367e-01
      3.74193549e-01 -1.54061645e-01 4.58064526e-01 -1.12044826e-01
      5.78494608e-01 -1.23249307e-01 6.58064544e-01 -1.73669487e-01
      7.46236563e-01 -1.98879570e-01 8.36559117e-01 -1.98879570e-01
      9.05376315e-01 -1.48459390e-01 5.24731159e-01 -5.60224131e-02
      5.26881695e-01 3.92156914e-02 5.29032230e-01 1.37254909e-01
      5.33333361e-01 2.35294133e-01 4.58064526e-01 3.10924321e-01
      4.94623661e-01 3.30532163e-01 5.35483897e-01 3.50140005e-01
      5.76344073e-01 3.30532163e-01 6.12903237e-01 3.05322081e-01
      2.25806445e-01 -2.52100863e-02 2.77419358e-01 -6.72268942e-02
      3.44086021e-01 -7.28291348e-02 4.02150542e-01 -2.80112065e-02
      3.41935486e-01 -8.40336177e-03 2.79569894e-01 -2.80112075e-03
      6.38709664e-01 -3.64145674e-02 6.92473114e-01 -8.96358639e-02
      7.59139776e-01 -8.96358639e-02 8.12903225e-01 -5.32212928e-02
      7.63440847e-01 -2.80112065e-02 7.01075256e-01 -2.52100863e-02
      3.69892478e-01 5.29411733e-01 4.27956998e-01 4.62184817e-01
      4.83870953e-01 4.34173614e-01 5.37634432e-01 4.53781456e-01
      5.87096751e-01 4.31372494e-01 6.43010736e-01 4.53781456e-01
      6.96774185e-01 5.04201651e-01 6.45161271e-01 5.65826297e-01
      5.93548357e-01 5.99439740e-01 5.41935503e-01 6.10644221e-01
      4.88172054e-01 6.05041981e-01 4.27956998e-01 5.82633018e-01
      3.95698935e-01 5.18207252e-01 4.86021519e-01 5.01400530e-01
      5.37634432e-01 5.09803891e-01 5.89247286e-01 4.95798290e-01
      6.66666687e-01 5.01400530e-01 5.89247286e-01 4.98599410e-01
      5.37634432e-01 5.12605011e-01 4.86021519e-01 5.04201651e-01</_>
    <_>
      0. 0. 8.49256944e-03 1.64893612e-01 1.91082805e-02 3.29787225e-01
      3.60934176e-02 4.97340411e-01 7.00636953e-02 6.48936152e-01
      1.27388537e-01 7.81914890e-01 2.14437366e-01 8.90957475e-01
      3.20594490e-01 9.62765932e-01 4.52229291e-01 1. 5.90233564e-01
      9.81382966e-01 7.04883218e-01 9.17553186e-01 7.96178341e-01
      8.19148958e-01 8.57749462e-01 6.94148958e-01 9.02335465e-01
      5.50531924e-01 9.38428879e-01 4.01595742e-01 9.72399175e-01
      2.50000000e-01 1. 9.57446843e-02 1.14649683e-01 -2.04787239e-01
      1.76220804e-01 -2.73936182e-01 2.59023368e-01 -3.03191453e-01
      3.48195314e-01 -2.97872305e-01 4.30997878e-01 -2.50000000e-01
      6.09341800e-01 -2.31382981e-01 6.96390629e-01 -2.65957445e-01
      7.87685752e-01 -2.50000000e-01 8.68365169e-01 -2.04787239e-01
      9.23566878e-01 -1.22340426e-01 5.11677265e-01 -1.11702129e-01
      5.05307853e-01 -1.86170209e-02 5.01061559e-01 7.71276578e-02
      4.94692147e-01 1.72872335e-01 4.03397024e-01 2.81914890e-01
      4.41613585e-01 3.03191483e-01 4.84076440e-01 3.19148928e-01
      5.30785561e-01 3.13829780e-01 5.73248386e-01 3.03191483e-01
      2.03821659e-01 -7.97872320e-02 2.52653927e-01 -1.35638297e-01
      3.18471342e-01 -1.35638297e-01 3.75796169e-01 -7.18085095e-02
      3.14225048e-01 -5.58510646e-02 2.48407647e-01 -5.31914905e-02
      6.39065802e-01 -4.52127643e-02 7.00636923e-01 -1.01063833e-01
      7.66454339e-01 -9.04255286e-02 8.15286636e-01 -2.39361711e-02
      7.64331222e-01 -7.97872338e-03 6.98513806e-01 -1.59574468e-02
      3.16348195e-01 5.37234068e-01 3.75796169e-01 4.57446814e-01
      4.35244173e-01 4.25531924e-01 4.73460734e-01 4.41489369e-01
      5.15923560e-01 4.38829780e-01 5.73248386e-01 4.86702114e-01
      6.32696390e-01 5.77127635e-01 5.64755857e-01 6.17021263e-01
      5.05307853e-01 6.27659559e-01 4.60721880e-01 6.25000000e-01
      4.18259025e-01 6.11702144e-01 3.67303610e-01 5.87765932e-01
      3.43949050e-01 5.31914890e-01 4.30997878e-01 4.78723407e-01
      4.71337587e-01 4.84042555e-01 5.11677265e-01 4.92021263e-01
      6.02972388e-01 5.66489339e-01 5.07430971e-01 5.55851042e-01
      4.64968145e-01 5.53191483e-01 4.24628437e-01 5.45212746e-01</_>
    <_>
      0. 0. 6.35593198e-03 1.74041301e-01 1.48305083e-02 3.42182904e-01
      2.75423732e-02 5.19174039e-01 6.14406765e-02 6.75516248e-01
      1.27118647e-01 8.05309713e-01 2.24576265e-01 9.02654886e-01
      3.38983059e-01 9.67551649e-01 4.68220353e-01 1. 6.01694942e-01
      9.88200605e-01 7.18220353e-01 9.35103238e-01 8.13559294e-01
      8.52507353e-01 8.79237294e-01 7.34513283e-01 9.21610177e-01
      5.87020636e-01 9.51271176e-01 4.27728623e-01 9.76694942e-01
      2.65486717e-01 1. 9.73451361e-02 1.12288132e-01 -2.06489682e-01
      1.80084750e-01 -2.74336278e-01 2.69067794e-01 -2.92035401e-01
      3.55932206e-01 -2.74336278e-01 4.40677971e-01 -2.27138638e-01
      6.10169470e-01 -2.06489682e-01 6.94915235e-01 -2.35988200e-01
      7.86016941e-01 -2.33038351e-01 8.66525412e-01 -1.91740409e-01
      9.21610177e-01 -1.09144546e-01 5.19067824e-01 -1.15044251e-01
      5.12711883e-01 -2.35988200e-02 5.08474588e-01 6.78466111e-02
      5.02118647e-01 1.68141589e-01 4.00423735e-01 2.56637156e-01
      4.42796618e-01 2.89085537e-01 4.95762706e-01 3.15634221e-01
      5.48728824e-01 3.00884962e-01 5.97457647e-01 2.74336278e-01
      2.05508471e-01 -9.43952799e-02 2.60593206e-01 -1.35693222e-01
      3.17796618e-01 -1.32743359e-01 3.77118647e-01 -8.55457261e-02
      3.13559324e-01 -8.55457261e-02 2.56355941e-01 -8.55457261e-02
      6.50423706e-01 -5.30973449e-02 7.11864412e-01 -9.43952799e-02
      7.69067824e-01 -8.25958699e-02 8.22033882e-01 -3.24483775e-02
      7.64830530e-01 -2.94985250e-02 7.05508471e-01 -4.42477874e-02
      3.24152529e-01 5.22123873e-01 3.81355941e-01 4.51327443e-01
      4.38559324e-01 4.24778759e-01 4.89406794e-01 4.45427716e-01
      5.36016941e-01 4.36578184e-01 5.91101706e-01 4.74926263e-01
      6.48305058e-01 5.63421845e-01 5.84745765e-01 5.87020636e-01
      5.27542353e-01 5.95870197e-01 4.78813559e-01 5.92920363e-01
      4.27966088e-01 5.81120968e-01 3.75000000e-01 5.57522118e-01
      3.51694912e-01 5.16224205e-01 4.34322029e-01 4.89675522e-01
      4.85169500e-01 4.98525083e-01 5.31779647e-01 5.01474917e-01
      6.18644059e-01 5.51622391e-01 5.29661000e-01 5.19174039e-01
      4.83050853e-01 5.16224205e-01 4.32203382e-01 5.04424751e-01</_>
    <_>
      0. 0. 1.26050422e-02 1.79940999e-01 2.73109246e-02 3.51032436e-01
      4.41176482e-02 5.28023601e-01 8.19327757e-02 6.84365809e-01
      1.49159670e-01 8.14159274e-01 2.47899160e-01 9.05604720e-01
      3.59243691e-01 9.70501482e-01 4.85294104e-01 1. 6.13445401e-01
      9.91150439e-01 7.24789917e-01 9.35103238e-01 8.19327712e-01
      8.46607685e-01 8.82352948e-01 7.19763994e-01 9.20168042e-01
      5.72271407e-01 9.49579835e-01 4.07079637e-01 9.76890743e-01
      2.38938048e-01 1. 6.78466111e-02 1.26050428e-01 -2.21238941e-01
      1.91176474e-01 -2.97935098e-01 2.79411763e-01 -3.30383480e-01
      3.71848732e-01 -3.24483782e-01 4.57983196e-01 -2.80235976e-01
      6.15546227e-01 -2.65486717e-01 6.99579835e-01 -3.00884962e-01
      7.96218514e-01 -2.86135703e-01 8.78151238e-01 -2.33038351e-01
      9.30672288e-01 -1.38643071e-01 5.29411793e-01 -1.32743359e-01
      5.27310908e-01 -2.94985250e-02 5.25210083e-01 7.37463161e-02
      5.23109257e-01 1.82890862e-01 4.28571433e-01 3.00884962e-01
      4.70588237e-01 3.18584085e-01 5.14705896e-01 3.36283177e-01
      5.58823526e-01 3.30383480e-01 6.00840330e-01 3.18584085e-01
      2.18487397e-01 -9.43952799e-02 2.71008402e-01 -1.47492632e-01
      3.34033608e-01 -1.50442481e-01 3.92857134e-01 -8.84955749e-02
      3.29831928e-01 -7.07964599e-02 2.66806722e-01 -7.07964599e-02
      6.55462205e-01 -6.19469024e-02 7.14285731e-01 -1.15044251e-01
      7.77310908e-01 -1.03244841e-01 8.27731073e-01 -4.12979349e-02
      7.73109257e-01 -2.35988200e-02 7.10084021e-01 -3.53982300e-02
      3.44537824e-01 5.45722723e-01 4.05462176e-01 4.77876097e-01
      4.64285702e-01 4.45427716e-01 5.06302536e-01 4.63126838e-01
      5.46218514e-01 4.54277277e-01 6.00840330e-01 5.04424751e-01
      6.59663856e-01 5.84070802e-01 5.96638680e-01 6.04719758e-01
      5.42016804e-01 6.10619485e-01 4.97899145e-01 6.10619485e-01
      4.53781515e-01 5.98820031e-01 3.99159670e-01 5.78171074e-01
      3.73949587e-01 5.36873162e-01 4.60084021e-01 5.04424751e-01
      5.04201710e-01 5.16224205e-01 5.44117630e-01 5.19174039e-01
      6.30252123e-01 5.66371679e-01 5.42016804e-01 5.22123873e-01
      5.02100825e-01 5.22123873e-01 4.57983196e-01 5.10324478e-01</_>
    <_>
      0. 0. 1.28755365e-02 1.61691532e-01 3.43347639e-02 3.23383063e-01
      5.15021458e-02 4.77611989e-01 9.65665206e-02 6.29353285e-01
      1.67381972e-01 7.63681591e-01 2.59656638e-01 8.80596995e-01
      3.62660944e-01 9.72636819e-01 4.84978527e-01 1. 6.07296109e-01
      9.72636819e-01 7.10300446e-01 8.83084595e-01 8.09012890e-01
      7.73631871e-01 8.90557945e-01 6.44278646e-01 9.37768221e-01
      4.95024920e-01 9.65665221e-01 3.33333313e-01 9.91416335e-01
      1.66666657e-01 1. -7.46268593e-03 9.65665206e-02 -5.47263622e-02
      1.65236056e-01 -1.09452724e-01 2.57510722e-01 -1.19402975e-01
      3.45493555e-01 -9.95024815e-02 4.31330472e-01 -6.96517378e-02
      5.51502168e-01 -7.21393004e-02 6.39485002e-01 -9.45273563e-02
      7.23175943e-01 -1.16915412e-01 8.11158776e-01 -1.06965169e-01
      8.81974220e-01 -5.47263622e-02 4.95708168e-01 1.99004952e-02
      5.00000000e-01 1.36815906e-01 5.06437778e-01 2.53731310e-01
      5.12875557e-01 3.75621855e-01 4.14163083e-01 4.32835788e-01
      4.59227473e-01 4.50248718e-01 5.06437778e-01 4.65174168e-01
      5.53648055e-01 4.52736288e-01 5.96566498e-01 4.35323358e-01
      2.06008583e-01 1.74129345e-02 2.59656638e-01 -2.73631811e-02
      3.26180249e-01 -2.48756204e-02 3.75536472e-01 3.48258689e-02
      3.21888417e-01 4.72636782e-02 2.55364805e-01 4.72636782e-02
      6.13733888e-01 3.73134315e-02 6.67382002e-01 -2.23880578e-02
      7.31759667e-01 -2.23880578e-02 7.81115890e-01 2.23880578e-02
      7.36051500e-01 5.22388034e-02 6.71673834e-01 4.97512408e-02
      3.36909860e-01 6.39303505e-01 3.96995693e-01 6.24378145e-01
      4.65665221e-01 6.04477644e-01 5.04291832e-01 6.21890604e-01
      5.47210276e-01 6.01990104e-01 6.11588001e-01 6.21890604e-01
      6.75965667e-01 6.46766186e-01 6.11588001e-01 7.03980148e-01
      5.47210276e-01 7.31343329e-01 5.02145946e-01 7.38806009e-01
      4.59227473e-01 7.33830869e-01 3.96995693e-01 7.08955228e-01
      3.66952777e-01 6.49253786e-01 4.63519305e-01 6.54228866e-01
      5.04291832e-01 6.61691546e-01 5.47210276e-01 6.51741326e-01
      6.50214612e-01 6.49253786e-01 5.45064390e-01 6.61691546e-01
      5.02145946e-01 6.71641827e-01 4.63519305e-01 6.61691546e-01</_>
    <_>
      0. 0. 1.20000001e-02 1.64804474e-01 3.59999985e-02 3.26815635e-01
      6.80000037e-02 4.86033529e-01 1.05999999e-01 6.42458081e-01
      1.75999999e-01 7.87709475e-01 2.72000015e-01 8.99441361e-01
      3.88000011e-01 9.83240247e-01 5.18000007e-01 1. 6.46000028e-01
      9.77653623e-01 7.62000024e-01 8.88268173e-01 8.64000022e-01
      7.76536286e-01 9.35999990e-01 6.31284893e-01 9.66000021e-01
      4.74860340e-01 9.84000027e-01 3.10055852e-01 9.95999992e-01
      1.48044690e-01 1. -1.39664803e-02 8.79999995e-02 -1.03351958e-01
      1.62000000e-01 -1.53631285e-01 2.52000004e-01 -1.53631285e-01
      3.40000004e-01 -1.14525139e-01 4.21999991e-01 -6.42458126e-02
      5.65999985e-01 -6.98323995e-02 6.48000002e-01 -1.22905031e-01
      7.34000027e-01 -1.64804474e-01 8.22000027e-01 -1.62011176e-01
      8.96000028e-01 -1.06145248e-01 4.88000005e-01 2.79329601e-03
      4.88000005e-01 1.36871502e-01 4.88000005e-01 2.73743004e-01
      4.88000005e-01 4.10614520e-01 4.04000014e-01 4.52513963e-01
      4.46000010e-01 4.77653623e-01 4.92000014e-01 5.00000000e-01
      5.36000013e-01 4.80446935e-01 5.75999975e-01 4.55307275e-01
      1.87999994e-01 1.95530728e-02 2.47999996e-01 -1.67597774e-02
      3.10000002e-01 -1.39664803e-02 3.63999993e-01 3.91061455e-02
      3.05999994e-01 5.02793305e-02 2.41999999e-01 5.02793305e-02
      6.17999971e-01 3.91061455e-02 6.75999999e-01 -1.67597774e-02
      7.40000010e-01 -1.95530728e-02 8.00000012e-01 1.67597774e-02
      7.45999992e-01 4.74860333e-02 6.80000007e-01 4.74860333e-02
      3.30000013e-01 6.45251393e-01 3.91999990e-01 5.92178762e-01
      4.48000014e-01 5.67039132e-01 4.97999996e-01 5.89385450e-01
      5.47999978e-01 5.67039132e-01 6.07999980e-01 5.92178762e-01
      6.71999991e-01 6.22905016e-01 6.10000014e-01 6.64804459e-01
      5.51999986e-01 6.89944148e-01 5.00000000e-01 6.98324025e-01
      4.48000014e-01 6.95530713e-01 3.95999998e-01 6.78770959e-01
      3.54000002e-01 6.39664829e-01 4.48000014e-01 6.22905016e-01
      4.97999996e-01 6.34078205e-01 5.50000012e-01 6.20111704e-01
      6.48000002e-01 6.22905016e-01 5.47999978e-01 6.06145263e-01
      4.95999992e-01 6.20111704e-01 4.48000014e-01 6.08938575e-01</_>
    <_>
      0. 0. 1.09890113e-02 1.63141981e-01 2.63736267e-02 3.29305112e-01
      4.83516492e-02 4.95468318e-01 9.01098922e-02 6.49546862e-01
      1.71428576e-01 7.79456198e-01 2.74725288e-01 8.91238689e-01
      3.84615391e-01 9.75830793e-01 5.07692337e-01 1. 6.30769253e-01
      9.72809672e-01 7.38461554e-01 8.85196388e-01 8.41758251e-01
      7.76435077e-01 9.18681324e-01 6.43504560e-01 9.58241761e-01
      4.89426017e-01 9.80219781e-01 3.23262811e-01 9.93406594e-01
      1.57099679e-01 1. -6.04229560e-03 1.07692309e-01 -2.71903295e-02
      1.84615389e-01 -9.36555788e-02 2.79120892e-01 -1.05740175e-01
      3.75824183e-01 -9.36555788e-02 4.70329672e-01 -6.04229569e-02
      5.69230795e-01 -7.55286962e-02 6.61538482e-01 -1.08761318e-01
      7.53846169e-01 -1.17824763e-01 8.41758251e-01 -1.02719024e-01
      9.12087917e-01 -4.22960669e-02 5.20879149e-01 3.32326256e-02
      5.20879149e-01 1.45015091e-01 5.20879149e-01 2.53776401e-01
      5.20879149e-01 3.65558982e-01 4.35164839e-01 4.44108814e-01
      4.76923078e-01 4.59214538e-01 5.18681347e-01 4.68277991e-01
      5.62637389e-01 4.59214538e-01 6.02197826e-01 4.50151116e-01
      2.30769232e-01 3.62537727e-02 2.83516496e-01 0. 3.45054954e-01
      3.02114780e-03 3.91208798e-01 4.83383648e-02 3.40659350e-01
      6.34441003e-02 2.83516496e-01 6.34441003e-02 6.41758263e-01
      4.53172177e-02 6.92307711e-01 0. 7.51648366e-01 0. 8.00000012e-01
      3.62537727e-02 7.53846169e-01 6.04229569e-02 6.96703315e-01
      6.04229569e-02 3.51648360e-01 6.34441137e-01 4.15384620e-01
      5.98187327e-01 4.72527474e-01 5.74018180e-01 5.14285743e-01
      5.95166206e-01 5.62637389e-01 5.80060482e-01 6.17582440e-01
      6.10271931e-01 6.72527492e-01 6.43504560e-01 6.10989034e-01
      6.82779491e-01 5.53846180e-01 7.03927517e-01 5.05494535e-01
      7.09969819e-01 4.61538464e-01 7.00906396e-01 4.08791214e-01
      6.73716068e-01 3.75824183e-01 6.34441137e-01 4.70329672e-01
      6.22356534e-01 5.12087941e-01 6.37462258e-01 5.60439587e-01
      6.28398836e-01 6.46153867e-01 6.46525741e-01 5.53846180e-01
      6.25377655e-01 5.07692337e-01 6.34441137e-01 4.63736266e-01
      6.22356534e-01</_>
    <_>
      0. 0. 2.00445428e-02 1.76119387e-01 4.45434302e-02 3.49253803e-01
      6.90423176e-02 5.19403040e-01 1.13585748e-01 6.77611947e-01
      1.89309582e-01 8.11940312e-01 2.93986648e-01 9.13432837e-01
      4.27616924e-01 9.82089579e-01 5.63474417e-01 1. 6.90423191e-01
      9.64179099e-01 8.04008901e-01 8.80597055e-01 8.88641417e-01
      7.58208990e-01 9.44320738e-01 6.08955264e-01 9.68819618e-01
      4.35820937e-01 9.79955435e-01 2.59701550e-01 9.95545685e-01
      8.65671560e-02 1. -9.55223814e-02 1.02449887e-01 -1.28358200e-01
      1.55901998e-01 -2.38805950e-01 2.51670390e-01 -2.86567152e-01
      3.54120255e-01 -2.80597001e-01 4.49888647e-01 -2.44776100e-01
      5.92427611e-01 -2.56716400e-01 6.81514502e-01 -3.19402963e-01
      7.81737208e-01 -3.40298474e-01 8.77505541e-01 -3.04477572e-01
      9.33184862e-01 -2.02985063e-01 5.27839661e-01 -1.49253711e-01
      5.34521163e-01 -4.17910405e-02 5.38975477e-01 6.26865625e-02
      5.45657039e-01 1.76119387e-01 4.38752770e-01 2.59701550e-01
      4.89977717e-01 2.80597091e-01 5.47884166e-01 2.98507541e-01
      6.01336300e-01 2.77612001e-01 6.50334060e-01 2.47761175e-01
      2.36080185e-01 -6.86567128e-02 2.89532304e-01 -9.55223814e-02
      3.42984408e-01 -1.04477599e-01 4.05345201e-01 -8.35820809e-02
      3.49665910e-01 -7.16417879e-02 2.93986648e-01 -6.56716377e-02
      6.45879745e-01 -1.13432825e-01 7.08240509e-01 -1.46268636e-01
      7.59465456e-01 -1.49253711e-01 8.08463275e-01 -1.25373125e-01
      7.61692643e-01 -1.16417900e-01 7.08240509e-01 -1.13432825e-01
      3.87527853e-01 4.86567199e-01 4.49888647e-01 4.38806027e-01
      5.05567908e-01 4.14925426e-01 5.50111353e-01 4.26865727e-01
      5.96881986e-01 4.11940366e-01 6.59242749e-01 4.29850787e-01
      7.34966576e-01 4.68656778e-01 6.65924251e-01 4.98507500e-01
      6.08017802e-01 5.10447800e-01 5.59020042e-01 5.16417980e-01
      5.12249470e-01 5.13432860e-01 4.56570148e-01 5.07462740e-01
      4.16481078e-01 4.77611989e-01 5.07795095e-01 4.50746328e-01
      5.52338541e-01 4.56716478e-01 5.99109113e-01 4.50746328e-01
      7.06013381e-01 4.65671688e-01 6.01336300e-01 4.47761238e-01
      5.54565728e-01 4.56716478e-01 5.10022283e-01 4.50746328e-01</_>
    <_>
      0. 0. 1.27388537e-02 1.64179102e-01 2.97239907e-02 3.20895523e-01
      4.88322712e-02 4.75124389e-01 8.28025490e-02 6.24378085e-01
      1.52866244e-01 7.58706450e-01 2.42038220e-01 8.80596995e-01
      3.46072197e-01 9.75124359e-01 4.77706999e-01 1. 6.13588095e-01
      9.75124359e-01 7.32484102e-01 8.90547276e-01 8.32271755e-01
      7.73631811e-01 9.08704877e-01 6.36815906e-01 9.46921468e-01
      4.87562180e-01 9.66029704e-01 3.23383093e-01 9.87261176e-01
      1.56716421e-01 1. -1.74129345e-02 5.09554148e-02 -2.48756222e-02
      1.12526536e-01 -9.45273638e-02 2.08067939e-01 -8.95522386e-02
      2.97239929e-01 -5.97014911e-02 3.88535023e-01 -2.48756222e-02
      5.09554148e-01 -2.98507456e-02 6.09341800e-01 -6.46766201e-02
      7.07006395e-01 -9.20398012e-02 8.06794047e-01 -8.95522386e-02
      8.85350347e-01 -2.98507456e-02 4.52229291e-01 3.23383100e-02
      4.52229291e-01 1.39303476e-01 4.52229291e-01 2.48756215e-01
      4.50106144e-01 3.63184094e-01 3.67303610e-01 4.22885567e-01
      4.09766465e-01 4.40298498e-01 4.56475586e-01 4.55223888e-01
      5.05307853e-01 4.40298498e-01 5.52016973e-01 4.22885567e-01
      1.67728230e-01 3.48258689e-02 2.22929940e-01 7.46268639e-03
      2.82377928e-01 4.97512426e-03 3.37579608e-01 4.22885567e-02
      2.80254781e-01 5.47263697e-02 2.20806792e-01 5.72139286e-02
      5.94479859e-01 3.98009941e-02 6.56050980e-01 4.97512426e-03
      7.15498924e-01 9.95024852e-03 7.70700634e-01 3.98009941e-02
      7.15498924e-01 5.72139286e-02 6.56050980e-01 5.22388071e-02
      3.01486194e-01 6.11940324e-01 3.48195314e-01 5.72139323e-01
      4.05520171e-01 5.49751222e-01 4.54352438e-01 5.64676642e-01
      5.05307853e-01 5.47263682e-01 5.73248386e-01 5.67164183e-01
      6.34819508e-01 6.01990044e-01 5.75371563e-01 6.69154227e-01
      5.13800442e-01 7.03980088e-01 4.60721880e-01 7.13930368e-01
      4.05520171e-01 7.06467688e-01 3.50318462e-01 6.74129367e-01
      3.26963902e-01 6.11940324e-01 4.07643318e-01 6.09452724e-01
      4.56475586e-01 6.19403005e-01 5.09554148e-01 6.06965184e-01
      6.05095565e-01 6.04477584e-01 5.09554148e-01 6.06965184e-01
      4.56475586e-01 6.19403005e-01 4.07643318e-01 6.09452724e-01</_>
    <_>
      0. 0. 6.43776823e-03 1.57754019e-01 1.93133056e-02 3.12834173e-01
      3.43347639e-02 4.67914402e-01 5.79399131e-02 6.25668406e-01
      1.05150215e-01 7.64705837e-01 1.90987125e-01 8.82352948e-01
      2.93991417e-01 9.62566853e-01 4.27038640e-01 1. 5.64377666e-01
      9.89304841e-01 7.01716721e-01 9.30481255e-01 8.11158776e-01
      8.28876972e-01 8.84120166e-01 6.95187151e-01 9.24892724e-01
      5.40106893e-01 9.57081556e-01 3.79679084e-01 9.84978557e-01
      2.19251275e-01 1. 5.08021414e-02 4.93562222e-02 -9.35828984e-02
      1.15879826e-01 -1.68449208e-01 2.16738194e-01 -1.71123013e-01
      3.11158806e-01 -1.31016061e-01 3.99141639e-01 -7.48663172e-02
      5.30042946e-01 -6.14973307e-02 6.24463499e-01 -1.04278080e-01
      7.23175943e-01 -1.28342256e-01 8.24034333e-01 -1.09625675e-01
      8.94849777e-01 -3.20855640e-02 4.59227473e-01 1.06951883e-02
      4.52789694e-01 1.09625675e-01 4.46351945e-01 2.13903755e-01
      4.39914167e-01 3.20855558e-01 3.56223166e-01 3.93048078e-01
      3.94849777e-01 4.14438456e-01 4.42060083e-01 4.30481225e-01
      4.91416305e-01 4.22459841e-01 5.36480665e-01 4.11764652e-01
      1.50214598e-01 8.02139100e-03 2.06008583e-01 -3.20855640e-02
      2.78969944e-01 -2.40641739e-02 3.34763944e-01 4.54545505e-02
      2.70386279e-01 6.14973307e-02 1.99570820e-01 5.61497360e-02
      5.96566498e-01 6.68449253e-02 6.56652331e-01 8.02139100e-03
      7.29613721e-01 1.06951883e-02 7.85407722e-01 6.14973307e-02
      7.31759667e-01 9.62566957e-02 6.60944223e-01 9.35828984e-02
      3.15450639e-01 6.68449163e-01 3.54077250e-01 5.80213845e-01
      4.05579388e-01 5.40106893e-01 4.42060083e-01 5.66844881e-01
      4.82832611e-01 5.56149721e-01 5.38626611e-01 6.20320797e-01
      5.85836887e-01 7.24598885e-01 5.27897000e-01 7.32620299e-01
      4.72103000e-01 7.27272689e-01 4.29184556e-01 7.19251335e-01
      3.88412029e-01 7.05882311e-01 3.47639471e-01 6.84491932e-01
      3.47639471e-01 6.60427809e-01 4.01287556e-01 6.17647052e-01
      4.39914167e-01 6.33689821e-01 4.82832611e-01 6.36363626e-01
      5.53648055e-01 7.08556116e-01 4.74248916e-01 6.36363626e-01
      4.35622305e-01 6.33689821e-01 3.94849777e-01 6.14973247e-01</_>
    <_>
      0. 0. 8.56531039e-03 1.52454764e-01 2.56959312e-02 2.99741656e-01
      3.85438986e-02 4.52196419e-01 6.63811564e-02 5.99483252e-01
      1.19914345e-01 7.39018083e-01 2.01284796e-01 8.60465109e-01
      3.01927209e-01 9.58656311e-01 4.32548165e-01 1. 5.73875785e-01
      9.89664078e-01 6.98072791e-01 9.19896662e-01 8.05139184e-01
      8.13953519e-01 8.80085647e-01 6.82170570e-01 9.27194834e-01
      5.27131796e-01 9.59314764e-01 3.69509101e-01 9.87152040e-01
      2.17054322e-01 1. 5.42635620e-02 5.99571727e-02 -1.00775182e-01
      1.22055672e-01 -1.78294554e-01 2.18415424e-01 -1.83462515e-01
      3.10492516e-01 -1.42118856e-01 3.98286939e-01 -8.52713138e-02
      5.33190548e-01 -6.71834573e-02 6.27408981e-01 -1.11111104e-01
      7.28051364e-01 -1.36950895e-01 8.28693807e-01 -1.18863039e-01
      8.99357617e-01 -3.35917287e-02 4.62526768e-01 5.16795833e-03
      4.56102788e-01 9.81912091e-02 4.49678808e-01 1.96382418e-01
      4.41113502e-01 2.97157675e-01 3.59743029e-01 3.74677062e-01
      3.98286939e-01 3.92764896e-01 4.43254828e-01 4.08268780e-01
      4.92505342e-01 4.00516838e-01 5.39614558e-01 3.87596935e-01
      1.58458248e-01 -7.75193749e-03 2.11991429e-01 -4.90956046e-02
      2.80513912e-01 -4.13436666e-02 3.40471089e-01 2.58397907e-02
      2.69807279e-01 4.39276434e-02 2.01284796e-01 3.61757092e-02
      6.01713061e-01 4.65116240e-02 6.61670208e-01 -1.03359167e-02
      7.32334018e-01 -1.03359167e-02 7.90149868e-01 4.39276434e-02
      7.34475374e-01 7.75193721e-02 6.61670208e-01 7.23514184e-02
      2.84796566e-01 5.94315290e-01 3.40471089e-01 5.45219660e-01
      3.98286939e-01 5.19379854e-01 4.45396155e-01 5.42635679e-01
      4.90364015e-01 5.27131796e-01 5.50321221e-01 5.60723543e-01
      6.10278368e-01 6.22739077e-01 5.46038568e-01 6.77002609e-01
      4.83940035e-01 7.00258434e-01 4.36830848e-01 7.00258434e-01
      3.87580305e-01 6.87338531e-01 3.34047109e-01 6.53746784e-01
      3.12633842e-01 5.94315290e-01 3.96145612e-01 5.71059465e-01
      4.43254828e-01 5.86563349e-01 4.90364015e-01 5.81395388e-01
      5.78158438e-01 6.17571115e-01 4.86081362e-01 6.17571115e-01
      4.41113502e-01 6.22739077e-01 3.91862959e-01 6.04651213e-01</_>
    <_>
      0. 0. 1.06382975e-02 1.59779623e-01 2.76595745e-02 3.14049542e-01
      4.04255316e-02 4.71074343e-01 6.59574494e-02 6.28099144e-01
      1.19148940e-01 7.65840173e-01 2.08510637e-01 8.78787875e-01
      3.06382984e-01 9.66942132e-01 4.36170220e-01 1. 5.74468076e-01
      9.94490385e-01 6.97872341e-01 9.31129456e-01 8.06382954e-01
      8.31955910e-01 8.82978737e-01 7.02479303e-01 9.29787219e-01
      5.48209310e-01 9.59574461e-01 3.85674894e-01 9.85106409e-01
      2.23140433e-01 1. 4.95867804e-02 6.17021285e-02 -6.61157072e-02
      1.25531912e-01 -1.48760349e-01 2.21276596e-01 -1.57024801e-01
      3.14893603e-01 -1.21212132e-01 4.04255331e-01 -6.88705295e-02
      5.23404241e-01 -5.78512438e-02 6.21276617e-01 -1.04683205e-01
      7.21276581e-01 -1.29476592e-01 8.23404253e-01 -1.07438028e-01
      8.93617034e-01 -2.20385697e-02 4.57446814e-01 1.65289268e-02
      4.53191489e-01 1.12947665e-01 4.44680840e-01 2.09366322e-01
      4.38297868e-01 3.11294705e-01 3.51063818e-01 3.88429701e-01
      3.95744681e-01 4.10468280e-01 4.44680840e-01 4.24242377e-01
      4.97872353e-01 4.13223088e-01 5.46808481e-01 3.96694154e-01
      1.59574464e-01 1.65289268e-02 2.12765962e-01 -1.92837473e-02
      2.78723419e-01 -1.65289268e-02 3.40425521e-01 3.85674946e-02
      2.74468094e-01 5.23416027e-02 2.10638300e-01 5.23416027e-02
      5.95744669e-01 5.23416027e-02 6.61702156e-01 5.50964242e-03
      7.27659583e-01 1.10192848e-02 7.82978714e-01 5.23416027e-02
      7.25531936e-01 8.26446339e-02 6.59574449e-01 7.71349892e-02
      2.91489363e-01 6.06060565e-01 3.51063818e-01 5.67493081e-01
      4.10638303e-01 5.42699695e-01 4.51063842e-01 5.59228599e-01
      4.97872353e-01 5.45454502e-01 5.61702132e-01 5.73002696e-01
      6.29787207e-01 6.19834661e-01 5.59574485e-01 6.74931109e-01
      4.93617028e-01 6.99724495e-01 4.44680840e-01 7.02479303e-01
      3.97872329e-01 6.96969688e-01 3.42553198e-01 6.66666627e-01
      3.21276605e-01 6.03305757e-01 4.08510625e-01 5.84021986e-01
      4.51063842e-01 5.97796082e-01 4.97872353e-01 5.89531660e-01
      5.97872317e-01 6.11570239e-01 4.93617028e-01 6.17079854e-01
      4.46808517e-01 6.25344336e-01 4.02127653e-01 6.14325047e-01</_>
    <_>
      0. 0. 6.39658840e-03 1.53846160e-01 2.34541576e-02 3.04944992e-01
      3.83795314e-02 4.61538404e-01 6.18336871e-02 6.15384579e-01
      1.17270790e-01 7.50000000e-01 2.02558637e-01 8.65384579e-01
      3.00639659e-01 9.61538434e-01 4.32835817e-01 1. 5.75692952e-01
      9.94505465e-01 7.01492548e-01 9.25824165e-01 8.12366724e-01
      8.26923072e-01 8.89125824e-01 6.95054948e-01 9.33901906e-01
      5.38461506e-01 9.63752687e-01 3.76373559e-01 9.87206817e-01
      2.11538389e-01 1. 4.39560488e-02 5.33049032e-02 -8.79120976e-02
      1.19402982e-01 -1.64835185e-01 2.13219613e-01 -1.64835185e-01
      3.04904044e-01 -1.29120886e-01 3.88059705e-01 -7.96703398e-02
      5.24520278e-01 -6.86813220e-02 6.20469093e-01 -1.09890118e-01
      7.18550086e-01 -1.34615391e-01 8.18763316e-01 -1.18131876e-01
      8.89125824e-01 -3.84615399e-02 4.54157770e-01 0. 4.49893385e-01
      9.89011079e-02 4.43496794e-01 2.00549468e-01 4.37100202e-01
      3.02197754e-01 3.45415771e-01 3.59890044e-01 3.90191883e-01
      3.87362599e-01 4.41364616e-01 4.09340620e-01 4.96801704e-01
      3.98351610e-01 5.47974408e-01 3.81868094e-01 1.55650318e-01 0.
      2.13219613e-01 -3.57142873e-02 2.77185500e-01 -3.02197821e-02
      3.36887002e-01 2.47252770e-02 2.70788908e-01 3.29670347e-02
      2.06823021e-01 3.02197821e-02 5.90618312e-01 4.12087962e-02
      6.58848643e-01 -2.74725305e-03 7.24946678e-01 0. 7.80383766e-01
      4.39560488e-02 7.24946678e-01 6.86813220e-02 6.58848643e-01
      6.31868169e-02 2.85714298e-01 5.68681300e-01 3.34754795e-01
      5.10988951e-01 3.90191883e-01 4.97252703e-01 4.41364616e-01
      5.21977961e-01 5.01066089e-01 5.08241713e-01 5.62899768e-01
      5.41208744e-01 6.20469093e-01 6.12637341e-01 5.56503177e-01
      6.51098847e-01 4.94669497e-01 6.70329630e-01 4.34968024e-01
      6.70329630e-01 3.79530907e-01 6.56593382e-01 3.28358203e-01
      6.18131816e-01 3.11300635e-01 5.63186765e-01 3.88059705e-01
      5.60439527e-01 4.41364616e-01 5.74175775e-01 4.98933911e-01
      5.71428537e-01 5.90618312e-01 6.01648331e-01 4.96801704e-01
      5.76923013e-01 4.37100202e-01 5.82417548e-01 3.83795321e-01
      5.63186765e-01</_>
    <_>
      0. 0. 8.49256944e-03 1.89102560e-01 2.54777074e-02 3.75000000e-01
      4.67091277e-02 5.57692289e-01 9.34182554e-02 7.21153855e-01
      1.74097657e-01 8.42948735e-01 2.82377928e-01 9.19871807e-01
      3.97027612e-01 9.74358976e-01 5.22292972e-01 1. 6.43312097e-01
      9.77564096e-01 7.47346044e-01 9.07051265e-01 8.40764344e-01
      8.20512831e-01 9.02335465e-01 6.95512831e-01 9.38428879e-01
      5.44871807e-01 9.61783469e-01 3.84615391e-01 9.85137999e-01
      2.21153840e-01 1. 5.12820520e-02 1.16772823e-01 -1.57051280e-01
      1.88959658e-01 -2.46794865e-01 2.84501076e-01 -2.85256416e-01
      3.84288758e-01 -2.72435904e-01 4.77706999e-01 -2.24358976e-01
      6.15711272e-01 -2.01923072e-01 7.04883218e-01 -2.33974352e-01
      7.98301458e-01 -2.33974352e-01 8.81104052e-01 -1.85897440e-01
      9.34182584e-01 -8.65384638e-02 5.45647562e-01 -7.05128238e-02
      5.43524444e-01 2.56410260e-02 5.43524444e-01 1.18589744e-01
      5.43524444e-01 2.17948720e-01 4.39490438e-01 3.26923072e-01
      4.84076440e-01 3.52564096e-01 5.32908678e-01 3.65384609e-01
      5.77494681e-01 3.58974367e-01 6.22080684e-01 3.39743584e-01
      2.35668793e-01 -2.56410260e-02 2.92993635e-01 -8.65384638e-02
      3.63057315e-01 -8.33333358e-02 4.24628437e-01 -6.41025649e-03
      3.60934168e-01 1.60256419e-02 2.88747340e-01 1.60256419e-02
      6.32696390e-01 9.61538497e-03 6.94267511e-01 -6.08974360e-02
      7.62208045e-01 -5.12820520e-02 8.13163459e-01 1.60256419e-02
      7.60084927e-01 4.80769239e-02 6.92144394e-01 3.84615399e-02
      3.67303610e-01 5.83333313e-01 4.37367290e-01 5.44871807e-01
      4.92569000e-01 5.25641024e-01 5.24416149e-01 5.44871807e-01
      5.56263268e-01 5.32051265e-01 6.07218683e-01 5.54487169e-01
      6.73036098e-01 5.99358976e-01 6.09341800e-01 6.21794879e-01
      5.58386385e-01 6.25000000e-01 5.26539266e-01 6.25000000e-01
      4.90445852e-01 6.18589759e-01 4.37367290e-01 6.08974338e-01
      3.92781317e-01 5.76923072e-01 4.90445852e-01 5.60897410e-01
      5.24416149e-01 5.70512831e-01 5.56263268e-01 5.64102590e-01
      6.45435274e-01 5.86538434e-01 5.58386385e-01 5.64102590e-01
      5.26539266e-01 5.70512831e-01 4.94692147e-01 5.60897410e-01</_>
    <_>
      0. 0. 7.05467351e-03 1.75999999e-01 3.17460336e-02 3.41333330e-01
      6.34920672e-02 5.01333356e-01 1.04056440e-01 6.58666670e-01
      1.67548507e-01 7.94666648e-01 2.52204597e-01 9.01333332e-01
      3.50970030e-01 9.76000011e-01 4.63844806e-01 1. 5.82010567e-01
      9.81333315e-01 6.96649015e-01 9.20000017e-01 8.00705492e-01
      8.21333349e-01 8.81834209e-01 6.77333355e-01 9.31216955e-01
      5.14666677e-01 9.64726627e-01 3.33333343e-01 9.89417970e-01
      1.46666661e-01 1. -4.26666662e-02 6.70194030e-02 -1.30666673e-01
      1.37566134e-01 -2.16000006e-01 2.29276896e-01 -2.39999995e-01
      3.20987642e-01 -2.18666673e-01 4.12698418e-01 -1.92000002e-01
      5.29100537e-01 -1.86666667e-01 6.27865970e-01 -2.21333340e-01
      7.24867702e-01 -2.50666678e-01 8.23633134e-01 -2.26666674e-01
      9.06525552e-01 -1.57333329e-01 4.65608478e-01 -3.99999991e-02
      4.65608478e-01 6.93333298e-02 4.67372119e-01 1.78666666e-01
      4.65608478e-01 2.90666670e-01 3.58024687e-01 4.05333340e-01
      4.12698418e-01 4.13333327e-01 4.65608478e-01 4.23999995e-01
      5.22045851e-01 4.13333327e-01 5.74955881e-01 4.10666674e-01
      1.51675478e-01 -2.66666673e-02 2.15167552e-01 -8.79999995e-02
      2.91005284e-01 -9.33333337e-02 3.49206358e-01 0. 2.85714298e-01
      1.33333337e-02 2.09876537e-01 1.86666660e-02 6.11992955e-01
      -8.00000038e-03 6.77248657e-01 -9.86666679e-02 7.51322746e-01
      -9.60000008e-02 8.14814806e-01 -3.73333320e-02 7.60141075e-01
      8.00000038e-03 6.82539701e-01 8.00000038e-03 2.82186955e-01
      6.39999986e-01 3.49206358e-01 5.65333307e-01 4.12698418e-01
      5.19999981e-01 4.60317463e-01 5.41333318e-01 5.13227522e-01
      5.25333345e-01 5.83774269e-01 5.75999975e-01 6.52557313e-01
      6.61333323e-01 5.74955881e-01 7.03999996e-01 5.06172836e-01
      7.14666665e-01 4.49735463e-01 7.17333317e-01 3.98589075e-01
      7.09333360e-01 3.42151672e-01 6.88000023e-01 3.10405642e-01
      6.32000029e-01 4.10934746e-01 6.05333328e-01 4.58553791e-01
      6.13333344e-01 5.13227522e-01 6.13333344e-01 6.22574985e-01
      6.53333306e-01 5.04409194e-01 6.02666676e-01 4.51499104e-01
      6.05333328e-01 4.02116388e-01 6.00000024e-01</_>
    <_>
      0. 0. 4.28265519e-03 1.62234038e-01 1.92719493e-02 3.21808517e-01
      3.42612416e-02 4.84042555e-01 5.78158461e-02 6.43617034e-01
      1.15631692e-01 7.79255331e-01 2.11991429e-01 8.85638297e-01
      3.19057822e-01 9.70744669e-01 4.51820135e-01 1. 5.97430408e-01
      9.89361703e-01 7.23768711e-01 9.17553186e-01 8.30835104e-01
      8.16489339e-01 9.01498914e-01 6.83510661e-01 9.40042853e-01
      5.23936152e-01 9.63597417e-01 3.64361703e-01 9.89293337e-01
      2.10106388e-01 1. 4.52127643e-02 5.35331890e-02 -9.04255286e-02
      1.22055672e-01 -1.56914890e-01 2.16274083e-01 -1.59574464e-01
      3.06209862e-01 -1.22340426e-01 3.89721632e-01 -6.91489354e-02
      5.33190548e-01 -5.31914905e-02 6.27408981e-01 -9.84042585e-02
      7.23768711e-01 -1.25000000e-01 8.22269797e-01 -1.14361703e-01
      8.95074964e-01 -4.25531901e-02 4.60385442e-01 2.65957452e-02
      4.56102788e-01 1.22340426e-01 4.49678808e-01 2.26063833e-01
      4.43254828e-01 3.29787225e-01 3.59743029e-01 4.12234038e-01
      4.00428265e-01 4.30851072e-01 4.47537482e-01 4.46808517e-01
      4.96787995e-01 4.33510631e-01 5.43897212e-01 4.20212775e-01
      1.52034268e-01 1.86170209e-02 2.05567449e-01 -2.92553194e-02
      2.78372586e-01 -2.12765951e-02 3.38329762e-01 5.05319163e-02
      2.69807279e-01 7.44680837e-02 1.97002143e-01 6.91489354e-02
      5.97430408e-01 6.64893612e-02 6.61670208e-01 0. 7.34475374e-01 0.
      7.92291224e-01 5.58510646e-02 7.38758028e-01 9.84042585e-02
      6.65952861e-01 9.57446843e-02 2.61241972e-01 6.48936152e-01
      3.34047109e-01 5.98404229e-01 3.98286939e-01 5.69148958e-01
      4.45396155e-01 5.90425551e-01 4.96787995e-01 5.71808517e-01
      5.71734488e-01 6.09042525e-01 6.48822248e-01 6.59574449e-01
      5.71734488e-01 6.99468076e-01 4.96787995e-01 7.15425551e-01
      4.45396155e-01 7.18085110e-01 3.94004285e-01 7.10106373e-01
      3.29764456e-01 6.91489339e-01 2.91220546e-01 6.48936152e-01
      3.98286939e-01 6.25000000e-01 4.45396155e-01 6.32978737e-01
      4.96787995e-01 6.25000000e-01 6.16702378e-01 6.56914890e-01
      4.96787995e-01 6.46276593e-01 4.45396155e-01 6.51595771e-01
      3.98286939e-01 6.40957475e-01</_>
    <_>
      0. 0. 1.01522841e-02 1.79775283e-01 2.53807101e-02 3.55805248e-01
      4.56852801e-02 5.35580516e-01 8.62944126e-02 7.04119861e-01
      1.57360405e-01 8.35205972e-01 2.58883238e-01 9.21348333e-01
      3.70558381e-01 9.85018730e-01 4.94923860e-01 1. 6.19289339e-01
      9.66292143e-01 7.33502567e-01 8.98876429e-01 8.47715735e-01
      8.12734067e-01 9.31472063e-01 6.85393274e-01 9.74619269e-01
      5.24344563e-01 9.92385805e-01 3.48314613e-01 9.94923830e-01
      1.68539330e-01 1. -1.12359552e-02 7.36040622e-02 -2.02247187e-01
      1.14213198e-01 -3.37078661e-01 1.97969541e-01 -4.08239692e-01
      2.96954304e-01 -4.04494375e-01 3.93401027e-01 -3.52059931e-01
      5.40609121e-01 -3.67041200e-01 6.42131984e-01 -4.23220962e-01
      7.43654847e-01 -4.26966280e-01 8.37563455e-01 -3.52059931e-01
      8.85786831e-01 -2.24719107e-01 4.77157354e-01 -1.64794013e-01
      4.79695439e-01 -7.86516890e-02 4.79695439e-01 3.74531839e-03
      4.79695439e-01 9.73782763e-02 3.90862942e-01 2.73408234e-01
      4.36548233e-01 2.80898869e-01 4.79695439e-01 2.88389504e-01
      5.25380731e-01 2.77153552e-01 5.65989852e-01 2.65917599e-01
      1.85279191e-01 -8.61423239e-02 2.33502537e-01 -1.49812728e-01
      2.99492389e-01 -1.53558046e-01 3.60406101e-01 -8.98876414e-02
      2.99492389e-01 -5.99250942e-02 2.33502537e-01 -5.24344556e-02
      5.98984778e-01 -9.73782763e-02 6.64974630e-01 -1.61048695e-01
      7.30964482e-01 -1.49812728e-01 7.81725883e-01 -8.61423239e-02
      7.28426397e-01 -5.99250942e-02 6.64974630e-01 -6.36704117e-02
      2.58883238e-01 5.61797738e-01 3.37563455e-01 4.71910119e-01
      4.21319783e-01 4.30711597e-01 4.74619299e-01 4.45692897e-01
      5.35533011e-01 4.30711597e-01 6.14213169e-01 4.68164802e-01
      6.95431471e-01 5.46816468e-01 6.16751254e-01 6.10486865e-01
      5.38071036e-01 6.32958829e-01 4.77157354e-01 6.40449464e-01
      4.18781728e-01 6.44194782e-01 3.37563455e-01 6.32958829e-01
      2.91878164e-01 5.58052421e-01 4.21319783e-01 4.90636706e-01
      4.74619299e-01 4.90636706e-01 5.35533011e-01 4.86891389e-01
      6.59898460e-01 5.43071151e-01 5.35533011e-01 5.65543056e-01
      4.74619299e-01 5.73033690e-01 4.18781728e-01 5.73033690e-01</_>
    <_>
      0. 0. 5.98802418e-03 1.90243959e-01 1.99600793e-02 3.82926881e-01
      6.38722554e-02 5.60975671e-01 1.47704586e-01 7.09756136e-01
      2.63473064e-01 8.34146380e-01 3.87225538e-01 9.29268301e-01
      5.16966045e-01 1. 6.48702621e-01 9.95121956e-01 7.50499010e-01
      9.36585367e-01 8.12375247e-01 8.21951210e-01 8.74251485e-01
      7.07317114e-01 9.34131742e-01 5.85365891e-01 9.80039895e-01
      4.48780537e-01 1. 3.07317138e-01 9.92015958e-01 1.60975590e-01
      9.70059872e-01 1.21951215e-02 2.31536925e-01 -6.09756038e-02
      3.05389225e-01 -1.29268289e-01 4.01197612e-01 -1.58536568e-01
      4.99002010e-01 -1.56097546e-01 5.90818346e-01 -1.24390237e-01
      7.00598776e-01 -1.31707311e-01 7.60479033e-01 -1.68292671e-01
      8.26347291e-01 -1.82926819e-01 8.90219569e-01 -1.87804863e-01
      9.32135701e-01 -1.41463399e-01 6.54690623e-01 5.12195081e-02
      6.68662667e-01 1.46341458e-01 6.86626732e-01 2.41463467e-01
      7.06586838e-01 3.41463476e-01 5.64870238e-01 4.36585397e-01
      6.26746535e-01 4.51219559e-01 6.90618753e-01 4.65853691e-01
      7.40518987e-01 4.41463470e-01 7.84431159e-01 4.09756154e-01
      3.13373268e-01 7.80487731e-02 3.73253495e-01 3.90243866e-02
      4.41117764e-01 3.90243866e-02 5.04990041e-01 9.26829204e-02
      4.41117764e-01 1.14634141e-01 3.69261473e-01 1.17073163e-01
      7.32534945e-01 7.80487731e-02 7.84431159e-01 1.46341454e-02
      8.46307397e-01 4.87804832e-03 8.96207571e-01 3.41463387e-02
      8.56287420e-01 7.80487731e-02 7.94411182e-01 8.53658468e-02
      4.23153698e-01 6.31707370e-01 5.22954106e-01 5.75609803e-01
      6.22754514e-01 5.46341479e-01 6.82634711e-01 5.56097567e-01
      7.36526966e-01 5.31707346e-01 7.94411182e-01 5.43902457e-01
      8.32335353e-01 5.87804914e-01 7.96407163e-01 7.26829290e-01
      7.40518987e-01 7.95121968e-01 6.78642690e-01 8.17073166e-01
      6.12774432e-01 8.17073166e-01 5.12974024e-01 7.73170769e-01
      4.57085818e-01 6.31707370e-01 6.20758474e-01 6.14634156e-01
      6.80638731e-01 6.14634156e-01 7.36526966e-01 6.02439046e-01
      8.04391205e-01 5.97561002e-01 7.36526966e-01 6.90243900e-01
      6.78642690e-01 7.12195158e-01 6.14770472e-01 7.12195158e-01</_>
    <_>
      0. 0. 2.79329605e-02 1.80428132e-01 6.70391098e-02 3.57798159e-01
      1.08007446e-01 5.32110095e-01 1.56424582e-01 7.06422031e-01
      2.38361269e-01 8.50152910e-01 3.46368700e-01 9.48012233e-01
      4.76722538e-01 1. 6.20111704e-01 9.81651366e-01 7.56052136e-01
      9.38837945e-01 8.52886379e-01 8.34862411e-01 9.36685264e-01
      7.00305820e-01 9.86964643e-01 5.25993884e-01 1. 3.24159026e-01
      9.96275604e-01 1.34556577e-01 9.92551208e-01 -5.19877672e-02
      9.79515851e-01 -2.44648322e-01 7.44878948e-02 -1.22324161e-01
      1.22905031e-01 -2.53822625e-01 2.12290496e-01 -3.08868498e-01
      3.07262570e-01 -2.96636075e-01 3.94785851e-01 -2.47706428e-01
      5.34450650e-01 -2.90519863e-01 6.16387308e-01 -3.76146793e-01
      7.07634985e-01 -4.28134561e-01 8.00744891e-01 -4.15902138e-01
      8.64059567e-01 -3.14984709e-01 4.72998142e-01 -2.07951069e-01
      4.86033529e-01 -9.48012248e-02 4.99068916e-01 2.14067269e-02
      5.15828669e-01 1.37614682e-01 4.22718823e-01 2.38532111e-01
      4.76722538e-01 2.53822625e-01 5.34450650e-01 2.66055048e-01
      5.86592197e-01 2.23241597e-01 6.35009289e-01 1.80428132e-01
      1.76908746e-01 -7.64525980e-02 2.29050279e-01 -1.19266056e-01
      2.86778390e-01 -1.40672788e-01 3.53817493e-01 -1.25382259e-01
      2.96089381e-01 -9.78593305e-02 2.38361269e-01 -7.95107037e-02
      6.10800743e-01 -1.86544344e-01 6.66666687e-01 -2.26299688e-01
      7.24394798e-01 -2.32415900e-01 7.78398514e-01 -2.17125386e-01
      7.31843591e-01 -1.98776752e-01 6.74115479e-01 -1.89602450e-01
      3.51955295e-01 4.83180434e-01 4.17132229e-01 4.12844032e-01
      4.91620123e-01 3.73088688e-01 5.53072631e-01 3.85321110e-01
      6.12662971e-01 3.45565736e-01 6.90875232e-01 3.42507631e-01
      7.59776533e-01 3.76146793e-01 7.07634985e-01 4.83180434e-01
      6.36871517e-01 5.56574941e-01 5.73556781e-01 5.84097862e-01
      5.10242105e-01 5.93272150e-01 4.28305387e-01 5.71865439e-01
      3.79888266e-01 4.83180434e-01 4.97206718e-01 4.61773694e-01
      5.58659196e-01 4.58715588e-01 6.20111704e-01 4.31192666e-01
      7.33705759e-01 3.88379216e-01 6.23836100e-01 4.34250772e-01
      5.62383592e-01 4.64831799e-01 5.00931084e-01 4.67889905e-01</_>
    <_>
      0. 0. 4.80769249e-03 1.79104492e-01 1.92307699e-02 3.54477525e-01
      4.08653840e-02 5.37313402e-01 8.41346160e-02 7.01492488e-01
      1.61057696e-01 8.35820854e-01 2.76442319e-01 9.29104447e-01
      4.01442319e-01 9.85074639e-01 5.31250000e-01 1. 6.63461566e-01
      9.62686539e-01 7.86057711e-01 8.88059676e-01 8.96634638e-01
      7.79850721e-01 9.61538434e-01 6.30596995e-01 9.90384638e-01
      4.47761118e-01 1. 2.53731370e-01 9.95192289e-01 5.97014986e-02
      9.85576928e-01 -1.34328380e-01 7.45192319e-02 -2.20149279e-01
      1.20192304e-01 -3.47014964e-01 1.99519232e-01 -4.40298557e-01
      3.00480783e-01 -4.85074669e-01 3.96634609e-01 -4.77611989e-01
      4.90384609e-01 -5.07462740e-01 5.86538434e-01 -5.41044831e-01
      6.89903855e-01 -5.18656790e-01 7.78846145e-01 -4.44029897e-01
      8.41346145e-01 -3.24626893e-01 4.51923072e-01 -2.72388101e-01
      4.56730783e-01 -1.64179116e-01 4.63942319e-01 -4.47761230e-02
      4.71153855e-01 7.08955303e-02 3.99038464e-01 2.42537335e-01
      4.39903855e-01 2.50000030e-01 4.83173072e-01 2.53731370e-01
      5.26442289e-01 2.38805994e-01 5.62500000e-01 2.23880619e-01
      1.73076928e-01 -1.71641812e-01 2.23557696e-01 -2.50000030e-01
      2.90865391e-01 -2.57462710e-01 3.55769217e-01 -1.86567187e-01
      2.93269217e-01 -1.60447776e-01 2.25961536e-01 -1.49253741e-01
      5.72115362e-01 -2.20149279e-01 6.32211566e-01 -3.05970192e-01
      6.99519217e-01 -3.05970192e-01 7.54807711e-01 -2.46268690e-01
      7.04326928e-01 -2.08955243e-01 6.39423072e-01 -2.05223903e-01
      3.00480783e-01 5.48507392e-01 3.67788464e-01 4.47761118e-01
      4.44711536e-01 3.84328276e-01 4.92788464e-01 3.99253666e-01
      5.40865362e-01 3.76865596e-01 6.29807711e-01 4.21641737e-01
      7.13942289e-01 4.99999940e-01 6.41826928e-01 5.89552164e-01
      5.60096145e-01 6.23134315e-01 5.07211566e-01 6.30596995e-01
      4.54326928e-01 6.34328306e-01 3.75000000e-01 6.11940265e-01
      3.36538464e-01 5.37313402e-01 4.49519217e-01 4.66417849e-01
      4.95192319e-01 4.66417849e-01 5.45673072e-01 4.55223829e-01
      6.75480783e-01 4.96268600e-01 5.50480783e-01 5.26119351e-01
      5.00000000e-01 5.33582032e-01 4.49519217e-01 5.33582032e-01</_>
    <_>
      0. 0. 1.04438644e-02 1.64794102e-01 2.34986953e-02 3.25842768e-01
      4.17754576e-02 4.90636766e-01 9.13838148e-02 6.47940099e-01
      1.74934730e-01 7.79026270e-01 2.79373378e-01 8.87640476e-01
      3.94255877e-01 9.81273413e-01 5.22193193e-01 1. 6.47519588e-01
      9.70037460e-01 7.59791136e-01 8.80149841e-01 8.61618817e-01
      7.67790318e-01 9.37336802e-01 6.21722877e-01 9.84334230e-01
      4.53183591e-01 9.94778097e-01 2.73408324e-01 1. 1.04868904e-01 1.
      -7.11610392e-02 6.26631826e-02 -1.49812713e-01 1.09660573e-01
      -2.54681617e-01 1.93211481e-01 -3.07116061e-01 2.84595311e-01
      -3.07116061e-01 3.70757192e-01 -2.77153522e-01 5.30026138e-01
      -2.95880109e-01 6.21409893e-01 -3.48314553e-01 7.15404689e-01
      -3.59550506e-01 8.06788504e-01 -3.25842649e-01 8.72062683e-01
      -2.35955030e-01 4.56919074e-01 -1.49812713e-01 4.62140977e-01
      -2.62172259e-02 4.62140977e-01 9.36329514e-02 4.67362911e-01
      2.13483229e-01 3.70757192e-01 2.92134911e-01 4.22976494e-01
      3.07116181e-01 4.77806777e-01 3.22097450e-01 5.32637060e-01
      2.95880228e-01 5.84856391e-01 2.73408324e-01 1.61879897e-01
      -9.36329514e-02 2.11488247e-01 -1.34831443e-01 2.66318530e-01
      -1.42322078e-01 3.26370746e-01 -1.04868904e-01 2.68929511e-01
      -9.73782688e-02 2.14099213e-01 -8.98876265e-02 6.10966086e-01
      -1.23595491e-01 6.63185358e-01 -1.68539301e-01 7.18015671e-01
      -1.68539301e-01 7.72845924e-01 -1.38576761e-01 7.20626652e-01
      -1.23595491e-01 6.68407321e-01 -1.19850174e-01 2.68929511e-01
      4.60674226e-01 3.52480412e-01 4.38202322e-01 4.28198427e-01
      4.19475734e-01 4.85639691e-01 4.30711687e-01 5.45691907e-01
      4.11985099e-01 6.34464741e-01 4.19475734e-01 7.36292422e-01
      4.34457004e-01 6.44908607e-01 5.24344623e-01 5.61357677e-01
      5.73033750e-01 4.98694509e-01 5.80524385e-01 4.38642293e-01
      5.76779068e-01 3.57702345e-01 5.39325893e-01 2.95039177e-01
      4.64419544e-01 4.30809408e-01 4.86891448e-01 4.88250643e-01
      4.90636766e-01 5.48302889e-01 4.75655496e-01 7.10182786e-01
      4.41947639e-01 5.56135774e-01 4.90636766e-01 4.96083558e-01
      5.01872718e-01 4.38642293e-01 4.94382083e-01</_>
    <_>
      0. 0. 2.84900283e-03 1.66101679e-01 0. 3.35593283e-01
      1.70940179e-02 4.94915307e-01 5.98290600e-02 6.47457659e-01
      1.42450139e-01 7.79661059e-01 2.53561258e-01 8.81355941e-01
      3.70370358e-01 9.72881377e-01 4.98575509e-01 1. 6.29629612e-01
      9.72881377e-01 7.37891734e-01 8.77966106e-01 8.43304873e-01
      7.79661059e-01 9.23076928e-01 6.54237330e-01 9.62962985e-01
      5.15254259e-01 9.77207959e-01 3.59322101e-01 9.88604009e-01
      2.06779644e-01 1. 5.76271117e-02 1.25356123e-01 -2.37288103e-02
      1.93732187e-01 -1.08474568e-01 2.93447286e-01 -1.42372862e-01
      3.96011382e-01 -1.32203370e-01 4.92877483e-01 -9.83050764e-02
      6.15384638e-01 -8.13559219e-02 7.09401727e-01 -1.08474568e-01
      8.09116781e-01 -1.08474568e-01 9.05982912e-01 -7.11864308e-02
      9.51566935e-01 2.37288103e-02 5.58404565e-01 1.35593209e-02
      5.61253548e-01 1.08474568e-01 5.61253548e-01 2.03389809e-01
      5.61253548e-01 3.01694989e-01 4.18803424e-01 3.42372954e-01
      4.81481493e-01 3.66101772e-01 5.47008574e-01 3.93220395e-01
      6.06837630e-01 3.79661083e-01 6.60968661e-01 3.55932266e-01
      2.47863248e-01 2.03389805e-02 3.01994294e-01 -1.01694902e-02
      3.64672363e-01 -1.01694902e-02 4.15954411e-01 3.72881331e-02
      3.58974367e-01 4.40677926e-02 2.96296299e-01 4.40677926e-02
      6.69515669e-01 5.42372838e-02 7.26495743e-01 1.69491507e-02
      7.86324799e-01 2.03389805e-02 8.37606847e-01 5.76271117e-02
      7.86324799e-01 7.45762661e-02 7.26495743e-01 7.11864308e-02
      2.93447286e-01 5.22033930e-01 3.67521375e-01 4.91525471e-01
      4.55840468e-01 4.84745830e-01 5.24216533e-01 5.05084813e-01
      5.86894572e-01 4.91525471e-01 6.69515669e-01 5.11864483e-01
      7.26495743e-01 5.45762777e-01 6.66666687e-01 6.61017001e-01
      5.84045589e-01 7.11864412e-01 5.15669525e-01 7.22033918e-01
      4.44444448e-01 7.05084801e-01 3.56125355e-01 6.40677989e-01
      3.16239327e-01 5.25423765e-01 4.55840468e-01 5.28813601e-01
      5.21367550e-01 5.45762777e-01 5.86894572e-01 5.38983107e-01
      7.03703701e-01 5.52542448e-01 5.84045589e-01 6.16949201e-01
      5.18518507e-01 6.30508542e-01 4.50142443e-01 6.13559365e-01</_>
    <_>
      0. 0. 2.25563906e-02 1.69491529e-01 5.76441102e-02 3.32203388e-01
      9.52380970e-02 4.98305082e-01 1.42857149e-01 6.47457600e-01
      2.15538844e-01 7.79661000e-01 3.10776949e-01 8.84745777e-01
      4.18546379e-01 9.72881377e-01 5.41353405e-01 1. 6.64160430e-01
      9.52542365e-01 7.79448628e-01 8.61016929e-01 8.79699230e-01
      7.32203364e-01 9.44862127e-01 5.76271176e-01 9.77443635e-01
      4.10169482e-01 9.94987488e-01 2.27118641e-01 1. 4.40677963e-02
      9.94987488e-01 -1.42372876e-01 5.76441102e-02 -9.49152559e-02
      9.52380970e-02 -2.13559315e-01 1.77944869e-01 -2.57627130e-01
      2.70676702e-01 -2.57627130e-01 3.53383452e-01 -2.03389823e-01
      5.11278212e-01 -2.03389823e-01 5.96491218e-01 -2.71186441e-01
      6.94235563e-01 -3.01694930e-01 7.91979969e-01 -2.74576277e-01
      8.62155378e-01 -1.83050841e-01 4.43609029e-01 -5.08474559e-02
      4.51127827e-01 7.11864382e-02 4.53634083e-01 1.96610168e-01
      4.61152881e-01 3.22033912e-01 3.88471186e-01 3.96610171e-01
      4.31077689e-01 4.23728824e-01 4.76190478e-01 4.40677971e-01
      5.26315808e-01 4.13559318e-01 5.73934853e-01 3.83050859e-01
      1.72932327e-01 1.35593219e-02 2.23057643e-01 -3.05084754e-02
      2.85714298e-01 -3.38983051e-02 3.50877196e-01 1.01694912e-02
      2.88220555e-01 3.38983051e-02 2.23057643e-01 4.40677963e-02
      5.78947365e-01 -1.35593219e-02 6.39097750e-01 -6.77966103e-02
      7.01754391e-01 -7.79661015e-02 7.59398520e-01 -4.74576280e-02
      7.09273160e-01 -3.38983047e-03 6.46616518e-01 0. 3.40852141e-01
      5.79661012e-01 3.95989984e-01 5.66101670e-01 4.51127827e-01
      5.52542388e-01 4.96240616e-01 5.66101670e-01 5.36340833e-01
      5.49152553e-01 6.04010046e-01 5.52542388e-01 6.81704283e-01
      5.49152553e-01 6.14035070e-01 6.47457600e-01 5.51378429e-01
      6.84745789e-01 5.06265640e-01 6.91525400e-01 4.58646625e-01
      6.84745789e-01 4.03508782e-01 6.50847435e-01 3.68421048e-01
      5.86440682e-01 4.53634083e-01 5.96610188e-01 4.98746872e-01
      6.03389859e-01 5.41353405e-01 5.93220353e-01 6.51629090e-01
      5.62711835e-01 5.41353405e-01 6.06779635e-01 5.01253128e-01
      6.16949141e-01 4.53634083e-01 6.06779635e-01</_>
    <_>
      0. 0. 2.61194035e-02 1.78787798e-01 6.34328350e-02 3.54545385e-01
      1.04477614e-01 5.30303001e-01 1.56716421e-01 7.03030288e-01
      2.38805965e-01 8.45454514e-01 3.48880589e-01 9.42424238e-01
      4.77611929e-01 1. 6.25000000e-01 9.84848499e-01 7.61194050e-01
      9.27272737e-01 8.60074639e-01 8.15151513e-01 9.40298498e-01
      6.78787827e-01 9.86940324e-01 5.06060541e-01 1. 3.09090853e-01
      9.92537320e-01 1.24242343e-01 9.88805950e-01 -5.75757623e-02
      9.73880589e-01 -2.39393964e-01 8.02238807e-02 -1.42424256e-01
      1.25000000e-01 -2.69696981e-01 2.08955228e-01 -3.33333373e-01
      2.98507452e-01 -3.30303073e-01 3.88059705e-01 -2.90909111e-01
      5.52238822e-01 -3.18181843e-01 6.32462680e-01 -3.96969736e-01
      7.18283594e-01 -4.42424297e-01 8.05970132e-01 -4.24242467e-01
      8.63805950e-01 -3.30303073e-01 4.86940295e-01 -2.12121233e-01
      5.01865685e-01 -9.39394012e-02 5.18656731e-01 2.42424272e-02
      5.35447776e-01 1.48484766e-01 4.29104477e-01 2.57575691e-01
      4.85074639e-01 2.69696891e-01 5.46641767e-01 2.81818122e-01
      6.02611959e-01 2.36363560e-01 6.51119411e-01 1.90909013e-01
      1.84701487e-01 -8.78787935e-02 2.29477614e-01 -1.60606071e-01
      2.92910457e-01 -1.78787902e-01 3.58208954e-01 -1.27272740e-01
      2.98507452e-01 -9.39394012e-02 2.36940295e-01 -7.57575855e-02
      6.19403005e-01 -1.87878802e-01 6.67910457e-01 -2.63636380e-01
      7.29477584e-01 -2.72727311e-01 7.83582091e-01 -2.33333349e-01
      7.36940324e-01 -1.96969718e-01 6.77238822e-01 -1.84848502e-01
      3.26492548e-01 4.90909040e-01 4.08582091e-01 4.30302978e-01
      4.96268660e-01 3.93939346e-01 5.61567187e-01 3.96969646e-01
      6.17537320e-01 3.63636315e-01 7.07089543e-01 3.48484784e-01
      7.91044772e-01 3.51515085e-01 7.25746274e-01 4.96969640e-01
      6.47388041e-01 5.90909064e-01 5.85820913e-01 6.21212065e-01
      5.18656731e-01 6.33333325e-01 4.21641797e-01 5.99999964e-01
      3.54477614e-01 4.96969640e-01 5.01865685e-01 4.66666609e-01
      5.65298498e-01 4.60606009e-01 6.23134315e-01 4.30302978e-01
      7.63059676e-01 3.78787816e-01 6.34328365e-01 4.93939340e-01
      5.74626863e-01 5.27272701e-01 5.09328365e-01 5.33333302e-01</_>
    <_>
      0. 0. 1.50862066e-02 1.65760875e-01 3.87931019e-02 3.20652187e-01
      5.17241396e-02 4.78260875e-01 8.62068981e-02 6.33152187e-01
      1.55172408e-01 7.74456501e-01 2.52155185e-01 8.85869563e-01
      3.77155185e-01 9.72826064e-01 5.19396544e-01 1. 6.55172408e-01
      9.70108688e-01 7.67241359e-01 8.83152187e-01 8.55603456e-01
      7.74456501e-01 9.15948272e-01 6.35869563e-01 9.43965495e-01
      4.89130437e-01 9.59051728e-01 3.34239125e-01 9.80603456e-01
      1.90217391e-01 1. 3.26086953e-02 9.05172378e-02 -7.60869533e-02
      1.55172408e-01 -1.46739125e-01 2.45689660e-01 -1.65760875e-01
      3.36206883e-01 -1.44021735e-01 4.22413796e-01 -1.03260867e-01
      6.70258641e-01 -1.11413047e-01 7.52155185e-01 -1.54891297e-01
      8.36206913e-01 -1.73913047e-01 9.15948272e-01 -1.41304344e-01
      9.67672408e-01 -6.79347813e-02 5.38793087e-01 -8.15217383e-03
      5.38793087e-01 1.11413047e-01 5.36637902e-01 2.33695656e-01
      5.36637902e-01 3.50543469e-01 4.28879321e-01 3.94021749e-01
      4.80603456e-01 4.15760875e-01 5.32327592e-01 4.34782594e-01
      5.84051728e-01 4.15760875e-01 6.29310369e-01 3.99456531e-01
      2.04741374e-01 2.44565215e-02 2.65086204e-01 -1.35869561e-02
      3.34051728e-01 -1.35869561e-02 3.94396544e-01 3.80434766e-02
      3.29741389e-01 5.16304336e-02 2.62931049e-01 5.43478243e-02
      6.70258641e-01 4.34782617e-02 7.34913766e-01 -5.43478271e-03
      7.99568951e-01 2.71739135e-03 8.53448272e-01 4.07608710e-02
      7.99568951e-01 6.25000000e-02 7.37068951e-01 5.97826093e-02
      2.73706883e-01 5.29891312e-01 3.70689660e-01 5.19021749e-01
      4.67672408e-01 5.16304374e-01 5.21551728e-01 5.32608688e-01
      5.84051728e-01 5.19021749e-01 6.72413766e-01 5.24456501e-01
      7.58620679e-01 5.27173936e-01 6.74568951e-01 6.52173936e-01
      5.86206913e-01 7.09239125e-01 5.19396544e-01 7.14673936e-01
      4.59051728e-01 7.06521749e-01 3.64224136e-01 6.52173936e-01
      2.97413796e-01 5.38043499e-01 4.65517253e-01 5.65217376e-01
      5.21551728e-01 5.76086938e-01 5.84051728e-01 5.65217376e-01
      7.28448272e-01 5.35326064e-01 5.84051728e-01 6.22282624e-01
      5.19396544e-01 6.30434811e-01 4.63362068e-01 6.22282624e-01</_>
    <_>
      0. 0. 4.35729837e-03 1.60818711e-01 2.61437912e-02 3.21637422e-01
      6.10021800e-02 4.82456148e-01 1.11111112e-01 6.31578922e-01
      1.91721126e-01 7.60233939e-01 2.81045765e-01 8.77192974e-01
      3.81263614e-01 9.76608217e-01 5.05446613e-01 1. 6.31808281e-01
      9.70760226e-01 7.42919385e-01 8.71345043e-01 8.45315933e-01
      7.57309914e-01 9.25925910e-01 6.28654957e-01 9.69498932e-01
      4.79532152e-01 9.89106774e-01 3.18713456e-01 1. 1.60818711e-01 1.
      0. 5.66448793e-02 -1.25730991e-01 1.15468413e-01 -2.16374263e-01
      2.11328983e-01 -2.36842111e-01 3.07189554e-01 -2.13450298e-01
      3.94335508e-01 -1.49122804e-01 5.18518507e-01 -1.37426898e-01
      6.05664492e-01 -1.95906430e-01 7.03703701e-01 -2.22222224e-01
      8.06100190e-01 -2.04678357e-01 8.82352948e-01 -1.25730991e-01
      4.55337703e-01 8.77192989e-03 4.53159034e-01 1.19883038e-01
      4.50980395e-01 2.36842111e-01 4.50980395e-01 3.53801161e-01
      3.59477133e-01 4.23976600e-01 4.09586042e-01 4.38596487e-01
      4.59694982e-01 4.59064335e-01 5.14161229e-01 4.38596487e-01
      5.70806086e-01 4.29824561e-01 1.45969495e-01 2.04678364e-02
      1.98257074e-01 -1.16959065e-02 2.63616562e-01 -8.77192989e-03
      3.20261449e-01 4.97076027e-02 2.59259254e-01 6.72514588e-02
      1.91721126e-01 6.14035092e-02 6.18736386e-01 5.55555560e-02
      6.77559912e-01 2.92397663e-03 7.45098054e-01 2.92397663e-03
      8.03921580e-01 3.50877196e-02 7.51634002e-01 7.60233924e-02
      6.81917191e-01 7.89473653e-02 3.11546832e-01 6.22807026e-01
      3.61655772e-01 5.84795296e-01 4.18300658e-01 5.55555582e-01
      4.59694982e-01 5.76023400e-01 5.07625282e-01 5.61403513e-01
      5.81699371e-01 6.02339208e-01 6.55773401e-01 6.43274844e-01
      5.86056650e-01 7.33918130e-01 5.16339898e-01 7.69005835e-01
      4.66230929e-01 7.71929801e-01 4.18300658e-01 7.57309914e-01
      3.63834411e-01 7.10526288e-01 3.39869291e-01 6.31578922e-01
      4.18300658e-01 6.28654957e-01 4.61873651e-01 6.43274844e-01
      5.11982560e-01 6.34502947e-01 6.25272334e-01 6.43274844e-01
      5.14161229e-01 6.52046800e-01 4.64052290e-01 6.57894731e-01
      4.20479298e-01 6.43274844e-01</_>
    <_>
      0. 0. 1.32743362e-02 1.82456121e-01 3.09734512e-02 3.61403465e-01
      5.53097352e-02 5.36842167e-01 9.73451361e-02 6.98245645e-01
      1.74778759e-01 8.31578970e-01 2.85398245e-01 9.29824591e-01
      4.07079637e-01 9.89473701e-01 5.39822996e-01 1. 6.72566354e-01
      9.71929848e-01 7.85398245e-01 8.91228080e-01 8.84955764e-01
      7.78947413e-01 9.51327443e-01 6.31578982e-01 9.77876127e-01
      4.63157952e-01 9.86725688e-01 2.87719280e-01 9.95575249e-01
      1.15789458e-01 1. -5.96491173e-02 8.40707943e-02 -2.35087693e-01
      1.52654871e-01 -3.33333284e-01 2.45575219e-01 -3.71929795e-01
      3.42920363e-01 -3.57894689e-01 4.40265477e-01 -3.12280655e-01
      5.77433646e-01 -3.08771908e-01 6.68141603e-01 -3.57894689e-01
      7.56637156e-01 -3.75438571e-01 8.45132768e-01 -3.50877166e-01
      9.09292042e-01 -2.66666651e-01 5.11061966e-01 -1.89473659e-01
      5.15486717e-01 -8.07017460e-02 5.17699122e-01 3.15789431e-02
      5.19911528e-01 1.47368401e-01 4.29203540e-01 2.87719280e-01
      4.71238941e-01 3.01754355e-01 5.19911528e-01 3.12280655e-01
      5.66371679e-01 2.98245579e-01 6.10619485e-01 2.80701727e-01
      2.07964599e-01 -1.22807004e-01 2.63274342e-01 -1.96491212e-01
      3.31858397e-01 -1.99999973e-01 3.98230076e-01 -1.19298235e-01
      3.29646021e-01 -1.01754375e-01 2.61061937e-01 -9.82456058e-02
      6.23893797e-01 -1.26315773e-01 6.81415915e-01 -2.14035064e-01
      7.52212405e-01 -2.10526288e-01 8.09734523e-01 -1.43859640e-01
      7.54424751e-01 -1.12280689e-01 6.85840726e-01 -1.15789458e-01
      3.09734523e-01 5.26315868e-01 4.02654856e-01 4.91228133e-01
      4.80088502e-01 4.49122876e-01 5.22123873e-01 4.59649175e-01
      5.61946929e-01 4.45614100e-01 6.41592920e-01 4.80701804e-01
      7.27876127e-01 5.01754463e-01 6.46017671e-01 5.82456172e-01
      5.70796490e-01 6.24561429e-01 5.28761089e-01 6.31578982e-01
      4.82300878e-01 6.31578982e-01 4.04867262e-01 6.03508830e-01
      3.45132738e-01 5.40350914e-01 4.80088502e-01 5.26315868e-01
      5.24336278e-01 5.26315868e-01 5.64159274e-01 5.19298315e-01
      6.99115038e-01 5.15789509e-01 5.66371679e-01 5.15789509e-01
      5.24336278e-01 5.26315868e-01 4.82300878e-01 5.26315868e-01</_>
    <_>
      0. 0. 4.13223123e-03 1.59663871e-01 1.85950417e-02 3.24929982e-01
      3.51239666e-02 4.87394959e-01 7.02479333e-02 6.38655484e-01
      1.36363640e-01 7.81512618e-01 2.29338840e-01 8.93557429e-01
      3.42975199e-01 9.77591038e-01 4.85537201e-01 1. 6.32231414e-01
      9.85994399e-01 7.60330558e-01 9.13165271e-01 8.61570239e-01
      8.06722701e-01 9.38016534e-01 6.69467807e-01 9.71074402e-01
      5.12605071e-01 9.87603307e-01 3.44537824e-01 1. 1.79271713e-01 1.
      1.12044821e-02 7.23140463e-02 -1.26050428e-01 1.38429746e-01
      -1.96078435e-01 2.21074387e-01 -2.01680675e-01 2.99586773e-01
      -1.73669472e-01 3.71900827e-01 -1.23249300e-01 5.82644641e-01
      -1.34453788e-01 6.65289283e-01 -1.76470593e-01 7.47933865e-01
      -2.01680675e-01 8.34710717e-01 -1.87675074e-01 9.07024801e-01
      -1.23249300e-01 4.75206614e-01 -1.40056023e-02 4.71074373e-01
      1.17647059e-01 4.69008267e-01 2.49299720e-01 4.66942161e-01
      3.83753508e-01 3.67768586e-01 4.22969192e-01 4.17355359e-01
      4.53781515e-01 4.71074373e-01 4.78991598e-01 5.24793386e-01
      4.56582636e-01 5.74380159e-01 4.28571433e-01 1.71487600e-01
      3.08123250e-02 2.29338840e-01 5.60224103e-03 2.89256185e-01
      1.12044821e-02 3.49173546e-01 5.32212891e-02 2.85123974e-01
      5.60224093e-02 2.25206614e-01 5.32212891e-02 6.15702450e-01
      5.32212891e-02 6.77685976e-01 1.68067235e-02 7.39669442e-01
      1.12044821e-02 8.03718984e-01 3.64145674e-02 7.43801653e-01
      5.60224093e-02 6.81818187e-01 5.88235296e-02 2.45867774e-01
      5.51820755e-01 3.34710747e-01 5.43417394e-01 4.07024801e-01
      5.40616274e-01 4.69008267e-01 5.54621875e-01 5.37190080e-01
      5.43417394e-01 6.17768586e-01 5.51820755e-01 7.14876056e-01
      5.60224116e-01 6.15702450e-01 6.30252123e-01 5.35123944e-01
