<?xml version="1.0"?>
<opencv_storage>
<opencv_ml_svm>
  <format>3</format>
  <svmType>C_SVC</svmType>
  <kernel>
    <type>LINEAR</type></kernel>
  <C>1.</C>
  <term_criteria><iterations>100</iterations></term_criteria>
  <var_count>136</var_count>
  <class_count>2</class_count>
  <class_labels type_id="opencv-matrix">
    <rows>2</rows>
    <cols>1</cols>
    <dt>i</dt>
    <data>
      -1082130432 1065353216</data></class_labels>
  <sv_total>1</sv_total>
  <support_vectors>
    <_>
      0. 0. -1.01989970e-01 -1.43211737e-01 -2.15632841e-01
      -2.43532807e-01 -2.51340151e-01 -2.31022298e-01 -2.75374532e-01
      -1.21193670e-01 -2.54982561e-01 -2.85749417e-02 -1.10694833e-01
      6.27226382e-03 -8.75116289e-02 3.83594669e-02 -6.89312667e-02
      5.78256603e-03 -1.21886820e-01 -5.54817431e-02 -1.06528670e-01
      2.22168956e-02 2.43226904e-02 1.21097267e-01 1.82933390e-01
      1.74697891e-01 2.10899413e-01 2.12441217e-02 1.60975829e-01
      9.66539886e-03 3.46328244e-02 8.21902305e-02 -5.60665466e-02
      2.52139747e-01 1.01807833e-01 -4.73923743e-01 2.23360971e-01
      -2.71722704e-01 1.73505574e-01 1.92059129e-01 -5.47254831e-02
      5.57442129e-01 -2.48714194e-01 7.29941547e-01 1.24282226e-01
      6.64720118e-01 -3.18241655e-03 5.23134649e-01 -2.15038940e-01
      1.72428206e-01 -2.77826726e-01 -3.12608600e-01 -1.50559217e-01
      -5.85913539e-01 -4.85228598e-02 4.91837144e-01 -4.42612246e-02
      2.46999055e-01 -4.24276181e-02 -8.69508658e-04 -3.10605746e-02
      -2.30340272e-01 -1.05598137e-01 1.84462965e-02 -4.90345992e-02
      5.75162806e-02 -3.29854377e-02 6.39869496e-02 -5.62111996e-02
      9.03550908e-02 -3.58355530e-02 7.93875530e-02 -1.55322254e-01
      9.75919440e-02 -1.40567318e-01 -1.85293823e-01 -1.17395431e-01
      -8.36760476e-02 -1.80259585e-01 3.20523679e-01 -1.80370554e-01
      1.99630722e-01 -2.09687054e-01 1.26463726e-01 1.03906572e-01
      3.05151641e-01 7.58802518e-02 -8.52355510e-02 8.35478678e-02
      -1.81595415e-01 7.95351341e-02 9.98091921e-02 1.76669076e-01
      9.95586440e-02 1.78477943e-01 1.73272729e-01 -4.18645799e-01
      -1.17536497e+00 -7.16790035e-02 -3.45304757e-01 -6.37774542e-02
      -4.42569479e-02 -7.96475336e-02 -2.57135369e-02 -6.75790608e-02
      9.59899090e-03 4.28933091e-02 -2.55179107e-01 4.75393981e-01
      -1.24686539e+00 1.10437281e-01 -1.42740890e-01 -5.95710874e-02
      2.09174186e-01 -9.45790112e-02 2.56812602e-01 -7.23729581e-02
      2.22336978e-01 -1.51107505e-01 -1.78944871e-01 -3.64952177e-01
      -8.56719375e-01 -8.05760697e-02 -4.25746500e-01 -9.81662646e-02
      -3.89971793e-01 -6.95669949e-02 -4.00448024e-01 4.53579217e-01
      -9.53325331e-01 -4.20377254e-02 4.21274990e-01 -9.48422998e-02
      4.70230997e-01 -1.12825938e-01 4.69164878e-01</_></support_vectors>
  <uncompressed_sv_total>134</uncompressed_sv_total>
  <uncompressed_support_vectors>
    <_>
      0. 0. 1.03734443e-02 1.78082198e-01 2.69709546e-02 3.42465758e-01
      5.60165979e-02 5.04109561e-01 1.05809130e-01 6.57534242e-01
      1.82572618e-01 7.89041102e-01 2.75933623e-01 9.04109597e-01
      3.90041500e-01 9.83561635e-01 5.16597509e-01 1. 6.39004171e-01
      9.78082180e-01 7.51037359e-01 8.98630142e-01 8.44398320e-01
      7.78082192e-01 9.17012453e-01 6.35616422e-01 9.54356849e-01
      4.71232891e-01 9.75103736e-01 2.98630148e-01 9.93775904e-01
      1.20547943e-01 1. -6.57534227e-02 4.77178432e-02 -1.67123288e-01
      1.09958507e-01 -2.52054781e-01 2.05394194e-01 -2.71232873e-01
      3.04979265e-01 -2.60273963e-01 4.00414944e-01 -2.32876718e-01
      5.41493773e-01 -2.46575341e-01 6.45228207e-01 -2.82191783e-01
      7.51037359e-01 -3.01369876e-01 8.52697074e-01 -2.76712328e-01
      9.25311208e-01 -1.94520548e-01 4.73029047e-01 -1.26027390e-01
      4.77178425e-01 5.47945220e-03 4.83402491e-01 1.34246573e-01
      4.89626557e-01 2.68493146e-01 3.85892123e-01 3.61643821e-01
      4.37759340e-01 3.80821913e-01 4.95850623e-01 3.97260278e-01
      5.53941905e-01 3.72602731e-01 6.05809152e-01 3.45205486e-01
      1.39004156e-01 -6.57534227e-02 2.01244816e-01 -1.09589040e-01
      2.67634869e-01 -1.15068495e-01 3.38174284e-01 -7.39726052e-02
      2.71784246e-01 -6.30136952e-02 2.05394194e-01 -5.20547964e-02
      6.20331943e-01 -8.76712352e-02 6.95020735e-01 -1.36986300e-01
      7.61410773e-01 -1.36986300e-01 8.23651433e-01 -9.86301377e-02
      7.63485491e-01 -7.94520527e-02 6.99170113e-01 -8.49315077e-02
      3.19502085e-01 6.00000024e-01 3.92116189e-01 5.56164384e-01
      4.58506227e-01 5.34246564e-01 5.06224096e-01 5.45205474e-01
      5.49792528e-01 5.28767109e-01 6.26556039e-01 5.39726019e-01
      7.13692963e-01 5.75342476e-01 6.34854794e-01 6.27397239e-01
      5.60166001e-01 6.52054787e-01 5.10373473e-01 6.57534242e-01
      4.62655604e-01 6.57534242e-01 3.92116189e-01 6.41095877e-01
      3.48547727e-01 5.89041114e-01 4.58506227e-01 5.72602749e-01
      5.06224096e-01 5.80821931e-01 5.53941905e-01 5.69863021e-01
      6.82572603e-01 5.67123294e-01 5.53941905e-01 5.67123294e-01
      5.06224096e-01 5.78082204e-01 4.58506227e-01 5.72602749e-01</_>
    <_>
      0. 0. 1.48423007e-02 1.78378373e-01 3.89610380e-02 3.54054064e-01
      7.42115006e-02 5.24324298e-01 1.20593689e-01 6.86486483e-01
      1.94805190e-01 8.21621597e-01 2.98701286e-01 9.27027047e-01
      4.15584415e-01 9.91891921e-01 5.39888680e-01 1. 6.60482347e-01
      9.75675702e-01 7.66233742e-01 8.94594610e-01 8.57142866e-01
      7.81081080e-01 9.18367326e-01 6.29729748e-01 9.49907243e-01
      4.59459454e-01 9.72170711e-01 2.91891903e-01 9.90723550e-01
      1.21621624e-01 1. -5.13513498e-02 1.11317255e-01 -6.21621609e-02
      1.91094622e-01 -1.35135129e-01 2.89424866e-01 -1.51351348e-01
      3.91465664e-01 -1.37837842e-01 4.97217059e-01 -1.16216213e-01
      5.82560301e-01 -1.16216213e-01 6.73469365e-01 -1.51351348e-01
      7.66233742e-01 -1.89189196e-01 8.58998120e-01 -1.94594592e-01
      9.29499090e-01 -1.24324322e-01 5.39888680e-01 -5.40540554e-03
      5.43599248e-01 8.10810775e-02 5.47309816e-01 1.64864868e-01
      5.52875698e-01 2.54054040e-01 4.52690154e-01 3.94594580e-01
      5.00927627e-01 3.97297293e-01 5.49165130e-01 4.00000006e-01
      5.95547318e-01 3.94594580e-01 6.38218939e-01 3.83783787e-01
      2.22634509e-01 1.35135138e-02 2.80148417e-01 -2.97297295e-02
      3.45083475e-01 -3.78378369e-02 4.00742114e-01 2.16216221e-02
      3.43228191e-01 4.86486480e-02 2.76437849e-01 5.13513498e-02
      6.58627093e-01 5.40540554e-03 7.14285731e-01 -6.21621609e-02
      7.79220760e-01 -6.75675645e-02 8.31168830e-01 -2.97297295e-02
      7.84786642e-01 1.62162166e-02 7.19851553e-01 2.16216221e-02
      3.72912794e-01 6.35135114e-01 4.47124302e-01 5.86486459e-01
      5.10204077e-01 5.62162161e-01 5.47309816e-01 5.75675666e-01
      5.78849733e-01 5.62162161e-01 6.40074193e-01 5.83783805e-01
      7.06864536e-01 6.27027035e-01 6.41929507e-01 6.72972977e-01
      5.82560301e-01 6.86486483e-01 5.47309816e-01 6.89189196e-01
      5.08348823e-01 6.89189196e-01 4.45269018e-01 6.78378403e-01
      4.00742114e-01 6.21621609e-01 5.10204077e-01 6.08108103e-01
      5.47309816e-01 6.18918896e-01 5.80704987e-01 6.08108103e-01
      6.80890560e-01 6.18918896e-01 5.80704987e-01 6.16216242e-01
      5.45454562e-01 6.24324322e-01 5.08348823e-01 6.16216242e-01</_>
    <_>
      0. 0. 1.76125243e-02 1.74731255e-01 5.08806258e-02 3.33333403e-01
      8.21917802e-02 4.91935521e-01 1.17416829e-01 6.47849500e-01
      1.76125243e-01 7.84946263e-01 2.68101752e-01 8.97849500e-01
      3.79647762e-01 9.73118305e-01 5.00978470e-01 1. 6.30136967e-01
      9.70430136e-01 7.41682947e-01 8.95161271e-01 8.39530349e-01
      7.87634432e-01 9.04109597e-01 6.47849500e-01 9.37377691e-01
      4.81182843e-01 9.64774966e-01 3.11828017e-01 9.92172182e-01
      1.39785022e-01 1. -3.76344062e-02 7.24070445e-02 -6.98924661e-02
      1.33072406e-01 -1.47849455e-01 2.23091975e-01 -1.74731165e-01
      3.17025453e-01 -1.63978487e-01 4.14872795e-01 -1.39784932e-01
      5.34246564e-01 -1.45161271e-01 6.34050906e-01 -1.85483858e-01
      7.33855188e-01 -2.12365568e-01 8.29745591e-01 -1.96236536e-01
      9.02152658e-01 -1.18279561e-01 4.81409013e-01 -5.10752648e-02
      4.83365953e-01 6.98924661e-02 4.85322893e-01 1.88172117e-01
      4.87279832e-01 3.11828017e-01 3.87475550e-01 3.87096822e-01
      4.38356161e-01 4.08602208e-01 4.93150681e-01 4.24731225e-01
      5.51859081e-01 4.03225869e-01 6.02739751e-01 3.73655975e-01
      1.74168304e-01 -2.68817181e-03 2.28962824e-01 -4.03225757e-02
      2.91585118e-01 -4.83870916e-02 3.52250487e-01 -5.37634362e-03
      2.91585118e-01 1.34408595e-02 2.30919763e-01 2.15053745e-02
      6.24266148e-01 -1.34408595e-02 6.84931517e-01 -6.18279502e-02
      7.47553825e-01 -6.45161271e-02 8.04305255e-01 -3.22580636e-02
      7.49510765e-01 0. 6.88845396e-01 0. 3.17025453e-01 6.34408653e-01
      3.79647762e-01 5.83333373e-01 4.40313101e-01 5.53763449e-01
      4.85322893e-01 5.67204356e-01 5.28375745e-01 5.51075280e-01
      6.00782752e-01 5.75268865e-01 6.79060638e-01 6.26344144e-01
      6.02739751e-01 6.61290348e-01 5.34246564e-01 6.61290348e-01
      4.89236802e-01 6.63978517e-01 4.44227010e-01 6.61290348e-01
      3.85518581e-01 6.58602178e-01 3.44422698e-01 6.23655915e-01
      4.42270070e-01 5.88709712e-01 4.87279832e-01 5.96774220e-01
      5.30332685e-01 5.88709712e-01 6.49706483e-01 6.18279576e-01
      5.30332685e-01 5.99462390e-01 4.87279832e-01 6.07526898e-01
      4.42270070e-01 6.02150559e-01</_>
    <_>
      0. 0. 1.04347831e-02 1.76470593e-01 3.13043483e-02 3.42245996e-01
      5.56521751e-02 5.10695159e-01 9.04347822e-02 6.73796773e-01
      1.54782608e-01 8.12834203e-01 2.48695657e-01 9.11764681e-01
      3.54782611e-01 9.81283426e-01 4.85217392e-01 1. 6.15652204e-01
      9.75935817e-01 7.28695631e-01 9.09090936e-01 8.29565227e-01
      8.12834203e-01 9.00869548e-01 6.76470578e-01 9.40869570e-01
      5.10695159e-01 9.63478267e-01 3.42245996e-01 9.86086965e-01
      1.65775403e-01 1. -1.87165774e-02 7.82608688e-02 -1.01604275e-01
      1.47826090e-01 -1.68449193e-01 2.31304348e-01 -1.84491977e-01
      3.19999993e-01 -1.73796788e-01 4.12173927e-01 -1.57754004e-01
      5.21739125e-01 -1.68449193e-01 6.20869577e-01 -1.92513362e-01
      7.16521740e-01 -2.03208551e-01 8.06956530e-01 -1.87165782e-01
      8.79999995e-01 -1.25668451e-01 4.76521730e-01 -4.27807495e-02
      4.76521730e-01 5.08021377e-02 4.76521730e-01 1.47058830e-01
      4.74782616e-01 2.48663098e-01 3.77391309e-01 3.63636374e-01
      4.24347818e-01 3.79679143e-01 4.74782616e-01 3.93048137e-01
      5.25217414e-01 3.79679143e-01 5.70434809e-01 3.66310149e-01
      1.66956529e-01 -1.60427801e-02 2.20869571e-01 -6.68449178e-02
      2.83478260e-01 -6.95187151e-02 3.39130431e-01 -5.34759369e-03
      2.85217404e-01 1.06951874e-02 2.20869571e-01 1.60427801e-02
      6.12173915e-01 -1.33689838e-02 6.67826116e-01 -8.55614990e-02
      7.32173920e-01 -8.55614990e-02 7.87826061e-01 -3.74331549e-02
      7.37391293e-01 -2.67379684e-03 6.74782634e-01 0. 3.25217396e-01
      6.22994661e-01 3.72173905e-01 5.45454562e-01 4.20869559e-01
      5.08021414e-01 4.59130436e-01 5.26737988e-01 5.04347801e-01
      5.13368964e-01 5.65217376e-01 5.56149721e-01 6.33043468e-01
      6.31016016e-01 5.66956520e-01 6.44385040e-01 5.09565234e-01
      6.49732649e-01 4.62608695e-01 6.52406394e-01 4.22608703e-01
      6.47058845e-01 3.75652164e-01 6.39037430e-01 3.47826093e-01
      6.09625697e-01 4.20869559e-01 5.74866295e-01 4.59130436e-01
      5.80213904e-01 5.06086946e-01 5.77540100e-01 6.06956542e-01
      6.17647052e-01 5.06086946e-01 5.66844940e-01 4.60869551e-01
      5.74866295e-01 4.22608703e-01 5.66844940e-01</_>
    <_>
      0. 0. 5.69800567e-03 1.87265918e-01 1.13960113e-02 3.63295883e-01
      2.84900293e-02 5.31835198e-01 7.69230798e-02 6.85393274e-01
      1.53846160e-01 8.12734067e-01 2.56410271e-01 9.10112381e-01
      3.73219371e-01 9.77528095e-01 4.98575509e-01 1. 6.26780629e-01
      9.81273413e-01 7.40740716e-01 9.13857698e-01 8.37606847e-01
      8.23970020e-01 8.97435904e-01 6.92883909e-01 9.37321961e-01
      5.54307103e-01 9.60113943e-01 3.89513105e-01 9.82905984e-01
      2.24719107e-01 1. 5.61797768e-02 1.31054133e-01 -4.49438207e-02
      2.07977206e-01 -1.34831458e-01 3.13390315e-01 -1.68539330e-01
      4.21652436e-01 -1.61048695e-01 5.27065516e-01 -1.23595506e-01
      5.92592597e-01 -1.08614229e-01 6.98005676e-01 -1.31086141e-01
      8.00569773e-01 -1.31086141e-01 8.94586921e-01 -8.98876414e-02
      9.45868969e-01 1.49812736e-02 5.64102590e-01 -3.74531820e-02
      5.66951573e-01 5.99250942e-02 5.69800556e-01 1.61048695e-01
      5.69800556e-01 2.62172282e-01 4.38746452e-01 3.40823978e-01
      4.92877483e-01 3.63295883e-01 5.49857557e-01 3.85767788e-01
      6.03988588e-01 3.78277153e-01 6.55270636e-01 3.63295883e-01
      2.45014250e-01 -1.49812736e-02 3.01994294e-01 -5.24344556e-02
      3.64672363e-01 -5.61797768e-02 4.18803424e-01 0. 3.61823350e-01
      3.74531839e-03 2.99145311e-01 7.49063678e-03 6.66666687e-01
      1.87265910e-02 7.23646700e-01 -2.62172278e-02 7.92022765e-01
      -1.49812736e-02 8.40455830e-01 4.11985032e-02 7.86324799e-01
      5.24344556e-02 7.23646700e-01 4.11985032e-02 3.70370358e-01
      6.44194782e-01 4.27350432e-01 5.58052421e-01 4.95726496e-01
      5.28089881e-01 5.38461566e-01 5.50561786e-01 5.78347564e-01
      5.43071151e-01 6.38176620e-01 5.99250913e-01 6.83760703e-01
      7.04119861e-01 6.21082604e-01 6.92883909e-01 5.61253548e-01
      6.77902639e-01 5.21367550e-01 6.74157321e-01 4.78632480e-01
      6.59176052e-01 4.21652436e-01 6.47940099e-01 4.01709408e-01
      6.29213512e-01 4.90028501e-01 5.88014960e-01 5.32763541e-01
      6.02996230e-01 5.72649598e-01 6.06741548e-01 6.49572670e-01
      6.85393274e-01 5.66951573e-01 6.10486865e-01 5.27065516e-01
      6.06741548e-01 4.84330475e-01 5.91760278e-01</_>
    <_>
      0. 0. 1.98019799e-02 1.72757566e-01 4.95049506e-02 3.42192769e-01
      7.92079195e-02 5.08305669e-01 1.21287130e-01 6.71096385e-01
      1.93069309e-01 8.07308972e-01 2.94554442e-01 9.13621247e-01
      4.13366348e-01 9.83388722e-01 5.37128687e-01 1. 6.60891116e-01
      9.63455141e-01 7.74752498e-01 8.77076447e-01 8.73762369e-01
      7.60797381e-01 9.38118815e-01 6.11295700e-01 9.62871313e-01
      4.45182770e-01 9.80198026e-01 2.75747567e-01 9.97524738e-01
      1.06312282e-01 1. -6.64451793e-02 8.16831663e-02 -3.32225896e-02
      1.46039605e-01 -1.09634541e-01 2.35148519e-01 -1.26245841e-01
      3.31683159e-01 -1.16279058e-01 4.25742567e-01 -8.97009894e-02
      5.29702961e-01 -8.30564722e-02 6.23762369e-01 -1.16279058e-01
      7.15346515e-01 -1.49501652e-01 8.14356446e-01 -1.52823910e-01
      8.91089082e-01 -8.97009894e-02 4.85148519e-01 -1.32890353e-02
      4.90099013e-01 1.02990024e-01 4.95049506e-01 2.12624669e-01
      5.02475262e-01 3.28903735e-01 4.10891086e-01 4.08637941e-01
      4.57920790e-01 4.35216010e-01 5.07425725e-01 4.51827288e-01
      5.59405923e-01 4.28571492e-01 6.03960395e-01 3.95348907e-01
      2.07920790e-01 4.31893654e-02 2.59900987e-01 1.32890353e-02
      3.16831678e-01 3.32225882e-03 3.71287137e-01 3.65448482e-02
      3.16831678e-01 5.64783998e-02 2.59900987e-01 6.31229207e-02
      6.08910918e-01 2.32558120e-02 6.65841579e-01 -1.32890353e-02
      7.22772300e-01 -1.99335534e-02 7.79702961e-01 6.64451765e-03
      7.27722764e-01 3.32225896e-02 6.70792103e-01 3.65448482e-02
      3.58910888e-01 6.31229281e-01 4.08415854e-01 6.01328969e-01
      4.60396051e-01 5.84717631e-01 5.04950523e-01 6.01328969e-01
      5.47029674e-01 5.84717631e-01 6.08910918e-01 5.94684422e-01
      6.65841579e-01 6.24584734e-01 6.11386120e-01 6.74418628e-01
      5.54455459e-01 6.94352210e-01 5.12376249e-01 7.00996697e-01
      4.70297039e-01 6.94352210e-01 4.15841579e-01 6.71096385e-01
      3.83663356e-01 6.27907038e-01 4.62871283e-01 6.21262491e-01
      5.07425725e-01 6.31229281e-01 5.49504936e-01 6.21262491e-01
      6.38613880e-01 6.21262491e-01 5.49504936e-01 6.24584734e-01
      5.07425725e-01 6.34551525e-01 4.65346545e-01 6.24584734e-01</_>
    <_>
      0. 0. 9.77198686e-03 1.72576830e-01 2.60586310e-02 3.42789590e-01
      5.37459292e-02 5.13002336e-01 1.00977197e-01 6.76122904e-01
      1.79153100e-01 8.10874701e-01 2.80130297e-01 9.14893627e-01
      3.87622148e-01 9.85815585e-01 5.04885972e-01 1. 6.22149825e-01
      9.73995268e-01 7.29641676e-01 9.03073311e-01 8.27361584e-01
      8.01418424e-01 9.05537486e-01 6.71394825e-01 9.49511409e-01
      5.15366435e-01 9.73941386e-01 3.45153660e-01 9.90227997e-01
      1.72576830e-01 1. -2.36406620e-03 1.17263846e-01 -1.34751767e-01
      1.82410419e-01 -2.12765962e-01 2.70358294e-01 -2.26950347e-01
      3.61563504e-01 -2.10401893e-01 4.54397380e-01 -1.79669037e-01
      5.45602620e-01 -1.72576830e-01 6.41693830e-01 -2.10401893e-01
      7.37785041e-01 -2.29314417e-01 8.28990221e-01 -2.10401893e-01
      8.95765483e-01 -1.27659574e-01 4.95113999e-01 -2.12765951e-02
      4.95113999e-01 8.27423185e-02 4.96742666e-01 1.82033092e-01
      4.96742666e-01 2.90780127e-01 3.99022788e-01 4.23167855e-01
      4.46254075e-01 4.27895993e-01 4.95113999e-01 4.34988171e-01
      5.43973923e-01 4.27895993e-01 5.92833877e-01 4.16075647e-01
      1.97068408e-01 -4.72813239e-03 2.49185666e-01 -5.91016561e-02
      3.14332247e-01 -5.67375869e-02 3.59934866e-01 2.36406624e-02
      3.06188911e-01 4.01891246e-02 2.42671013e-01 3.54609936e-02
      6.36807799e-01 1.89125296e-02 6.84039116e-01 -5.91016561e-02
      7.50814319e-01 -6.38297871e-02 8.06188941e-01 -4.72813239e-03
      7.55700350e-01 3.30969281e-02 6.88925087e-01 3.78250591e-02
      3.28990221e-01 6.35933816e-01 3.84364814e-01 5.83924353e-01
      4.41368073e-01 5.50827444e-01 4.85342026e-01 5.72104037e-01
      5.27687311e-01 5.50827444e-01 5.89576542e-01 5.74468076e-01
      6.56351805e-01 6.26477540e-01 5.92833877e-01 6.71394825e-01
      5.35830617e-01 6.92671418e-01 4.91856664e-01 6.97399557e-01
      4.44625407e-01 6.92671418e-01 3.89250815e-01 6.73758864e-01
      3.53420198e-01 6.31205678e-01 4.41368073e-01 6.24113500e-01
      4.86970693e-01 6.31205678e-01 5.30944645e-01 6.19385362e-01
      6.33550465e-01 6.21749401e-01 5.30944645e-01 6.14657223e-01
      4.88599360e-01 6.26477540e-01 4.42996740e-01 6.19385362e-01</_>
    <_>
      0. 0. 1.33037698e-02 1.77325577e-01 3.76940146e-02 3.51744175e-01
      6.20842576e-02 5.23255825e-01 1.08647451e-01 6.86046541e-01
      1.88470066e-01 8.22674394e-01 2.90465623e-01 9.24418628e-01
      4.05764967e-01 9.88372087e-01 5.36585391e-01 1. 6.65188491e-01
      9.79651153e-01 7.64966726e-01 8.95348847e-01 8.55875850e-01
      7.84883738e-01 9.22394693e-01 6.39534891e-01 9.55654085e-01
      4.76744175e-01 9.68957901e-01 3.05232555e-01 9.91130829e-01
      1.33720934e-01 1. -4.06976752e-02 7.53880292e-02 -1.39534891e-01
      1.39689580e-01 -2.12209299e-01 2.28381380e-01 -2.47093022e-01
      3.28159660e-01 -2.58720934e-01 4.25720632e-01 -2.23837212e-01
      5.94235063e-01 -2.29651168e-01 6.87361419e-01 -2.67441869e-01
      7.84922421e-01 -2.67441869e-01 8.73614192e-01 -2.38372087e-01
      9.35698450e-01 -1.59883723e-01 5.07760525e-01 -7.55813941e-02
      5.09977818e-01 3.19767445e-02 5.12195110e-01 1.36627913e-01
      5.14412403e-01 2.50000000e-01 4.32372510e-01 3.66279066e-01
      4.72283810e-01 3.75000000e-01 5.16629696e-01 3.86627913e-01
      5.58758318e-01 3.77906978e-01 6.00886941e-01 3.63372087e-01
      1.79600880e-01 -4.06976752e-02 2.35033259e-01 -9.59302336e-02
      3.08203995e-01 -9.88372117e-02 3.79157424e-01 -3.77906971e-02
      3.08203995e-01 -1.74418613e-02 2.35033259e-01 -1.16279069e-02
      6.34146333e-01 -3.77906971e-02 7.02882469e-01 -1.01744182e-01
      7.76053190e-01 -9.88372117e-02 8.33702862e-01 -4.94186059e-02
      7.80487776e-01 -1.74418613e-02 7.05099761e-01 -2.03488376e-02
      3.32594246e-01 5.98837197e-01 3.99113089e-01 5.29069781e-01
      4.63414639e-01 4.91279066e-01 5.09977818e-01 5.14534891e-01
      5.56541026e-01 4.94186044e-01 6.27494454e-01 5.31976759e-01
      6.98447883e-01 5.95930219e-01 6.29711747e-01 6.19186044e-01
      5.63192904e-01 6.19186044e-01 5.14412403e-01 6.19186044e-01
      4.65631932e-01 6.19186044e-01 4.01330382e-01 6.16279066e-01
      3.56984466e-01 5.87209284e-01 4.65631932e-01 5.52325606e-01
      5.12195110e-01 5.61046541e-01 5.58758318e-01 5.52325606e-01
      6.69623077e-01 5.84302306e-01 5.58758318e-01 5.43604672e-01
      5.12195110e-01 5.52325606e-01 4.63414639e-01 5.43604672e-01</_>
    <_>
      0. 0. 4.38596494e-03 1.68711662e-01 2.19298247e-02 3.31288338e-01
      4.16666679e-02 5.00000000e-01 8.11403543e-02 6.59509182e-01
      1.42543852e-01 7.94478536e-01 2.34649122e-01 8.98773015e-01
      3.39912295e-01 9.72392619e-01 4.64912295e-01 1. 5.92105269e-01
      9.84662592e-01 7.06140339e-01 9.23312902e-01 8.04824591e-01
      8.25153351e-01 8.75000000e-01 6.96319044e-01 9.23245609e-01
      5.42944789e-01 9.56140339e-01 3.86503071e-01 9.84649122e-01
      2.23926380e-01 1. 5.52147254e-02 9.21052620e-02 -1.31901845e-01
      1.60087720e-01 -2.05521479e-01 2.54385978e-01 -2.11656436e-01
      3.48684222e-01 -1.80981591e-01 4.38596487e-01 -1.28834352e-01
      5.72368443e-01 -1.13496929e-01 6.64473712e-01 -1.62576690e-01
      7.60964930e-01 -1.80981591e-01 8.53070199e-01 -1.62576690e-01
      9.14473712e-01 -7.66871199e-02 5.04385948e-01 -1.84049085e-02
      5.00000000e-01 7.36196339e-02 4.95614022e-01 1.62576690e-01
      4.93421048e-01 2.57668704e-01 3.92543852e-01 3.68098170e-01
      4.36403513e-01 3.83435577e-01 4.86842096e-01 3.98773015e-01
      5.37280679e-01 3.92638028e-01 5.85526288e-01 3.80368084e-01
      1.97368428e-01 -3.06748459e-03 2.52192974e-01 -3.37423310e-02
      3.13596487e-01 -3.37423310e-02 3.75000000e-01 1.53374234e-02
      3.11403513e-01 2.76073627e-02 2.50000000e-01 2.76073627e-02
      6.29385948e-01 3.37423310e-02 6.90789461e-01 -1.22699384e-02
      7.52192974e-01 -3.06748459e-03 8.04824591e-01 3.68098170e-02
      7.50000000e-01 5.82822077e-02 6.86403513e-01 4.90797535e-02
      3.07017535e-01 6.04294479e-01 3.79385978e-01 5.70552170e-01
      4.38596487e-01 5.52147210e-01 4.78070170e-01 5.67484677e-01
      5.17543852e-01 5.58282197e-01 5.78947365e-01 5.79754591e-01
      6.51315808e-01 6.22699380e-01 5.78947365e-01 6.44171774e-01
      5.13157904e-01 6.47239268e-01 4.73684222e-01 6.47239268e-01
      4.32017535e-01 6.41104281e-01 3.75000000e-01 6.31901860e-01
      3.35526317e-01 6.01226985e-01 4.38596487e-01 5.85889578e-01
      4.78070170e-01 5.98159492e-01 5.17543852e-01 5.95091999e-01
      6.25000000e-01 6.16564393e-01 5.15350878e-01 5.98159492e-01
      4.75877196e-01 6.01226985e-01 4.36403513e-01 5.88957071e-01</_>
    <_>
      0. 0. 1.63599178e-02 1.88622773e-01 3.88548039e-02 3.68263513e-01
      6.54396713e-02 5.47904253e-01 1.08384460e-01 7.06586778e-01
      1.75869122e-01 8.38323355e-01 2.76073605e-01 9.19161677e-01
      3.82413089e-01 9.76047873e-01 5.03067493e-01 1. 6.27811849e-01
      9.76047873e-01 7.36196339e-01 9.07185614e-01 8.36400807e-01
      8.14371228e-01 9.05930459e-01 6.79640710e-01 9.50920224e-01
      5.20958126e-01 9.73415136e-01 3.44311416e-01 9.87730086e-01
      1.64670676e-01 1. -2.09580865e-02 9.40695331e-02 -1.28742531e-01
      1.55419216e-01 -2.18562901e-01 2.45398775e-01 -2.42514998e-01
      3.35378319e-01 -2.21556902e-01 4.27402854e-01 -1.85628757e-01
      5.58282197e-01 -1.73652709e-01 6.46216750e-01 -2.06586853e-01
      7.36196339e-01 -2.27544934e-01 8.24130893e-01 -2.03592837e-01
      8.87525558e-01 -1.28742531e-01 4.98977512e-01 -8.68263543e-02
      4.98977512e-01 5.98802464e-03 4.98977512e-01 9.88024026e-02
      4.98977512e-01 1.97604805e-01 4.15132910e-01 3.35329384e-01
      4.56032723e-01 3.50299448e-01 4.98977512e-01 3.59281480e-01
      5.46012282e-01 3.50299448e-01 5.88957071e-01 3.35329384e-01
      2.12678939e-01 -5.38922213e-02 2.61758685e-01 -8.68263543e-02
      3.10838431e-01 -8.98203701e-02 3.66053164e-01 -5.68862334e-02
      3.14928412e-01 -4.79041971e-02 2.61758685e-01 -4.49101850e-02
      6.27811849e-01 -5.08982092e-02 6.78936601e-01 -8.68263543e-02
      7.28016376e-01 -7.78443217e-02 7.79141128e-01 -4.49101850e-02
      7.28016376e-01 -3.89221609e-02 6.76891625e-01 -4.49101850e-02
      3.68098170e-01 5.83832324e-01 4.17177916e-01 5.29940188e-01
      4.64212686e-01 5.08982062e-01 5.01022518e-01 5.26946127e-01
      5.37832320e-01 5.11976123e-01 5.86912036e-01 5.38922191e-01
      6.35991812e-01 5.92814326e-01 5.86912036e-01 6.16766453e-01
      5.39877295e-01 6.28742456e-01 5.03067493e-01 6.28742456e-01
      4.64212686e-01 6.22754455e-01 4.19222891e-01 6.04790390e-01
      3.90593052e-01 5.71856260e-01 4.64212686e-01 5.56886256e-01
      5.01022518e-01 5.68862259e-01 5.37832320e-01 5.62874317e-01
      6.13496959e-01 5.77844262e-01 5.37832320e-01 5.65868318e-01
      5.01022518e-01 5.71856260e-01 4.64212686e-01 5.59880316e-01</_>
    <_>
      0. 0. 1.26050422e-02 1.79940999e-01 2.73109246e-02 3.51032436e-01
      4.41176482e-02 5.28023601e-01 8.19327757e-02 6.84365809e-01
      1.49159670e-01 8.14159274e-01 2.47899160e-01 9.05604720e-01
      3.59243691e-01 9.70501482e-01 4.85294104e-01 1. 6.13445401e-01
      9.91150439e-01 7.24789917e-01 9.35103238e-01 8.19327712e-01
      8.46607685e-01 8.82352948e-01 7.19763994e-01 9.20168042e-01
      5.72271407e-01 9.49579835e-01 4.07079637e-01 9.76890743e-01
      2.38938048e-01 1. 6.78466111e-02 1.26050428e-01 -2.21238941e-01
      1.91176474e-01 -2.97935098e-01 2.79411763e-01 -3.30383480e-01
      3.71848732e-01 -3.24483782e-01 4.57983196e-01 -2.80235976e-01
      6.15546227e-01 -2.65486717e-01 6.99579835e-01 -3.00884962e-01
      7.96218514e-01 -2.86135703e-01 8.78151238e-01 -2.33038351e-01
      9.30672288e-01 -1.38643071e-01 5.29411793e-01 -1.32743359e-01
      5.27310908e-01 -2.94985250e-02 5.25210083e-01 7.37463161e-02
      5.23109257e-01 1.82890862e-01 4.28571433e-01 3.00884962e-01
      4.70588237e-01 3.18584085e-01 5.14705896e-01 3.36283177e-01
      5.58823526e-01 3.30383480e-01 6.00840330e-01 3.18584085e-01
      2.18487397e-01 -9.43952799e-02 2.71008402e-01 -1.47492632e-01
      3.34033608e-01 -1.50442481e-01 3.92857134e-01 -8.84955749e-02
      3.29831928e-01 -7.07964599e-02 2.66806722e-01 -7.07964599e-02
      6.55462205e-01 -6.19469024e-02 7.14285731e-01 -1.15044251e-01
      7.77310908e-01 -1.03244841e-01 8.27731073e-01 -4.12979349e-02
      7.73109257e-01 -2.35988200e-02 7.10084021e-01 -3.53982300e-02
      3.44537824e-01 5.45722723e-01 4.05462176e-01 4.77876097e-01
      4.64285702e-01 4.45427716e-01 5.06302536e-01 4.63126838e-01
      5.46218514e-01 4.54277277e-01 6.00840330e-01 5.04424751e-01
      6.59663856e-01 5.84070802e-01 5.96638680e-01 6.04719758e-01
      5.42016804e-01 6.10619485e-01 4.97899145e-01 6.10619485e-01
      4.53781515e-01 5.98820031e-01 3.99159670e-01 5.78171074e-01
      3.73949587e-01 5.36873162e-01 4.60084021e-01 5.04424751e-01
      5.04201710e-01 5.16224205e-01 5.44117630e-01 5.19174039e-01
      6.30252123e-01 5.66371679e-01 5.42016804e-01 5.22123873e-01
      5.02100825e-01 5.22123873e-01 4.57983196e-01 5.10324478e-01</_>
    <_>
      0. 0. 1.28755365e-02 1.61691532e-01 3.43347639e-02 3.23383063e-01
      5.15021458e-02 4.77611989e-01 9.65665206e-02 6.29353285e-01
      1.67381972e-01 7.63681591e-01 2.59656638e-01 8.80596995e-01
      3.62660944e-01 9.72636819e-01 4.84978527e-01 1. 6.07296109e-01
      9.72636819e-01 7.10300446e-01 8.83084595e-01 8.09012890e-01
      7.73631871e-01 8.90557945e-01 6.44278646e-01 9.37768221e-01
      4.95024920e-01 9.65665221e-01 3.33333313e-01 9.91416335e-01
      1.66666657e-01 1. -7.46268593e-03 9.65665206e-02 -5.47263622e-02
      1.65236056e-01 -1.09452724e-01 2.57510722e-01 -1.19402975e-01
      3.45493555e-01 -9.95024815e-02 4.31330472e-01 -6.96517378e-02
      5.51502168e-01 -7.21393004e-02 6.39485002e-01 -9.45273563e-02
      7.23175943e-01 -1.16915412e-01 8.11158776e-01 -1.06965169e-01
      8.81974220e-01 -5.47263622e-02 4.95708168e-01 1.99004952e-02
      5.00000000e-01 1.36815906e-01 5.06437778e-01 2.53731310e-01
      5.12875557e-01 3.75621855e-01 4.14163083e-01 4.32835788e-01
      4.59227473e-01 4.50248718e-01 5.06437778e-01 4.65174168e-01
      5.53648055e-01 4.52736288e-01 5.96566498e-01 4.35323358e-01
      2.06008583e-01 1.74129345e-02 2.59656638e-01 -2.73631811e-02
      3.26180249e-01 -2.48756204e-02 3.75536472e-01 3.48258689e-02
      3.21888417e-01 4.72636782e-02 2.55364805e-01 4.72636782e-02
      6.13733888e-01 3.73134315e-02 6.67382002e-01 -2.23880578e-02
      7.31759667e-01 -2.23880578e-02 7.81115890e-01 2.23880578e-02
      7.36051500e-01 5.22388034e-02 6.71673834e-01 4.97512408e-02
      3.36909860e-01 6.39303505e-01 3.96995693e-01 6.24378145e-01
      4.65665221e-01 6.04477644e-01 5.04291832e-01 6.21890604e-01
      5.47210276e-01 6.01990104e-01 6.11588001e-01 6.21890604e-01
      6.75965667e-01 6.46766186e-01 6.11588001e-01 7.03980148e-01
      5.47210276e-01 7.31343329e-01 5.02145946e-01 7.38806009e-01
      4.59227473e-01 7.33830869e-01 3.96995693e-01 7.08955228e-01
      3.66952777e-01 6.49253786e-01 4.63519305e-01 6.54228866e-01
      5.04291832e-01 6.61691546e-01 5.47210276e-01 6.51741326e-01
      6.50214612e-01 6.49253786e-01 5.45064390e-01 6.61691546e-01
      5.02145946e-01 6.71641827e-01 4.63519305e-01 6.61691546e-01</_>
    <_>
      0. 0. 1.20000001e-02 1.64804474e-01 3.59999985e-02 3.26815635e-01
      6.80000037e-02 4.86033529e-01 1.05999999e-01 6.42458081e-01
      1.75999999e-01 7.87709475e-01 2.72000015e-01 8.99441361e-01
      3.88000011e-01 9.83240247e-01 5.18000007e-01 1. 6.46000028e-01
      9.77653623e-01 7.62000024e-01 8.88268173e-01 8.64000022e-01
      7.76536286e-01 9.35999990e-01 6.31284893e-01 9.66000021e-01
      4.74860340e-01 9.84000027e-01 3.10055852e-01 9.95999992e-01
      1.48044690e-01 1. -1.39664803e-02 8.79999995e-02 -1.03351958e-01
      1.62000000e-01 -1.53631285e-01 2.52000004e-01 -1.53631285e-01
      3.40000004e-01 -1.14525139e-01 4.21999991e-01 -6.42458126e-02
      5.65999985e-01 -6.98323995e-02 6.48000002e-01 -1.22905031e-01
      7.34000027e-01 -1.64804474e-01 8.22000027e-01 -1.62011176e-01
      8.96000028e-01 -1.06145248e-01 4.88000005e-01 2.79329601e-03
      4.88000005e-01 1.36871502e-01 4.88000005e-01 2.73743004e-01
      4.88000005e-01 4.10614520e-01 4.04000014e-01 4.52513963e-01
      4.46000010e-01 4.77653623e-01 4.92000014e-01 5.00000000e-01
      5.36000013e-01 4.80446935e-01 5.75999975e-01 4.55307275e-01
      1.87999994e-01 1.95530728e-02 2.47999996e-01 -1.67597774e-02
      3.10000002e-01 -1.39664803e-02 3.63999993e-01 3.91061455e-02
      3.05999994e-01 5.02793305e-02 2.41999999e-01 5.02793305e-02
      6.17999971e-01 3.91061455e-02 6.75999999e-01 -1.67597774e-02
      7.40000010e-01 -1.95530728e-02 8.00000012e-01 1.67597774e-02
      7.45999992e-01 4.74860333e-02 6.80000007e-01 4.74860333e-02
      3.30000013e-01 6.45251393e-01 3.91999990e-01 5.92178762e-01
      4.48000014e-01 5.67039132e-01 4.97999996e-01 5.89385450e-01
      5.47999978e-01 5.67039132e-01 6.07999980e-01 5.92178762e-01
      6.71999991e-01 6.22905016e-01 6.10000014e-01 6.64804459e-01
      5.51999986e-01 6.89944148e-01 5.00000000e-01 6.98324025e-01
      4.48000014e-01 6.95530713e-01 3.95999998e-01 6.78770959e-01
      3.54000002e-01 6.39664829e-01 4.48000014e-01 6.22905016e-01
      4.97999996e-01 6.34078205e-01 5.50000012e-01 6.20111704e-01
      6.48000002e-01 6.22905016e-01 5.47999978e-01 6.06145263e-01
      4.95999992e-01 6.20111704e-01 4.48000014e-01 6.08938575e-01</_>
    <_>
      0. 0. 1.09890113e-02 1.63141981e-01 2.63736267e-02 3.29305112e-01
      4.83516492e-02 4.95468318e-01 9.01098922e-02 6.49546862e-01
      1.71428576e-01 7.79456198e-01 2.74725288e-01 8.91238689e-01
      3.84615391e-01 9.75830793e-01 5.07692337e-01 1. 6.30769253e-01
      9.72809672e-01 7.38461554e-01 8.85196388e-01 8.41758251e-01
      7.76435077e-01 9.18681324e-01 6.43504560e-01 9.58241761e-01
      4.89426017e-01 9.80219781e-01 3.23262811e-01 9.93406594e-01
      1.57099679e-01 1. -6.04229560e-03 1.07692309e-01 -2.71903295e-02
      1.84615389e-01 -9.36555788e-02 2.79120892e-01 -1.05740175e-01
      3.75824183e-01 -9.36555788e-02 4.70329672e-01 -6.04229569e-02
      5.69230795e-01 -7.55286962e-02 6.61538482e-01 -1.08761318e-01
      7.53846169e-01 -1.17824763e-01 8.41758251e-01 -1.02719024e-01
      9.12087917e-01 -4.22960669e-02 5.20879149e-01 3.32326256e-02
      5.20879149e-01 1.45015091e-01 5.20879149e-01 2.53776401e-01
      5.20879149e-01 3.65558982e-01 4.35164839e-01 4.44108814e-01
      4.76923078e-01 4.59214538e-01 5.18681347e-01 4.68277991e-01
      5.62637389e-01 4.59214538e-01 6.02197826e-01 4.50151116e-01
      2.30769232e-01 3.62537727e-02 2.83516496e-01 0. 3.45054954e-01
      3.02114780e-03 3.91208798e-01 4.83383648e-02 3.40659350e-01
      6.34441003e-02 2.83516496e-01 6.34441003e-02 6.41758263e-01
      4.53172177e-02 6.92307711e-01 0. 7.51648366e-01 0. 8.00000012e-01
      3.62537727e-02 7.53846169e-01 6.04229569e-02 6.96703315e-01
      6.04229569e-02 3.51648360e-01 6.34441137e-01 4.15384620e-01
      5.98187327e-01 4.72527474e-01 5.74018180e-01 5.14285743e-01
      5.95166206e-01 5.62637389e-01 5.80060482e-01 6.17582440e-01
      6.10271931e-01 6.72527492e-01 6.43504560e-01 6.10989034e-01
      6.82779491e-01 5.53846180e-01 7.03927517e-01 5.05494535e-01
      7.09969819e-01 4.61538464e-01 7.00906396e-01 4.08791214e-01
      6.73716068e-01 3.75824183e-01 6.34441137e-01 4.70329672e-01
      6.22356534e-01 5.12087941e-01 6.37462258e-01 5.60439587e-01
      6.28398836e-01 6.46153867e-01 6.46525741e-01 5.53846180e-01
      6.25377655e-01 5.07692337e-01 6.34441137e-01 4.63736266e-01
      6.22356534e-01</_>
    <_>
      0. 0. 2.00445428e-02 1.76119387e-01 4.45434302e-02 3.49253803e-01
      6.90423176e-02 5.19403040e-01 1.13585748e-01 6.77611947e-01
      1.89309582e-01 8.11940312e-01 2.93986648e-01 9.13432837e-01
      4.27616924e-01 9.82089579e-01 5.63474417e-01 1. 6.90423191e-01
      9.64179099e-01 8.04008901e-01 8.80597055e-01 8.88641417e-01
      7.58208990e-01 9.44320738e-01 6.08955264e-01 9.68819618e-01
      4.35820937e-01 9.79955435e-01 2.59701550e-01 9.95545685e-01
      8.65671560e-02 1. -9.55223814e-02 1.02449887e-01 -1.28358200e-01
      1.55901998e-01 -2.38805950e-01 2.51670390e-01 -2.86567152e-01
      3.54120255e-01 -2.80597001e-01 4.49888647e-01 -2.44776100e-01
      5.92427611e-01 -2.56716400e-01 6.81514502e-01 -3.19402963e-01
      7.81737208e-01 -3.40298474e-01 8.77505541e-01 -3.04477572e-01
      9.33184862e-01 -2.02985063e-01 5.27839661e-01 -1.49253711e-01
      5.34521163e-01 -4.17910405e-02 5.38975477e-01 6.26865625e-02
      5.45657039e-01 1.76119387e-01 4.38752770e-01 2.59701550e-01
      4.89977717e-01 2.80597091e-01 5.47884166e-01 2.98507541e-01
      6.01336300e-01 2.77612001e-01 6.50334060e-01 2.47761175e-01
      2.36080185e-01 -6.86567128e-02 2.89532304e-01 -9.55223814e-02
      3.42984408e-01 -1.04477599e-01 4.05345201e-01 -8.35820809e-02
      3.49665910e-01 -7.16417879e-02 2.93986648e-01 -6.56716377e-02
      6.45879745e-01 -1.13432825e-01 7.08240509e-01 -1.46268636e-01
      7.59465456e-01 -1.49253711e-01 8.08463275e-01 -1.25373125e-01
      7.61692643e-01 -1.16417900e-01 7.08240509e-01 -1.13432825e-01
      3.87527853e-01 4.86567199e-01 4.49888647e-01 4.38806027e-01
      5.05567908e-01 4.14925426e-01 5.50111353e-01 4.26865727e-01
      5.96881986e-01 4.11940366e-01 6.59242749e-01 4.29850787e-01
      7.34966576e-01 4.68656778e-01 6.65924251e-01 4.98507500e-01
      6.08017802e-01 5.10447800e-01 5.59020042e-01 5.16417980e-01
      5.12249470e-01 5.13432860e-01 4.56570148e-01 5.07462740e-01
      4.16481078e-01 4.77611989e-01 5.07795095e-01 4.50746328e-01
      5.52338541e-01 4.56716478e-01 5.99109113e-01 4.50746328e-01
      7.06013381e-01 4.65671688e-01 6.01336300e-01 4.47761238e-01
      5.54565728e-01 4.56716478e-01 5.10022283e-01 4.50746328e-01</_>
    <_>
      0. 0. 1.89075638e-02 1.67088613e-01 4.83193286e-02 3.36708874e-01
      8.61344561e-02 4.96202528e-01 1.38655469e-01 6.48101270e-01
      2.16386557e-01 7.84810126e-01 3.06722701e-01 9.01265800e-01
      4.15966392e-01 9.82278466e-01 5.44117630e-01 1. 6.68067217e-01
      9.56962049e-01 7.75210083e-01 8.58227849e-01 8.67647052e-01
      7.36708879e-01 9.39075649e-01 5.92405081e-01 9.76890743e-01
      4.30379748e-01 9.93697464e-01 2.60759503e-01 1. 9.11392421e-02
      9.95798290e-01 -8.10126588e-02 6.30252138e-02 -6.07594922e-02
      1.21848740e-01 -1.49367094e-01 2.18487397e-01 -1.62025318e-01
      3.15126061e-01 -1.39240503e-01 4.05462176e-01 -9.87341776e-02
      5.54621875e-01 -1.16455697e-01 6.42857134e-01 -1.79746836e-01
      7.39495814e-01 -2.12658226e-01 8.38235319e-01 -2.05063298e-01
      9.03361320e-01 -1.29113927e-01 4.85294104e-01 2.78481022e-02
      4.89495784e-01 1.31645575e-01 4.93697464e-01 2.37974688e-01
      4.97899145e-01 3.49367082e-01 3.88655454e-01 4.37974691e-01
      4.47478980e-01 4.53164548e-01 5.06302536e-01 4.65822786e-01
      5.63025236e-01 4.43037987e-01 6.19747877e-01 4.22784805e-01
      1.57563031e-01 4.30379733e-02 2.16386557e-01 7.59493653e-03
      2.89915979e-01 1.01265823e-02 3.55042011e-01 6.83544278e-02
      2.85714298e-01 8.86075944e-02 2.12184876e-01 8.86075944e-02
      6.30252123e-01 4.55696210e-02 6.89075649e-01 -1.51898731e-02
      7.60504186e-01 -2.53164563e-02 8.19327712e-01 0. 7.73109257e-01
      4.81012650e-02 7.03781486e-01 5.56962043e-02 3.42436969e-01
      6.45569623e-01 4.01260495e-01 5.94936728e-01 4.66386557e-01
      5.62025309e-01 5.18907547e-01 5.77215195e-01 5.71428597e-01
      5.54430366e-01 6.40756309e-01 5.74683547e-01 7.05882370e-01
      6.07594907e-01 6.51260495e-01 6.96202517e-01 5.90336144e-01
      7.49367118e-01 5.31512618e-01 7.64556944e-01 4.76890743e-01
      7.62025297e-01 4.09663856e-01 7.24050641e-01 3.76050413e-01
      6.48101270e-01 4.70588237e-01 6.27848089e-01 5.23109257e-01
      6.27848089e-01 5.77731073e-01 6.17721498e-01 6.70168042e-01
      6.12658203e-01 5.79831958e-01 6.48101270e-01 5.23109257e-01
      6.63291156e-01 4.72689062e-01 6.58227861e-01</_>
    <_>
      0. 0. 1.27388537e-02 1.64179102e-01 2.97239907e-02 3.20895523e-01
      4.88322712e-02 4.75124389e-01 8.28025490e-02 6.24378085e-01
      1.52866244e-01 7.58706450e-01 2.42038220e-01 8.80596995e-01
      3.46072197e-01 9.75124359e-01 4.77706999e-01 1. 6.13588095e-01
      9.75124359e-01 7.32484102e-01 8.90547276e-01 8.32271755e-01
      7.73631811e-01 9.08704877e-01 6.36815906e-01 9.46921468e-01
      4.87562180e-01 9.66029704e-01 3.23383093e-01 9.87261176e-01
      1.56716421e-01 1. -1.74129345e-02 5.09554148e-02 -2.48756222e-02
      1.12526536e-01 -9.45273638e-02 2.08067939e-01 -8.95522386e-02
      2.97239929e-01 -5.97014911e-02 3.88535023e-01 -2.48756222e-02
      5.09554148e-01 -2.98507456e-02 6.09341800e-01 -6.46766201e-02
      7.07006395e-01 -9.20398012e-02 8.06794047e-01 -8.95522386e-02
      8.85350347e-01 -2.98507456e-02 4.52229291e-01 3.23383100e-02
      4.52229291e-01 1.39303476e-01 4.52229291e-01 2.48756215e-01
      4.50106144e-01 3.63184094e-01 3.67303610e-01 4.22885567e-01
      4.09766465e-01 4.40298498e-01 4.56475586e-01 4.55223888e-01
      5.05307853e-01 4.40298498e-01 5.52016973e-01 4.22885567e-01
      1.67728230e-01 3.48258689e-02 2.22929940e-01 7.46268639e-03
      2.82377928e-01 4.97512426e-03 3.37579608e-01 4.22885567e-02
      2.80254781e-01 5.47263697e-02 2.20806792e-01 5.72139286e-02
      5.94479859e-01 3.98009941e-02 6.56050980e-01 4.97512426e-03
      7.15498924e-01 9.95024852e-03 7.70700634e-01 3.98009941e-02
      7.15498924e-01 5.72139286e-02 6.56050980e-01 5.22388071e-02
      3.01486194e-01 6.11940324e-01 3.48195314e-01 5.72139323e-01
      4.05520171e-01 5.49751222e-01 4.54352438e-01 5.64676642e-01
      5.05307853e-01 5.47263682e-01 5.73248386e-01 5.67164183e-01
      6.34819508e-01 6.01990044e-01 5.75371563e-01 6.69154227e-01
      5.13800442e-01 7.03980088e-01 4.60721880e-01 7.13930368e-01
      4.05520171e-01 7.06467688e-01 3.50318462e-01 6.74129367e-01
      3.26963902e-01 6.11940324e-01 4.07643318e-01 6.09452724e-01
      4.56475586e-01 6.19403005e-01 5.09554148e-01 6.06965184e-01
      6.05095565e-01 6.04477584e-01 5.09554148e-01 6.06965184e-01
      4.56475586e-01 6.19403005e-01 4.07643318e-01 6.09452724e-01</_>
    <_>
      0. 0. 9.30232555e-03 1.63636371e-01 3.48837227e-02 3.33333284e-01
      6.27906993e-02 4.99999940e-01 1.06976748e-01 6.60606027e-01
      1.74418598e-01 7.96969652e-01 2.72093028e-01 9.06060576e-01
      3.88372093e-01 9.75757599e-01 5.16279042e-01 1. 6.44186020e-01
      9.63636339e-01 7.60465145e-01 8.84848475e-01 8.62790704e-01
      7.72727251e-01 9.30232584e-01 6.24242365e-01 9.69767451e-01
      4.57575709e-01 9.86046493e-01 2.75757521e-01 1. 9.69697088e-02
      9.97674406e-01 -8.18181857e-02 7.20930248e-02 -1.87878802e-01
      1.34883717e-01 -2.66666681e-01 2.25581393e-01 -2.90909111e-01
      3.18604648e-01 -2.69696981e-01 4.06976730e-01 -2.24242449e-01
      5.41860461e-01 -2.39393964e-01 6.23255789e-01 -2.96969712e-01
      7.16279089e-01 -3.30303073e-01 8.09302330e-01 -3.18181843e-01
      8.81395340e-01 -2.45454565e-01 4.79069769e-01 -6.06060661e-02
      4.81395334e-01 5.75757623e-02 4.83720928e-01 1.72727287e-01
      4.86046523e-01 2.93939322e-01 3.93023252e-01 3.81818116e-01
      4.41860467e-01 4.03030246e-01 4.95348841e-01 4.15151447e-01
      5.46511650e-01 3.96969646e-01 5.95348835e-01 3.72727215e-01
      1.74418598e-01 -3.63636389e-02 2.30232552e-01 -8.18181857e-02
      2.93023258e-01 -7.57575855e-02 3.48837197e-01 -1.21212136e-02
      2.88372099e-01 -3.03030340e-03 2.23255813e-01 -6.06060680e-03
      6.16279066e-01 -3.03030331e-02 6.65116251e-01 -1.00000009e-01
      7.27907002e-01 -1.15151525e-01 7.88372099e-01 -7.27272779e-02
      7.39534855e-01 -3.33333351e-02 6.74418628e-01 -2.42424272e-02
      3.53488386e-01 6.18181765e-01 4.04651165e-01 5.51515102e-01
      4.53488380e-01 5.18181801e-01 4.97674406e-01 5.30303001e-01
      5.41860461e-01 5.12121141e-01 6.00000024e-01 5.36363602e-01
      6.60465121e-01 5.99999964e-01 6.06976748e-01 6.60606027e-01
      5.53488374e-01 6.99999988e-01 5.06976724e-01 7.12121189e-01
      4.60465103e-01 7.06060588e-01 4.09302324e-01 6.78787827e-01
      3.86046499e-01 6.15151465e-01 4.55813944e-01 5.84848464e-01
      5.00000000e-01 5.87878764e-01 5.44186056e-01 5.81818163e-01
      6.30232573e-01 5.96969664e-01 5.46511650e-01 6.15151465e-01
      5.02325594e-01 6.27272666e-01 4.58139539e-01 6.21212065e-01</_>
    <_>
      0. 0. 6.43776823e-03 1.57754019e-01 1.93133056e-02 3.12834173e-01
      3.43347639e-02 4.67914402e-01 5.79399131e-02 6.25668406e-01
      1.05150215e-01 7.64705837e-01 1.90987125e-01 8.82352948e-01
      2.93991417e-01 9.62566853e-01 4.27038640e-01 1. 5.64377666e-01
      9.89304841e-01 7.01716721e-01 9.30481255e-01 8.11158776e-01
      8.28876972e-01 8.84120166e-01 6.95187151e-01 9.24892724e-01
      5.40106893e-01 9.57081556e-01 3.79679084e-01 9.84978557e-01
      2.19251275e-01 1. 5.08021414e-02 4.93562222e-02 -9.35828984e-02
      1.15879826e-01 -1.68449208e-01 2.16738194e-01 -1.71123013e-01
      3.11158806e-01 -1.31016061e-01 3.99141639e-01 -7.48663172e-02
      5.30042946e-01 -6.14973307e-02 6.24463499e-01 -1.04278080e-01
      7.23175943e-01 -1.28342256e-01 8.24034333e-01 -1.09625675e-01
      8.94849777e-01 -3.20855640e-02 4.59227473e-01 1.06951883e-02
      4.52789694e-01 1.09625675e-01 4.46351945e-01 2.13903755e-01
      4.39914167e-01 3.20855558e-01 3.56223166e-01 3.93048078e-01
      3.94849777e-01 4.14438456e-01 4.42060083e-01 4.30481225e-01
      4.91416305e-01 4.22459841e-01 5.36480665e-01 4.11764652e-01
      1.50214598e-01 8.02139100e-03 2.06008583e-01 -3.20855640e-02
      2.78969944e-01 -2.40641739e-02 3.34763944e-01 4.54545505e-02
      2.70386279e-01 6.14973307e-02 1.99570820e-01 5.61497360e-02
      5.96566498e-01 6.68449253e-02 6.56652331e-01 8.02139100e-03
      7.29613721e-01 1.06951883e-02 7.85407722e-01 6.14973307e-02
      7.31759667e-01 9.62566957e-02 6.60944223e-01 9.35828984e-02
      3.15450639e-01 6.68449163e-01 3.54077250e-01 5.80213845e-01
      4.05579388e-01 5.40106893e-01 4.42060083e-01 5.66844881e-01
      4.82832611e-01 5.56149721e-01 5.38626611e-01 6.20320797e-01
      5.85836887e-01 7.24598885e-01 5.27897000e-01 7.32620299e-01
      4.72103000e-01 7.27272689e-01 4.29184556e-01 7.19251335e-01
      3.88412029e-01 7.05882311e-01 3.47639471e-01 6.84491932e-01
      3.47639471e-01 6.60427809e-01 4.01287556e-01 6.17647052e-01
      4.39914167e-01 6.33689821e-01 4.82832611e-01 6.36363626e-01
      5.53648055e-01 7.08556116e-01 4.74248916e-01 6.36363626e-01
      4.35622305e-01 6.33689821e-01 3.94849777e-01 6.14973247e-01</_>
    <_>
      0. 0. 1.44230770e-02 1.80327863e-01 3.36538479e-02 3.60655725e-01
      5.76923080e-02 5.37704945e-01 1.05769232e-01 7.08196700e-01
      1.87500000e-01 8.45901668e-01 3.00480783e-01 9.44262266e-01
      4.32692319e-01 9.93442595e-01 5.72115362e-01 1. 6.99519217e-01
      9.73770499e-01 8.07692289e-01 9.04918015e-01 8.91826928e-01
      7.96721339e-01 9.49519217e-01 6.55737698e-01 9.80769217e-01
      4.95081961e-01 9.90384638e-01 3.27868849e-01 9.95192289e-01
      1.54098362e-01 1. -2.62295082e-02 1.05769232e-01 -8.19672123e-02
      1.85096160e-01 -1.57377049e-01 2.81250000e-01 -1.73770487e-01
      3.82211536e-01 -1.54098362e-01 4.78365391e-01 -1.18032783e-01
      6.10576928e-01 -1.31147534e-01 6.99519217e-01 -1.77049175e-01
      7.93269217e-01 -1.93442628e-01 8.82211566e-01 -1.83606550e-01
      9.44711566e-01 -1.11475408e-01 5.48076928e-01 -9.83606558e-03
      5.50480783e-01 9.18032750e-02 5.55288434e-01 1.93442628e-01
      5.60096145e-01 3.04918021e-01 4.35096145e-01 3.70491803e-01
      4.92788464e-01 3.93442631e-01 5.55288434e-01 4.13114756e-01
      6.15384638e-01 3.93442631e-01 6.68269217e-01 3.67213100e-01
      2.11538464e-01 1.63934417e-02 2.69230783e-01 -1.63934417e-02
      3.31730783e-01 -1.96721312e-02 3.96634609e-01 2.62295082e-02
      3.34134609e-01 4.59016375e-02 2.69230783e-01 4.59016375e-02
      6.77884638e-01 1.31147541e-02 7.37980783e-01 -3.93442623e-02
      8.02884638e-01 -3.93442623e-02 8.55769217e-01 -9.83606558e-03
      8.05288434e-01 2.62295082e-02 7.42788434e-01 2.95081958e-02
      3.82211536e-01 6.13114774e-01 4.49519217e-01 5.57377040e-01
      5.07211566e-01 5.27868867e-01 5.55288434e-01 5.44262290e-01
      6.00961566e-01 5.24590135e-01 6.63461566e-01 5.47540963e-01
      7.30769217e-01 6.00000024e-01 6.68269217e-01 6.29508197e-01
      6.10576928e-01 6.36065602e-01 5.62500000e-01 6.42622948e-01
      5.14423072e-01 6.42622948e-01 4.51923072e-01 6.42622948e-01
      4.08653855e-01 6.03278697e-01 5.07211566e-01 5.73770463e-01
      5.55288434e-01 5.83606541e-01 6.05769217e-01 5.67213118e-01
      7.06730783e-01 5.90163946e-01 6.05769217e-01 5.67213118e-01
      5.57692289e-01 5.80327868e-01 5.09615362e-01 5.73770463e-01</_>
    <_>
      0. 0. 8.49256944e-03 1.89102560e-01 2.54777074e-02 3.75000000e-01
      4.67091277e-02 5.57692289e-01 9.34182554e-02 7.21153855e-01
      1.74097657e-01 8.42948735e-01 2.82377928e-01 9.19871807e-01
      3.97027612e-01 9.74358976e-01 5.22292972e-01 1. 6.43312097e-01
      9.77564096e-01 7.47346044e-01 9.07051265e-01 8.40764344e-01
      8.20512831e-01 9.02335465e-01 6.95512831e-01 9.38428879e-01
      5.44871807e-01 9.61783469e-01 3.84615391e-01 9.85137999e-01
      2.21153840e-01 1. 5.12820520e-02 1.16772823e-01 -1.57051280e-01
      1.88959658e-01 -2.46794865e-01 2.84501076e-01 -2.85256416e-01
      3.84288758e-01 -2.72435904e-01 4.77706999e-01 -2.24358976e-01
      6.15711272e-01 -2.01923072e-01 7.04883218e-01 -2.33974352e-01
      7.98301458e-01 -2.33974352e-01 8.81104052e-01 -1.85897440e-01
      9.34182584e-01 -8.65384638e-02 5.45647562e-01 -7.05128238e-02
      5.43524444e-01 2.56410260e-02 5.43524444e-01 1.18589744e-01
      5.43524444e-01 2.17948720e-01 4.39490438e-01 3.26923072e-01
      4.84076440e-01 3.52564096e-01 5.32908678e-01 3.65384609e-01
      5.77494681e-01 3.58974367e-01 6.22080684e-01 3.39743584e-01
      2.35668793e-01 -2.56410260e-02 2.92993635e-01 -8.65384638e-02
      3.63057315e-01 -8.33333358e-02 4.24628437e-01 -6.41025649e-03
      3.60934168e-01 1.60256419e-02 2.88747340e-01 1.60256419e-02
      6.32696390e-01 9.61538497e-03 6.94267511e-01 -6.08974360e-02
      7.62208045e-01 -5.12820520e-02 8.13163459e-01 1.60256419e-02
      7.60084927e-01 4.80769239e-02 6.92144394e-01 3.84615399e-02
      3.67303610e-01 5.83333313e-01 4.37367290e-01 5.44871807e-01
      4.92569000e-01 5.25641024e-01 5.24416149e-01 5.44871807e-01
      5.56263268e-01 5.32051265e-01 6.07218683e-01 5.54487169e-01
      6.73036098e-01 5.99358976e-01 6.09341800e-01 6.21794879e-01
      5.58386385e-01 6.25000000e-01 5.26539266e-01 6.25000000e-01
      4.90445852e-01 6.18589759e-01 4.37367290e-01 6.08974338e-01
      3.92781317e-01 5.76923072e-01 4.90445852e-01 5.60897410e-01
      5.24416149e-01 5.70512831e-01 5.56263268e-01 5.64102590e-01
      6.45435274e-01 5.86538434e-01 5.58386385e-01 5.64102590e-01
      5.26539266e-01 5.70512831e-01 4.94692147e-01 5.60897410e-01</_>
    <_>
      0. 0. 7.05467351e-03 1.75999999e-01 3.17460336e-02 3.41333330e-01
      6.34920672e-02 5.01333356e-01 1.04056440e-01 6.58666670e-01
      1.67548507e-01 7.94666648e-01 2.52204597e-01 9.01333332e-01
      3.50970030e-01 9.76000011e-01 4.63844806e-01 1. 5.82010567e-01
      9.81333315e-01 6.96649015e-01 9.20000017e-01 8.00705492e-01
      8.21333349e-01 8.81834209e-01 6.77333355e-01 9.31216955e-01
      5.14666677e-01 9.64726627e-01 3.33333343e-01 9.89417970e-01
      1.46666661e-01 1. -4.26666662e-02 6.70194030e-02 -1.30666673e-01
      1.37566134e-01 -2.16000006e-01 2.29276896e-01 -2.39999995e-01
      3.20987642e-01 -2.18666673e-01 4.12698418e-01 -1.92000002e-01
      5.29100537e-01 -1.86666667e-01 6.27865970e-01 -2.21333340e-01
      7.24867702e-01 -2.50666678e-01 8.23633134e-01 -2.26666674e-01
      9.06525552e-01 -1.57333329e-01 4.65608478e-01 -3.99999991e-02
      4.65608478e-01 6.93333298e-02 4.67372119e-01 1.78666666e-01
      4.65608478e-01 2.90666670e-01 3.58024687e-01 4.05333340e-01
      4.12698418e-01 4.13333327e-01 4.65608478e-01 4.23999995e-01
      5.22045851e-01 4.13333327e-01 5.74955881e-01 4.10666674e-01
      1.51675478e-01 -2.66666673e-02 2.15167552e-01 -8.79999995e-02
      2.91005284e-01 -9.33333337e-02 3.49206358e-01 0. 2.85714298e-01
      1.33333337e-02 2.09876537e-01 1.86666660e-02 6.11992955e-01
      -8.00000038e-03 6.77248657e-01 -9.86666679e-02 7.51322746e-01
      -9.60000008e-02 8.14814806e-01 -3.73333320e-02 7.60141075e-01
      8.00000038e-03 6.82539701e-01 8.00000038e-03 2.82186955e-01
      6.39999986e-01 3.49206358e-01 5.65333307e-01 4.12698418e-01
      5.19999981e-01 4.60317463e-01 5.41333318e-01 5.13227522e-01
      5.25333345e-01 5.83774269e-01 5.75999975e-01 6.52557313e-01
      6.61333323e-01 5.74955881e-01 7.03999996e-01 5.06172836e-01
      7.14666665e-01 4.49735463e-01 7.17333317e-01 3.98589075e-01
      7.09333360e-01 3.42151672e-01 6.88000023e-01 3.10405642e-01
      6.32000029e-01 4.10934746e-01 6.05333328e-01 4.58553791e-01
      6.13333344e-01 5.13227522e-01 6.13333344e-01 6.22574985e-01
      6.53333306e-01 5.04409194e-01 6.02666676e-01 4.51499104e-01
      6.05333328e-01 4.02116388e-01 6.00000024e-01</_>
    <_>
      0. 0. 1.47783253e-02 1.76100641e-01 4.67980281e-02 3.49056631e-01
      8.37438405e-02 5.12578547e-01 1.35467976e-01 6.69811308e-01
      2.09359601e-01 8.11320722e-01 3.02955657e-01 9.27672923e-01
      4.16256160e-01 9.90566015e-01 5.51724136e-01 1. 6.89655185e-01
      9.77987409e-01 7.93103456e-01 8.96226406e-01 8.76847267e-01
      7.67295599e-01 9.33497548e-01 6.16352141e-01 9.75369453e-01
      4.49685484e-01 9.92610812e-01 2.79874235e-01 1. 9.74842831e-02
      9.92610812e-01 -8.17610174e-02 7.38916248e-02 -1.22641519e-01
      1.35467976e-01 -2.01257885e-01 2.24137932e-01 -2.26415113e-01
      3.17734003e-01 -2.04402536e-01 4.11330044e-01 -1.72955990e-01
      5.46798050e-01 -1.94968566e-01 6.35468006e-01 -2.45283037e-01
      7.31527090e-01 -2.73584932e-01 8.27586234e-01 -2.64150977e-01
      8.96551728e-01 -1.91823915e-01 4.87684727e-01 -6.91823959e-02
      4.92610842e-01 3.14465426e-02 4.95073885e-01 1.32075489e-01
      4.97536957e-01 2.38993734e-01 4.03940886e-01 3.64779800e-01
      4.55665022e-01 3.77358437e-01 5.12315273e-01 3.83647740e-01
      5.64039409e-01 3.71069133e-01 6.13300502e-01 3.52201283e-01
      1.79802954e-01 -3.14465445e-03 2.33990148e-01 -4.71698157e-02
      3.05418730e-01 -5.34591228e-02 3.74384224e-01 -3.14465445e-03
      3.05418730e-01 2.51572356e-02 2.33990148e-01 3.45911980e-02
      6.10837460e-01 -2.20125802e-02 6.69950724e-01 -8.49056691e-02
      7.41379321e-01 -9.43396315e-02 8.02955687e-01 -5.66037782e-02
      7.48768449e-01 -9.43396334e-03 6.77339911e-01 -6.28930889e-03
      3.47290635e-01 6.41509414e-01 4.13793117e-01 5.78616321e-01
      4.75369453e-01 5.40880442e-01 5.19704461e-01 5.56603730e-01
      5.64039409e-01 5.37735820e-01 6.33004904e-01 5.66037714e-01
      7.14285731e-01 6.16352141e-01 6.42857134e-01 6.76100612e-01
      5.78817725e-01 6.98113203e-01 5.32019675e-01 7.04402506e-01
      4.85221684e-01 7.04402506e-01 4.21182275e-01 6.85534537e-01
      3.79310340e-01 6.38364732e-01 4.77832526e-01 6.10062838e-01
      5.24630547e-01 6.16352141e-01 5.68965495e-01 6.03773534e-01
      6.82265997e-01 6.13207519e-01 5.71428597e-01 6.03773534e-01
      5.27093589e-01 6.16352141e-01 4.80295569e-01 6.10062838e-01</_>
    <_>
      0. 0. 4.28265519e-03 1.62234038e-01 1.92719493e-02 3.21808517e-01
      3.42612416e-02 4.84042555e-01 5.78158461e-02 6.43617034e-01
      1.15631692e-01 7.79255331e-01 2.11991429e-01 8.85638297e-01
      3.19057822e-01 9.70744669e-01 4.51820135e-01 1. 5.97430408e-01
      9.89361703e-01 7.23768711e-01 9.17553186e-01 8.30835104e-01
      8.16489339e-01 9.01498914e-01 6.83510661e-01 9.40042853e-01
      5.23936152e-01 9.63597417e-01 3.64361703e-01 9.89293337e-01
      2.10106388e-01 1. 4.52127643e-02 5.35331890e-02 -9.04255286e-02
      1.22055672e-01 -1.56914890e-01 2.16274083e-01 -1.59574464e-01
      3.06209862e-01 -1.22340426e-01 3.89721632e-01 -6.91489354e-02
      5.33190548e-01 -5.31914905e-02 6.27408981e-01 -9.84042585e-02
      7.23768711e-01 -1.25000000e-01 8.22269797e-01 -1.14361703e-01
      8.95074964e-01 -4.25531901e-02 4.60385442e-01 2.65957452e-02
      4.56102788e-01 1.22340426e-01 4.49678808e-01 2.26063833e-01
      4.43254828e-01 3.29787225e-01 3.59743029e-01 4.12234038e-01
      4.00428265e-01 4.30851072e-01 4.47537482e-01 4.46808517e-01
      4.96787995e-01 4.33510631e-01 5.43897212e-01 4.20212775e-01
      1.52034268e-01 1.86170209e-02 2.05567449e-01 -2.92553194e-02
      2.78372586e-01 -2.12765951e-02 3.38329762e-01 5.05319163e-02
      2.69807279e-01 7.44680837e-02 1.97002143e-01 6.91489354e-02
      5.97430408e-01 6.64893612e-02 6.61670208e-01 0. 7.34475374e-01 0.
      7.92291224e-01 5.58510646e-02 7.38758028e-01 9.84042585e-02
      6.65952861e-01 9.57446843e-02 2.61241972e-01 6.48936152e-01
      3.34047109e-01 5.98404229e-01 3.98286939e-01 5.69148958e-01
      4.45396155e-01 5.90425551e-01 4.96787995e-01 5.71808517e-01
      5.71734488e-01 6.09042525e-01 6.48822248e-01 6.59574449e-01
      5.71734488e-01 6.99468076e-01 4.96787995e-01 7.15425551e-01
      4.45396155e-01 7.18085110e-01 3.94004285e-01 7.10106373e-01
      3.29764456e-01 6.91489339e-01 2.91220546e-01 6.48936152e-01
      3.98286939e-01 6.25000000e-01 4.45396155e-01 6.32978737e-01
      4.96787995e-01 6.25000000e-01 6.16702378e-01 6.56914890e-01
      4.96787995e-01 6.46276593e-01 4.45396155e-01 6.51595771e-01
      3.98286939e-01 6.40957475e-01</_>
    <_>
      0. 0. 3.57142859e-03 1.63538873e-01 1.96428578e-02 3.24396789e-01
      4.46428582e-02 4.85254705e-01 7.50000030e-02 6.40750647e-01
      1.25000000e-01 7.82841802e-01 2.07142860e-01 9.03485239e-01
      3.12500000e-01 9.78552282e-01 4.49999988e-01 1. 5.91071427e-01
      9.86595154e-01 7.14285731e-01 9.32975888e-01 8.19642842e-01
      8.33780169e-01 8.96428585e-01 6.97050929e-01 9.37500000e-01
      5.33512056e-01 9.64285731e-01 3.56568366e-01 9.87500012e-01
      1.79624662e-01 1. -8.04289524e-03 5.71428575e-02 -1.52815014e-01
      1.12499997e-01 -2.68096507e-01 1.98214293e-01 -3.29758704e-01
      2.92857140e-01 -3.40482563e-01 3.82142872e-01 -3.08310986e-01
      5.39285719e-01 -3.24396789e-01 6.37499988e-01 -3.56568366e-01
      7.41071403e-01 -3.48525465e-01 8.33928585e-01 -2.84182310e-01
      8.96428585e-01 -1.68900803e-01 4.53571439e-01 -9.91957113e-02
      4.53571439e-01 1.34048257e-02 4.49999988e-01 1.23324394e-01
      4.48214293e-01 2.38605902e-01 3.39285702e-01 3.64611268e-01
      3.94642860e-01 3.75335127e-01 4.48214293e-01 3.88739944e-01
      5.08928597e-01 3.78016084e-01 5.66071451e-01 3.69973183e-01
      1.35714293e-01 -4.02144790e-02 1.94642857e-01 -1.20643429e-01
      2.75000006e-01 -1.26005366e-01 3.39285702e-01 -2.41286866e-02
      2.71428585e-01 -2.68096523e-03 1.91071436e-01 0. 5.94642878e-01
      -3.75335105e-02 6.62500024e-01 -1.39410183e-01 7.42857158e-01
      -1.42091155e-01 8.05357158e-01 -6.16621971e-02 7.48214304e-01
      -1.87667552e-02 6.67857170e-01 -1.60857905e-02 2.39285707e-01
      6.11260056e-01 3.07142854e-01 5.30831099e-01 3.85714293e-01
      4.85254705e-01 4.46428567e-01 5.04021466e-01 5.08928597e-01
      4.85254705e-01 6.00000024e-01 5.33512056e-01 6.82142854e-01
      6.27345860e-01 6.00000024e-01 7.15817690e-01 5.12499988e-01
      7.45308340e-01 4.44642872e-01 7.50670254e-01 3.76785725e-01
      7.42627323e-01 3.01785707e-01 7.02412844e-01 2.75000006e-01
      6.11260056e-01 3.83928567e-01 5.71045578e-01 4.46428567e-01
      5.76407492e-01 5.10714293e-01 5.71045578e-01 6.48214281e-01
      6.24664903e-01 5.10714293e-01 6.27345860e-01 4.44642872e-01
      6.35388732e-01 3.80357146e-01 6.24664903e-01</_>
    <_>
      0. 0. 1.01522841e-02 1.79775283e-01 2.53807101e-02 3.55805248e-01
      4.56852801e-02 5.35580516e-01 8.62944126e-02 7.04119861e-01
      1.57360405e-01 8.35205972e-01 2.58883238e-01 9.21348333e-01
      3.70558381e-01 9.85018730e-01 4.94923860e-01 1. 6.19289339e-01
      9.66292143e-01 7.33502567e-01 8.98876429e-01 8.47715735e-01
      8.12734067e-01 9.31472063e-01 6.85393274e-01 9.74619269e-01
      5.24344563e-01 9.92385805e-01 3.48314613e-01 9.94923830e-01
      1.68539330e-01 1. -1.12359552e-02 7.36040622e-02 -2.02247187e-01
      1.14213198e-01 -3.37078661e-01 1.97969541e-01 -4.08239692e-01
      2.96954304e-01 -4.04494375e-01 3.93401027e-01 -3.52059931e-01
      5.40609121e-01 -3.67041200e-01 6.42131984e-01 -4.23220962e-01
      7.43654847e-01 -4.26966280e-01 8.37563455e-01 -3.52059931e-01
      8.85786831e-01 -2.24719107e-01 4.77157354e-01 -1.64794013e-01
      4.79695439e-01 -7.86516890e-02 4.79695439e-01 3.74531839e-03
      4.79695439e-01 9.73782763e-02 3.90862942e-01 2.73408234e-01
      4.36548233e-01 2.80898869e-01 4.79695439e-01 2.88389504e-01
      5.25380731e-01 2.77153552e-01 5.65989852e-01 2.65917599e-01
      1.85279191e-01 -8.61423239e-02 2.33502537e-01 -1.49812728e-01
      2.99492389e-01 -1.53558046e-01 3.60406101e-01 -8.98876414e-02
      2.99492389e-01 -5.99250942e-02 2.33502537e-01 -5.24344556e-02
      5.98984778e-01 -9.73782763e-02 6.64974630e-01 -1.61048695e-01
      7.30964482e-01 -1.49812728e-01 7.81725883e-01 -8.61423239e-02
      7.28426397e-01 -5.99250942e-02 6.64974630e-01 -6.36704117e-02
      2.58883238e-01 5.61797738e-01 3.37563455e-01 4.71910119e-01
      4.21319783e-01 4.30711597e-01 4.74619299e-01 4.45692897e-01
      5.35533011e-01 4.30711597e-01 6.14213169e-01 4.68164802e-01
      6.95431471e-01 5.46816468e-01 6.16751254e-01 6.10486865e-01
      5.38071036e-01 6.32958829e-01 4.77157354e-01 6.40449464e-01
      4.18781728e-01 6.44194782e-01 3.37563455e-01 6.32958829e-01
      2.91878164e-01 5.58052421e-01 4.21319783e-01 4.90636706e-01
      4.74619299e-01 4.90636706e-01 5.35533011e-01 4.86891389e-01
      6.59898460e-01 5.43071151e-01 5.35533011e-01 5.65543056e-01
      4.74619299e-01 5.73033690e-01 4.18781728e-01 5.73033690e-01</_>
    <_>
      0. 0. 5.98802418e-03 1.90243959e-01 1.99600793e-02 3.82926881e-01
      6.38722554e-02 5.60975671e-01 1.47704586e-01 7.09756136e-01
      2.63473064e-01 8.34146380e-01 3.87225538e-01 9.29268301e-01
      5.16966045e-01 1. 6.48702621e-01 9.95121956e-01 7.50499010e-01
      9.36585367e-01 8.12375247e-01 8.21951210e-01 8.74251485e-01
      7.07317114e-01 9.34131742e-01 5.85365891e-01 9.80039895e-01
      4.48780537e-01 1. 3.07317138e-01 9.92015958e-01 1.60975590e-01
      9.70059872e-01 1.21951215e-02 2.31536925e-01 -6.09756038e-02
      3.05389225e-01 -1.29268289e-01 4.01197612e-01 -1.58536568e-01
      4.99002010e-01 -1.56097546e-01 5.90818346e-01 -1.24390237e-01
      7.00598776e-01 -1.31707311e-01 7.60479033e-01 -1.68292671e-01
      8.26347291e-01 -1.82926819e-01 8.90219569e-01 -1.87804863e-01
      9.32135701e-01 -1.41463399e-01 6.54690623e-01 5.12195081e-02
      6.68662667e-01 1.46341458e-01 6.86626732e-01 2.41463467e-01
      7.06586838e-01 3.41463476e-01 5.64870238e-01 4.36585397e-01
      6.26746535e-01 4.51219559e-01 6.90618753e-01 4.65853691e-01
      7.40518987e-01 4.41463470e-01 7.84431159e-01 4.09756154e-01
      3.13373268e-01 7.80487731e-02 3.73253495e-01 3.90243866e-02
      4.41117764e-01 3.90243866e-02 5.04990041e-01 9.26829204e-02
      4.41117764e-01 1.14634141e-01 3.69261473e-01 1.17073163e-01
      7.32534945e-01 7.80487731e-02 7.84431159e-01 1.46341454e-02
      8.46307397e-01 4.87804832e-03 8.96207571e-01 3.41463387e-02
      8.56287420e-01 7.80487731e-02 7.94411182e-01 8.53658468e-02
      4.23153698e-01 6.31707370e-01 5.22954106e-01 5.75609803e-01
      6.22754514e-01 5.46341479e-01 6.82634711e-01 5.56097567e-01
      7.36526966e-01 5.31707346e-01 7.94411182e-01 5.43902457e-01
      8.32335353e-01 5.87804914e-01 7.96407163e-01 7.26829290e-01
      7.40518987e-01 7.95121968e-01 6.78642690e-01 8.17073166e-01
      6.12774432e-01 8.17073166e-01 5.12974024e-01 7.73170769e-01
      4.57085818e-01 6.31707370e-01 6.20758474e-01 6.14634156e-01
      6.80638731e-01 6.14634156e-01 7.36526966e-01 6.02439046e-01
      8.04391205e-01 5.97561002e-01 7.36526966e-01 6.90243900e-01
      6.78642690e-01 7.12195158e-01 6.14770472e-01 7.12195158e-01</_>
    <_>
      0. 0. 6.22406648e-03 1.81818187e-01 1.45228216e-02 3.60501558e-01
      3.31950225e-02 5.32915354e-01 7.26141110e-02 6.89655185e-01
      1.45228222e-01 8.18181813e-01 2.48962656e-01 9.12225723e-01
      3.60995859e-01 9.81191218e-01 4.97925311e-01 1. 6.36929452e-01
      9.93730426e-01 7.48962641e-01 9.37304080e-01 8.52697074e-01
      8.49529803e-01 9.23236489e-01 7.11598754e-01 9.56431508e-01
      5.45454562e-01 9.75103736e-01 3.73040766e-01 9.89626527e-01
      1.88087776e-01 1. 3.13479616e-03 9.54356864e-02 -1.31661445e-01
      1.51452288e-01 -2.44514063e-01 2.40663901e-01 -3.16614360e-01
      3.46473038e-01 -3.57366711e-01 4.50207472e-01 -3.44827533e-01
      5.66390038e-01 -3.44827533e-01 6.72199190e-01 -3.47962320e-01
      7.75933623e-01 -2.97805607e-01 8.60995829e-01 -2.19435692e-01
      9.12863076e-01 -1.03448279e-01 5.14522851e-01 -1.97492108e-01
      5.14522851e-01 -9.09090936e-02 5.14522851e-01 2.19435729e-02
      5.14522851e-01 1.34796232e-01 4.17012453e-01 2.75862068e-01
      4.62655604e-01 2.91536063e-01 5.12448132e-01 3.10344815e-01
      5.58091283e-01 2.94670850e-01 5.99585056e-01 2.85266459e-01
      2.07468882e-01 -8.46394971e-02 2.63485491e-01 -1.19122259e-01
      3.23651463e-01 -1.25391856e-01 3.85892123e-01 -1.00313477e-01
      3.25726151e-01 -9.09090936e-02 2.69709557e-01 -8.15047026e-02
      6.26556039e-01 -9.40438882e-02 6.95020735e-01 -1.19122259e-01
      7.53112018e-01 -1.00313477e-01 8.04979265e-01 -5.95611297e-02
      7.46887982e-01 -6.58307225e-02 6.90871358e-01 -7.83699080e-02
      2.86307067e-01 5.86206913e-01 3.60995859e-01 4.82758611e-01
      4.43983406e-01 4.38871473e-01 5.04149377e-01 4.63949829e-01
      5.68464756e-01 4.48275864e-01 6.55601680e-01 5.04702210e-01
      7.26141095e-01 6.05015695e-01 6.49377584e-01 6.77115977e-01
      5.66390038e-01 6.92789972e-01 5.00000000e-01 6.92789972e-01
      4.39834028e-01 6.83385551e-01 3.60995859e-01 6.55172408e-01
      3.17427397e-01 5.83072126e-01 4.43983406e-01 4.95297819e-01
      5.04149377e-01 5.04702210e-01 5.66390038e-01 5.04702210e-01
      6.95020735e-01 5.95611274e-01 5.66390038e-01 6.05015695e-01
      5.02074718e-01 6.01880848e-01 4.41908717e-01 5.95611274e-01</_>
    <_>
      0. 0. 1.34228189e-02 1.69871807e-01 2.90827733e-02 3.36538494e-01
      4.69798669e-02 5.09615362e-01 8.27740505e-02 6.69871747e-01
      1.54362410e-01 8.04487169e-01 2.61744976e-01 9.03846145e-01
      3.87024611e-01 9.74358976e-01 5.34675598e-01 1. 6.77852333e-01
      9.71153855e-01 7.98657715e-01 8.97435904e-01 8.94854605e-01
      7.91666627e-01 9.53020155e-01 6.44230723e-01 9.75391507e-01
      4.71153796e-01 9.84340072e-01 2.91666687e-01 9.95525718e-01
      1.05769239e-01 1. -7.69230872e-02 1.20805368e-01 -2.05128223e-01
      1.74496651e-01 -3.07692349e-01 2.55033553e-01 -3.75000030e-01
      3.53467554e-01 -4.10256445e-01 4.47427303e-01 -3.94230813e-01
      5.83892643e-01 -4.19871837e-01 6.71140969e-01 -4.67948765e-01
      7.69574940e-01 -4.51923132e-01 8.56823266e-01 -3.87820542e-01
      9.06040251e-01 -2.78846174e-01 5.14541388e-01 -2.46794894e-01
      5.19015670e-01 -1.47435918e-01 5.21252811e-01 -4.16666716e-02
      5.23489952e-01 6.73076957e-02 4.27293062e-01 2.01923102e-01
      4.76510078e-01 2.17948735e-01 5.27964234e-01 2.33974382e-01
      5.79418361e-01 2.17948735e-01 6.24161065e-01 2.01923102e-01
      2.19239369e-01 -1.50641039e-01 2.70693511e-01 -2.21153870e-01
      3.40044737e-01 -2.27564126e-01 3.98210287e-01 -1.53846174e-01
      3.40044737e-01 -1.28205135e-01 2.70693511e-01 -1.21794887e-01
      6.30872488e-01 -1.79487199e-01 6.89038038e-01 -2.66025662e-01
      7.58389235e-01 -2.75641054e-01 8.12080562e-01 -2.05128223e-01
      7.65100658e-01 -1.66666687e-01 6.95749462e-01 -1.63461551e-01
      3.24384779e-01 5.22435844e-01 3.91498893e-01 4.16666597e-01
      4.72035795e-01 3.68589669e-01 5.30201316e-01 3.87820452e-01
      5.83892643e-01 3.74999940e-01 6.66666687e-01 4.26281989e-01
      7.36017883e-01 5.32051265e-01 6.71140969e-01 6.18589699e-01
      5.90604007e-01 6.44230723e-01 5.30201316e-01 6.47435844e-01
      4.69798654e-01 6.37820482e-01 3.91498893e-01 6.02564037e-01
      3.53467554e-01 5.16025603e-01 4.74272937e-01 4.39102501e-01
      5.32438457e-01 4.42307651e-01 5.86129725e-01 4.45512772e-01
      7.04697967e-01 5.28846085e-01 5.83892643e-01 5.54487109e-01
      5.27964234e-01 5.54487109e-01 4.69798654e-01 5.51281989e-01</_>
    <_>
      0. 0. 1.46750528e-02 1.61953747e-01 4.40251566e-02 3.26478094e-01
      7.75681362e-02 4.83290434e-01 1.23689726e-01 6.37532115e-01
      1.92872122e-01 7.78920293e-01 2.80922443e-01 8.94601524e-01
      3.92033547e-01 9.79434431e-01 5.28301895e-01 1. 6.64570212e-01
      9.58868921e-01 7.79874206e-01 8.56041133e-01 8.78406703e-01
      7.30077088e-01 9.49685514e-01 5.80976844e-01 9.87421393e-01
      4.16452408e-01 1. 2.41645187e-01 1. 6.68380484e-02 9.91614282e-01
      -1.07969157e-01 5.66037744e-02 -7.96915218e-02 1.09014675e-01
      -1.61953747e-01 1.97064996e-01 -1.72236517e-01 2.85115302e-01
      -1.54241651e-01 3.68972749e-01 -1.18251935e-01 5.28301895e-01
      -1.36246800e-01 6.14255786e-01 -1.95372760e-01 7.06498981e-01
      -2.31362492e-01 8.02935004e-01 -2.26221099e-01 8.74213815e-01
      -1.56812355e-01 4.54926610e-01 1.79948602e-02 4.57023054e-01
      1.25964016e-01 4.59119499e-01 2.33933106e-01 4.61215943e-01
      3.44472945e-01 3.64779860e-01 4.42159325e-01 4.19287205e-01
      4.55012798e-01 4.77987409e-01 4.67866272e-01 5.32494783e-01
      4.42159325e-01 5.89098513e-01 4.26735163e-01 1.40461221e-01
      3.59897204e-02 1.94968551e-01 -1.02827772e-02 2.70440251e-01
      -5.14138862e-03 3.33333343e-01 6.16966635e-02 2.64150947e-01
      8.48329142e-02 1.88679248e-01 8.48329142e-02 6.05870008e-01
      3.85604128e-02 6.64570212e-01 -3.34190242e-02 7.37945497e-01
      -4.88431901e-02 8.00838590e-01 -1.54241659e-02 7.52620518e-01
      4.11311090e-02 6.79245293e-01 5.14138862e-02 3.06079656e-01
      6.52956247e-01 3.66876304e-01 5.98971665e-01 4.36058700e-01
      5.65552652e-01 4.92662460e-01 5.78406155e-01 5.51362693e-01
      5.57840586e-01 6.35220110e-01 5.83547533e-01 7.16981113e-01
      6.16966546e-01 6.47798717e-01 7.14652956e-01 5.70230603e-01
      7.63496101e-01 5.09433985e-01 7.73778915e-01 4.46540892e-01
      7.71208227e-01 3.75262052e-01 7.35218465e-01 3.41719091e-01
      6.58097684e-01 4.40251559e-01 6.37532115e-01 4.96855348e-01
      6.40102804e-01 5.57651997e-01 6.29820049e-01 6.81341708e-01
      6.27249300e-01 5.59748411e-01 6.65809751e-01 4.98951793e-01
      6.76092505e-01 4.42348003e-01 6.70951128e-01</_>
    <_>
      0. 0. 8.31600837e-03 1.66666672e-01 2.70270277e-02 3.30845773e-01
      4.36590426e-02 4.95024890e-01 8.10810775e-02 6.51741266e-01
      1.49688154e-01 7.91044772e-01 2.47401252e-01 8.95522416e-01
      3.61746371e-01 9.72636819e-01 4.86486495e-01 1. 6.15384638e-01
      9.77611959e-01 7.29729712e-01 9.00497496e-01 8.27442825e-01
      7.98507452e-01 9.00207877e-01 6.76616907e-01 9.43866968e-01
      5.27363181e-01 9.66735959e-01 3.73134315e-01 9.87526000e-01
      2.16417909e-01 1. 4.72636819e-02 1.01871103e-01 -1.09452739e-01
      1.64241165e-01 -1.79104477e-01 2.53638268e-01 -1.89054728e-01
      3.43035340e-01 -1.66666672e-01 4.28274423e-01 -1.21890545e-01
      5.96673608e-01 -1.04477614e-01 6.81912661e-01 -1.31840795e-01
      7.65072763e-01 -1.39303476e-01 8.48232865e-01 -1.16915420e-01
      8.98128927e-01 -4.72636819e-02 5.13513505e-01 -2.48756213e-03
      5.13513505e-01 1.14427857e-01 5.13513505e-01 2.33830839e-01
      5.13513505e-01 3.50746274e-01 4.07484412e-01 4.15422887e-01
      4.55301464e-01 4.37810957e-01 5.05197525e-01 4.57711428e-01
      5.55093527e-01 4.45273638e-01 6.00831628e-01 4.27860707e-01
      1.97505191e-01 -9.95024852e-03 2.53638268e-01 -4.22885567e-02
      3.18087310e-01 -3.23383100e-02 3.70062381e-01 1.99004970e-02
      3.07692319e-01 2.73631848e-02 2.45322242e-01 1.99004970e-02
      6.36174619e-01 3.98009941e-02 6.92307711e-01 -4.97512426e-03
      7.54677773e-01 -2.48756213e-03 8.06652784e-01 3.98009941e-02
      7.56756783e-01 5.97014911e-02 6.94386721e-01 5.72139286e-02
      2.84823298e-01 6.51741266e-01 3.51351351e-01 5.87064683e-01
      4.36590433e-01 5.59701502e-01 5.01039505e-01 5.77114403e-01
      5.65488577e-01 5.62189043e-01 6.46569669e-01 5.94527364e-01
      7.02702701e-01 6.56716406e-01 6.44490659e-01 7.36318409e-01
      5.65488577e-01 7.73631811e-01 4.94802505e-01 7.81094551e-01
      4.28274423e-01 7.76119411e-01 3.45114350e-01 7.41293550e-01
      3.07692319e-01 6.51741266e-01 4.34511423e-01 6.06965184e-01
      4.98960495e-01 6.14427865e-01 5.63409567e-01 6.06965184e-01
      6.79833651e-01 6.54228866e-01 5.65488577e-01 7.01492548e-01
      4.96881485e-01 7.08955228e-01 4.32432443e-01 7.01492548e-01</_>
    <_>
      0. 0. 4.80769249e-03 1.79104492e-01 1.92307699e-02 3.54477525e-01
      4.08653840e-02 5.37313402e-01 8.41346160e-02 7.01492488e-01
      1.61057696e-01 8.35820854e-01 2.76442319e-01 9.29104447e-01
      4.01442319e-01 9.85074639e-01 5.31250000e-01 1. 6.63461566e-01
      9.62686539e-01 7.86057711e-01 8.88059676e-01 8.96634638e-01
      7.79850721e-01 9.61538434e-01 6.30596995e-01 9.90384638e-01
      4.47761118e-01 1. 2.53731370e-01 9.95192289e-01 5.97014986e-02
      9.85576928e-01 -1.34328380e-01 7.45192319e-02 -2.20149279e-01
      1.20192304e-01 -3.47014964e-01 1.99519232e-01 -4.40298557e-01
      3.00480783e-01 -4.85074669e-01 3.96634609e-01 -4.77611989e-01
      4.90384609e-01 -5.07462740e-01 5.86538434e-01 -5.41044831e-01
      6.89903855e-01 -5.18656790e-01 7.78846145e-01 -4.44029897e-01
      8.41346145e-01 -3.24626893e-01 4.51923072e-01 -2.72388101e-01
      4.56730783e-01 -1.64179116e-01 4.63942319e-01 -4.47761230e-02
      4.71153855e-01 7.08955303e-02 3.99038464e-01 2.42537335e-01
      4.39903855e-01 2.50000030e-01 4.83173072e-01 2.53731370e-01
      5.26442289e-01 2.38805994e-01 5.62500000e-01 2.23880619e-01
      1.73076928e-01 -1.71641812e-01 2.23557696e-01 -2.50000030e-01
      2.90865391e-01 -2.57462710e-01 3.55769217e-01 -1.86567187e-01
      2.93269217e-01 -1.60447776e-01 2.25961536e-01 -1.49253741e-01
      5.72115362e-01 -2.20149279e-01 6.32211566e-01 -3.05970192e-01
      6.99519217e-01 -3.05970192e-01 7.54807711e-01 -2.46268690e-01
      7.04326928e-01 -2.08955243e-01 6.39423072e-01 -2.05223903e-01
      3.00480783e-01 5.48507392e-01 3.67788464e-01 4.47761118e-01
      4.44711536e-01 3.84328276e-01 4.92788464e-01 3.99253666e-01
      5.40865362e-01 3.76865596e-01 6.29807711e-01 4.21641737e-01
      7.13942289e-01 4.99999940e-01 6.41826928e-01 5.89552164e-01
      5.60096145e-01 6.23134315e-01 5.07211566e-01 6.30596995e-01
      4.54326928e-01 6.34328306e-01 3.75000000e-01 6.11940265e-01
      3.36538464e-01 5.37313402e-01 4.49519217e-01 4.66417849e-01
      4.95192319e-01 4.66417849e-01 5.45673072e-01 4.55223829e-01
      6.75480783e-01 4.96268600e-01 5.50480783e-01 5.26119351e-01
      5.00000000e-01 5.33582032e-01 4.49519217e-01 5.33582032e-01</_>
    <_>
      0. 0. 6.86498871e-03 1.66172087e-01 2.05949657e-02 3.29376906e-01
      4.34782617e-02 4.98516381e-01 8.69565234e-02 6.58753753e-01
      1.60183072e-01 7.95252264e-01 2.65446216e-01 8.99109781e-01
      3.82151037e-01 9.79228497e-01 5.08009136e-01 1. 6.33867264e-01
      9.70326424e-01 7.50572085e-01 8.87240350e-01 8.55835259e-01
      7.83382833e-01 9.26773429e-01 6.46884322e-01 9.67963398e-01
      4.83679563e-01 9.88558352e-01 3.11572760e-01 1. 1.36498511e-01
      9.97711658e-01 -4.15430218e-02 8.00915360e-02 -1.72106802e-01
      1.41876429e-01 -2.52225488e-01 2.33409613e-01 -2.72997022e-01
      3.27231109e-01 -2.49258131e-01 4.16475981e-01 -2.04747751e-01
      5.53775728e-01 -2.10682467e-01 6.38443947e-01 -2.72997022e-01
      7.32265472e-01 -3.02670598e-01 8.23798656e-01 -2.81899095e-01
      8.90160203e-01 -2.04747751e-01 4.89702523e-01 -4.15430218e-02
      4.89702523e-01 7.41839707e-02 4.89702523e-01 1.92878410e-01
      4.91990834e-01 3.11572760e-01 3.95880997e-01 4.00593519e-01
      4.43935931e-01 4.21365052e-01 4.96567518e-01 4.33234483e-01
      5.46910763e-01 4.18397665e-01 5.94965696e-01 3.97626162e-01
      1.83066368e-01 -2.07715109e-02 2.37986267e-01 -6.23145327e-02
      2.99771160e-01 -5.63798174e-02 3.56979400e-01 2.96735880e-03
      2.95194507e-01 1.48367938e-02 2.31121287e-01 8.90207663e-03
      6.20137274e-01 -5.93471760e-03 6.72768891e-01 -6.82492554e-02
      7.36842096e-01 -7.71513283e-02 7.94050336e-01 -3.85756642e-02
      7.43707120e-01 -2.96735880e-03 6.79633856e-01 2.96735880e-03
      3.06636155e-01 6.46884322e-01 3.77574384e-01 5.75667679e-01
      4.46224242e-01 5.37092030e-01 5.03432512e-01 5.54896176e-01
      5.58352411e-01 5.34124672e-01 6.31578922e-01 5.66765606e-01
      7.04805493e-01 6.40949607e-01 6.38443947e-01 7.12166190e-01
      5.69794059e-01 7.44807124e-01 5.08009136e-01 7.50741839e-01
      4.46224242e-01 7.44807124e-01 3.77574384e-01 7.15133548e-01
      3.40961099e-01 6.43916965e-01 4.46224242e-01 5.96439183e-01
      5.05720794e-01 5.99406540e-01 5.62929034e-01 5.93471825e-01
      6.72768891e-01 6.35014892e-01 5.62929034e-01 6.67655826e-01
      5.05720794e-01 6.73590541e-01 4.46224242e-01 6.70623183e-01</_>
    <_>
      0. 0. 6.34249486e-03 1.87702253e-01 2.11416483e-02 3.72168243e-01
      3.80549692e-02 5.50161839e-01 7.61099383e-02 7.15210378e-01
      1.50105715e-01 8.44660223e-01 2.60042280e-01 9.19093847e-01
      3.80549669e-01 9.74110007e-01 5.09513736e-01 1. 6.34249449e-01
      9.70873773e-01 7.37843573e-01 9.02912617e-01 8.35095167e-01
      8.22006464e-01 9.00634229e-01 7.05501676e-01 9.36575055e-01
      5.53398073e-01 9.59830880e-01 3.88349473e-01 9.83086705e-01
      2.20064700e-01 1. 4.20711935e-02 1.14164904e-01 -1.81229755e-01
      1.77589849e-01 -2.88025856e-01 2.68498957e-01 -3.43042046e-01
      3.67864698e-01 -3.49514514e-01 4.63002115e-01 -3.04207087e-01
      6.13107800e-01 -2.94498354e-01 7.01902747e-01 -3.26860815e-01
      7.94925988e-01 -3.07443321e-01 8.75264287e-01 -2.39482179e-01
      9.19661760e-01 -1.26213580e-01 5.34883738e-01 -1.06796108e-01
      5.34883738e-01 0. 5.34883738e-01 1.03559859e-01 5.34883738e-01
      2.13592216e-01 4.24947143e-01 3.20388317e-01 4.71458763e-01
      3.43042046e-01 5.24312913e-01 3.62459511e-01 5.72938681e-01
      3.49514514e-01 6.17336154e-01 3.26860815e-01 2.28329808e-01
      -4.20711935e-02 2.85412252e-01 -1.13268599e-01 3.57293874e-01
      -1.10032350e-01 4.18604642e-01 -2.58899648e-02 3.55179697e-01 0.
      2.81183928e-01 0. 6.23678625e-01 -9.70873702e-03 6.87103570e-01
      -9.38511267e-02 7.56871045e-01 -8.41423869e-02 8.07610989e-01
      -3.23624560e-03 7.56871045e-01 2.91262101e-02 6.84989452e-01
      2.26537194e-02 3.17124724e-01 5.95469296e-01 3.95348847e-01
      5.08090675e-01 4.67230439e-01 4.72491860e-01 5.15856266e-01
      4.88673180e-01 5.64482033e-01 4.75728095e-01 6.32135332e-01
      5.17799377e-01 6.99788570e-01 5.98705530e-01 6.30021155e-01
      6.44012988e-01 5.62367857e-01 6.56957984e-01 5.11627913e-01
      6.63430452e-01 4.60887939e-01 6.56957984e-01 3.91120493e-01
      6.47249222e-01 3.46723050e-01 5.88996828e-01 4.65116292e-01
      5.27508140e-01 5.15856266e-01 5.30744374e-01 5.62367857e-01
      5.30744374e-01 6.68076098e-01 5.88996828e-01 5.62367857e-01
      5.85760534e-01 5.13742089e-01 5.92233062e-01 4.65116292e-01
      5.88996828e-01</_>
    <_>
      0. 0. 2.25563906e-02 1.69491529e-01 5.76441102e-02 3.32203388e-01
      9.52380970e-02 4.98305082e-01 1.42857149e-01 6.47457600e-01
      2.15538844e-01 7.79661000e-01 3.10776949e-01 8.84745777e-01
      4.18546379e-01 9.72881377e-01 5.41353405e-01 1. 6.64160430e-01
      9.52542365e-01 7.79448628e-01 8.61016929e-01 8.79699230e-01
      7.32203364e-01 9.44862127e-01 5.76271176e-01 9.77443635e-01
      4.10169482e-01 9.94987488e-01 2.27118641e-01 1. 4.40677963e-02
      9.94987488e-01 -1.42372876e-01 5.76441102e-02 -9.49152559e-02
      9.52380970e-02 -2.13559315e-01 1.77944869e-01 -2.57627130e-01
      2.70676702e-01 -2.57627130e-01 3.53383452e-01 -2.03389823e-01
      5.11278212e-01 -2.03389823e-01 5.96491218e-01 -2.71186441e-01
      6.94235563e-01 -3.01694930e-01 7.91979969e-01 -2.74576277e-01
      8.62155378e-01 -1.83050841e-01 4.43609029e-01 -5.08474559e-02
      4.51127827e-01 7.11864382e-02 4.53634083e-01 1.96610168e-01
      4.61152881e-01 3.22033912e-01 3.88471186e-01 3.96610171e-01
      4.31077689e-01 4.23728824e-01 4.76190478e-01 4.40677971e-01
      5.26315808e-01 4.13559318e-01 5.73934853e-01 3.83050859e-01
      1.72932327e-01 1.35593219e-02 2.23057643e-01 -3.05084754e-02
      2.85714298e-01 -3.38983051e-02 3.50877196e-01 1.01694912e-02
      2.88220555e-01 3.38983051e-02 2.23057643e-01 4.40677963e-02
      5.78947365e-01 -1.35593219e-02 6.39097750e-01 -6.77966103e-02
      7.01754391e-01 -7.79661015e-02 7.59398520e-01 -4.74576280e-02
      7.09273160e-01 -3.38983047e-03 6.46616518e-01 0. 3.40852141e-01
      5.79661012e-01 3.95989984e-01 5.66101670e-01 4.51127827e-01
      5.52542388e-01 4.96240616e-01 5.66101670e-01 5.36340833e-01
      5.49152553e-01 6.04010046e-01 5.52542388e-01 6.81704283e-01
      5.49152553e-01 6.14035070e-01 6.47457600e-01 5.51378429e-01
      6.84745789e-01 5.06265640e-01 6.91525400e-01 4.58646625e-01
      6.84745789e-01 4.03508782e-01 6.50847435e-01 3.68421048e-01
      5.86440682e-01 4.53634083e-01 5.96610188e-01 4.98746872e-01
      6.03389859e-01 5.41353405e-01 5.93220353e-01 6.51629090e-01
      5.62711835e-01 5.41353405e-01 6.06779635e-01 5.01253128e-01
      6.16949141e-01 4.53634083e-01 6.06779635e-01</_>
    <_>
      0. 0. 4.35729837e-03 1.60818711e-01 2.61437912e-02 3.21637422e-01
      6.10021800e-02 4.82456148e-01 1.11111112e-01 6.31578922e-01
      1.91721126e-01 7.60233939e-01 2.81045765e-01 8.77192974e-01
      3.81263614e-01 9.76608217e-01 5.05446613e-01 1. 6.31808281e-01
      9.70760226e-01 7.42919385e-01 8.71345043e-01 8.45315933e-01
      7.57309914e-01 9.25925910e-01 6.28654957e-01 9.69498932e-01
      4.79532152e-01 9.89106774e-01 3.18713456e-01 1. 1.60818711e-01 1.
      0. 5.66448793e-02 -1.25730991e-01 1.15468413e-01 -2.16374263e-01
      2.11328983e-01 -2.36842111e-01 3.07189554e-01 -2.13450298e-01
      3.94335508e-01 -1.49122804e-01 5.18518507e-01 -1.37426898e-01
      6.05664492e-01 -1.95906430e-01 7.03703701e-01 -2.22222224e-01
      8.06100190e-01 -2.04678357e-01 8.82352948e-01 -1.25730991e-01
      4.55337703e-01 8.77192989e-03 4.53159034e-01 1.19883038e-01
      4.50980395e-01 2.36842111e-01 4.50980395e-01 3.53801161e-01
      3.59477133e-01 4.23976600e-01 4.09586042e-01 4.38596487e-01
      4.59694982e-01 4.59064335e-01 5.14161229e-01 4.38596487e-01
      5.70806086e-01 4.29824561e-01 1.45969495e-01 2.04678364e-02
      1.98257074e-01 -1.16959065e-02 2.63616562e-01 -8.77192989e-03
      3.20261449e-01 4.97076027e-02 2.59259254e-01 6.72514588e-02
      1.91721126e-01 6.14035092e-02 6.18736386e-01 5.55555560e-02
      6.77559912e-01 2.92397663e-03 7.45098054e-01 2.92397663e-03
      8.03921580e-01 3.50877196e-02 7.51634002e-01 7.60233924e-02
      6.81917191e-01 7.89473653e-02 3.11546832e-01 6.22807026e-01
      3.61655772e-01 5.84795296e-01 4.18300658e-01 5.55555582e-01
      4.59694982e-01 5.76023400e-01 5.07625282e-01 5.61403513e-01
      5.81699371e-01 6.02339208e-01 6.55773401e-01 6.43274844e-01
      5.86056650e-01 7.33918130e-01 5.16339898e-01 7.69005835e-01
      4.66230929e-01 7.71929801e-01 4.18300658e-01 7.57309914e-01
      3.63834411e-01 7.10526288e-01 3.39869291e-01 6.31578922e-01
      4.18300658e-01 6.28654957e-01 4.61873651e-01 6.43274844e-01
      5.11982560e-01 6.34502947e-01 6.25272334e-01 6.43274844e-01
      5.14161229e-01 6.52046800e-01 4.64052290e-01 6.57894731e-01
      4.20479298e-01 6.43274844e-01</_>
    <_>
      0. 0. 6.09756075e-03 1.59601003e-01 2.23577227e-02 3.14214468e-01
      4.26829271e-02 4.73815471e-01 8.33333358e-02 6.23441398e-01
      1.42276421e-01 7.60598481e-01 2.21544713e-01 8.82793009e-01
      3.21138203e-01 9.70074832e-01 4.41056907e-01 1. 5.69105685e-01
      9.75062370e-01 6.93089426e-01 8.97755623e-01 7.98780501e-01
      7.90523708e-01 8.86178851e-01 6.58354104e-01 9.36991870e-01
      5.03740668e-01 9.67479646e-01 3.31670821e-01 9.85772371e-01
      1.57107234e-01 1. -1.74563583e-02 6.70731738e-02 -4.23940159e-02
      1.11788616e-01 -1.34663343e-01 1.99186996e-01 -1.79551125e-01
      2.96747953e-01 -1.82044894e-01 3.92276436e-01 -1.54613465e-01
      5.12195110e-01 -1.69576064e-01 6.11788630e-01 -2.01995015e-01
      7.13414609e-01 -2.01995015e-01 8.06910574e-01 -1.64588526e-01
      8.69918704e-01 -8.22942629e-02 4.55284566e-01 -4.48877811e-02
      4.49186981e-01 6.23441413e-02 4.43089426e-01 1.69576064e-01
      4.36991870e-01 2.81795502e-01 3.59756112e-01 3.64089787e-01
      3.98373991e-01 3.91521186e-01 4.43089426e-01 4.08977568e-01
      4.95934963e-01 3.91521186e-01 5.40650427e-01 3.69077295e-01
      1.86991870e-01 -4.98753134e-03 2.37804875e-01 -3.49127166e-02
      2.92682916e-01 -3.99002507e-02 3.45528454e-01 -4.98753134e-03
      2.90650398e-01 -4.98753134e-03 2.39837393e-01 0. 5.89430869e-01
      -1.74563583e-02 6.44308925e-01 -4.98753116e-02 6.99186981e-01
      -5.23690768e-02 7.52032518e-01 -2.24438906e-02 6.99186981e-01
      -1.24688279e-02 6.44308925e-01 -1.49625931e-02 3.04878056e-01
      5.68578541e-01 3.59756112e-01 5.46134651e-01 4.08536583e-01
      5.36159575e-01 4.43089426e-01 5.48628449e-01 4.79674786e-01
      5.36159575e-01 5.34552872e-01 5.51122189e-01 6.09756112e-01
      5.78553617e-01 5.32520354e-01 6.13466322e-01 4.79674786e-01
      6.30922675e-01 4.41056907e-01 6.33416474e-01 4.02439028e-01
      6.28428936e-01 3.57723564e-01 6.08478785e-01 3.27235758e-01
      5.68578541e-01 4.08536583e-01 5.71072340e-01 4.45121944e-01
      5.81047356e-01 4.81707305e-01 5.73566079e-01 5.83333313e-01
      5.73566079e-01 4.77642268e-01 5.73566079e-01 4.41056907e-01
      5.81047356e-01 4.04471546e-01 5.71072340e-01</_>
    <_>
      0. 0. 1.96506549e-02 1.69444442e-01 4.80349362e-02 3.30555558e-01
      8.29694346e-02 4.88888890e-01 1.31004363e-01 6.44444466e-01
      2.03056768e-01 7.83333361e-01 2.96943218e-01 8.94444466e-01
      4.08296943e-01 9.83333349e-01 5.32751083e-01 1. 6.57205224e-01
      9.61111128e-01 7.75109172e-01 8.63888860e-01 8.73362422e-01
      7.44444430e-01 9.47598279e-01 5.94444454e-01 9.86899555e-01
      4.27777767e-01 9.95633185e-01 2.58333325e-01 1. 9.16666687e-02 1.
      -7.50000030e-02 5.67685589e-02 -5.27777784e-02 1.13537118e-01
      -1.44444451e-01 2.07423583e-01 -1.72222227e-01 3.07860255e-01
      -1.63888887e-01 4.06113535e-01 -1.27777785e-01 5.15283823e-01
      -1.38888896e-01 6.13537133e-01 -1.88888893e-01 7.13973820e-01
      -2.11111113e-01 8.14410508e-01 -2.00000003e-01 8.93013120e-01
      -1.38888896e-01 4.75982547e-01 -5.55555569e-03 4.80349332e-01
      1.08333334e-01 4.82532740e-01 2.22222224e-01 4.89082962e-01
      3.33333343e-01 4.19213980e-01 4.02777791e-01 4.60698694e-01
      4.19444442e-01 5.02183378e-01 4.30555552e-01 5.45851529e-01
      4.08333331e-01 5.87336242e-01 3.83333325e-01 1.89956337e-01
      6.38888925e-02 2.40174666e-01 5.27777784e-02 2.96943218e-01
      4.16666679e-02 3.60262007e-01 3.88888903e-02 3.03493440e-01
      7.77777806e-02 2.44541481e-01 8.61111134e-02 6.11353695e-01
      1.94444451e-02 6.65938854e-01 1.11111114e-02 7.22707450e-01
      1.66666675e-02 7.79475987e-01 1.94444451e-02 7.27074265e-01
      4.72222231e-02 6.70305669e-01 4.72222231e-02 3.55895191e-01
      6.36111140e-01 4.14847165e-01 5.72222233e-01 4.65065509e-01
      5.41666687e-01 5.13100445e-01 5.52777767e-01 5.61135352e-01
      5.36111116e-01 6.20087326e-01 5.55555582e-01 6.89956307e-01
      6.00000024e-01 6.28820956e-01 6.44444466e-01 5.72052419e-01
      6.77777767e-01 5.19650638e-01 6.88888907e-01 4.71615732e-01
      6.88888907e-01 4.14847165e-01 6.75000012e-01 3.86462867e-01
      6.25000000e-01 4.69432324e-01 5.94444454e-01 5.13100445e-01
      5.91666639e-01 5.63318789e-01 5.83333313e-01 6.59388661e-01
      5.97222209e-01 5.65502167e-01 5.88888884e-01 5.15283823e-01
      6.02777779e-01 4.69432324e-01 6.00000024e-01</_>
    <_>
      0. 0. 2.34541576e-02 1.70798913e-01 5.54370992e-02 3.33333373e-01
      8.95522386e-02 4.95867729e-01 1.36460558e-01 6.52892530e-01
      2.08955228e-01 7.87878752e-01 3.00639659e-01 9.06336069e-01
      4.11513865e-01 9.86225903e-01 5.41577816e-01 1. 6.73774004e-01
      9.69696939e-01 7.80383766e-01 8.84297490e-01 8.67803812e-01
      7.54820943e-01 9.27505314e-01 6.06060565e-01 9.63752687e-01
      4.38016474e-01 9.82942402e-01 2.58953184e-01 9.95735586e-01
      7.98898116e-02 1. -9.91735607e-02 5.11727072e-02 -1.23966955e-01
      1.00213222e-01 -2.31404975e-01 1.89765453e-01 -2.80991763e-01
      2.92110860e-01 -2.83746570e-01 3.88059705e-01 -2.53443539e-01
      5.20255864e-01 -2.75482118e-01 6.18336916e-01 -3.27823728e-01
      7.24946678e-01 -3.41597825e-01 8.23027730e-01 -3.05785149e-01
      8.91258001e-01 -2.17630878e-01 4.66950953e-01 -1.23966955e-01
      4.71215338e-01 -1.37741063e-02 4.75479752e-01 9.91735607e-02
      4.79744136e-01 2.14876056e-01 4.02985066e-01 3.25068891e-01
      4.43496794e-01 3.38842928e-01 4.90405113e-01 3.47107381e-01
      5.35181224e-01 3.33333373e-01 5.77825189e-01 3.19559246e-01
      1.68443501e-01 -7.71349892e-02 2.15351805e-01 -1.23966955e-01
      2.77185500e-01 -1.29476592e-01 3.39019179e-01 -8.26446339e-02
      2.83582091e-01 -6.33608848e-02 2.19616205e-01 -5.50964251e-02
      6.11940324e-01 -1.10192850e-01 6.69509590e-01 -1.68044090e-01
      7.33475506e-01 -1.73553735e-01 7.88912594e-01 -1.40495881e-01
      7.42004275e-01 -1.04683205e-01 6.78038359e-01 -1.01928383e-01
      3.64605546e-01 5.81267178e-01 4.05117273e-01 5.15151501e-01
      4.49893385e-01 4.76583987e-01 4.92537320e-01 4.90358084e-01
      5.37313461e-01 4.73829150e-01 6.03411496e-01 5.06887019e-01
      6.78038359e-01 5.56473792e-01 6.18336916e-01 6.14325047e-01
      5.60767591e-01 6.44628048e-01 5.09594858e-01 6.52892530e-01
      4.62686568e-01 6.47382915e-01 4.13646042e-01 6.25344336e-01
      3.90191883e-01 5.73002696e-01 4.54157770e-01 5.45454502e-01
      4.96801704e-01 5.50964177e-01 5.45842230e-01 5.42699695e-01
      6.48187637e-01 5.50964177e-01 5.50106585e-01 5.50964177e-01
      5.01066089e-01 5.61983407e-01 4.58422184e-01 5.56473792e-01</_>
    <_>
      0. 0. 1.33630289e-02 1.73529416e-01 4.00890857e-02 3.41176480e-01
      6.45879731e-02 5.11764705e-01 1.06904231e-01 6.64705873e-01
      1.75946549e-01 7.97058821e-01 2.69487739e-01 9.02941167e-01
      3.78619164e-01 9.79411781e-01 5.03340781e-01 1. 6.32516682e-01
      9.64705884e-01 7.46102452e-01 8.70588243e-01 8.46325159e-01
      7.61764705e-01 9.17594671e-01 6.23529434e-01 9.48775053e-01
      4.61764693e-01 9.64365244e-01 2.97058821e-01 9.86636996e-01
      1.32352948e-01 1. -3.82352956e-02 7.12694898e-02 -1.41176477e-01
      1.31403118e-01 -2.32352942e-01 2.20489979e-01 -2.73529410e-01
      3.16258341e-01 -2.73529410e-01 4.14253891e-01 -2.44117647e-01
      5.74610233e-01 -2.41176471e-01 6.68151438e-01 -2.73529410e-01
      7.63919830e-01 -2.79411763e-01 8.55233848e-01 -2.50000000e-01
      9.19821799e-01 -1.70588240e-01 4.89977717e-01 -1.08823530e-01
      4.87750560e-01 -1.17647061e-02 4.85523373e-01 8.23529437e-02
      4.83296216e-01 1.82352945e-01 4.05345201e-01 3.17647070e-01
      4.45434302e-01 3.29411775e-01 4.89977717e-01 3.38235289e-01
      5.36748350e-01 3.26470584e-01 5.81291735e-01 3.08823526e-01
      1.73719376e-01 -5.58823533e-02 2.27171496e-01 -1.20588236e-01
      3.00668150e-01 -1.20588236e-01 3.65256131e-01 -5.00000007e-02
      2.98440993e-01 -2.35294122e-02 2.24944323e-01 -2.05882359e-02
      6.30289555e-01 -6.17647059e-02 6.88196003e-01 -1.38235301e-01
      7.59465456e-01 -1.38235301e-01 8.15144777e-01 -7.64705911e-02
      7.66147017e-01 -4.11764719e-02 6.92650318e-01 -4.41176482e-02
      3.22939873e-01 5.67647040e-01 3.85300666e-01 5.14705896e-01
      4.47661459e-01 4.73529398e-01 4.92204905e-01 4.88235295e-01
      5.36748350e-01 4.67647046e-01 6.03563488e-01 4.97058809e-01
      6.85968816e-01 5.44117630e-01 6.10244989e-01 6.02941155e-01
      5.45657039e-01 6.20588243e-01 4.98886406e-01 6.29411757e-01
      4.52115804e-01 6.29411757e-01 3.89755011e-01 6.20588243e-01
      3.51893097e-01 5.64705908e-01 4.49888647e-01 5.41176498e-01
      4.94432062e-01 5.41176498e-01 5.38975477e-01 5.32352924e-01
      6.54788435e-01 5.44117630e-01 5.41202664e-01 5.38235307e-01
      4.96659249e-01 5.47058821e-01 4.52115804e-01 5.47058821e-01</_>
    <_>
      0. 0. 1.10619469e-02 1.55425236e-01 2.65486725e-02 3.16715568e-01
      4.64601777e-02 4.83870924e-01 8.40707943e-02 6.42228723e-01
      1.61504418e-01 7.80058622e-01 2.67699122e-01 8.91495585e-01
      3.87168139e-01 9.76539612e-01 5.13274312e-01 1. 6.46017671e-01
      9.67741907e-01 7.56637156e-01 8.70967746e-01 8.58407080e-01
      7.53665686e-01 9.31415915e-01 6.09970629e-01 9.69026566e-01
      4.51612860e-01 9.84513283e-01 2.87390053e-01 9.97787595e-01
      1.20234616e-01 1. -3.51906195e-02 9.07079652e-02 -6.15835823e-02
      1.59292042e-01 -1.37829930e-01 2.50000000e-01 -1.64222881e-01
      3.45132738e-01 -1.49560124e-01 4.38053101e-01 -1.08504407e-01
      5.77433646e-01 -1.17302060e-01 6.65929198e-01 -1.67155445e-01
      7.61061966e-01 -1.81818202e-01 8.47345114e-01 -1.52492687e-01
      9.11504447e-01 -7.91788921e-02 5.08849561e-01 8.79765488e-03
      5.11061966e-01 1.17302060e-01 5.11061966e-01 2.22873926e-01
      5.11061966e-01 3.34310889e-01 4.26991165e-01 4.13489670e-01
      4.66814160e-01 4.25219893e-01 5.11061966e-01 4.34017539e-01
      5.53097367e-01 4.25219893e-01 5.92920363e-01 4.16422248e-01
      2.16814160e-01 2.05278601e-02 2.69911498e-01 -1.75953098e-02
      3.34070802e-01 -1.46627575e-02 3.82743359e-01 3.81231718e-02
      3.29646021e-01 6.15835823e-02 2.65486717e-01 6.15835823e-02
      6.32743359e-01 3.22580673e-02 6.83628321e-01 -1.75953098e-02
      7.45575249e-01 -2.05278601e-02 7.94247806e-01 1.46627575e-02
      7.50000000e-01 5.27859293e-02 6.88053071e-01 5.57184815e-02
      3.56194705e-01 6.18768275e-01 4.13716823e-01 5.74780047e-01
      4.66814160e-01 5.45454502e-01 5.11061966e-01 5.63049793e-01
      5.57522118e-01 5.45454502e-01 6.10619485e-01 5.80645144e-01
      6.70354009e-01 6.21700823e-01 6.10619485e-01 6.65689111e-01
      5.57522118e-01 6.86217010e-01 5.08849561e-01 6.92082107e-01
      4.62389380e-01 6.86217010e-01 4.11504418e-01 6.62756562e-01
      3.80530983e-01 6.21700823e-01 4.66814160e-01 6.01172984e-01
      5.11061966e-01 6.09970629e-01 5.57522118e-01 6.04105532e-01
      6.43805325e-01 6.24633372e-01 5.55309713e-01 6.01172984e-01
      5.08849561e-01 6.12903178e-01 4.64601755e-01 6.01172984e-01</_>
    <_>
      0. 0. 1.11358576e-02 1.85053378e-01 2.89532300e-02 3.62989336e-01
      5.12249433e-02 5.40925264e-01 9.35412049e-02 7.01067626e-01
      1.71492204e-01 8.32740188e-01 2.82850772e-01 9.32384312e-01
      4.03118044e-01 9.89323854e-01 5.36748350e-01 1. 6.70378625e-01
      9.75088954e-01 7.79510021e-01 9.00355875e-01 8.77505541e-01
      7.93594301e-01 9.44320738e-01 6.44128084e-01 9.73273933e-01
      4.76868331e-01 9.86636996e-01 3.02491099e-01 9.95545685e-01
      1.28113881e-01 1. -4.98220623e-02 8.68596882e-02 -2.63345182e-01
      1.55901998e-01 -3.55871886e-01 2.47216031e-01 -3.95017803e-01
      3.42984408e-01 -3.80782932e-01 4.43207115e-01 -3.34519565e-01
      5.76837420e-01 -3.34519565e-01 6.65924251e-01 -3.84341627e-01
      7.57238328e-01 -3.98576498e-01 8.44097972e-01 -3.73665482e-01
      9.08685982e-01 -2.84697503e-01 5.12249470e-01 -2.06405699e-01
      5.14476597e-01 -9.25266892e-02 5.14476597e-01 1.77935939e-02
      5.16703784e-01 1.35231316e-01 4.29844111e-01 2.74021357e-01
      4.69933182e-01 2.88256228e-01 5.16703784e-01 3.02491099e-01
      5.63474417e-01 2.88256228e-01 6.05790675e-01 2.70462632e-01
      2.04899773e-01 -1.38790041e-01 2.60579079e-01 -2.13523135e-01
      3.31848562e-01 -2.20640570e-01 3.94209355e-01 -1.38790041e-01
      3.29621375e-01 -1.17437720e-01 2.58351892e-01 -1.13879003e-01
      6.23607993e-01 -1.45907477e-01 6.83741629e-01 -2.34875441e-01
      7.55011141e-01 -2.31316730e-01 8.12917590e-01 -1.56583637e-01
      7.57238328e-01 -1.28113881e-01 6.88196003e-01 -1.31672591e-01
      3.36302906e-01 5.72953761e-01 4.09799546e-01 4.98220652e-01
      4.78841871e-01 4.34163690e-01 5.21158159e-01 4.48398590e-01
      5.61247230e-01 4.34163690e-01 6.32516682e-01 4.87544477e-01
      7.10467696e-01 5.58718860e-01 6.36971056e-01 6.15658343e-01
      5.70155919e-01 6.44128084e-01 5.25612473e-01 6.54804289e-01
      4.78841871e-01 6.51245534e-01 4.12026733e-01 6.26334548e-01
      3.74164820e-01 5.76512456e-01 4.78841871e-01 5.30249119e-01
      5.21158159e-01 5.33807814e-01 5.63474417e-01 5.26690364e-01
      6.77060127e-01 5.58718860e-01 5.65701544e-01 5.26690364e-01
      5.23385286e-01 5.33807814e-01 4.78841871e-01 5.33807814e-01</_>
    <_>
      0. 0. 1.45278452e-02 1.74193472e-01 3.63196135e-02 3.38709623e-01
      6.29539937e-02 4.99999940e-01 1.16222762e-01 6.51612878e-01
      2.03389823e-01 7.77419329e-01 3.07506055e-01 8.80645156e-01
      4.18886185e-01 9.77419376e-01 5.39951563e-01 1. 6.53753042e-01
      9.70967710e-01 7.57869244e-01 8.70967746e-01 8.49878907e-01
      7.61290312e-01 9.24939454e-01 6.25806391e-01 9.63680387e-01
      4.74193484e-01 9.78208244e-01 3.16128969e-01 9.95157361e-01
      1.58064440e-01 1. -1.29032275e-02 9.20096859e-02 -3.54838744e-02
      1.54963687e-01 -1.12903237e-01 2.46973366e-01 -1.41935498e-01
      3.41404349e-01 -1.22580655e-01 4.30992723e-01 -6.45161346e-02
      5.85956395e-01 -5.16129099e-02 6.73123479e-01 -1.09677427e-01
      7.65133142e-01 -1.35483891e-01 8.61985445e-01 -1.29032269e-01
      9.24939454e-01 -5.80645204e-02 5.18159807e-01 4.19354886e-02
      5.20581126e-01 1.51612818e-01 5.25423706e-01 2.61290252e-01
      5.30266345e-01 3.70967686e-01 4.43099260e-01 4.35483813e-01
      4.84261513e-01 4.51612860e-01 5.30266345e-01 4.67741877e-01
      5.73849857e-01 4.48387057e-01 6.12590790e-01 4.25806403e-01
      2.20338985e-01 5.48387133e-02 2.71186441e-01 1.93548407e-02
      3.36561739e-01 1.61290336e-02 3.92251819e-01 6.45161346e-02
      3.34140450e-01 8.70967805e-02 2.68765122e-01 9.03225914e-02
      6.36803865e-01 5.80645204e-02 6.90072656e-01 6.45161374e-03
      7.55447924e-01 6.45161374e-03 8.08716714e-01 3.54838744e-02
      7.62711883e-01 7.74193630e-02 6.97336555e-01 8.06451663e-02
      3.75302672e-01 6.38709664e-01 4.38256651e-01 6.09677374e-01
      4.91525412e-01 5.90322554e-01 5.35108984e-01 6.03225768e-01
      5.76271176e-01 5.87096751e-01 6.31961286e-01 5.99999964e-01
      6.87651336e-01 6.19354784e-01 6.34382546e-01 6.74193501e-01
      5.78692496e-01 7.03225791e-01 5.37530243e-01 7.12903202e-01
      4.96368051e-01 7.09677398e-01 4.38256651e-01 6.83870912e-01
      4.04358357e-01 6.35483861e-01 4.93946731e-01 6.25806391e-01
      5.35108984e-01 6.32258058e-01 5.76271176e-01 6.22580588e-01
      6.61016941e-01 6.22580588e-01 5.76271176e-01 6.22580588e-01
      5.35108984e-01 6.35483861e-01 4.93946731e-01 6.25806391e-01</_>
    <_>
      0. 0. 2.07792204e-02 1.76470682e-01 4.93506491e-02 3.41911852e-01
      8.05194825e-02 5.07353008e-01 1.24675326e-01 6.65441215e-01
      1.94805190e-01 8.01470637e-01 2.88311690e-01 9.11764741e-01
      4.02597398e-01 9.92647052e-01 5.29870152e-01 1. 6.54545426e-01
      9.70588267e-01 7.63636351e-01 8.93382370e-01 8.54545474e-01
      7.86764741e-01 9.19480503e-01 6.43382370e-01 9.58441556e-01
      4.77941245e-01 9.79220808e-01 3.01470667e-01 9.92207766e-01
      1.25000104e-01 1. -5.51470518e-02 6.49350658e-02 -1.39705867e-01
      1.11688308e-01 -2.42647037e-01 1.94805190e-01 -2.90441155e-01
      2.88311690e-01 -2.90441155e-01 3.74025971e-01 -2.57352918e-01
      5.22077918e-01 -2.79411733e-01 6.12987041e-01 -3.38235259e-01
      7.09090889e-01 -3.49264681e-01 8.00000012e-01 -3.16176444e-01
      8.67532492e-01 -2.27941155e-01 4.54545468e-01 -1.36029392e-01
      4.57142860e-01 -1.47058805e-02 4.57142860e-01 9.55882221e-02
      4.59740251e-01 2.16911852e-01 3.89610380e-01 3.12500089e-01
      4.28571433e-01 3.30882430e-01 4.72727269e-01 3.41911852e-01
      5.16883135e-01 3.23529482e-01 5.58441579e-01 3.01470667e-01
      1.63636357e-01 -6.24999925e-02 2.10389614e-01 -1.21323518e-01
      2.72727281e-01 -1.28676459e-01 3.32467526e-01 -8.45588148e-02
      2.77922064e-01 -5.88235222e-02 2.15584412e-01 -4.77941111e-02
      6.07792199e-01 -9.92646962e-02 6.64935052e-01 -1.50735274e-01
      7.27272749e-01 -1.50735274e-01 7.79220760e-01 -1.02941163e-01
      7.29870141e-01 -8.08823407e-02 6.67532444e-01 -8.45588148e-02
      3.35064948e-01 5.91911793e-01 3.92207801e-01 5.29411793e-01
      4.41558450e-01 5.00000060e-01 4.80519474e-01 5.11029482e-01
      5.22077918e-01 4.96323586e-01 5.84415555e-01 5.22058904e-01
      6.57142878e-01 5.69853008e-01 5.94805181e-01 6.02941215e-01
