<?xml version="1.0"?>
<opencv_storage>
<opencv_ml_svm>
  <format>3</format>
  <svmType>C_SVC</svmType>
  <kernel>
    <type>LINEAR</type></kernel>
  <C>1.</C>
  <term_criteria><iterations>100</iterations></term_criteria>
  <var_count>136</var_count>
  <class_count>2</class_count>
  <class_labels type_id="opencv-matrix">
    <rows>2</rows>
    <cols>1</cols>
    <dt>i</dt>
    <data>
      -1082130432 1065353216</data></class_labels>
  <sv_total>1</sv_total>
  <support_vectors>
    <_>
      -1.40094534e-02 0. 7.30372742e-02 2.79661804e-01 -3.28986682e-02
      4.60844487e-01 -3.39154154e-01 7.91666806e-01 -5.31872392e-01
      9.82668519e-01 -2.52668947e-01 7.33260930e-01 -3.53601426e-02
      2.63238609e-01 5.82735613e-02 1.30017459e-01 -3.03659365e-02
      -9.40454367e-04 -2.19810665e-01 9.76580847e-03 -1.24765687e-01
      6.99440166e-02 1.29879266e-01 5.27553201e-01 4.51552898e-01
      7.41821110e-01 2.95818985e-01 6.15132153e-01 1.05255144e-02
      3.67972791e-01 -1.07075438e-01 2.22067535e-01 2.59861406e-02
      -6.24197051e-02 9.79958028e-02 3.90563279e-01 4.65549201e-01
      4.13147837e-01 5.64792573e-01 3.86291862e-01 6.48392618e-01
      2.11780354e-01 8.43852162e-01 9.17470008e-02 -5.91798902e-01
      7.13397264e-02 -3.89529675e-01 1.46365732e-01 -3.19986224e-01
      2.60475636e-01 -2.26432621e-01 2.87905008e-01 2.45662071e-02
      2.83107460e-01 1.54481009e-01 -6.23356044e-01 1.62793145e-01
      -1.31667688e-01 1.85775772e-01 3.55598450e-01 1.92600355e-01
      8.83959234e-01 -3.95440683e-02 8.73048007e-01 5.70466332e-02
      8.50537479e-01 9.22355950e-02 1.02822769e+00 1.26990110e-01
      8.79712760e-01 1.62295297e-01 9.07398582e-01 2.48989701e-01
      -3.95979375e-01 3.40498120e-01 -1.01852275e-01 -7.89704081e-03
      -1.74822941e-01 -1.32459790e-01 -5.24487317e-01 7.52531588e-02
      -7.93245971e-01 4.33753848e-01 -7.47055471e-01 2.36425117e-01
      -5.50485015e-01 1.41601220e-01 -2.33772993e-01 -2.03238487e-01
      -1.29083231e-01 -1.38322219e-01 -4.30816740e-01 -2.83319443e-01
      -8.21196854e-01 9.36424658e-02 -8.14335406e-01 -1.36926329e+00
      -2.87044346e-01 -4.59181041e-01 7.85861790e-01 -1.78156927e-01
      1.22391474e+00 3.74761857e-02 1.30987692e+00 2.33701453e-01
      1.23731124e+00 4.36234802e-01 8.33207011e-01 1.26233304e+00
      -2.53414840e-01 3.99487019e-01 -1.01036513e+00 1.26839429e-01
      -1.53882146e+00 8.30007531e-03 -1.58874273e+00 -1.32818520e-01
      -1.54938614e+00 -4.50968564e-01 -1.11301041e+00 -1.53241313e+00
      -3.00255328e-01 -2.15797797e-01 1.06669056e+00 2.59197336e-02
      1.22352743e+00 2.49392241e-01 1.08173764e+00 1.41877234e+00
      -2.22279012e-01 1.94684893e-01 -1.38844550e+00 -1.10197663e-02
      -1.41113281e+00 -1.99129760e-01 -1.41059983e+00</_></support_vectors>
  <uncompressed_sv_total>101</uncompressed_sv_total>
  <uncompressed_support_vectors>
    <_>
      0. 0. 8.43881816e-03 1.63978487e-01 2.53164563e-02 3.25268805e-01
      4.21940945e-02 4.83870953e-01 7.80590698e-02 6.34408593e-01
      1.41350210e-01 7.74193525e-01 2.29957804e-01 8.87096763e-01
      3.37552756e-01 9.67741907e-01 4.66244727e-01 1. 5.99156141e-01
      9.83870983e-01 7.17299581e-01 9.19354856e-01 8.18565428e-01
      8.19892466e-01 8.92405093e-01 6.85483873e-01 9.34599161e-01
      5.37634432e-01 9.59915638e-01 3.70967746e-01 9.83122349e-01
      2.01612905e-01 1. 2.68817209e-02 8.43881890e-02 -1.02150537e-01
      1.56118140e-01 -1.77419350e-01 2.53164560e-01 -1.98924735e-01
      3.54430377e-01 -1.82795703e-01 4.45147693e-01 -1.34408608e-01
      5.67510545e-01 -1.29032254e-01 6.60337567e-01 -1.69354841e-01
      7.57383943e-01 -1.82795703e-01 8.52320671e-01 -1.61290318e-01
      9.17721510e-01 -8.06451589e-02 5.14767945e-01 -4.03225794e-02
      5.14767945e-01 5.10752685e-02 5.16877651e-01 1.45161286e-01
      5.16877651e-01 2.41935477e-01 4.17721510e-01 3.11827958e-01
      4.62025315e-01 3.33333343e-01 5.10548532e-01 3.52150530e-01
      5.59071720e-01 3.41397852e-01 5.97046435e-01 3.25268805e-01
      2.02531651e-01 -1.61290318e-02 2.61603385e-01 -4.30107526e-02
      3.20675105e-01 -4.56989259e-02 3.79746825e-01 -1.61290318e-02
      3.20675105e-01 0. 2.59493679e-01 2.68817204e-03 6.22362852e-01
      -5.37634408e-03 6.85653985e-01 -3.49462368e-02 7.46835470e-01
      -2.95698922e-02 8.01687777e-01 2.68817204e-03 7.46835470e-01
      2.41935477e-02 6.85653985e-01 1.61290318e-02 3.27004224e-01
      5.43010771e-01 3.77637118e-01 4.62365597e-01 4.40928280e-01
      4.35483873e-01 4.91561174e-01 4.56989259e-01 5.44303775e-01
      4.48924720e-01 6.03375554e-01 4.91935492e-01 6.47679329e-01
      5.80645144e-01 5.94936728e-01 6.55913949e-01 5.33755302e-01
      6.90860212e-01 4.76793259e-01 6.93548381e-01 4.24050629e-01
      6.77419364e-01 3.67088616e-01 6.26344085e-01 3.58649790e-01
      5.34946263e-01 4.36708868e-01 5.02688169e-01 4.87341762e-01
      5.16129017e-01 5.42194068e-01 5.18817186e-01 6.16033733e-01
      5.67204297e-01 5.35864949e-01 5.72580636e-01 4.83122349e-01
      5.75268805e-01 4.32489455e-01 5.59139788e-01</_>
    <_>
      0. 0. 8.49256944e-03 1.64893612e-01 1.91082805e-02 3.29787225e-01
      3.60934176e-02 4.97340411e-01 7.00636953e-02 6.48936152e-01
      1.27388537e-01 7.81914890e-01 2.14437366e-01 8.90957475e-01
      3.20594490e-01 9.62765932e-01 4.52229291e-01 1. 5.90233564e-01
      9.81382966e-01 7.04883218e-01 9.17553186e-01 7.96178341e-01
      8.19148958e-01 8.57749462e-01 6.94148958e-01 9.02335465e-01
      5.50531924e-01 9.38428879e-01 4.01595742e-01 9.72399175e-01
      2.50000000e-01 1. 9.57446843e-02 1.14649683e-01 -2.04787239e-01
      1.76220804e-01 -2.73936182e-01 2.59023368e-01 -3.03191453e-01
      3.48195314e-01 -2.97872305e-01 4.30997878e-01 -2.50000000e-01
      6.09341800e-01 -2.31382981e-01 6.96390629e-01 -2.65957445e-01
      7.87685752e-01 -2.50000000e-01 8.68365169e-01 -2.04787239e-01
      9.23566878e-01 -1.22340426e-01 5.11677265e-01 -1.11702129e-01
      5.05307853e-01 -1.86170209e-02 5.01061559e-01 7.71276578e-02
      4.94692147e-01 1.72872335e-01 4.03397024e-01 2.81914890e-01
      4.41613585e-01 3.03191483e-01 4.84076440e-01 3.19148928e-01
      5.30785561e-01 3.13829780e-01 5.73248386e-01 3.03191483e-01
      2.03821659e-01 -7.97872320e-02 2.52653927e-01 -1.35638297e-01
      3.18471342e-01 -1.35638297e-01 3.75796169e-01 -7.18085095e-02
      3.14225048e-01 -5.58510646e-02 2.48407647e-01 -5.31914905e-02
      6.39065802e-01 -4.52127643e-02 7.00636923e-01 -1.01063833e-01
      7.66454339e-01 -9.04255286e-02 8.15286636e-01 -2.39361711e-02
      7.64331222e-01 -7.97872338e-03 6.98513806e-01 -1.59574468e-02
      3.16348195e-01 5.37234068e-01 3.75796169e-01 4.57446814e-01
      4.35244173e-01 4.25531924e-01 4.73460734e-01 4.41489369e-01
      5.15923560e-01 4.38829780e-01 5.73248386e-01 4.86702114e-01
      6.32696390e-01 5.77127635e-01 5.64755857e-01 6.17021263e-01
      5.05307853e-01 6.27659559e-01 4.60721880e-01 6.25000000e-01
      4.18259025e-01 6.11702144e-01 3.67303610e-01 5.87765932e-01
      3.43949050e-01 5.31914890e-01 4.30997878e-01 4.78723407e-01
      4.71337587e-01 4.84042555e-01 5.11677265e-01 4.92021263e-01
      6.02972388e-01 5.66489339e-01 5.07430971e-01 5.55851042e-01
      4.64968145e-01 5.53191483e-01 4.24628437e-01 5.45212746e-01</_>
    <_>
      0. 0. 1.17416829e-02 1.61643848e-01 2.54403129e-02 3.20547968e-01
      4.30528373e-02 4.84931469e-01 7.43639916e-02 6.46575332e-01
      1.42857149e-01 7.89041102e-01 2.42661446e-01 8.95890415e-01
      3.58121336e-01 9.75342453e-01 4.81409013e-01 1. 6.08610570e-01
      9.75342453e-01 7.29941308e-01 9.04109597e-01 8.39530349e-01
      8.05479407e-01 9.09980416e-01 6.65753424e-01 9.49119389e-01
      5.06849289e-01 9.70645785e-01 3.42465788e-01 9.90215242e-01
      1.80821940e-01 1. 1.09589053e-02 7.24070445e-02 -1.36986315e-01
      1.35029361e-01 -2.35616460e-01 2.28962824e-01 -2.65753448e-01
      3.24853241e-01 -2.49315083e-01 4.18786705e-01 -2.00000018e-01
      5.61643839e-01 -1.97260290e-01 6.57534242e-01 -2.38356188e-01
      7.53424644e-01 -2.49315083e-01 8.45401168e-01 -2.16438368e-01
      9.08023477e-01 -1.20547958e-01 4.87279832e-01 -7.67123327e-02
      4.85322893e-01 1.91780832e-02 4.83365953e-01 1.12328775e-01
      4.79452044e-01 2.13698655e-01 3.99217218e-01 3.20547968e-01
      4.36399221e-01 3.39726061e-01 4.81409013e-01 3.53424698e-01
      5.26418805e-01 3.42465788e-01 5.67514658e-01 3.26027423e-01
      1.87866926e-01 -3.01369894e-02 2.40704507e-01 -7.94520602e-02
      3.03326815e-01 -7.94520602e-02 3.63992184e-01 -1.91780832e-02
      3.01369876e-01 0. 2.36790612e-01 2.73972633e-03 6.16438329e-01
      -1.64383575e-02 6.73189819e-01 -7.67123327e-02 7.39726007e-01
      -7.39726126e-02 7.96477497e-01 -2.19178107e-02 7.43639946e-01
      8.21917877e-03 6.77103698e-01 5.47945267e-03 3.09197664e-01
      5.97260237e-01 3.71819973e-01 5.28767109e-01 4.34442282e-01
      4.82191741e-01 4.75538164e-01 5.01369834e-01 5.18590987e-01
      4.84931469e-01 5.85127175e-01 5.34246564e-01 6.55577302e-01
      6.02739692e-01 5.87084174e-01 6.60273969e-01 5.20547926e-01
      6.87671185e-01 4.73581225e-01 6.95890367e-01 4.28571433e-01
      6.87671185e-01 3.69863003e-01 6.57534242e-01 3.42465758e-01
      5.91780782e-01 4.34442282e-01 5.50684869e-01 4.75538164e-01
      5.58904052e-01 5.20547926e-01 5.53424597e-01 6.24266148e-01
      5.94520509e-01 5.18590987e-01 5.97260237e-01 4.73581225e-01
      6.05479419e-01 4.32485312e-01 5.97260237e-01</_>
    <_>
      0. 0. 0. 1.51098907e-01 8.71459674e-03 3.02197814e-01
      2.83224396e-02 4.61538464e-01 6.75381273e-02 6.12637341e-01
      1.32897601e-01 7.47252762e-01 2.15686277e-01 8.70879114e-01
      3.02832246e-01 9.64285731e-01 4.22657967e-01 1. 5.55555582e-01
      9.80769217e-01 6.75381243e-01 9.14835155e-01 7.90849686e-01
      8.15934062e-01 8.88888896e-01 6.89560413e-01 9.47712421e-01
      5.35714269e-01 9.78213489e-01 3.65384609e-01 9.91285384e-01
      1.97802201e-01 1. 1.92307699e-02 6.97167739e-02 -1.29120886e-01
      1.35076255e-01 -1.97802201e-01 2.20043570e-01 -2.11538464e-01
      3.05010885e-01 -1.89560443e-01 3.79084975e-01 -1.51098907e-01
      4.88017440e-01 -1.64835170e-01 5.72984755e-01 -2.08791211e-01
      6.66666687e-01 -2.28021979e-01 7.60348558e-01 -2.11538464e-01
      8.47494543e-01 -1.51098907e-01 4.31372553e-01 -4.67032976e-02
      4.22657967e-01 3.57142873e-02 4.13943350e-01 1.15384616e-01
      4.05228764e-01 2.00549453e-01 3.09368193e-01 3.15934062e-01
      3.61655772e-01 3.26923072e-01 4.16121989e-01 3.40659350e-01
      4.77124184e-01 3.32417578e-01 5.35947740e-01 3.24175835e-01
      1.39433548e-01 0. 1.96078435e-01 -4.12087925e-02 2.61437923e-01
      -4.39560451e-02 3.18082780e-01 8.24175868e-03 2.59259254e-01
      2.74725277e-02 1.93899781e-01 3.02197803e-02 5.77342033e-01
      -8.24175868e-03 6.38344228e-01 -6.04395606e-02 7.03703701e-01
      -6.04395606e-02 7.60348558e-01 -2.47252751e-02 7.08060980e-01
      1.09890113e-02 6.42701507e-01 8.24175868e-03 2.22222224e-01
      5.85164845e-01 2.85403043e-01 5.08241773e-01 3.66013080e-01
      4.58791196e-01 4.16121989e-01 4.78021979e-01 4.68409598e-01
      4.67032969e-01 5.64270139e-01 5.27472556e-01 6.51416123e-01
      6.09890103e-01 5.64270139e-01 7.33516455e-01 4.70588237e-01
      7.74725258e-01 4.09586042e-01 7.74725258e-01 3.52941185e-01
      7.60989010e-01 2.78867096e-01 7.11538434e-01 2.61437923e-01
      5.90659320e-01 3.66013080e-01 5.57692289e-01 4.16121989e-01
      5.68681300e-01 4.70588237e-01 5.68681300e-01 6.10021770e-01
      6.18131876e-01 4.66230929e-01 6.42857134e-01 4.11764711e-01
      6.45604372e-01 3.57298464e-01 6.31868124e-01</_>
    <_>
      0. 0. 3.57142859e-03 1.63538873e-01 1.96428578e-02 3.24396789e-01
      4.46428582e-02 4.85254705e-01 7.50000030e-02 6.40750647e-01
      1.25000000e-01 7.82841802e-01 2.07142860e-01 9.03485239e-01
      3.12500000e-01 9.78552282e-01 4.49999988e-01 1. 5.91071427e-01
      9.86595154e-01 7.14285731e-01 9.32975888e-01 8.19642842e-01
      8.33780169e-01 8.96428585e-01 6.97050929e-01 9.37500000e-01
      5.33512056e-01 9.64285731e-01 3.56568366e-01 9.87500012e-01
      1.79624662e-01 1. -8.04289524e-03 5.71428575e-02 -1.52815014e-01
      1.12499997e-01 -2.68096507e-01 1.98214293e-01 -3.29758704e-01
      2.92857140e-01 -3.40482563e-01 3.82142872e-01 -3.08310986e-01
      5.39285719e-01 -3.24396789e-01 6.37499988e-01 -3.56568366e-01
      7.41071403e-01 -3.48525465e-01 8.33928585e-01 -2.84182310e-01
      8.96428585e-01 -1.68900803e-01 4.53571439e-01 -9.91957113e-02
      4.53571439e-01 1.34048257e-02 4.49999988e-01 1.23324394e-01
      4.48214293e-01 2.38605902e-01 3.39285702e-01 3.64611268e-01
      3.94642860e-01 3.75335127e-01 4.48214293e-01 3.88739944e-01
      5.08928597e-01 3.78016084e-01 5.66071451e-01 3.69973183e-01
      1.35714293e-01 -4.02144790e-02 1.94642857e-01 -1.20643429e-01
      2.75000006e-01 -1.26005366e-01 3.39285702e-01 -2.41286866e-02
      2.71428585e-01 -2.68096523e-03 1.91071436e-01 0. 5.94642878e-01
      -3.75335105e-02 6.62500024e-01 -1.39410183e-01 7.42857158e-01
      -1.42091155e-01 8.05357158e-01 -6.16621971e-02 7.48214304e-01
      -1.87667552e-02 6.67857170e-01 -1.60857905e-02 2.39285707e-01
      6.11260056e-01 3.07142854e-01 5.30831099e-01 3.85714293e-01
      4.85254705e-01 4.46428567e-01 5.04021466e-01 5.08928597e-01
      4.85254705e-01 6.00000024e-01 5.33512056e-01 6.82142854e-01
      6.27345860e-01 6.00000024e-01 7.15817690e-01 5.12499988e-01
      7.45308340e-01 4.44642872e-01 7.50670254e-01 3.76785725e-01
      7.42627323e-01 3.01785707e-01 7.02412844e-01 2.75000006e-01
      6.11260056e-01 3.83928567e-01 5.71045578e-01 4.46428567e-01
      5.76407492e-01 5.10714293e-01 5.71045578e-01 6.48214281e-01
      6.24664903e-01 5.10714293e-01 6.27345860e-01 4.44642872e-01
      6.35388732e-01 3.80357146e-01 6.24664903e-01</_>
    <_>
      4.62962966e-03 0. 0. 1.56250000e-01 4.62962966e-03 3.15625012e-01
      2.08333340e-02 4.81249988e-01 6.71296269e-02 6.34374976e-01
      1.48148149e-01 7.71875024e-01 2.50000000e-01 8.84374976e-01
      3.65740746e-01 9.71875012e-01 5.13888896e-01 1. 6.55092597e-01
      9.68750000e-01 7.66203701e-01 8.75000000e-01 8.65740716e-01
      7.62499988e-01 9.37500000e-01 6.18749976e-01 9.74537015e-01
      4.53125000e-01 9.90740716e-01 2.84375012e-01 1. 1.18749999e-01
      9.97685194e-01 -4.68750000e-02 9.02777761e-02 -1.81250006e-01
      1.55092597e-01 -2.53125012e-01 2.40740746e-01 -2.75000006e-01
      3.28703701e-01 -2.62499988e-01 4.02777791e-01 -2.21874997e-01
      6.04166687e-01 -2.53125012e-01 6.82870388e-01 -3.06250006e-01
      7.68518507e-01 -3.24999988e-01 8.51851881e-01 -2.96875000e-01
      9.09722209e-01 -2.12500006e-01 5.04629612e-01 -1.03124999e-01
      5.02314806e-01 -3.12500005e-03 5.02314806e-01 9.68749970e-02
      5.00000000e-01 2.00000003e-01 3.77314806e-01 2.75000006e-01
      4.39814806e-01 3.03124994e-01 5.04629612e-01 3.28125000e-01
      5.69444418e-01 3.03124994e-01 6.27314806e-01 2.78124988e-01
      1.78240746e-01 -8.12499970e-02 2.38425925e-01 -1.28124997e-01
      3.07870358e-01 -1.21875003e-01 3.70370358e-01 -6.25000000e-02
      3.05555552e-01 -5.31250015e-02 2.36111104e-01 -5.00000007e-02
      6.36574090e-01 -6.56249970e-02 7.01388896e-01 -1.28124997e-01
      7.68518507e-01 -1.25000000e-01 8.24074090e-01 -7.81250000e-02
      7.70833313e-01 -5.00000007e-02 7.03703701e-01 -5.00000007e-02
      2.75462955e-01 5.06250024e-01 3.44907403e-01 4.31250006e-01
      4.42129642e-01 3.96874994e-01 5.02314806e-01 4.12499994e-01
      5.69444418e-01 4.00000006e-01 6.66666687e-01 4.40625012e-01
      7.33796299e-01 5.12499988e-01 6.71296299e-01 6.68749988e-01
      5.76388896e-01 7.37500012e-01 5.04629612e-01 7.46874988e-01
      4.37500000e-01 7.34375000e-01 3.40277791e-01 6.59375012e-01
      3.00925940e-01 5.12499988e-01 4.42129642e-01 4.84375000e-01
      5.04629612e-01 4.93750006e-01 5.71759284e-01 4.84375000e-01
      7.03703701e-01 5.18750012e-01 5.74074090e-01 6.15625024e-01
      5.04629612e-01 6.25000000e-01 4.39814806e-01 6.12500012e-01</_>
    <_>
      0. 0. 5.98802418e-03 1.62162155e-01 1.79640725e-02 3.24324310e-01
      2.59481035e-02 4.97297347e-01 5.18962070e-02 6.64864898e-01
      1.15768462e-01 8.08108151e-01 2.23552898e-01 9.05405402e-01
      3.51297408e-01 9.75675702e-01 4.89021957e-01 1. 6.28742516e-01
      9.78378356e-01 7.54491031e-01 9.10810828e-01 8.60279441e-01
      8.18918943e-01 9.26147699e-01 6.81081116e-01 9.62075830e-01
      5.24324358e-01 9.84031916e-01 3.64864826e-01 9.96007979e-01
      2.02702686e-01 1. 4.05405387e-02 7.18562901e-02 -1.59459442e-01
      1.21756487e-01 -2.56756693e-01 2.05588818e-01 -3.02702636e-01
      2.99401194e-01 -2.94594526e-01 3.87225538e-01 -2.48648584e-01
      5.88822365e-01 -2.40540519e-01 6.78642690e-01 -2.86486417e-01
      7.72455096e-01 -2.97297239e-01 8.60279441e-01 -2.48648584e-01
      9.16167676e-01 -1.51351333e-01 4.83033925e-01 -5.94594553e-02
      4.79041904e-01 3.78378332e-02 4.75049913e-01 1.35135129e-01
      4.71057892e-01 2.35135123e-01 3.79241526e-01 3.43243212e-01
      4.23153698e-01 3.62162143e-01 4.71057892e-01 3.78378361e-01
      5.22954106e-01 3.67567539e-01 5.70858300e-01 3.54054034e-01
      1.77644715e-01 -1.35135120e-02 2.31536925e-01 -5.94594553e-02
      2.97405183e-01 -5.40540479e-02 3.59281451e-01 2.70270254e-03
      2.93413162e-01 2.43243221e-02 2.27544904e-01 2.16216203e-02
      6.16766453e-01 8.10810737e-03 6.78642690e-01 -4.59459424e-02
      7.48502970e-01 -4.59459424e-02 8.02395225e-01 0. 7.50499010e-01
      3.78378332e-02 6.80638731e-01 3.78378332e-02 2.55489022e-01
      6.18918955e-01 3.33333343e-01 5.32432497e-01 4.11177635e-01
      5.02702773e-01 4.65069860e-01 5.18918931e-01 5.16966045e-01
      5.10810852e-01 6.02794409e-01 5.59459507e-01 6.90618753e-01
      6.43243253e-01 6.02794409e-01 7.02702701e-01 5.14970064e-01
      7.16216266e-01 4.61077839e-01 7.13513553e-01 4.03193623e-01
      7.02702701e-01 3.29341322e-01 6.81081116e-01 2.83433139e-01
      6.10810816e-01 4.11177635e-01 5.59459507e-01 4.65069860e-01
      5.67567587e-01 5.16966045e-01 5.70270300e-01 6.56686604e-01
      6.37837887e-01 5.12974024e-01 6.43243253e-01 4.61077839e-01
      6.40540600e-01 4.05189633e-01 6.35135174e-01</_>
    <_>
      0. 0. 1.30597018e-02 1.68797955e-01 3.73134315e-02 3.29923272e-01
      6.90298527e-02 4.91048604e-01 1.15671642e-01 6.44501269e-01
      1.86567158e-01 7.80051172e-01 2.81716406e-01 8.92583132e-01
      3.91791046e-01 9.84654725e-01 5.24253726e-01 1. 6.52985096e-01
      9.64194357e-01 7.53731370e-01 8.67007673e-01 8.41417909e-01
      7.54475713e-01 9.10447776e-01 6.16368294e-01 9.47761178e-01
      4.55242962e-01 9.72014904e-01 2.94117659e-01 9.92537320e-01
      1.22762151e-01 1. -4.60358039e-02 9.51492563e-02 -6.90537095e-02
      1.71641797e-01 -1.45780057e-01 2.70522386e-01 -1.73913047e-01
      3.75000000e-01 -1.81585684e-01 4.72014934e-01 -1.45780057e-01
      5.54104507e-01 -1.45780057e-01 6.47388041e-01 -1.89258307e-01
      7.50000000e-01 -1.96930945e-01 8.48880589e-01 -1.86700761e-01
      9.21641767e-01 -1.15089513e-01 5.16791046e-01 -4.34782617e-02
      5.20522416e-01 4.34782617e-02 5.24253726e-01 1.30434781e-01
      5.26119411e-01 2.22506389e-01 4.21641797e-01 3.22250634e-01
      4.72014934e-01 3.37595910e-01 5.26119411e-01 3.50383639e-01
      5.76492548e-01 3.29923272e-01 6.23134315e-01 3.06905359e-01
      2.12686568e-01 -5.11508947e-03 2.66791046e-01 -4.34782617e-02
      3.24626863e-01 -5.11508957e-02 3.84328365e-01 -1.53452689e-02
      3.26492548e-01 -2.55754474e-03 2.68656731e-01 2.55754474e-03
      6.43656731e-01 -3.58056277e-02 6.97761178e-01 -7.67263398e-02
      7.55596995e-01 -7.67263398e-02 8.11567187e-01 -4.60358039e-02
      7.55596995e-01 -3.32480818e-02 6.99626863e-01 -3.32480818e-02
      3.48880589e-01 5.62659860e-01 3.99253726e-01 4.78260875e-01
      4.68283594e-01 4.47570324e-01 5.26119411e-01 4.65473145e-01
      5.78358233e-01 4.45012778e-01 6.45522416e-01 4.70588237e-01
      6.95895493e-01 5.49872100e-01 6.49253726e-01 6.49616361e-01
      5.83955228e-01 6.98209703e-01 5.26119411e-01 7.10997462e-01
      4.64552253e-01 7.03324795e-01 3.93656731e-01 6.52173936e-01
      3.78731340e-01 5.54987192e-01 4.70149249e-01 5.06393850e-01
      5.26119411e-01 5.14066517e-01 5.80223858e-01 5.01278758e-01
      6.67910457e-01 5.47314584e-01 5.78358233e-01 5.90792835e-01
      5.24253726e-01 6.03580534e-01 4.66417909e-01 5.90792835e-01</_>
    <_>
      0. 0. 6.28930796e-03 1.61209062e-01 1.67714879e-02 3.14861447e-01
      3.98322865e-02 4.73551631e-01 8.80503133e-02 6.19647384e-01
      1.69811323e-01 7.53148615e-01 2.66247392e-01 8.71536553e-01
      3.75262052e-01 9.74811077e-01 4.98951793e-01 1. 6.22641504e-01
      9.69773293e-01 7.31656194e-01 8.74055445e-01 8.21802914e-01
      7.50629723e-01 9.01467502e-01 6.09571815e-01 9.47589099e-01
      4.53400493e-01 9.74842787e-01 2.87153661e-01 9.93710697e-01
      1.20906800e-01 1. -5.28967269e-02 5.03144637e-02 -1.23425692e-01
      1.13207549e-01 -2.14105800e-01 2.09643602e-01 -2.44332492e-01
      3.10272545e-01 -2.39294708e-01 3.96226406e-01 -1.96473554e-01
      5.26205480e-01 -1.98992446e-01 6.26834393e-01 -2.51889169e-01
      7.44234800e-01 -2.61964738e-01 8.53249490e-01 -2.19143569e-01
      9.26624715e-01 -1.25944585e-01 4.75890994e-01 -7.30478615e-02
      4.77987409e-01 4.53400500e-02 4.80083853e-01 1.63727954e-01
      4.84276742e-01 2.84634769e-01 3.66876304e-01 3.19899231e-01
      4.23480093e-01 3.55163723e-01 4.86373156e-01 3.80352646e-01
      5.49266219e-01 3.55163723e-01 6.03773594e-01 3.22418123e-01
      1.42557651e-01 -4.28211577e-02 2.03354299e-01 -7.55667537e-02
      2.70440251e-01 -7.55667537e-02 3.35429758e-01 -3.77833769e-02
      2.70440251e-01 -3.27455923e-02 2.07547173e-01 -3.02267000e-02
      6.16352201e-01 -4.53400500e-02 6.85534596e-01 -8.81612077e-02
      7.54716992e-01 -8.56423154e-02 8.17610085e-01 -5.28967269e-02
      7.54716992e-01 -4.28211577e-02 6.87631011e-01 -4.53400500e-02
      3.06079656e-01 5.56675076e-01 3.52201253e-01 4.68513846e-01
      4.25576508e-01 4.43324924e-01 4.88469601e-01 4.63476062e-01
      5.57651997e-01 4.43324924e-01 6.39412999e-01 4.71032739e-01
      6.87631011e-01 5.56675076e-01 6.41509414e-01 6.75062954e-01
      5.68134189e-01 7.50629723e-01 4.94758904e-01 7.63224185e-01
      4.23480093e-01 7.50629723e-01 3.52201253e-01 6.72544062e-01
      3.33333343e-01 5.49118400e-01 4.23480093e-01 4.98740554e-01
      4.90566045e-01 5.08816123e-01 5.59748411e-01 4.96221662e-01
      6.56184494e-01 5.51637292e-01 5.61844885e-01 6.34760678e-01
      4.90566045e-01 6.47355139e-01 4.23480093e-01 6.32241786e-01</_>
    <_>
      0. 0. 1.01522841e-02 1.79775283e-01 2.53807101e-02 3.55805248e-01
      4.56852801e-02 5.35580516e-01 8.62944126e-02 7.04119861e-01
      1.57360405e-01 8.35205972e-01 2.58883238e-01 9.21348333e-01
      3.70558381e-01 9.85018730e-01 4.94923860e-01 1. 6.19289339e-01
      9.66292143e-01 7.33502567e-01 8.98876429e-01 8.47715735e-01
      8.12734067e-01 9.31472063e-01 6.85393274e-01 9.74619269e-01
      5.24344563e-01 9.92385805e-01 3.48314613e-01 9.94923830e-01
      1.68539330e-01 1. -1.12359552e-02 7.36040622e-02 -2.02247187e-01
      1.14213198e-01 -3.37078661e-01 1.97969541e-01 -4.08239692e-01
      2.96954304e-01 -4.04494375e-01 3.93401027e-01 -3.52059931e-01
      5.40609121e-01 -3.67041200e-01 6.42131984e-01 -4.23220962e-01
      7.43654847e-01 -4.26966280e-01 8.37563455e-01 -3.52059931e-01
      8.85786831e-01 -2.24719107e-01 4.77157354e-01 -1.64794013e-01
      4.79695439e-01 -7.86516890e-02 4.79695439e-01 3.74531839e-03
      4.79695439e-01 9.73782763e-02 3.90862942e-01 2.73408234e-01
      4.36548233e-01 2.80898869e-01 4.79695439e-01 2.88389504e-01
      5.25380731e-01 2.77153552e-01 5.65989852e-01 2.65917599e-01
      1.85279191e-01 -8.61423239e-02 2.33502537e-01 -1.49812728e-01
      2.99492389e-01 -1.53558046e-01 3.60406101e-01 -8.98876414e-02
      2.99492389e-01 -5.99250942e-02 2.33502537e-01 -5.24344556e-02
      5.98984778e-01 -9.73782763e-02 6.64974630e-01 -1.61048695e-01
      7.30964482e-01 -1.49812728e-01 7.81725883e-01 -8.61423239e-02
      7.28426397e-01 -5.99250942e-02 6.64974630e-01 -6.36704117e-02
      2.58883238e-01 5.61797738e-01 3.37563455e-01 4.71910119e-01
      4.21319783e-01 4.30711597e-01 4.74619299e-01 4.45692897e-01
      5.35533011e-01 4.30711597e-01 6.14213169e-01 4.68164802e-01
      6.95431471e-01 5.46816468e-01 6.16751254e-01 6.10486865e-01
      5.38071036e-01 6.32958829e-01 4.77157354e-01 6.40449464e-01
      4.18781728e-01 6.44194782e-01 3.37563455e-01 6.32958829e-01
      2.91878164e-01 5.58052421e-01 4.21319783e-01 4.90636706e-01
      4.74619299e-01 4.90636706e-01 5.35533011e-01 4.86891389e-01
      6.59898460e-01 5.43071151e-01 5.35533011e-01 5.65543056e-01
      4.74619299e-01 5.73033690e-01 4.18781728e-01 5.73033690e-01</_>
    <_>
      0. 0. 1.49892932e-02 1.60857841e-01 3.21199149e-02 3.13672870e-01
      5.13918623e-02 4.66487885e-01 9.20770913e-02 6.13941014e-01
      1.67023554e-01 7.56032169e-01 2.59100646e-01 8.79356563e-01
      3.74732345e-01 9.75871325e-01 5.11777282e-01 1. 6.46680951e-01
      9.73190367e-01 7.49464691e-01 8.71313691e-01 8.37259114e-01
      7.53351212e-01 9.07922924e-01 6.16621971e-01 9.44325507e-01
      4.66487885e-01 9.63597417e-01 3.10991913e-01 9.85010684e-01
      1.55495912e-01 1. -8.04289617e-03 7.28051364e-02 -7.77479932e-02
      1.43468946e-01 -1.55495986e-01 2.44111344e-01 -1.71581790e-01
      3.40471089e-01 -1.44772127e-01 4.32548165e-01 -9.65147540e-02
      6.01713061e-01 -1.01876684e-01 6.87366188e-01 -1.55495986e-01
      7.77301908e-01 -1.82305649e-01 8.69379044e-01 -1.71581790e-01
      9.31477487e-01 -9.91957188e-02 5.16059935e-01 -4.02144790e-02
      5.16059935e-01 7.23859817e-02 5.20342588e-01 1.82305560e-01
      5.22483945e-01 2.97587067e-01 4.23982859e-01 3.43163490e-01
      4.71092075e-01 3.61930251e-01 5.22483945e-01 3.86058927e-01
      5.73875785e-01 3.61930251e-01 6.14561021e-01 3.43163490e-01
      1.86295509e-01 -2.68096547e-03 2.46252671e-01 -2.14477237e-02
      3.08351189e-01 -2.14477237e-02 3.72591019e-01 -5.36193093e-03
      3.10492516e-01 8.04289617e-03 2.48393998e-01 1.07238619e-02
      6.48822248e-01 -8.04289617e-03 7.13062108e-01 -2.68096533e-02
      7.75160611e-01 -2.68096533e-02 8.35117757e-01 -5.36193093e-03
      7.77301908e-01 8.04289617e-03 7.15203404e-01 2.68096547e-03
      3.27623129e-01 5.73726535e-01 3.83297652e-01 4.87935603e-01
      4.60385442e-01 4.53083068e-01 5.22483945e-01 4.74530786e-01
      5.86723745e-01 4.55764025e-01 6.48822248e-01 4.87935603e-01
      6.91648841e-01 5.84450364e-01 6.44539595e-01 6.64879322e-01
      5.84582448e-01 7.13136733e-01 5.16059935e-01 7.26541519e-01
      4.47537482e-01 7.15817690e-01 3.74732345e-01 6.67560279e-01
      3.57601702e-01 5.65683603e-01 4.58244115e-01 5.28150082e-01
      5.22483945e-01 5.38873971e-01 5.86723745e-01 5.28150082e-01
      6.57387555e-01 5.73726535e-01 5.80299795e-01 5.81769407e-01
      5.16059935e-01 5.95174253e-01 4.51820135e-01 5.84450364e-01</_>
    <_>
      0. 0. 4.33839485e-03 1.65760860e-01 2.60303691e-02 3.28804404e-01
      4.55531441e-02 4.89130467e-01 7.37527087e-02 6.54891312e-01
      1.32321045e-01 7.90760875e-01 2.27765724e-01 8.96739125e-01
      3.44902396e-01 9.75543499e-01 4.79392618e-01 1. 6.18221283e-01
      9.78260875e-01 7.46203899e-01 8.99456501e-01 8.54663789e-01
      7.98913062e-01 9.24078107e-01 6.63043499e-01 9.60954428e-01
      5.08152187e-01 9.80477214e-01 3.42391372e-01 9.93492424e-01
      1.82065278e-01 1. 1.35869551e-02 6.94143176e-02 -1.30434766e-01
      1.21475056e-01 -2.20108673e-01 2.12581351e-01 -2.52717376e-01
      3.05856824e-01 -2.25543454e-01 3.90455544e-01 -1.60326079e-01
      5.85683286e-01 -1.65760860e-01 6.70282006e-01 -2.17391282e-01
      7.63557494e-01 -2.33695626e-01 8.54663789e-01 -1.95652157e-01
      9.06724513e-01 -1.08695641e-01 4.83731031e-01 0. 4.79392618e-01
      9.78260785e-02 4.77223426e-01 1.95652246e-01 4.72885042e-01
      2.96195716e-01 3.90455544e-01 3.88586998e-01 4.29501086e-01
      4.07608747e-01 4.75054234e-01 4.21195686e-01 5.22776544e-01
      4.10326123e-01 5.66160500e-01 3.94021779e-01 1.77874193e-01
      2.71739112e-03 2.34273314e-01 -5.97826019e-02 3.12364429e-01
      -5.16304299e-02 3.70932758e-01 2.98913009e-02 3.01518440e-01
      5.97826019e-02 2.23427325e-01 5.16304299e-02 6.09544456e-01
      4.07608673e-02 6.70282006e-01 -3.80434766e-02 7.46203899e-01
      -4.34782580e-02 8.00433815e-01 2.17391290e-02 7.52711475e-01
      6.79347739e-02 6.74620390e-01 7.06521645e-02 2.81995654e-01
      6.44021749e-01 3.49240780e-01 5.65217435e-01 4.25162703e-01
      5.24456561e-01 4.72885042e-01 5.43478310e-01 5.20607352e-01
      5.27173936e-01 6.05206072e-01 5.73369622e-01 6.78958774e-01
      6.46739185e-01 6.07375264e-01 7.39130437e-01 5.24945796e-01
      7.66304374e-01 4.70715821e-01 7.69021749e-01 4.16485906e-01
      7.66304374e-01 3.42733175e-01 7.36413062e-01 3.12364429e-01
      6.41304374e-01 4.22993481e-01 5.78804374e-01 4.72885042e-01
      5.84239185e-01 5.20607352e-01 5.84239185e-01 6.46420836e-01
      6.44021749e-01 5.22776544e-01 6.84782624e-01 4.70715821e-01
      6.90217435e-01 4.20824289e-01 6.84782624e-01</_>
    <_>
      0. 0. 1.54867256e-02 1.74174190e-01 3.53982300e-02 3.48348379e-01
      5.08849546e-02 5.16516566e-01 8.18584040e-02 6.75675631e-01
      1.41592920e-01 8.07807803e-01 2.34513268e-01 9.06906903e-01
      3.42920363e-01 9.72972989e-01 4.62389380e-01 1. 5.86283207e-01
      9.78978992e-01 7.10177004e-01 9.21921909e-01 8.23008835e-01
      8.31831813e-01 9.02654886e-01 6.99699700e-01 9.44690287e-01
      5.37537575e-01 9.66814160e-01 3.60360384e-01 9.84513283e-01
      1.80180192e-01 1. -6.00600662e-03 8.40707943e-02 -1.35135144e-01
      1.37168139e-01 -2.16216236e-01 2.16814160e-01 -2.70270348e-01
      3.07522118e-01 -2.76276350e-01 3.84955764e-01 -2.31231302e-01
      5.50884962e-01 -2.34234303e-01 6.37168169e-01 -2.85285354e-01
      7.27876127e-01 -2.79279351e-01 8.11946929e-01 -2.25225285e-01
      8.78318608e-01 -1.47147164e-01 4.64601755e-01 -7.50750825e-02
      4.60177004e-01 2.70270295e-02 4.53539819e-01 1.32132143e-01
      4.46902663e-01 2.37237260e-01 3.73893797e-01 3.27327371e-01
      4.09292042e-01 3.51351380e-01 4.49115038e-01 3.69369417e-01
      4.95575219e-01 3.51351380e-01 5.39822996e-01 3.33333373e-01
      1.79203540e-01 -3.60360406e-02 2.36725658e-01 -8.70870948e-02
      3.05309743e-01 -8.70870948e-02 3.69469017e-01 -1.80180203e-02
      3.03097337e-01 -6.00600662e-03 2.34513268e-01 -6.00600662e-03
      5.81858397e-01 -2.10210234e-02 6.48230076e-01 -8.70870948e-02
      7.14601755e-01 -8.70870948e-02 7.72123873e-01 -3.60360406e-02
      7.16814160e-01 -9.00901016e-03 6.50442481e-01 -6.00600662e-03
      2.63274342e-01 5.91591537e-01 3.34070802e-01 4.89489526e-01
      4.11504418e-01 4.53453481e-01 4.62389380e-01 4.65465516e-01
      5.22123873e-01 4.56456512e-01 6.06194675e-01 4.95495528e-01
      6.81415915e-01 5.97597539e-01 6.06194675e-01 6.66666627e-01
      5.24336278e-01 6.93693638e-01 4.60177004e-01 6.96696699e-01
      4.02654856e-01 6.93693638e-01 3.29646021e-01 6.66666627e-01
      2.87610620e-01 5.79579532e-01 4.09292042e-01 5.10510564e-01
      4.62389380e-01 5.13513565e-01 5.22123873e-01 5.10510564e-01
      6.54867232e-01 5.88588536e-01 5.22123873e-01 6.36636615e-01
      4.60177004e-01 6.39639616e-01 4.07079637e-01 6.33633614e-01</_>
    <_>
      0. 0. 1.11111114e-02 1.64086685e-01 2.66666673e-02 3.28173369e-01
      4.44444455e-02 4.95356023e-01 9.11111087e-02 6.56346738e-01
      1.80000007e-01 7.86377728e-01 2.93333322e-01 8.88544917e-01
      4.11111116e-01 9.78328168e-01 5.37777781e-01 1. 6.62222207e-01
      9.62848306e-01 7.66666651e-01 8.60681117e-01 8.68888915e-01
      7.52321959e-01 9.46666658e-01 6.22291028e-01 9.82222199e-01
      4.64396298e-01 9.91111100e-01 3.03405583e-01 9.97777760e-01
      1.45510837e-01 1. -2.16718260e-02 9.77777764e-02 -1.05263159e-01
      1.77777782e-01 -1.64086685e-01 2.75555551e-01 -1.70278639e-01
      3.66666675e-01 -1.45510837e-01 4.57777768e-01 -1.08359136e-01
      5.71111083e-01 -1.08359136e-01 6.57777786e-01 -1.51702791e-01
      7.48888910e-01 -1.73374608e-01 8.42222214e-01 -1.76470593e-01
      9.20000017e-01 -1.17647059e-01 5.15555561e-01 -4.64396290e-02
      5.15555561e-01 5.26315793e-02 5.13333321e-01 1.51702791e-01
      5.13333321e-01 2.56965935e-01 4.04444456e-01 3.21981430e-01
      4.57777768e-01 3.46749216e-01 5.15555561e-01 3.68421048e-01
      5.73333323e-01 3.40557277e-01 6.24444425e-01 3.12693506e-01
      2.08888888e-01 -1.23839006e-02 2.68888891e-01 -3.71517017e-02
      3.31111103e-01 -4.64396290e-02 3.93333346e-01 -9.28792544e-03
      3.28888893e-01 0. 2.68888891e-01 3.09597515e-03 6.28888905e-01
      -1.85758509e-02 6.88888907e-01 -5.57275526e-02 7.48888910e-01
      -5.57275526e-02 8.11111093e-01 -3.09597515e-02 7.51111090e-01
      -1.54798757e-02 6.91111088e-01 -1.54798757e-02 2.73333341e-01
      5.23219824e-01 3.51111114e-01 4.70588237e-01 4.48888898e-01
      4.52012390e-01 5.15555561e-01 4.61300313e-01 5.75555563e-01
      4.45820421e-01 6.73333347e-01 4.61300313e-01 7.51111090e-01
      4.98452008e-01 6.84444427e-01 6.62538707e-01 5.91111124e-01
      7.39938080e-01 5.22222221e-01 7.55417943e-01 4.53333348e-01
      7.49226034e-01 3.53333324e-01 6.84210539e-01 2.95555562e-01
      5.29411793e-01 4.51111108e-01 5.01547992e-01 5.15555561e-01
      5.07739961e-01 5.77777803e-01 4.95356023e-01 7.26666689e-01
      5.10835886e-01 5.84444463e-01 6.47058845e-01 5.19999981e-01
      6.59442723e-01 4.53333348e-01 6.56346738e-01</_>
    <_>
      2.63852254e-03 0. 0. 1.52173892e-01 0. 3.07453483e-01
      1.31926117e-02 4.62732971e-01 5.01319245e-02 6.18012488e-01
      1.24010555e-01 7.54658401e-01 2.16358840e-01 8.78881991e-01
      3.24538261e-01 9.75155294e-01 4.56464380e-01 1. 5.93667567e-01
      9.72049713e-01 7.12401032e-01 8.81987572e-01 8.28496039e-01
      7.76397526e-01 9.15567279e-01 6.49068356e-01 9.65699196e-01
      5.00000060e-01 9.86807406e-01 3.44720572e-01 9.97361481e-01
      1.92546666e-01 1. 3.72670777e-02 7.38786310e-02 -6.21117949e-02
      1.42480209e-01 -1.36645943e-01 2.45382592e-01 -1.52173892e-01
      3.45646441e-01 -1.30434766e-01 4.43271756e-01 -9.31676924e-02
      5.54089725e-01 -9.31676924e-02 6.51715040e-01 -1.27329186e-01
      7.46701837e-01 -1.49068311e-01 8.44327152e-01 -1.39751539e-01
      9.05013204e-01 -5.90062067e-02 4.93403703e-01 -3.10558965e-03
      4.90765184e-01 8.69565159e-02 4.85488117e-01 1.80124298e-01
      4.82849598e-01 2.76397586e-01 3.64116102e-01 3.54037315e-01
      4.19525057e-01 3.69565278e-01 4.80211079e-01 3.85093212e-01
      5.40897071e-01 3.69565278e-01 5.98944604e-01 3.57142925e-01
      1.76780999e-01 0. 2.37467021e-01 -3.72670777e-02 3.08707118e-01
      -3.72670777e-02 3.69393140e-01 1.86335389e-02 3.06068599e-01
      3.10558975e-02 2.32189968e-01 2.79503074e-02 6.17414236e-01
      2.17391290e-02 6.80738807e-01 -3.10558975e-02 7.51978874e-01
      -3.10558975e-02 8.10026407e-01 6.21117931e-03 7.57255912e-01
      4.03726660e-02 6.83377326e-01 4.03726660e-02 2.74406344e-01
      6.02484524e-01 3.37730885e-01 5.37267148e-01 4.22163576e-01
      4.90683287e-01 4.77572560e-01 5.12422383e-01 5.35620034e-01
      4.93788868e-01 6.20052755e-01 5.43478310e-01 6.83377326e-01
      6.18012488e-01 6.20052755e-01 7.14285731e-01 5.35620034e-01
      7.51552820e-01 4.69657004e-01 7.57763982e-01 4.11609501e-01
      7.48447239e-01 3.29815298e-01 7.01863408e-01 3.11345637e-01
      5.99378943e-01 4.19525057e-01 5.55900693e-01 4.77572560e-01
      5.62111855e-01 5.35620034e-01 5.59006274e-01 6.46438003e-01
      6.11801267e-01 5.35620034e-01 6.49068356e-01 4.74934042e-01
      6.55279517e-01 4.16886538e-01 6.45962775e-01</_>
    <_>
      0. 0. 1.34357009e-02 1.64102495e-01 3.64683308e-02 3.28205079e-01
      6.33397326e-02 4.84615356e-01 1.03646830e-01 6.41025603e-01
      1.74664110e-01 7.79487133e-01 2.74472177e-01 8.94871771e-01
      3.83877158e-01 9.76923048e-01 5.25911689e-01 1. 6.66026890e-01
      9.66666639e-01 7.63915539e-01 8.66666675e-01 8.52207303e-01
      7.53846109e-01 9.11708236e-01 6.15384579e-01 9.48176563e-01
      4.66666639e-01 9.71209228e-01 3.15384567e-01 9.90403056e-01
      1.58974290e-01 1. 2.56410288e-03 8.25335905e-02 -1.43589750e-01
      1.42034546e-01 -2.53846169e-01 2.41842613e-01 -2.94871807e-01
      3.45489442e-01 -2.84615397e-01 4.47216898e-01 -2.35897452e-01
      5.83493292e-01 -2.23076940e-01 6.77543163e-01 -2.61538476e-01
      7.75431871e-01 -2.66666681e-01 8.67562354e-01 -2.25641042e-01
      9.13627625e-01 -1.12820521e-01 5.20153522e-01 -1.10256419e-01
      5.25911689e-01 -7.69230817e-03 5.31669855e-01 9.74358246e-02
      5.35508633e-01 2.05128148e-01 4.24184263e-01 3.02564055e-01
      4.76007670e-01 3.17948669e-01 5.31669855e-01 3.35897386e-01
      5.85412681e-01 3.20512772e-01 6.31477952e-01 2.99999952e-01
      2.03454897e-01 -6.92307726e-02 2.57197708e-01 -1.25641033e-01
      3.28214973e-01 -1.23076931e-01 3.91554713e-01 -5.89743629e-02
      3.26295584e-01 -3.58974375e-02 2.53358930e-01 -3.33333351e-02
      6.27639174e-01 -5.12820557e-02 6.87140107e-01 -1.20512828e-01
      7.58157372e-01 -1.17948726e-01 8.11900198e-01 -5.64102605e-02
      7.60076761e-01 -2.56410278e-02 6.89059496e-01 -3.07692327e-02
      3.01343560e-01 5.66666603e-01 3.72360855e-01 4.97435868e-01
      4.58733201e-01 4.61538434e-01 5.18234193e-01 4.76923048e-01
      5.77735126e-01 4.58974302e-01 6.60268724e-01 4.94871765e-01
      7.19769657e-01 5.64102530e-01 6.64107502e-01 6.92307651e-01
      5.85412681e-01 7.43589699e-01 5.20153522e-01 7.56410241e-01
      4.52975035e-01 7.48717904e-01 3.66602689e-01 6.97435856e-01
      3.33973140e-01 5.66666603e-01 4.58733201e-01 5.07692277e-01
      5.20153522e-01 5.10256350e-01 5.79654515e-01 5.05128145e-01
      6.87140107e-01 5.64102530e-01 5.81573904e-01 6.41025603e-01
      5.18234193e-01 6.51282012e-01 4.52975035e-01 6.43589735e-01</_>
    <_>
      0. 0. 6.36942685e-03 1.64305955e-01 1.48619954e-02 3.28611910e-01
      3.18471342e-02 4.98583555e-01 6.79405555e-02 6.54390931e-01
      1.33757964e-01 7.90368259e-01 2.31422499e-01 8.89518440e-01
      3.41825902e-01 9.63172793e-01 4.71337587e-01 1. 6.07218683e-01
      9.80169952e-01 7.19745219e-01 9.15014148e-01 8.13163459e-01
      8.21529746e-01 8.76857758e-01 6.94050968e-01 9.17197466e-01
      5.43909371e-01 9.51167703e-01 3.85269135e-01 9.78768587e-01
      2.23796040e-01 1. 5.94900846e-02 1.18895963e-01 -2.18130305e-01
      1.82590231e-01 -2.94617563e-01 2.67515928e-01 -3.25779051e-01
      3.60934168e-01 -3.20113301e-01 4.45859879e-01 -2.71954685e-01
      6.00849271e-01 -2.69121826e-01 6.87898099e-01 -3.05949003e-01
      7.81316340e-01 -2.91784704e-01 8.64118874e-01 -2.40793198e-01
      9.17197466e-01 -1.47308782e-01 5.15923560e-01 -1.35977343e-01
      5.13800442e-01 -3.68271954e-02 5.09554148e-01 6.23229444e-02
      5.05307853e-01 1.67138815e-01 4.07643318e-01 2.69121826e-01
      4.50106144e-01 2.94617563e-01 4.98938441e-01 3.14447582e-01
      5.47770679e-01 3.05949003e-01 5.94479859e-01 2.88951844e-01
      2.10191086e-01 -9.91501436e-02 2.61146486e-01 -1.47308782e-01
      3.22717637e-01 -1.47308782e-01 3.80042464e-01 -9.06515568e-02
      3.20594490e-01 -7.93201104e-02 2.61146486e-01 -7.93201104e-02
      6.41188979e-01 -6.79886714e-02 7.02760100e-01 -1.16147310e-01
      7.64331222e-01 -1.07648723e-01 8.13163459e-01 -4.81586419e-02
      7.60084927e-01 -3.68271954e-02 6.98513806e-01 -4.53257784e-02
      3.09978783e-01 5.18413603e-01 3.69426757e-01 4.41926360e-01
      4.37367290e-01 4.19263452e-01 4.90445852e-01 4.36260611e-01
      5.41401267e-01 4.33427751e-01 6.07218683e-01 4.75920677e-01
      6.64543509e-01 5.66572249e-01 6.02972388e-01 6.37393773e-01
      5.32908678e-01 6.62889540e-01 4.77706999e-01 6.62889540e-01
      4.20382172e-01 6.45892322e-01 3.58811051e-01 5.97733736e-01
      3.33333343e-01 5.18413603e-01 4.33121026e-01 4.67422098e-01
      4.88322705e-01 4.78753537e-01 5.39278150e-01 4.84419256e-01
      6.36942685e-01 5.60906529e-01 5.35031855e-01 5.86402237e-01
      4.81953293e-01 5.89235127e-01 4.26751584e-01 5.72237968e-01</_>
    <_>
      0. 0. 7.90513866e-03 1.54228866e-01 2.37154141e-02 3.08457732e-01
      3.75494063e-02 4.65174079e-01 7.11462423e-02 6.14427805e-01
      1.42292485e-01 7.51243770e-01 2.41106719e-01 8.68159175e-01
      3.57707500e-01 9.67661679e-01 4.88142282e-01 1. 6.20553374e-01
      9.75124359e-01 7.41106749e-01 8.78109455e-01 8.47826064e-01
      7.63681591e-01 9.22924876e-01 6.24378085e-01 9.58498001e-01
      4.72636789e-01 9.76284564e-01 3.20895553e-01 9.94071126e-01
      1.64179116e-01 1. 7.46268732e-03 9.48616564e-02 -5.97014986e-02
      1.58102766e-01 -1.41791061e-01 2.49011859e-01 -1.74129367e-01
      3.47826093e-01 -1.79104492e-01 4.48616594e-01 -1.61691561e-01
      5.37549436e-01 -1.61691561e-01 6.38339937e-01 -1.81592047e-01
      7.39130437e-01 -1.79104492e-01 8.33992124e-01 -1.54228866e-01
      9.05138314e-01 -7.71144331e-02 4.86166000e-01 -4.22885604e-02
      4.82213438e-01 6.21890612e-02 4.78260875e-01 1.66666687e-01
      4.74308312e-01 2.73631871e-01 3.91304344e-01 3.43283594e-01
      4.32806313e-01 3.65671605e-01 4.82213438e-01 3.83084536e-01
      5.35573125e-01 3.60696465e-01 5.83003938e-01 3.40796053e-01
      2.09486172e-01 -1.24378121e-02 2.58893281e-01 -6.46766201e-02
      3.22134376e-01 -6.96517453e-02 3.73517781e-01 -1.24378121e-02
      3.18181813e-01 2.48756236e-03 2.58893281e-01 4.97512473e-03
      6.16600811e-01 -1.74129363e-02 6.64031625e-01 -7.71144331e-02
      7.29249001e-01 -7.71144331e-02 7.80632436e-01 -2.48756241e-02
      7.29249001e-01 -7.46268732e-03 6.67984188e-01 -7.46268732e-03
      3.06324124e-01 5.82089543e-01 3.63636374e-01 5.14925361e-01
      4.34782594e-01 4.80099469e-01 4.92094874e-01 4.95024830e-01
      5.47430813e-01 4.77611899e-01 6.28458500e-01 5.07462621e-01
      6.87747061e-01 5.77114403e-01 6.30434811e-01 6.71641767e-01
      5.53359687e-01 7.23880589e-01 4.94071156e-01 7.36318409e-01
      4.32806313e-01 7.23880589e-01 3.61660093e-01 6.76616907e-01
      3.37944657e-01 5.79601943e-01 4.34782594e-01 5.37313402e-01
      4.92094874e-01 5.42288542e-01 5.47430813e-01 5.34825861e-01
      6.58102751e-01 5.74626863e-01 5.49407125e-01 6.29353225e-01
      4.92094874e-01 6.39303446e-01 4.34782594e-01 6.29353225e-01</_>
    <_>
      0. 0. 2.15982720e-02 1.71253815e-01 4.53563705e-02 3.36391449e-01
      6.47948161e-02 5.04587173e-01 1.01511881e-01 6.57492340e-01
      1.70626357e-01 7.85932720e-01 2.69978404e-01 8.89908254e-01
      3.84449244e-01 9.69418943e-01 5.14038861e-01 1. 6.45788312e-01
      9.75535154e-01 7.62418985e-01 8.92966390e-01 8.61771047e-01
      7.85932720e-01 9.30885553e-01 6.48318052e-01 9.63282943e-01
      4.89296645e-01 9.74082053e-01 3.05810392e-01 9.89200890e-01
      1.22324161e-01 1. -6.11620806e-02 8.85529146e-02 -1.31498471e-01
      1.57667384e-01 -2.17125386e-01 2.52699792e-01 -2.56880730e-01
      3.52051824e-01 -2.53822625e-01 4.49244052e-01 -2.20183492e-01
      5.61555088e-01 -2.35474005e-01 6.54427648e-01 -2.75229365e-01
      7.51619875e-01 -2.90519863e-01 8.44492435e-01 -2.59938836e-01
      9.11447108e-01 -1.77370027e-01 5.05399585e-01 -1.10091746e-01
      5.07559419e-01 -6.11620815e-03 5.07559419e-01 1.03975534e-01
      5.09719193e-01 2.14067280e-01 4.19006467e-01 3.18042815e-01
      4.64362860e-01 3.33333343e-01 5.14038861e-01 3.48623842e-01
      5.65874755e-01 3.30275238e-01 6.11231089e-01 3.08868498e-01
      1.94384456e-01 -5.50458729e-02 2.50539958e-01 -1.16207950e-01
      3.21814269e-01 -1.22324161e-01 3.77969772e-01 -5.81039749e-02
      3.17494601e-01 -3.36391442e-02 2.52699792e-01 -2.75229365e-02
      6.34989202e-01 -7.33944923e-02 6.88984871e-01 -1.46788985e-01
      7.60259151e-01 -1.43730894e-01 8.16414714e-01 -8.25688094e-02
      7.62418985e-01 -5.50458729e-02 6.95464373e-01 -5.50458729e-02
      3.30453575e-01 5.87155938e-01 3.84449244e-01 4.98470962e-01
      4.60043192e-01 4.49541271e-01 5.16198695e-01 4.64831799e-01
      5.70194364e-01 4.49541271e-01 6.50107980e-01 4.86238539e-01
      7.10583150e-01 5.77981651e-01 6.54427648e-01 6.88073397e-01
      5.78833699e-01 7.33944952e-01 5.20518363e-01 7.43119240e-01
      4.60043192e-01 7.37003028e-01 3.84449244e-01 6.91131473e-01
      3.58531326e-01 5.84097862e-01 4.62203026e-01 5.29051960e-01
      5.18358529e-01 5.32110095e-01 5.72354198e-01 5.29051960e-01
      6.80345595e-01 5.77981651e-01 5.74514031e-01 6.26911342e-01
      5.18358529e-01 6.33027494e-01 4.62203026e-01 6.26911342e-01</_>
    <_>
      0. 0. 1.93965510e-02 1.69590637e-01 4.09482755e-02 3.39181274e-01
      6.25000000e-02 5.11695921e-01 9.91379321e-02 6.66666687e-01
      1.65948272e-01 8.01169574e-01 2.67241389e-01 9.09356713e-01
      3.87931049e-01 9.79532182e-01 5.28017223e-01 1. 6.63793087e-01
      9.73684192e-01 7.82327592e-01 8.91812861e-01 8.79310369e-01
      7.80701756e-01 9.41810369e-01 6.28654957e-01 9.67672408e-01
      4.61988300e-01 9.76293087e-01 2.80701756e-01 9.91379321e-01
      9.94152054e-02 1. -7.60233924e-02 7.97413811e-02 -1.60818711e-01
      1.33620694e-01 -2.66081870e-01 2.24137932e-01 -3.07017535e-01
      3.14655185e-01 -2.89473683e-01 4.03017253e-01 -2.42690057e-01
      5.62500000e-01 -2.51461983e-01 6.57327592e-01 -2.98245609e-01
      7.54310369e-01 -3.18713456e-01 8.49137902e-01 -2.86549717e-01
      9.09482777e-01 -1.92982450e-01 4.91379321e-01 -9.94152054e-02
      4.93534476e-01 2.92397663e-03 4.93534476e-01 1.05263159e-01
      4.95689660e-01 2.10526317e-01 4.09482747e-01 3.27485383e-01
      4.54741389e-01 3.39181274e-01 5.06465495e-01 3.53801161e-01
      5.56034505e-01 3.36257309e-01 5.99137902e-01 3.18713456e-01
      1.76724136e-01 -4.09356728e-02 2.30603442e-01 -1.08187132e-01
      3.03879321e-01 -1.11111112e-01 3.64224136e-01 -3.80116962e-02
      3.01724136e-01 -5.84795326e-03 2.30603442e-01 -2.92397663e-03
      6.25000000e-01 -5.26315793e-02 6.81034505e-01 -1.31578952e-01
      7.54310369e-01 -1.31578952e-01 8.12500000e-01 -7.01754391e-02
      7.60775864e-01 -2.92397663e-02 6.91810369e-01 -2.63157897e-02
      3.25431049e-01 6.11111104e-01 3.85775864e-01 5.20467818e-01
      4.56896544e-01 4.73684222e-01 5.08620679e-01 4.88304108e-01
      5.62500000e-01 4.70760226e-01 6.42241359e-01 5.11695921e-01
      7.11206913e-01 5.99415183e-01 6.48706913e-01 6.98830426e-01
      5.73275864e-01 7.36842096e-01 5.17241359e-01 7.42690086e-01
      4.61206883e-01 7.39766061e-01 3.87931049e-01 7.04678357e-01
      3.51293117e-01 6.08187139e-01 4.61206883e-01 5.49707592e-01
      5.12931049e-01 5.49707592e-01 5.64655185e-01 5.46783626e-01
      6.83189631e-01 6.02339208e-01 5.66810369e-01 6.34502947e-01
      5.10775864e-01 6.43274844e-01 4.61206883e-01 6.37426913e-01</_>
    <_>
      0. 0. 1.94384456e-02 1.68478265e-01 3.88768911e-02 3.34239125e-01
      6.04751632e-02 5.00000000e-01 9.93520543e-02 6.57608688e-01
      1.64146870e-01 7.93478251e-01 2.57019430e-01 9.02173936e-01
      3.80129576e-01 9.80978251e-01 5.22678196e-01 1. 6.67386591e-01
      9.75543499e-01 7.75377989e-01 8.91304374e-01 8.63930881e-01
      7.69021749e-01 9.24406052e-01 6.22282624e-01 9.52483773e-01
      4.61956531e-01 9.69762444e-01 2.93478251e-01 9.89200890e-01
      1.27717391e-01 1. -4.07608710e-02 8.63930881e-02 -1.25000000e-01
      1.51187912e-01 -2.03804344e-01 2.39740819e-01 -2.47282609e-01
      3.41252714e-01 -2.55434781e-01 4.29805607e-01 -2.09239125e-01
      5.83153367e-01 -2.17391297e-01 6.65226758e-01 -2.74456531e-01
      7.64578819e-01 -2.85326093e-01 8.57451379e-01 -2.41847828e-01
      9.15766716e-01 -1.49456516e-01 5.07559419e-01 -7.88043514e-02
      5.09719193e-01 1.63043477e-02 5.14038861e-01 1.16847828e-01
      5.16198695e-01 2.14673907e-01 4.16846663e-01 3.12500000e-01
      4.62203026e-01 3.28804344e-01 5.11879027e-01 3.45108688e-01
      5.61555088e-01 3.31521749e-01 6.04751647e-01 3.20652187e-01
      1.92224622e-01 -3.53260860e-02 2.46220306e-01 -8.69565234e-02
      3.17494601e-01 -9.23913047e-02 3.75809938e-01 -3.53260860e-02
      3.13174933e-01 -1.63043477e-02 2.46220306e-01 -1.35869561e-02
      6.32829368e-01 -3.80434766e-02 6.93304539e-01 -9.51086953e-02
      7.62418985e-01 -9.23913047e-02 8.16414714e-01 -4.07608710e-02
      7.62418985e-01 -1.90217383e-02 6.95464373e-01 -1.90217383e-02
      2.95896322e-01 5.81521749e-01 3.56371492e-01 4.86413032e-01
      4.38444912e-01 4.45652187e-01 5.03239751e-01 4.64673907e-01
      5.63714921e-01 4.53804344e-01 6.50107980e-01 5.05434811e-01
      7.12742984e-01 6.16847813e-01 6.50107980e-01 7.14673936e-01
      5.65874755e-01 7.47282624e-01 4.98920083e-01 7.50000000e-01
      4.27645802e-01 7.39130437e-01 3.52051824e-01 6.92934811e-01
      3.23974073e-01 5.78804374e-01 4.38444912e-01 5.05434811e-01
      5.03239751e-01 5.16304374e-01 5.65874755e-01 5.16304374e-01
      6.82505429e-01 6.08695626e-01 5.63714921e-01 6.52173936e-01
      4.98920083e-01 6.54891312e-01 4.31965441e-01 6.44021749e-01</_>
    <_>
      0. 0. 1.94384456e-02 1.73441738e-01 4.31965441e-02 3.44173431e-01
      6.47948161e-02 5.09485066e-01 1.01511881e-01 6.69376671e-01
      1.64146870e-01 8.04878056e-01 2.57019430e-01 9.10569131e-01
      3.73650104e-01 9.81029809e-01 5.11879027e-01 1. 6.47948146e-01
      9.78319764e-01 7.58099377e-01 9.02438998e-01 8.50971937e-01
      7.88617909e-01 9.15766716e-01 6.44986451e-01 9.50323999e-01
      4.85094845e-01 9.69762444e-01 3.17073166e-01 9.87041056e-01
      1.46341458e-01 1. -2.43902430e-02 7.99136087e-02 -1.38211384e-01
      1.49028078e-01 -2.16802165e-01 2.39740819e-01 -2.49322489e-01
      3.36933047e-01 -2.38482386e-01 4.27645802e-01 -1.89701900e-01
      5.74514031e-01 -1.78861782e-01 6.60907149e-01 -2.27642283e-01
      7.58099377e-01 -2.43902445e-01 8.53131771e-01 -2.19512194e-01
      9.15766716e-01 -1.35501355e-01 5.05399585e-01 -7.85907879e-02
      5.07559419e-01 1.35501353e-02 5.09719193e-01 1.11111112e-01
      5.11879027e-01 2.05962062e-01 4.19006467e-01 3.14363152e-01
      4.60043192e-01 3.25203240e-01 5.07559419e-01 3.38753402e-01
      5.52915752e-01 3.27913284e-01 5.96112311e-01 3.19783211e-01
      1.87904969e-01 -4.60704602e-02 2.41900653e-01 -1.00271001e-01
      3.13174933e-01 -1.02981031e-01 3.69330466e-01 -4.33604345e-02
      3.08855295e-01 -2.43902430e-02 2.39740819e-01 -2.16802172e-02
      6.32829368e-01 -4.06504050e-02 6.91144705e-01 -1.00271001e-01
      7.62418985e-01 -9.48509499e-02 8.14254880e-01 -4.06504050e-02
      7.60259151e-01 -1.62601620e-02 6.91144705e-01 -2.16802172e-02
      3.11015129e-01 6.17886186e-01 3.67170632e-01 5.04065037e-01
      4.47084248e-01 4.47154462e-01 5.05399585e-01 4.63414639e-01
      5.59395254e-01 4.52574521e-01 6.41468704e-01 5.17615199e-01
      7.01943815e-01 6.36856377e-01 6.41468704e-01 7.23577261e-01
      5.61555088e-01 7.56097555e-01 4.98920083e-01 7.58807600e-01
      4.36285108e-01 7.53387511e-01 3.60691130e-01 7.15447128e-01
      3.41252714e-01 6.09756112e-01 4.47084248e-01 5.12195110e-01
      5.05399585e-01 5.14905155e-01 5.59395254e-01 5.17615199e-01
      6.65226758e-01 6.26016259e-01 5.59395254e-01 6.63956642e-01
      5.01079917e-01 6.66666687e-01 4.40604746e-01 6.58536613e-01</_>
    <_>
      0. 0. 1.94384456e-02 1.63487718e-01 4.53563705e-02 3.24250668e-01
      7.12742954e-02 4.76839274e-01 1.16630666e-01 6.23978257e-01
      1.83585316e-01 7.60218024e-01 2.69978404e-01 8.77384186e-01
      3.84449244e-01 9.67302442e-01 5.11879027e-01 1. 6.43628538e-01
      9.75476861e-01 7.58099377e-01 8.82833779e-01 8.48812103e-01
      7.54768431e-01 9.09287274e-01 6.10354245e-01 9.43844497e-01
      4.57765698e-01 9.61123109e-01 2.97002703e-01 9.82721388e-01
      1.33514971e-01 1. -2.72479542e-02 8.20734352e-02 -1.03542224e-01
      1.51187912e-01 -1.79836497e-01 2.46220306e-01 -2.09809244e-01
      3.47732186e-01 -2.01634854e-01 4.44924414e-01 -1.71662107e-01
      5.85313201e-01 -1.74386904e-01 6.78185761e-01 -1.98910072e-01
      7.73218155e-01 -2.12534040e-01 8.63930881e-01 -1.90735683e-01
      9.22246218e-01 -1.06267020e-01 5.14038861e-01 -8.71934518e-02
      5.18358529e-01 -2.72479537e-03 5.20518363e-01 8.44686553e-02
      5.24838030e-01 1.77111700e-01 4.23326135e-01 2.50681192e-01
      4.68682498e-01 2.72479534e-01 5.24838030e-01 2.94277906e-01
      5.76673865e-01 2.69754738e-01 6.19870424e-01 2.42506787e-01
      1.98704109e-01 -5.17711118e-02 2.52699792e-01 -9.53678414e-02
      3.19654435e-01 -9.80926380e-02 3.77969772e-01 -5.17711118e-02
      3.15334767e-01 -4.08719294e-02 2.52699792e-01 -4.08719294e-02
      6.39308870e-01 -4.90463190e-02 6.95464373e-01 -9.26430449e-02
      7.60259151e-01 -8.99182484e-02 8.14254880e-01 -4.35967259e-02
      7.60259151e-01 -3.26975435e-02 6.97624207e-01 -3.81471366e-02
      3.56371492e-01 5.25885582e-01 3.95248383e-01 4.08719391e-01
      4.62203026e-01 3.73297065e-01 5.20518363e-01 3.89645815e-01
      5.74514031e-01 3.76021862e-01 6.32829368e-01 4.11444187e-01
      6.63066983e-01 5.28610408e-01 6.32829368e-01 6.13079071e-01
      5.76673865e-01 6.59400582e-01 5.16198695e-01 6.70299768e-01
      4.53563720e-01 6.59400582e-01 3.88768911e-01 6.15803838e-01
      3.86609077e-01 5.14986396e-01 4.60043192e-01 4.44141746e-01
      5.18358529e-01 4.52316135e-01 5.74514031e-01 4.44141746e-01
      6.30669534e-01 5.17711222e-01 5.74514031e-01 5.50408781e-01
      5.18358529e-01 5.64032733e-01 4.57883358e-01 5.47683954e-01</_>
    <_>
      0. 0. 1.34228189e-02 1.69871807e-01 2.90827733e-02 3.36538494e-01
      4.69798669e-02 5.09615362e-01 8.27740505e-02 6.69871747e-01
      1.54362410e-01 8.04487169e-01 2.61744976e-01 9.03846145e-01
      3.87024611e-01 9.74358976e-01 5.34675598e-01 1. 6.77852333e-01
      9.71153855e-01 7.98657715e-01 8.97435904e-01 8.94854605e-01
      7.91666627e-01 9.53020155e-01 6.44230723e-01 9.75391507e-01
      4.71153796e-01 9.84340072e-01 2.91666687e-01 9.95525718e-01
      1.05769239e-01 1. -7.69230872e-02 1.20805368e-01 -2.05128223e-01
      1.74496651e-01 -3.07692349e-01 2.55033553e-01 -3.75000030e-01
      3.53467554e-01 -4.10256445e-01 4.47427303e-01 -3.94230813e-01
      5.83892643e-01 -4.19871837e-01 6.71140969e-01 -4.67948765e-01
      7.69574940e-01 -4.51923132e-01 8.56823266e-01 -3.87820542e-01
      9.06040251e-01 -2.78846174e-01 5.14541388e-01 -2.46794894e-01
      5.19015670e-01 -1.47435918e-01 5.21252811e-01 -4.16666716e-02
      5.23489952e-01 6.73076957e-02 4.27293062e-01 2.01923102e-01
      4.76510078e-01 2.17948735e-01 5.27964234e-01 2.33974382e-01
      5.79418361e-01 2.17948735e-01 6.24161065e-01 2.01923102e-01
      2.19239369e-01 -1.50641039e-01 2.70693511e-01 -2.21153870e-01
      3.40044737e-01 -2.27564126e-01 3.98210287e-01 -1.53846174e-01
      3.40044737e-01 -1.28205135e-01 2.70693511e-01 -1.21794887e-01
      6.30872488e-01 -1.79487199e-01 6.89038038e-01 -2.66025662e-01
      7.58389235e-01 -2.75641054e-01 8.12080562e-01 -2.05128223e-01
      7.65100658e-01 -1.66666687e-01 6.95749462e-01 -1.63461551e-01
      3.24384779e-01 5.22435844e-01 3.91498893e-01 4.16666597e-01
      4.72035795e-01 3.68589669e-01 5.30201316e-01 3.87820452e-01
      5.83892643e-01 3.74999940e-01 6.66666687e-01 4.26281989e-01
      7.36017883e-01 5.32051265e-01 6.71140969e-01 6.18589699e-01
      5.90604007e-01 6.44230723e-01 5.30201316e-01 6.47435844e-01
      4.69798654e-01 6.37820482e-01 3.91498893e-01 6.02564037e-01
      3.53467554e-01 5.16025603e-01 4.74272937e-01 4.39102501e-01
      5.32438457e-01 4.42307651e-01 5.86129725e-01 4.45512772e-01
      7.04697967e-01 5.28846085e-01 5.83892643e-01 5.54487109e-01
      5.27964234e-01 5.54487109e-01 4.69798654e-01 5.51281989e-01</_>
    <_>
      0. 0. 1.22549022e-02 1.60493806e-01 2.94117648e-02 3.20987612e-01
      5.63725494e-02 4.81481522e-01 1.10294119e-01 6.29629672e-01
      1.93627447e-01 7.59259284e-01 2.99019605e-01 8.70370388e-01
      4.14215684e-01 9.72222209e-01 5.51470578e-01 1. 6.81372523e-01
      9.59876537e-01 7.89215684e-01 8.48765433e-01 8.84803951e-01
      7.25308657e-01 9.53431368e-01 5.80246925e-01 9.92647052e-01
      4.19753134e-01 1. 2.56172806e-01 1. 8.33333284e-02 9.87745106e-01
      -8.64197463e-02 7.84313753e-02 -1.29629612e-01 1.39705881e-01
      -2.12962940e-01 2.25490198e-01 -2.34567881e-01 3.18627447e-01
      -2.19135776e-01 4.09313738e-01 -1.85185164e-01 5.56372523e-01
      -2.09876522e-01 6.42156839e-01 -2.56172806e-01 7.30392158e-01
      -2.83950597e-01 8.23529422e-01 -2.74691343e-01 8.92156839e-01
      -2.03703687e-01 4.92647052e-01 -8.02469030e-02 4.95098025e-01
      1.85185168e-02 5.00000000e-01 1.17283940e-01 5.02451003e-01
      2.22222194e-01 3.99509817e-01 3.20987612e-01 4.55882341e-01
      3.33333313e-01 5.14705896e-01 3.48765492e-01 5.71078420e-01
      3.24074030e-01 6.22548997e-01 3.02469105e-01 1.91176474e-01
      -1.54320970e-02 2.45098040e-01 -5.24691306e-02 3.08823526e-01
      -6.17283881e-02 3.77450973e-01 -1.85185168e-02 3.11274499e-01 0.
      2.47549012e-01 9.25925840e-03 6.17647052e-01 -4.01234515e-02
      6.76470578e-01 -8.95061642e-02 7.40196049e-01 -9.25925821e-02
      7.96568632e-01 -6.48148060e-02 7.45098054e-01 -3.39506157e-02
      6.81372523e-01 -3.39506157e-02 2.86764711e-01 5.09259284e-01
      3.70098025e-01 4.84567940e-01 4.58333343e-01 4.62963015e-01
      5.19607842e-01 4.75308686e-01 5.78431368e-01 4.50617343e-01
      6.74019635e-01 4.62963015e-01 7.62254894e-01 4.81481522e-01
      6.91176474e-01 6.38888896e-01 6.02941155e-01 7.00617313e-01
      5.39215684e-01 7.16049433e-01 4.73039210e-01 7.06790149e-01
      3.77450973e-01 6.51234627e-01 3.21078420e-01 5.24691403e-01
      4.63235289e-01 5.24691403e-01 5.22058845e-01 5.27777851e-01
      5.83333313e-01 5.12345731e-01 7.32843161e-01 5.03086448e-01
      5.93137264e-01 5.98765492e-01 5.31862736e-01 6.14197552e-01
      4.70588237e-01 6.04938328e-01</_>
    <_>
      0. 0. 1.70316305e-02 1.57051265e-01 3.40632610e-02 3.07692289e-01
      5.83941601e-02 4.64743644e-01 1.07055962e-01 6.08974397e-01
      1.94647208e-01 7.46794879e-01 2.91970789e-01 8.65384638e-01
      3.99026752e-01 9.74358976e-01 5.25547445e-01 1. 6.49635017e-01
      9.64743614e-01 7.59124100e-01 8.62179518e-01 8.56447697e-01
      7.43589759e-01 9.31873500e-01 6.12179518e-01 9.68369842e-01
      4.61538523e-01 9.75669086e-01 2.94871777e-01 9.85401452e-01
      1.44230753e-01 1. -3.20512778e-03 1.07055962e-01 -1.53846145e-01
      1.58150852e-01 -2.53205091e-01 2.43309006e-01 -3.10897410e-01
      3.38199526e-01 -3.10897410e-01 4.23357666e-01 -2.62820482e-01
      5.91240883e-01 -2.66025603e-01 6.78832114e-01 -3.17307651e-01
      7.76155710e-01 -3.10897410e-01 8.66180062e-01 -2.56410241e-01
      9.19708014e-01 -1.53846145e-01 5.13382018e-01 -1.21794857e-01
      5.15815079e-01 -3.20512778e-03 5.18248200e-01 1.12179473e-01
      5.18248200e-01 2.27564082e-01 4.13625300e-01 2.91666627e-01
      4.64720190e-01 3.14102620e-01 5.18248200e-01 3.39743644e-01
      5.69343090e-01 3.14102620e-01 6.15571797e-01 2.91666627e-01
      2.21411198e-01 -6.73076883e-02 2.72506088e-01 -9.29487124e-02
      3.28467160e-01 -9.93589610e-02 3.79562050e-01 -7.37179443e-02
      3.28467160e-01 -6.41025603e-02 2.72506088e-01 -6.08974285e-02
      6.39902651e-01 -7.37179443e-02 6.98296845e-01 -9.61538404e-02
      7.54257917e-01 -9.29487124e-02 8.07785869e-01 -6.41025603e-02
      7.51824796e-01 -6.08974285e-02 6.95863724e-01 -6.41025603e-02
      2.77372271e-01 4.61538523e-01 3.55231136e-01 4.29487228e-01
      4.45255488e-01 4.10256475e-01 5.06082714e-01 4.23076987e-01
      5.69343090e-01 4.10256475e-01 6.64233565e-01 4.29487228e-01
      7.46958613e-01 4.64743644e-01 6.69099748e-01 6.02564156e-01
      5.81508517e-01 6.82692349e-01 5.13382018e-01 6.92307711e-01
      4.42822397e-01 6.82692349e-01 3.55231136e-01 5.99359035e-01
      3.04136246e-01 4.74359035e-01 4.42822397e-01 4.77564156e-01
      5.06082714e-01 4.87179548e-01 5.71776152e-01 4.77564156e-01
      7.20194638e-01 4.77564156e-01 5.76642334e-01 5.86538494e-01
      5.10948896e-01 5.99359035e-01 4.45255488e-01 5.83333373e-01</_>
    <_>
      0. 0. 1.26582282e-02 1.56583652e-01 2.78481022e-02 3.09608579e-01
      4.55696210e-02 4.73309547e-01 8.60759467e-02 6.29893184e-01
      1.54430375e-01 7.61565804e-01 2.53164560e-01 8.68327379e-01
      3.54430377e-01 9.67971504e-01 4.78481025e-01 1. 6.07594907e-01
      9.60854113e-01 7.18987346e-01 8.71886134e-01 8.30379725e-01
      7.72241950e-01 9.16455686e-01 6.40569329e-01 9.62025344e-01
      4.83985722e-01 9.79746819e-01 3.13167304e-01 9.89873409e-01
      1.42348766e-01 1. -2.84697544e-02 6.07594922e-02 -1.35231331e-01
      1.11392409e-01 -2.49110341e-01 2.05063298e-01 -2.95373708e-01
      3.03797454e-01 -2.81138808e-01 4.02531654e-01 -2.34875470e-01
      5.34177244e-01 -2.49110341e-01 6.32911384e-01 -2.98932403e-01
      7.34177232e-01 -3.09608579e-01 8.32911372e-01 -2.63345212e-01
      8.96202505e-01 -1.63701087e-01 4.73417729e-01 -1.28113896e-01
      4.75949377e-01 -5.33807874e-02 4.75949377e-01 2.84697544e-02
      4.75949377e-01 1.13879018e-01 3.82278472e-01 2.41992906e-01
      4.27848101e-01 2.56227791e-01 4.78481025e-01 2.70462662e-01
      5.24050653e-01 2.56227791e-01 5.72151899e-01 2.41992906e-01
      1.84810132e-01 -8.18505436e-02 2.37974688e-01 -1.35231331e-01
      3.01265836e-01 -1.38790056e-01 3.56962025e-01 -8.18505436e-02
      2.98734188e-01 -6.76156655e-02 2.37974688e-01 -6.40569478e-02
      6.05063319e-01 -8.89679790e-02 6.63291156e-01 -1.45907491e-01
      7.26582289e-01 -1.42348766e-01 7.82278478e-01 -8.89679790e-02
      7.26582289e-01 -7.11743832e-02 6.65822804e-01 -7.47331008e-02
      2.45569617e-01 4.69750822e-01 3.24050635e-01 4.02135164e-01
      4.15189862e-01 3.73665422e-01 4.75949377e-01 3.91459018e-01
      5.39240479e-01 3.73665422e-01 6.30379736e-01 4.02135164e-01
      7.11392403e-01 4.69750822e-01 6.32911384e-01 6.01423442e-01
      5.41772127e-01 6.65480375e-01 4.75949377e-01 6.76156521e-01
      4.07594949e-01 6.69039130e-01 3.18987340e-01 6.08540893e-01
      2.75949359e-01 4.76868272e-01 4.15189862e-01 4.37722355e-01
      4.75949377e-01 4.44839805e-01 5.39240479e-01 4.37722355e-01
      6.78481042e-01 4.76868272e-01 5.39240479e-01 5.76512396e-01
      4.73417729e-01 5.87188542e-01 4.10126597e-01 5.76512396e-01</_>
    <_>
      0. 0. 1.40280565e-02 1.53846145e-01 3.80761512e-02 3.14685374e-01
      6.81362748e-02 4.68531519e-01 1.20240480e-01 6.20046675e-01
      2.06412822e-01 7.57575750e-01 3.10621232e-01 8.81118894e-01
      4.22845691e-01 9.76689994e-01 5.53106189e-01 1. 6.81362748e-01
      9.62703943e-01 7.73547113e-01 8.53146851e-01 8.57715428e-01
      7.20279753e-01 9.21843708e-01 5.80419600e-01 9.59919810e-01
      4.33566481e-01 9.79959905e-01 2.84382254e-01 9.97995973e-01
      1.30536124e-01 1. -1.86480172e-02 9.21843722e-02 -4.19580378e-02
      1.60320640e-01 -1.16550110e-01 2.58517027e-01 -1.30536124e-01
      3.58717442e-01 -1.14219107e-01 4.54909831e-01 -8.15850794e-02
      5.83166361e-01 -9.09090862e-02 6.75350726e-01 -1.28205121e-01
      7.67535090e-01 -1.46853134e-01 8.61723423e-01 -1.35198131e-01
      9.27855730e-01 -6.75990656e-02 5.25050104e-01 -2.33100215e-03
      5.29058099e-01 9.32400897e-02 5.35070121e-01 1.91142172e-01
      5.43086171e-01 2.91375339e-01 4.38877761e-01 3.54312390e-01
      4.86973941e-01 3.77622426e-01 5.43086171e-01 3.98601443e-01
      5.95190406e-01 3.72960418e-01 6.41282558e-01 3.47319394e-01
      2.16432869e-01 1.86480172e-02 2.70541072e-01 -2.09790189e-02
      3.38677347e-01 -1.86480172e-02 3.96793574e-01 2.79720258e-02
      3.34669352e-01 3.96270379e-02 2.70541072e-01 3.96270379e-02
      6.45290554e-01 2.33100224e-02 7.03406811e-01 -2.79720258e-02
      7.69539058e-01 -3.03030275e-02 8.19639266e-01 6.99300645e-03
      7.73547113e-01 3.03030275e-02 7.09418833e-01 3.26340310e-02
      3.10621232e-01 5.19813538e-01 3.84769529e-01 4.91841525e-01
      4.78957921e-01 4.77855504e-01 5.47094166e-01 4.91841525e-01
      6.15230441e-01 4.75524515e-01 7.05410838e-01 4.82517511e-01
      7.75551081e-01 5.03496528e-01 7.11422861e-01 6.50349677e-01
      6.25250518e-01 7.24941730e-01 5.51102221e-01 7.41258740e-01
      4.78957921e-01 7.31934726e-01 3.84769529e-01 6.64335668e-01
      3.36673349e-01 5.36130548e-01 4.78957921e-01 5.26806533e-01
      5.47094166e-01 5.33799589e-01 6.17234468e-01 5.22144556e-01
      7.47494996e-01 5.22144556e-01 6.19238496e-01 6.38694644e-01
      5.49098194e-01 6.55011654e-01 4.78957921e-01 6.43356681e-01</_>
    <_>
      0. 0. 1.53172864e-02 1.52709350e-01 3.71991247e-02 3.07881743e-01
      5.25164120e-02 4.70443398e-01 9.40919071e-02 6.23152733e-01
      1.75054699e-01 7.58620679e-01 2.80087531e-01 8.74384224e-01
      3.96061271e-01 9.67980325e-01 5.29540479e-01 1. 6.58643305e-01
      9.70443368e-01 7.59299755e-01 8.69458139e-01 8.44638944e-01
      7.46305466e-01 9.10284460e-01 6.13300502e-01 9.45295393e-01
      4.65517282e-01 9.64989066e-01 3.20197016e-01 9.89059091e-01
      1.74876839e-01 1. 3.20197009e-02 1.05032824e-01 -7.38916174e-02
      1.75054699e-01 -1.47783235e-01 2.73522973e-01 -1.77339882e-01
      3.76367629e-01 -1.65024623e-01 4.72647697e-01 -1.23152703e-01
      6.17067814e-01 -1.18226595e-01 7.06783354e-01 -1.55172408e-01
      8.05251658e-01 -1.57635450e-01 8.99343550e-01 -1.28078803e-01
      9.51859951e-01 -4.43349704e-02 5.49234152e-01 -2.21674852e-02
      5.51422298e-01 6.40394017e-02 5.55798709e-01 1.55172408e-01
      5.57986856e-01 2.48768449e-01 4.50765878e-01 3.20197016e-01
      4.96717721e-01 3.39901447e-01 5.49234152e-01 3.62068951e-01
      5.99562347e-01 3.44827563e-01 6.43326044e-01 3.25123131e-01
      2.34135672e-01 -4.92610782e-03 2.91028440e-01 -3.69458087e-02
      3.58862132e-01 -3.20197009e-02 4.17943120e-01 7.38916220e-03
      3.52297604e-01 1.72413774e-02 2.88840264e-01 1.47783244e-02
      6.52078748e-01 1.47783244e-02 7.11159766e-01 -2.70935949e-02
      7.76805222e-01 -2.21674852e-02 8.35886240e-01 9.85221565e-03
      7.76805222e-01 2.95566488e-02 7.13347912e-01 2.70935949e-02
      3.06345731e-01 4.95073944e-01 3.85120362e-01 4.63054240e-01
      4.77024078e-01 4.45812851e-01 5.38293242e-01 4.63054240e-01
      6.01750553e-01 4.50738966e-01 6.80525184e-01 4.75369483e-01
      7.43982494e-01 5.14778376e-01 6.80525184e-01 6.33004963e-01
      5.99562347e-01 6.92118227e-01 5.33916831e-01 7.01970458e-01
      4.66083139e-01 6.84729099e-01 3.78555804e-01 6.15763605e-01
      3.32603931e-01 5.07389188e-01 4.74835873e-01 4.95073944e-01
      5.38293242e-01 5.07389188e-01 5.99562347e-01 5.00000060e-01
      7.17724264e-01 5.24630606e-01 5.99562347e-01 6.03448331e-01
      5.36105037e-01 6.13300502e-01 4.70459521e-01 5.98522186e-01</_>
    <_>
      0. 0. 4.05679503e-03 1.58774450e-01 2.43407711e-02 3.17548811e-01
      5.27383350e-02 4.79108691e-01 1.05476670e-01 6.32312000e-01
      1.88640967e-01 7.68802226e-01 2.94117659e-01 8.83008361e-01
      4.05679524e-01 9.74930346e-01 5.43610573e-01 1. 6.73427999e-01
      9.63788331e-01 7.76876271e-01 8.63509774e-01 8.64097357e-01
      7.32590556e-01 9.35091257e-01 5.82172751e-01 9.75659251e-01
      4.15041834e-01 9.91886437e-01 2.50696450e-01 1. 8.91364813e-02
      9.95943189e-01 -7.79944211e-02 7.50507116e-02 -1.28133699e-01
      1.27789050e-01 -2.25626722e-01 2.12981746e-01 -2.67409444e-01
      3.04259628e-01 -2.59052902e-01 3.91480744e-01 -2.28412241e-01
      5.72008133e-01 -2.50696361e-01 6.57200813e-01 -3.00835639e-01
      7.46450305e-01 -3.11977684e-01 8.33671391e-01 -2.75765985e-01
      8.94523323e-01 -1.94986060e-01 4.88843799e-01 -9.74930301e-02
      4.92900610e-01 1.11420602e-02 4.94929016e-01 1.16991721e-01
      4.98985797e-01 2.28412315e-01 3.77281934e-01 2.98050195e-01
      4.40162271e-01 3.14763278e-01 5.05070984e-01 3.34261894e-01
      5.67951322e-01 3.06406736e-01 6.26774848e-01 2.84122616e-01
      1.76470593e-01 -2.78551504e-02 2.27180526e-01 -6.40668496e-02
      2.83975661e-01 -6.40668496e-02 3.46855998e-01 -3.06406654e-02
      2.88032442e-01 -2.50696354e-02 2.29208931e-01 -1.67130902e-02
      6.34888411e-01 -6.12813309e-02 6.87626779e-01 -1.03064060e-01
      7.46450305e-01 -1.00278541e-01 8.03245425e-01 -7.52089098e-02
      7.48478711e-01 -6.68523610e-02 6.91683590e-01 -6.12813309e-02
      2.75862068e-01 5.01392782e-01 3.52941185e-01 4.34540451e-01
      4.46247458e-01 4.09470797e-01 5.13184607e-01 4.23398376e-01
      5.84178507e-01 3.98328751e-01 6.83569968e-01 4.12256330e-01
      7.62677491e-01 4.59610075e-01 6.99797153e-01 6.23955488e-01
      6.08519256e-01 7.10306406e-01 5.31440139e-01 7.27019548e-01
      4.56389457e-01 7.18662977e-01 3.59026372e-01 6.49025083e-01
      3.02231252e-01 5.06963849e-01 4.48275864e-01 4.81894195e-01
      5.17241359e-01 4.87465233e-01 5.90263665e-01 4.67966616e-01
      7.36308336e-01 4.70752120e-01 5.98377287e-01 5.98885834e-01
      5.23326576e-01 6.18384421e-01 4.52332646e-01 6.07242346e-01</_>
    <_>
      0. 0. 4.35729837e-03 1.60818711e-01 2.61437912e-02 3.21637422e-01
      6.10021800e-02 4.82456148e-01 1.11111112e-01 6.31578922e-01
      1.91721126e-01 7.60233939e-01 2.81045765e-01 8.77192974e-01
      3.81263614e-01 9.76608217e-01 5.05446613e-01 1. 6.31808281e-01
      9.70760226e-01 7.42919385e-01 8.71345043e-01 8.45315933e-01
      7.57309914e-01 9.25925910e-01 6.28654957e-01 9.69498932e-01
      4.79532152e-01 9.89106774e-01 3.18713456e-01 1. 1.60818711e-01 1.
      0. 5.66448793e-02 -1.25730991e-01 1.15468413e-01 -2.16374263e-01
      2.11328983e-01 -2.36842111e-01 3.07189554e-01 -2.13450298e-01
      3.94335508e-01 -1.49122804e-01 5.18518507e-01 -1.37426898e-01
      6.05664492e-01 -1.95906430e-01 7.03703701e-01 -2.22222224e-01
      8.06100190e-01 -2.04678357e-01 8.82352948e-01 -1.25730991e-01
      4.55337703e-01 8.77192989e-03 4.53159034e-01 1.19883038e-01
      4.50980395e-01 2.36842111e-01 4.50980395e-01 3.53801161e-01
      3.59477133e-01 4.23976600e-01 4.09586042e-01 4.38596487e-01
      4.59694982e-01 4.59064335e-01 5.14161229e-01 4.38596487e-01
      5.70806086e-01 4.29824561e-01 1.45969495e-01 2.04678364e-02
      1.98257074e-01 -1.16959065e-02 2.63616562e-01 -8.77192989e-03
      3.20261449e-01 4.97076027e-02 2.59259254e-01 6.72514588e-02
      1.91721126e-01 6.14035092e-02 6.18736386e-01 5.55555560e-02
      6.77559912e-01 2.92397663e-03 7.45098054e-01 2.92397663e-03
      8.03921580e-01 3.50877196e-02 7.51634002e-01 7.60233924e-02
      6.81917191e-01 7.89473653e-02 3.11546832e-01 6.22807026e-01
      3.61655772e-01 5.84795296e-01 4.18300658e-01 5.55555582e-01
      4.59694982e-01 5.76023400e-01 5.07625282e-01 5.61403513e-01
      5.81699371e-01 6.02339208e-01 6.55773401e-01 6.43274844e-01
      5.86056650e-01 7.33918130e-01 5.16339898e-01 7.69005835e-01
      4.66230929e-01 7.71929801e-01 4.18300658e-01 7.57309914e-01
      3.63834411e-01 7.10526288e-01 3.39869291e-01 6.31578922e-01
      4.18300658e-01 6.28654957e-01 4.61873651e-01 6.43274844e-01
      5.11982560e-01 6.34502947e-01 6.25272334e-01 6.43274844e-01
      5.14161229e-01 6.52046800e-01 4.64052290e-01 6.57894731e-01
      4.20479298e-01 6.43274844e-01</_>
    <_>
      0. 0. 1.65631473e-02 1.60714284e-01 4.34782617e-02 3.26530606e-01
      6.83229789e-02 4.87244904e-01 1.15942031e-01 6.40306115e-01
      2.00828150e-01 7.75510192e-01 3.12629402e-01 8.82653058e-01
      4.30641830e-01 9.77040827e-01 5.54865420e-01 1. 6.70807481e-01
      9.56632674e-01 7.74327099e-01 8.49489808e-01 8.67494822e-01
      7.34693885e-01 9.35817778e-01 5.99489808e-01 9.64803338e-01
      4.43877548e-01 9.75155294e-01 2.85714298e-01 9.91718411e-01
      1.30102038e-01 1. -2.80612241e-02 1.01449274e-01 -9.43877548e-02
      1.67701870e-01 -1.53061226e-01 2.54658371e-01 -1.63265303e-01
      3.39544505e-01 -1.50510207e-01 4.20289844e-01 -1.19897962e-01
      5.85921347e-01 -1.22448981e-01 6.70807481e-01 -1.53061226e-01
      7.59834349e-01 -1.65816322e-01 8.46790910e-01 -1.55612245e-01
      9.08902705e-01 -9.18367356e-02 5.01035213e-01 0. 5.03105581e-01
      1.02040820e-01 5.07246375e-01 2.06632659e-01 5.13457537e-01
      3.11224490e-01 4.18219447e-01 3.69897962e-01 4.67908889e-01
      3.85204077e-01 5.19668758e-01 4.00510192e-01 5.65217376e-01
      3.77551019e-01 6.08695626e-01 3.57142866e-01 2.09109724e-01
      1.27551025e-02 2.62939960e-01 -1.02040814e-02 3.20910960e-01
      -7.65306130e-03 3.74741197e-01 2.55102050e-02 3.14699799e-01
      3.57142873e-02 2.58799165e-01 3.31632644e-02 6.31469965e-01
      2.04081628e-02 6.83229804e-01 -1.78571437e-02 7.41200805e-01
      -1.78571437e-02 7.97101438e-01 5.10204071e-03 7.43271232e-01
      2.55102050e-02 6.87370598e-01 2.80612241e-02 2.93995857e-01
      5.33163249e-01 3.66459638e-01 4.89795923e-01 4.51345742e-01
      4.64285702e-01 5.19668758e-01 4.74489808e-01 5.85921347e-01
      4.54081625e-01 6.70807481e-01 4.64285702e-01 7.37060070e-01
      5.00000000e-01 6.81159437e-01 6.32653058e-01 6.00414097e-01
      7.01530635e-01 5.32091081e-01 7.21938789e-01 4.59627330e-01
      7.16836751e-01 3.70600402e-01 6.68367326e-01 3.22981358e-01
      5.40816307e-01 4.55486536e-01 5.12755096e-01 5.21739125e-01
      5.17857134e-01 5.87991714e-01 5.02551019e-01 7.14285731e-01
      5.10204077e-01 5.94202876e-01 6.22448981e-01 5.25879920e-01
      6.40306115e-01 4.57556933e-01 6.35204077e-01</_>
    <_>
      0. 0. 2.20750552e-03 1.51260495e-01 1.10375276e-02 3.02520990e-01
      3.31125818e-02 4.59383786e-01 7.72626922e-02 6.13445401e-01
      1.45695359e-01 7.47899175e-01 2.33995587e-01 8.76750708e-01
      3.26710820e-01 9.69187677e-01 4.52538639e-01 1. 5.89403987e-01
      9.71988797e-01 7.13024259e-01 8.90756309e-01 8.25607061e-01
      7.75910378e-01 9.18322325e-01 6.44257724e-01 9.71302450e-01
      4.81792748e-01 9.93377507e-01 3.08123231e-01 1. 1.37254894e-01 1.
      -3.92156839e-02 5.51876388e-02 -1.65266097e-01 1.08167768e-01
      -2.35294104e-01 1.85430467e-01 -2.49299705e-01 2.62693167e-01
      -2.29691863e-01 3.35540831e-01 -1.96078420e-01 5.09933770e-01
      -2.10084021e-01 5.84988952e-01 -2.57703066e-01 6.71081662e-01
      -2.82913148e-01 7.57174373e-01 -2.74509788e-01 8.43267083e-01
      -2.24089622e-01 4.21633542e-01 -7.28291273e-02 4.15011048e-01
      1.68067217e-02 4.06181008e-01 1.00840330e-01 3.97350997e-01
      1.93277299e-01 3.15673292e-01 3.13725471e-01 3.64238411e-01
      3.22128832e-01 4.15011048e-01 3.33333403e-01 4.74613696e-01
      3.19327712e-01 5.29801309e-01 3.10924351e-01 1.30242825e-01
      -1.68067217e-02 1.85430467e-01 -6.16246462e-02 2.51655638e-01
      -6.16246462e-02 3.11258286e-01 -5.60224056e-03 2.47240618e-01
      1.40056014e-02 1.81015447e-01 1.68067217e-02 5.69536448e-01
      -3.08123231e-02 6.29139066e-01 -9.24369693e-02 6.95364237e-01
      -9.80392098e-02 7.59381890e-01 -6.16246462e-02 7.04194248e-01
      -2.24089622e-02 6.35761619e-01 -1.68067217e-02 2.25165561e-01
      5.79831958e-01 2.86975712e-01 5.07002831e-01 3.66445929e-01
      4.59383786e-01 4.17218536e-01 4.76190507e-01 4.70198661e-01
      4.62184906e-01 5.67328930e-01 5.12605071e-01 6.64459169e-01
      5.71428597e-01 5.73951423e-01 7.00280130e-01 4.79028702e-01
      7.47899175e-01 4.19426054e-01 7.53501415e-01 3.59823406e-01
      7.45098054e-01 2.86975712e-01 6.97479010e-01 2.62693167e-01
      5.88235319e-01 3.68653417e-01 5.57422996e-01 4.21633542e-01
      5.65826356e-01 4.74613696e-01 5.63025236e-01 6.24724090e-01
      5.85434198e-01 4.72406179e-01 6.13445401e-01 4.17218536e-01
      6.16246521e-01 3.62030894e-01 6.07843161e-01</_>
    <_>
      0. 0. 6.49350649e-03 1.54269978e-01 2.81385276e-02 3.19559216e-01
      5.41125536e-02 4.79338855e-01 1.01731598e-01 6.33608818e-01
      1.77489176e-01 7.74104655e-01 2.74891764e-01 8.98071647e-01
      3.89610380e-01 9.80716228e-01 5.23809552e-01 1. 6.55844152e-01
      9.66942132e-01 7.70562768e-01 8.73278260e-01 8.65800858e-01
      7.46556461e-01 9.39393938e-01 6.00550950e-01 9.80519474e-01
      4.40771341e-01 9.91342008e-01 2.78236926e-01 1. 1.15702480e-01
      9.95670974e-01 -3.58126722e-02 7.57575780e-02 -1.34986222e-01
      1.32034630e-01 -2.23140493e-01 2.18614712e-01 -2.47933879e-01
      3.07359308e-01 -2.47933879e-01 3.96103889e-01 -2.23140493e-01
      5.64935088e-01 -2.34159783e-01 6.51515126e-01 -2.69972444e-01
      7.35930741e-01 -2.78236926e-01 8.22510839e-01 -2.61707991e-01
      8.85281384e-01 -1.84573010e-01 4.78354990e-01 -7.71349892e-02
      4.80519474e-01 3.03030312e-02 4.82683986e-01 1.37741044e-01
      4.84848499e-01 2.50688702e-01 3.70129883e-01 3.14049602e-01
      4.30735916e-01 3.33333343e-01 4.93506491e-01 3.55371892e-01
      5.56277037e-01 3.25068861e-01 6.16883099e-01 2.97520667e-01
      1.79653674e-01 -2.75482088e-02 2.33766228e-01 -8.26446265e-02
      3.05194795e-01 -8.53994489e-02 3.67965370e-01 -2.47933883e-02
      3.03030312e-01 -8.26446246e-03 2.31601730e-01 -5.50964195e-03
      5.97402573e-01 -3.58126722e-02 6.58008635e-01 -1.04683198e-01
      7.29437232e-01 -1.07438013e-01 7.85714269e-01 -5.78512400e-02
      7.33766258e-01 -2.75482088e-02 6.62337661e-01 -2.47933883e-02
      2.72727281e-01 5.17906308e-01 3.52813840e-01 4.76584017e-01
      4.39393938e-01 4.46280986e-01 5.02164483e-01 4.54545468e-01
      5.62770545e-01 4.38016534e-01 6.51515126e-01 4.54545468e-01
      7.33766258e-01 4.82093662e-01 6.64502144e-01 6.36363626e-01
      5.75757563e-01 7.16253459e-01 5.06493509e-01 7.32782364e-01
      4.39393938e-01 7.30027556e-01 3.48484844e-01 6.72176301e-01
      3.09523821e-01 5.34435272e-01 4.39393938e-01 5.06887078e-01
      5.04329026e-01 5.09641886e-01 5.64935088e-01 4.98622596e-01
      7.01298714e-01 5.01377404e-01 5.69264054e-01 5.84022045e-01
      5.04329026e-01 6.00550950e-01 4.39393938e-01 5.95041335e-01</_>
    <_>
      0. 0. 2.15982720e-02 1.60237402e-01 4.75161970e-02 3.17507356e-01
      6.69546425e-02 4.86646831e-01 1.07991360e-01 6.40949547e-01
      1.85745135e-01 7.77448058e-01 2.89416850e-01 8.87240350e-01
      4.12526995e-01 9.70326424e-01 5.57235420e-01 1. 6.93304539e-01
      9.61424351e-01 8.07775378e-01 8.60534132e-01 8.98488104e-01
      7.32937634e-01 9.61123109e-01 5.78634977e-01 9.82721388e-01
      4.06528145e-01 9.87041056e-01 2.28486672e-01 9.95680332e-01
      5.63798286e-02 1. -1.09792292e-01 7.99136087e-02 -1.33531168e-01
      1.40388772e-01 -2.34421387e-01 2.33261332e-01 -2.67062336e-01
      3.28293741e-01 -2.46290818e-01 4.16846663e-01 -2.07715154e-01
      5.76673865e-01 -2.37388745e-01 6.69546425e-01 -2.90801227e-01
      7.64578819e-01 -3.20474803e-01 8.63930881e-01 -2.96735942e-01
      9.24406052e-01 -1.92878351e-01 5.09719193e-01 -1.21661730e-01
      5.14038861e-01 -1.48367966e-02 5.20518363e-01 9.19881389e-02
      5.22678196e-01 2.01780438e-01 4.16846663e-01 2.81899124e-01
      4.73002166e-01 2.96735853e-01 5.29157639e-01 3.11572641e-01
      5.80993533e-01 2.87833840e-01 6.30669534e-01 2.70029694e-01
      1.96544275e-01 -5.93471862e-02 2.54859596e-01 -1.09792292e-01
      3.19654435e-01 -1.15727015e-01 3.77969772e-01 -6.23145439e-02
      3.17494601e-01 -5.04451096e-02 2.57019430e-01 -4.45103906e-02
      6.39308870e-01 -8.60534236e-02 6.97624207e-01 -1.48367971e-01
      7.60259151e-01 -1.54302686e-01 8.18574488e-01 -1.09792292e-01
      7.64578819e-01 -8.60534236e-02 7.04103649e-01 -8.30860585e-02
      2.78617710e-01 4.54005897e-01 3.62850964e-01 4.09495503e-01
      4.60043192e-01 3.88723969e-01 5.26997864e-01 4.00593430e-01
      5.93952477e-01 3.85756612e-01 6.93304539e-01 3.97626072e-01
      7.79697597e-01 4.24332291e-01 7.04103649e-01 5.87537050e-01
      6.09071255e-01 6.79525197e-01 5.35637140e-01 6.94361985e-01
      4.64362860e-01 6.82492554e-01 3.65010798e-01 6.05341196e-01
      3.04535627e-01 4.59940612e-01 4.62203026e-01 4.59940612e-01
      5.29157639e-01 4.68842685e-01 5.96112311e-01 4.54005897e-01
      7.51619875e-01 4.36201721e-01 6.02591813e-01 5.75667620e-01
      5.31317472e-01 5.90504408e-01 4.64362860e-01 5.78634977e-01</_>
    <_>
      0. 0. 6.62251655e-03 1.51670963e-01 2.64900662e-02 3.05912554e-01
      5.51876388e-02 4.57583517e-01 9.93377492e-02 5.98971665e-01
      1.67770416e-01 7.35218465e-01 2.49448121e-01 8.61182511e-01
      3.46578360e-01 9.61439610e-01 4.61368650e-01 1. 5.87196469e-01
      9.66580987e-01 7.04194248e-01 8.71465266e-01 8.03532004e-01
      7.58354723e-01 8.85209739e-01 6.27249300e-01 9.38189864e-01
      4.83290434e-01 9.64679897e-01 3.26478094e-01 9.88962471e-01
      1.67095050e-01 1. 0. 5.29801324e-02 -1.23393327e-01 1.08167768e-01
      -2.03084856e-01 1.89845473e-01 -2.23650396e-01 2.75938183e-01
      -2.08226234e-01 3.55408400e-01 -1.67095125e-01 5.51876366e-01
      -1.69665828e-01 6.40176594e-01 -2.15938315e-01 7.39514351e-01
      -2.18509018e-01 8.30022097e-01 -1.82519302e-01 8.96247268e-01
      -1.07969157e-01 4.48123634e-01 -1.28534716e-02 4.43708599e-01
      9.51156914e-02 4.39293593e-01 2.05655470e-01 4.34878588e-01
      3.18766028e-01 3.24503303e-01 3.88174772e-01 3.81898463e-01
      4.16452408e-01 4.41501111e-01 4.39588636e-01 5.07726252e-01
      4.13881689e-01 5.69536448e-01 3.88174772e-01 1.36865348e-01
      7.71208294e-03 1.94260493e-01 -3.59897204e-02 2.64900655e-01
      -3.08483317e-02 3.26710820e-01 3.34190242e-02 2.60485649e-01
      5.39845787e-02 1.87637970e-01 5.14138862e-02 5.91611505e-01
      3.59897204e-02 6.55629158e-01 -2.57069431e-02 7.28476822e-01
      -2.57069431e-02 7.90286958e-01 2.31362488e-02 7.35099316e-01
      5.91259673e-02 6.60044134e-01 5.91259673e-02 2.53863126e-01
      6.19537234e-01 3.24503303e-01 5.75835466e-01 3.90728474e-01
      5.50128520e-01 4.43708599e-01 5.70694029e-01 5.01103759e-01
      5.50128520e-01 5.78366458e-01 5.75835466e-01 6.60044134e-01
      6.09254479e-01 5.82781434e-01 6.94087386e-01 5.07726252e-01
      7.32647777e-01 4.48123634e-01 7.42930591e-01 3.90728474e-01
      7.35218465e-01 3.26710820e-01 6.96658075e-01 2.84768224e-01
      6.24678612e-01 3.90728474e-01 6.14395857e-01 4.43708599e-01
      6.24678612e-01 5.03311276e-01 6.11825168e-01 6.26931548e-01
      6.14395857e-01 5.03311276e-01 6.29820049e-01 4.45916116e-01
      6.45244181e-01 3.90728474e-01 6.32390738e-01</_>
    <_>
      0. 0. 8.08080845e-03 1.69139534e-01 3.23232338e-02 3.32344264e-01
      6.66666701e-02 4.98516381e-01 1.15151517e-01 6.55786395e-01
      1.89898983e-01 7.92284906e-01 2.86868691e-01 9.05044496e-01
      3.95959586e-01 9.85163212e-01 5.25252521e-01 1. 6.56565666e-01
      9.76261139e-01 7.61616170e-01 8.93175066e-01 8.56565654e-01
      7.74480760e-01 9.29292917e-01 6.20178103e-01 9.67676759e-01
      4.51038629e-01 9.87878799e-01 2.72997111e-01 1. 9.79229286e-02
      9.95959580e-01 -7.71513283e-02 7.67676756e-02 -1.30563781e-01
      1.29292935e-01 -2.43323416e-01 2.16161624e-01 -2.90801167e-01
      3.11111122e-01 -2.78931737e-01 4.00000006e-01 -2.37388700e-01
      5.57575762e-01 -2.67062277e-01 6.42424226e-01 -3.32344174e-01
      7.37373710e-01 -3.53115708e-01 8.28282833e-01 -3.14540029e-01
      8.86868715e-01 -2.10682467e-01 4.84848499e-01 -8.60534012e-02
      4.86868680e-01 2.67062299e-02 4.88888890e-01 1.36498600e-01
      4.90909100e-01 2.49258235e-01 3.89898986e-01 3.53115797e-01
      4.42424238e-01 3.67952585e-01 4.98989910e-01 3.79822016e-01
      5.55555582e-01 3.59050512e-01 6.08080804e-01 3.41246337e-01
      1.75757572e-01 -1.78041533e-02 2.26262629e-01 -7.12166131e-02
      2.90909082e-01 -7.71513283e-02 3.53535354e-01 -2.07715109e-02
      2.94949502e-01 -2.96735880e-03 2.30303034e-01 5.93471760e-03
      6.24242425e-01 -5.04450984e-02 6.80808067e-01 -1.18694350e-01
      7.43434370e-01 -1.21661708e-01 8.00000012e-01 -7.71513283e-02
      7.49494970e-01 -4.74777408e-02 6.84848487e-01 -4.15430218e-02
      3.37373734e-01 6.17210746e-01 3.93939406e-01 5.22255242e-01
      4.60606068e-01 4.59940702e-01 5.07070720e-01 4.77744848e-01
      5.51515162e-01 4.56973344e-01 6.26262605e-01 5.10385811e-01
      6.96969688e-01 5.96439183e-01 6.34343445e-01 6.70623183e-01
      5.63636363e-01 7.06231475e-01 5.13131320e-01 7.12166190e-01
      4.62626249e-01 7.09198833e-01 3.95959586e-01 6.82492614e-01
      3.65656555e-01 6.08308613e-01 4.60606068e-01 5.75667679e-01
      5.09090900e-01 5.78635037e-01 5.55555582e-01 5.69732964e-01
      6.68686867e-01 5.93471825e-01 5.57575762e-01 5.72700322e-01
      5.09090900e-01 5.81602395e-01 4.60606068e-01 5.75667679e-01</_>
    <_>
      0. 0. 6.53594779e-03 1.68115929e-01 2.39651408e-02 3.30434829e-01
      5.44662327e-02 4.89855111e-01 1.04575165e-01 6.43478274e-01
      1.80827886e-01 7.71014512e-01 2.76688457e-01 8.78260851e-01
      3.79084975e-01 9.76811588e-01 5.05446613e-01 1. 6.33986950e-01
      9.82608676e-01 7.40740716e-01 8.84057999e-01 8.36601317e-01
      7.73913085e-01 9.17211354e-01 6.43478274e-01 9.60784316e-01
      4.92753655e-01 9.84749436e-01 3.39130491e-01 1. 1.88405782e-01 1.
      2.89855041e-02 8.06100219e-02 -1.36231869e-01 1.50326803e-01
      -2.17391282e-01 2.48366013e-01 -2.37681136e-01 3.44226569e-01
      -2.11594179e-01 4.31372553e-01 -1.44927517e-01 5.66448808e-01
      -1.24637671e-01 6.49237454e-01 -1.82608679e-01 7.40740716e-01
      -2.08695635e-01 8.36601317e-01 -1.97101429e-01 9.04139459e-01
      -1.18840568e-01 4.96732026e-01 5.79710072e-03 4.96732026e-01
      1.21739119e-01 4.94553387e-01 2.34782591e-01 4.94553387e-01
      3.50724697e-01 4.00871456e-01 4.26087022e-01 4.48801756e-01
      4.37681198e-01 4.94553387e-01 4.55072522e-01 5.42483687e-01
      4.40579772e-01 5.90413928e-01 4.31884110e-01 1.74291939e-01
      2.31884029e-02 2.28758171e-01 -1.44927520e-02 2.96296299e-01
      -8.69565178e-03 3.50762516e-01 4.34782580e-02 2.89760351e-01
      5.79710081e-02 2.24400878e-01 5.50724603e-02 6.51416123e-01
      5.50724603e-02 7.08060980e-01 8.69565178e-03 7.75599122e-01
      8.69565178e-03 8.32243979e-01 4.34782580e-02 7.79956400e-01
      7.53623098e-02 7.12418318e-01 7.53623098e-02 3.24618727e-01
      6.17391348e-01 3.87799561e-01 5.71014524e-01 4.48801756e-01
      5.42029023e-01 4.94553387e-01 5.65217435e-01 5.42483687e-01
      5.47826111e-01 6.12200439e-01 5.85507274e-01 6.79738581e-01
      6.34782612e-01 6.16557717e-01 7.33333349e-01 5.49019635e-01
      7.73913085e-01 4.94553387e-01 7.76811600e-01 4.44444448e-01
      7.65217423e-01 3.81263614e-01 7.13043511e-01 3.57298464e-01
      6.20289862e-01 4.48801756e-01 6.05797112e-01 4.94553387e-01
      6.17391348e-01 5.44662297e-01 6.14492774e-01 6.49237454e-01
      6.37681186e-01 5.46840966e-01 6.57971025e-01 4.94553387e-01
      6.63768172e-01 4.46623087e-01 6.49275422e-01</_>
    <_>
      0. 0. 1.88679248e-02 1.76795587e-01 4.40251566e-02 3.48066300e-01
      7.54716992e-02 5.11049747e-01 1.21593289e-01 6.60220981e-01
      1.94968551e-01 7.95580089e-01 2.93501049e-01 9.06077325e-01
      4.08805043e-01 9.83425438e-01 5.36687613e-01 1. 6.62473798e-01
      9.75138128e-01 7.65199184e-01 8.86740327e-01 8.55345905e-01
      7.73480654e-01 9.16142583e-01 6.27071798e-01 9.53878403e-01
      4.72375691e-01 9.74842787e-01 3.12154710e-01 9.93710697e-01
      1.51933700e-01 1. -1.38121545e-02 9.01467502e-02 -1.21546961e-01
      1.55136272e-01 -2.12707177e-01 2.51572341e-01 -2.45856360e-01
      3.50104809e-01 -2.29281768e-01 4.48637307e-01 -1.85082868e-01
      6.16352201e-01 -1.79558009e-01 7.04402506e-01 -2.23756909e-01
      7.96645701e-01 -2.43093923e-01 8.86792481e-01 -2.18232051e-01
      9.41299796e-01 -1.27071828e-01 5.34591198e-01 -3.59116010e-02
      5.34591198e-01 7.18232021e-02 5.36687613e-01 1.82320446e-01
      5.40880501e-01 2.95580119e-01 4.52830195e-01 3.95027637e-01
      4.92662460e-01 4.08839792e-01 5.38784087e-01 4.22651947e-01
      5.80712795e-01 4.11602199e-01 6.22641504e-01 3.95027637e-01
      2.13836476e-01 -1.10497242e-02 2.68343806e-01 -6.35359138e-02
      3.37526202e-01 -6.62983432e-02 3.98322850e-01 0. 3.35429758e-01
      1.93370171e-02 2.66247392e-01 2.20994484e-02 6.62473798e-01 0.
      7.12788284e-01 -6.35359138e-02 7.79874206e-01 -6.35359138e-02
      8.34381580e-01 -1.10497242e-02 7.84067094e-01 2.20994484e-02
      7.16981113e-01 1.93370171e-02 3.83647799e-01 6.32596672e-01
      4.36058700e-01 5.52486181e-01 5.01048207e-01 5.05524874e-01
      5.45073390e-01 5.22099435e-01 5.84905684e-01 5.02762437e-01
      6.43605888e-01 5.52486181e-01 6.93920314e-01 6.35359108e-01
      6.47798717e-01 6.98895037e-01 5.93291402e-01 7.29281783e-01
      5.45073390e-01 7.32044220e-01 4.96855348e-01 7.26519346e-01
      4.33962256e-01 6.93370163e-01 4.17190790e-01 6.24309421e-01
      4.98951793e-01 5.85635364e-01 5.45073390e-01 5.93922675e-01
      5.84905684e-01 5.88397801e-01 6.64570212e-01 6.24309421e-01
      5.89098513e-01 6.18784547e-01 5.45073390e-01 6.27071798e-01
      4.98951793e-01 6.16022110e-01</_>
    <_>
      0. 0. 1.75000001e-02 1.72413811e-01 4.50000018e-02 3.44827503e-01
      7.00000003e-02 5.10344803e-01 1.09999999e-01 6.68965459e-01
      1.80000007e-01 7.99999952e-01 2.75000006e-01 9.03448284e-01
      3.79999995e-01 9.82758641e-01 5.00000000e-01 1. 6.20000005e-01
      9.65517223e-01 7.32500017e-01 8.82758617e-01 8.39999974e-01
      7.75862038e-01 9.12500024e-01 6.37930989e-01 9.49999988e-01
      4.79310304e-01 9.67499971e-01 3.06896478e-01 9.87500012e-01
      1.34482771e-01 1. -4.48275916e-02 6.25000000e-02 -1.06896564e-01
      1.25000000e-01 -2.06896573e-01 2.22499996e-01 -2.37931058e-01
      3.24999988e-01 -2.17241406e-01 4.25000012e-01 -1.72413811e-01
      5.24999976e-01 -1.89655200e-01 6.27499998e-01 -2.34482780e-01
      7.35000014e-01 -2.51724154e-01 8.39999974e-01 -2.10344851e-01
      9.07500029e-01 -1.13793112e-01 4.82499987e-01 -8.62069055e-02
      4.85000014e-01 0. 4.85000014e-01 8.27586278e-02 4.87500012e-01
      1.72413811e-01 4.02500004e-01 3.20689589e-01 4.44999993e-01
      3.27586144e-01 4.87500012e-01 3.34482700e-01 5.27499974e-01
      3.27586144e-01 5.67499995e-01 3.20689589e-01 1.85000002e-01
      -4.48275916e-02 2.39999995e-01 -1.00000009e-01 3.07500005e-01
      -1.03448287e-01 3.65000010e-01 -4.13793139e-02 3.05000007e-01
      -2.06896570e-02 2.37499997e-01 -1.37931053e-02 6.05000019e-01
      -4.48275916e-02 6.62500024e-01 -1.10344842e-01 7.32500017e-01
      -1.03448287e-01 7.87500024e-01 -4.13793139e-02 7.32500017e-01
      -1.72413811e-02 6.67500019e-01 -2.06896570e-02 3.22499990e-01
      5.82758605e-01 3.77499998e-01 5.06896496e-01 4.44999993e-01
      4.72413749e-01 4.85000014e-01 4.89655107e-01 5.27499974e-01
      4.72413749e-01 5.89999974e-01 5.06896496e-01 6.47499979e-01
      5.86206853e-01 5.87499976e-01 6.41379297e-01 5.29999971e-01
      6.68965459e-01 4.82499987e-01 6.75862014e-01 4.37500000e-01
      6.72413766e-01 3.72500002e-01 6.51724100e-01 3.52499992e-01
      5.72413743e-01 4.42499995e-01 5.31034410e-01 4.85000014e-01
      5.37930965e-01 5.29999971e-01 5.31034410e-01 6.12500012e-01
      5.79310298e-01 5.24999976e-01 5.86206853e-01 4.82499987e-01
      5.96551657e-01 4.39999998e-01 5.89655101e-01</_>
    <_>
      0. 0. 1.47058824e-02 1.75257668e-01 4.20168079e-02 3.45360786e-01
      7.14285746e-02 5.05154610e-01 1.21848740e-01 6.59793794e-01
      1.93277314e-01 7.93814421e-01 2.83613443e-01 9.04639184e-01
      3.94957989e-01 9.76804137e-01 5.18907547e-01 1. 6.42857134e-01
      9.69072163e-01 7.54201710e-01 8.81443262e-01 8.46638680e-01
      7.60309279e-01 9.09663856e-01 6.18556678e-01 9.51680660e-01
      4.61340159e-01 9.72689092e-01 3.01546335e-01 9.91596639e-01
      1.39175266e-01 1. -2.57731974e-02 8.19327757e-02 -1.21134028e-01
      1.44957989e-01 -1.98453620e-01 2.37394959e-01 -2.24226817e-01
      3.38235289e-01 -2.11340219e-01 4.30672258e-01 -1.67525783e-01
      5.54621875e-01 -1.62371144e-01 6.42857134e-01 -1.95876300e-01
      7.35294104e-01 -2.08762899e-01 8.25630248e-01 -1.95876300e-01
      8.88655484e-01 -1.34020627e-01 5.04201710e-01 -6.44329935e-02
      5.08403361e-01 2.83505172e-02 5.14705896e-01 1.21134028e-01
      5.21008432e-01 2.19072104e-01 4.32773113e-01 3.14432949e-01
      4.74789917e-01 3.24742228e-01 5.16806722e-01 3.32474172e-01
      5.56722701e-01 3.24742228e-01 5.92436969e-01 3.09278309e-01
      1.91176474e-01 -2.83505172e-02 2.45798320e-01 -6.95876330e-02
      3.15126061e-01 -7.47422725e-02 3.76050413e-01 -3.09278369e-02
      3.17226887e-01 -7.73195922e-03 2.47899160e-01 0. 6.13445401e-01
      -2.83505172e-02 6.72268927e-01 -7.21649528e-02 7.39495814e-01
      -6.44329935e-02 7.94117630e-01 -2.83505172e-02 7.41596639e-01 0.
      6.76470578e-01 -5.15463948e-03 3.57142866e-01 6.00515425e-01
      4.03361350e-01 4.97422636e-01 4.72689062e-01 4.40721601e-01
      5.10504186e-01 4.56185520e-01 5.52520990e-01 4.38144296e-01
      6.13445401e-01 4.89690691e-01 6.47058845e-01 5.95360816e-01
      6.11344516e-01 6.67525768e-01 5.56722701e-01 7.01030910e-01
      5.10504186e-01 7.06185520e-01 4.68487382e-01 7.01030910e-01
      4.05462176e-01 6.70103073e-01 3.84453773e-01 5.90206146e-01
      4.72689062e-01 5.20618498e-01 5.10504186e-01 5.23195863e-01
      5.52520990e-01 5.18041193e-01 6.19747877e-01 5.85051537e-01
      5.50420165e-01 6.08247399e-01 5.08403361e-01 6.15979373e-01
      4.70588237e-01 6.10824704e-01</_>
    <_>
      0. 0. 3.91791053e-02 1.92073166e-01 8.58208984e-02 3.75000000e-01
      1.28731340e-01 5.54878056e-01 1.75373137e-01 7.28658557e-01
      2.55597025e-01 8.65853667e-01 3.60074639e-01 9.54268277e-01
      4.86940295e-01 1. 6.28731370e-01 9.75609779e-01 7.63059676e-01
      9.26829278e-01 8.60074639e-01 8.26219499e-01 9.40298498e-01
      7.04268277e-01 9.88805950e-01 5.36585391e-01 1. 3.38414639e-01
      9.98134315e-01 1.34146348e-01 1. -6.70731738e-02 9.90671635e-01
      -2.68292695e-01 6.52985051e-02 -1.12804875e-01 1.04477614e-01
      -2.56097555e-01 1.90298513e-01 -3.35365862e-01 2.87313432e-01
      -3.38414639e-01 3.84328365e-01 -3.01829278e-01 5.18656731e-01
      -3.32317084e-01 6.00746274e-01 -4.20731694e-01 6.95895493e-01
      -4.72560972e-01 7.89179087e-01 -4.54268306e-01 8.56343269e-01
      -3.53658527e-01 4.60820884e-01 -2.34756097e-01 4.75746274e-01
      -1.15853660e-01 4.90671635e-01 6.09756075e-03 5.07462680e-01
      1.31097555e-01 4.29104477e-01 2.62195110e-01 4.77611929e-01
      2.68292695e-01 5.31716406e-01 2.71341473e-01 5.83955228e-01
      2.31707320e-01 6.30596995e-01 1.95121944e-01 1.71641797e-01
      -6.09756112e-02 2.18283579e-01 -1.00609757e-01 2.81716406e-01
      -1.31097555e-01 3.50746274e-01 -1.28048778e-01 2.92910457e-01
      -7.31707290e-02 2.29477614e-01 -4.57317084e-02 5.98880589e-01
      -2.01219514e-01 6.54850721e-01 -2.37804875e-01 7.18283594e-01
      -2.46951222e-01 7.77985096e-01 -2.37804875e-01 7.29477584e-01
      -1.92073166e-01 6.64179087e-01 -1.82926834e-01 3.89925361e-01
      5.91463387e-01 4.49626863e-01 4.75609750e-01 5.13059676e-01
      4.05487806e-01 5.61567187e-01 4.11585361e-01 6.11940324e-01
      3.75000000e-01 6.86567187e-01 3.99390250e-01 7.53731370e-01
      4.81707305e-01 7.03358233e-01 5.39634168e-01 6.39925361e-01
      5.73170722e-01 5.89552224e-01 5.94512224e-01 5.39179087e-01
      6.09756112e-01 4.68283594e-01 6.28048778e-01 4.19776112e-01
      5.73170722e-01 5.20522416e-01 4.75609750e-01 5.69029868e-01
      4.66463417e-01 6.19403005e-01 4.42073166e-01 7.25746274e-01
      4.81707305e-01 6.25000000e-01 4.78658527e-01 5.76492548e-01
      5.00000000e-01 5.26119411e-01 5.09146333e-01</_>
    <_>
      0. 0. 1.07758623e-02 1.66666597e-01 3.01724132e-02 3.38709623e-01
      6.03448264e-02 5.08064449e-01 1.09913796e-01 6.58602118e-01
      1.72413796e-01 7.98387051e-01 2.58620679e-01 9.13978517e-01
      3.72844815e-01 9.78494644e-01 5.08620679e-01 1. 6.48706913e-01
      9.65053737e-01 7.67241359e-01 8.87096763e-01 8.64224136e-01
      7.68817186e-01 9.22413766e-01 6.23655856e-01 9.63362098e-01
      4.73118246e-01 9.89224136e-01 3.01075220e-01 1. 1.26344100e-01
      9.97844815e-01 -4.56989296e-02 4.95689660e-02 -1.93548396e-01
      9.26724151e-02 -2.98387110e-01 1.81034476e-01 -3.41397882e-01
      2.75862068e-01 -3.27957004e-01 3.68534476e-01 -2.79569924e-01
      5.66810369e-01 -2.79569924e-01 6.53017223e-01 -3.36021543e-01
      7.52155185e-01 -3.57526898e-01 8.40517223e-01 -3.19892496e-01
      9.03017223e-01 -2.28494644e-01 4.67672408e-01 -1.02150545e-01
      4.67672408e-01 -8.06451682e-03 4.67672408e-01 8.60215127e-02
      4.65517253e-01 1.82795629e-01 3.98706883e-01 3.19892406e-01
      4.33189660e-01 3.33333284e-01 4.74137932e-01 3.41397792e-01
      5.19396544e-01 3.30645114e-01 5.58189631e-01 3.11827898e-01
      1.61637932e-01 -3.22580673e-02 2.11206898e-01 -8.06451663e-02
      2.82327592e-01 -8.60215127e-02 3.51293117e-01 -3.22580673e-02
      2.82327592e-01 5.37634455e-03 2.09051728e-01 1.07526891e-02
      6.03448272e-01 -4.30107564e-02 6.70258641e-01 -1.02150545e-01
      7.43534505e-01 -1.02150545e-01 7.97413766e-01 -5.64516187e-02
      7.45689631e-01 -8.06451682e-03 6.70258641e-01 -8.06451682e-03
      3.16810340e-01 5.88709652e-01 3.75000000e-01 5.10752618e-01
      4.31034476e-01 4.70430076e-01 4.78448272e-01 4.86559093e-01
      5.21551728e-01 4.73118246e-01 5.84051728e-01 5.05376279e-01
      6.61637902e-01 5.80645144e-01 5.90517223e-01 6.10215008e-01
      5.30172408e-01 6.23655856e-01 4.84913796e-01 6.26344085e-01
      4.35344815e-01 6.23655856e-01 3.81465524e-01 6.12903178e-01
      3.49137932e-01 5.72580636e-01 4.33189660e-01 5.32258034e-01
      4.78448272e-01 5.34946203e-01 5.23706913e-01 5.29569864e-01
      6.27155185e-01 5.69892466e-01 5.23706913e-01 5.37634373e-01
      4.80603456e-01 5.45698881e-01 4.35344815e-01 5.37634373e-01</_>
    <_>
      0. 0. 1.91082805e-02 1.80327877e-01 5.52016981e-02 3.52458954e-01
      8.28025490e-02 5.21857858e-01 1.25265390e-01 6.85792327e-01
      1.95329085e-01 8.22404385e-01 2.90870488e-01 9.20765042e-01
      4.05520171e-01 9.89071012e-01 5.32908678e-01 1. 6.56050980e-01
      9.72677588e-01 7.53715515e-01 8.87978137e-01 8.40764344e-01
      7.81420767e-01 8.91719759e-01 6.42076492e-01 9.23566878e-01
      4.91803229e-01 9.51167703e-01 3.30601037e-01 9.83014882e-01
      1.72131166e-01 1. 0. 8.49256888e-02 -7.37705007e-02 1.54989392e-01
      -1.33879796e-01 2.48407647e-01 -1.53005481e-01 3.41825902e-01
      -1.25683069e-01 4.33121026e-01 -8.46994594e-02 6.36942685e-01
      -9.56284255e-02 7.23991513e-01 -1.36612028e-01 8.08917224e-01
      -1.66666687e-01 8.91719759e-01 -1.42076507e-01 9.49044585e-01
      -7.65027404e-02 5.30785561e-01 1.91256851e-02 5.30785561e-01
      1.36612028e-01 5.30785561e-01 2.56830543e-01 5.32908678e-01
      3.77049118e-01 4.37367290e-01 4.37158436e-01 4.81953293e-01
      4.56284106e-01 5.30785561e-01 4.72677559e-01 5.79617858e-01
      4.53551859e-01 6.22080684e-01 4.37158436e-01 1.95329085e-01
      3.55191268e-02 2.54777074e-01 -8.19672178e-03 3.29087049e-01
      -8.19672178e-03 3.88535023e-01 5.19125722e-02 3.24840754e-01
      7.65027404e-02 2.50530779e-01 7.92349800e-02 6.64543509e-01
      5.73770553e-02 7.26114631e-01 -5.46448119e-03 7.96178341e-01
      -5.46448119e-03 8.47133756e-01 4.09836099e-02 8.00424635e-01
      8.19672197e-02 7.28237808e-01 8.19672197e-02 3.69426757e-01
      7.51366079e-01 4.26751584e-01 6.58469915e-01 4.90445852e-01
      6.09289587e-01 5.30785561e-01 6.28415287e-01 5.71125269e-01
      6.06557369e-01 6.32696390e-01 6.53005421e-01 6.81528687e-01
